%YAML:1.0
mysvm: !!opencv-ml-svm
   svm_type: C_SVC
   kernel: { type:RBF, gamma:1.5000000000000001e-04 }
   C: 5.0000000000000000e-01
   term_criteria: { epsilon:9.9999999747524271e-07, iterations:1000 }
   var_all: 3
   var_count: 3
   class_count: 2
   class_labels: !!opencv-matrix
      rows: 1
      cols: 2
      dt: i
      data: [ 0, 1 ]
   sv_total: 2000
   support_vectors:
      - [ 1.56526208e+00, 4.00885254e-01, 3.42359424e+00 ]
      - [ 1.65326178e+00, 2.95487612e-01, 5.13313675e+00 ]
      - [ 1.64658248e+00, 3.58127534e-01, 3.82170010e+00 ]
      - [ 1.58056474e+00, 3.65215898e-01, 3.71844697e+00 ]
      - [ 2.27194619e+00, 3.89472395e-01, 3.50207567e+00 ]
      - [ 2.25783348e+00, 3.21013331e-01, 4.46374083e+00 ]
      - [ 2.75114155e+00, 3.94264787e-01, 3.50661993e+00 ]
      - [ 1.57156742e+00, 3.79029751e-01, 3.70947433e+00 ]
      - [ 1.50153685e+00, 3.15117717e-01, 4.67283249e+00 ]
      - [ 1.85492754e+00, 4.21512961e-01, 3.23343539e+00 ]
      - [ 1.87520289e+00, 4.34346259e-01, 3.21589279e+00 ]
      - [ 1.65887427e+00, 3.21594298e-01, 4.38273287e+00 ]
      - [ 1.57588816e+00, 3.82787257e-01, 3.53465629e+00 ]
      - [ 2.62248230e+00, 4.42625731e-01, 3.19698429e+00 ]
      - [ 1.57783866e+00, 3.55458081e-01, 3.99528718e+00 ]
      - [ 2.30998731e+00, 3.38236183e-01, 4.30479050e+00 ]
      - [ 1.60245538e+00, 3.50009888e-01, 3.90619969e+00 ]
      - [ 2.13526368e+00, 4.41815943e-01, 3.22315478e+00 ]
      - [ 1.77987850e+00, 3.31397712e-01, 4.09614468e+00 ]
      - [ 4.65155458e+00, 3.88786703e-01, 3.68926406e+00 ]
      - [ 1.64214802e+00, 3.67085516e-01, 3.67659521e+00 ]
      - [ 2.81724906e+00, 3.91783744e-01, 3.51666808e+00 ]
      - [ 2.19663572e+00, 5.03220439e-01, 2.96780777e+00 ]
      - [ 2.00400949e+00, 4.41474527e-01, 3.12333894e+00 ]
      - [ 1.84286118e+00, 4.13883507e-01, 3.31119609e+00 ]
      - [ 2.31078720e+00, 4.10817236e-01, 3.39178014e+00 ]
      - [ 2.27622962e+00, 4.09194559e-01, 3.35330391e+00 ]
      - [ 1.94191575e+00, 3.17760199e-01, 4.32927322e+00 ]
      - [ 2.77155995e+00, 3.67034554e-01, 3.76108766e+00 ]
      - [ 1.87540472e+00, 4.18504089e-01, 3.32615376e+00 ]
      - [ 1.88755143e+00, 3.75441879e-01, 3.54480934e+00 ]
      - [ 1.72686720e+00, 3.66478056e-01, 3.67352176e+00 ]
      - [ 1.57646966e+00, 3.69893700e-01, 3.76756716e+00 ]
      - [ 1.77612877e+00, 3.23704898e-01, 4.29416466e+00 ]
      - [ 1.53284669e+00, 3.71150553e-01, 3.74086928e+00 ]
      - [ 2.50063992e+00, 4.55195934e-01, 3.25229383e+00 ]
      - [ 1.65199757e+00, 3.71904522e-01, 3.64841676e+00 ]
      - [ 1.57056928e+00, 3.41365069e-01, 4.10571241e+00 ]
      - [ 1.60211766e+00, 3.66757125e-01, 3.64418244e+00 ]
      - [ 2.37974858e+00, 3.05789620e-01, 4.64404345e+00 ]
      - [ 2.89312649e+00, 3.89747202e-01, 3.49968839e+00 ]
      - [ 2.26124930e+00, 4.23480064e-01, 3.30185413e+00 ]
      - [ 2.01347947e+00, 4.05600578e-01, 3.34277320e+00 ]
      - [ 1.59397984e+00, 4.65925545e-01, 3.21919203e+00 ]
      - [ 1.58248830e+00, 3.92412186e-01, 3.50025702e+00 ]
      - [ 1.69245279e+00, 3.66836131e-01, 3.65318942e+00 ]
      - [ 1.28339159e+00, 2.68411815e-01, 5.71873951e+00 ]
      - [ 1.62161970e+00, 3.85095745e-01, 3.60815024e+00 ]
      - [ 1.78783083e+00, 3.77964199e-01, 3.49104571e+00 ]
      - [ 1.89431930e+00, 4.30772841e-01, 3.12410569e+00 ]
      - [ 1.66753972e+00, 2.90242702e-01, 5.14386511e+00 ]
      - [ 1.54364800e+00, 3.43469530e-01, 4.05936289e+00 ]
      - [ 9.39155936e-01, 3.35409015e-01, 4.08610868e+00 ]
      - [ 2.14042926e+00, 3.26625019e-01, 4.16370296e+00 ]
      - [ 1.62976754e+00, 3.47299159e-01, 3.97533393e+00 ]
      - [ 1.88819039e+00, 3.31199735e-01, 4.04198074e+00 ]
      - [ 2.28948998e+00, 3.56796503e-01, 3.81116748e+00 ]
      - [ 2.17981410e+00, 4.37895417e-01, 3.26270556e+00 ]
      - [ 1.54668915e+00, 3.15304577e-01, 4.56533766e+00 ]
      - [ 2.93583655e+00, 3.81879658e-01, 3.90760064e+00 ]
      - [ 1.69787014e+00, 3.55289489e-01, 3.78452444e+00 ]
      - [ 1.97794449e+00, 4.22375023e-01, 3.22475576e+00 ]
      - [ 2.44812107e+00, 4.10506397e-01, 3.43412852e+00 ]
      - [ 1.83904016e+00, 3.26150537e-01, 4.20247269e+00 ]
      - [ 1.96747482e+00, 4.16297704e-01, 3.33177948e+00 ]
      - [ 2.18011689e+00, 4.24802303e-01, 3.30407548e+00 ]
      - [ 1.65348184e+00, 3.65693271e-01, 3.70681047e+00 ]
      - [ 1.72259426e+00, 4.57225204e-01, 3.02227354e+00 ]
      - [ 1.81543887e+00, 3.74141455e-01, 3.56777740e+00 ]
      - [ 1.55377567e+00, 3.15195084e-01, 4.24651337e+00 ]
      - [ 4.43917847e+00, 4.21531945e-01, 3.39179778e+00 ]
      - [ 2.61631703e+00, 3.29101324e-01, 4.43810749e+00 ]
      - [ 2.05140018e+00, 3.12968075e-01, 4.81428385e+00 ]
      - [ 2.98407054e+00, 3.80230844e-01, 3.62771773e+00 ]
      - [ 1.70205224e+00, 4.27624941e-01, 3.32014751e+00 ]
      - [ 2.67312717e+00, 2.47652113e-01, 5.73854733e+00 ]
      - [ 2.55518270e+00, 4.12537962e-01, 3.29814506e+00 ]
      - [ 2.01902723e+00, 3.22371960e-01, 4.60026073e+00 ]
      - [ 1.33885872e+00, 3.70647132e-01, 3.75635242e+00 ]
      - [ 1.61330581e+00, 3.61062944e-01, 3.85304856e+00 ]
      - [ 1.68491149e+00, 3.67806792e-01, 3.62852859e+00 ]
      - [ 1.65320778e+00, 3.66415590e-01, 3.68807220e+00 ]
      - [ 2.29111767e+00, 3.46569598e-01, 3.96557522e+00 ]
      - [ 2.37294483e+00, 3.73139441e-01, 3.62020111e+00 ]
      - [ 2.01833200e+00, 3.90568793e-01, 3.39655352e+00 ]
      - [ 3.11701202e+00, 3.73485774e-01, 3.79282355e+00 ]
      - [ 1.86668336e+00, 4.25336808e-01, 3.24547005e+00 ]
      - [ 1.60412598e+00, 3.80519331e-01, 3.50744414e+00 ]
      - [ 1.66311145e+00, 3.65714014e-01, 3.65545559e+00 ]
      - [ 2.33931017e+00, 3.33995521e-01, 4.06726599e+00 ]
      - [ 2.36291838e+00, 3.49179000e-01, 3.83267903e+00 ]
      - [ 2.33003259e+00, 3.98143888e-01, 3.42044020e+00 ]
      - [ 2.25120878e+00, 2.95639515e-01, 4.69250822e+00 ]
      - [ 2.32849979e+00, 4.00756210e-01, 3.45628023e+00 ]
      - [ 1.74031866e+00, 4.19312805e-01, 3.28424668e+00 ]
      - [ 1.89142096e+00, 4.15111721e-01, 3.28752303e+00 ]
      - [ 1.67141080e+00, 3.61714721e-01, 3.75568891e+00 ]
      - [ 3.00388145e+00, 3.75893593e-01, 3.78043795e+00 ]
      - [ 2.13369894e+00, 3.03140819e-01, 4.75544977e+00 ]
      - [ 3.23814726e+00, 4.21995401e-01, 3.34913421e+00 ]
      - [ 1.63120985e+00, 3.47147107e-01, 3.99677849e+00 ]
      - [ 2.08015275e+00, 4.87436384e-01, 3.13953185e+00 ]
      - [ 1.64386010e+00, 3.78190666e-01, 3.61654258e+00 ]
      - [ 2.00332713e+00, 4.05540705e-01, 3.38318157e+00 ]
      - [ 1.38588583e+00, 4.10527855e-01, 3.49290919e+00 ]
      - [ 1.68476248e+00, 4.11849916e-01, 3.36948395e+00 ]
      - [ 1.54633760e+00, 3.71881992e-01, 3.80108404e+00 ]
      - [ 1.79195237e+00, 3.95947486e-01, 3.35764980e+00 ]
      - [ 1.79908419e+00, 3.18959862e-01, 4.48147011e+00 ]
      - [ 1.70880044e+00, 4.06122059e-01, 3.39803243e+00 ]
      - [ 2.05365992e+00, 2.69185603e-01, 5.45042038e+00 ]
      - [ 1.72517335e+00, 3.81221354e-01, 3.53522921e+00 ]
      - [ 1.64012313e+00, 3.25510532e-01, 4.29518175e+00 ]
      - [ 1.71176052e+00, 3.28478158e-01, 4.40576935e+00 ]
      - [ 1.58413732e+00, 3.49269211e-01, 3.97233224e+00 ]
      - [ 2.02782178e+00, 3.27894866e-01, 4.12218904e+00 ]
      - [ 3.67367935e+00, 4.25260514e-01, 3.40558267e+00 ]
      - [ 2.39981008e+00, 3.80930692e-01, 3.60370064e+00 ]
      - [ 4.33169842e+00, 2.95558065e-01, 4.92279911e+00 ]
      - [ 1.95837903e+00, 2.73100823e-01, 5.44687319e+00 ]
      - [ 2.23460770e+00, 4.10190821e-01, 3.33245635e+00 ]
      - [ 1.66215253e+00, 4.03327346e-01, 3.39356518e+00 ]
      - [ 2.16318345e+00, 4.05228645e-01, 3.36843753e+00 ]
      - [ 1.47581470e+00, 3.29706550e-01, 4.31824398e+00 ]
      - [ 1.72854567e+00, 3.34020555e-01, 4.00805521e+00 ]
      - [ 2.52970123e+00, 4.01049405e-01, 3.43156171e+00 ]
      - [ 1.82937300e+00, 3.32020104e-01, 4.14800549e+00 ]
      - [ 1.60447598e+00, 3.36585820e-01, 4.10198879e+00 ]
      - [ 2.19850779e+00, 4.01071519e-01, 3.43638873e+00 ]
      - [ 1.62340271e+00, 3.32798004e-01, 4.29563951e+00 ]
      - [ 2.07855034e+00, 3.75185341e-01, 3.54925942e+00 ]
      - [ 1.59378195e+00, 3.26997370e-01, 4.34131336e+00 ]
      - [ 1.61207330e+00, 3.66560847e-01, 3.77483320e+00 ]
      - [ 1.78815532e+00, 3.08483809e-01, 4.60805368e+00 ]
      - [ 1.56058550e+00, 3.63784760e-01, 3.92033291e+00 ]
      - [ 2.14457583e+00, 4.15926397e-01, 3.29174829e+00 ]
      - [ 2.00834370e+00, 3.93248230e-01, 3.42758131e+00 ]
      - [ 1.65116334e+00, 3.57456446e-01, 3.84123850e+00 ]
      - [ 1.64734817e+00, 3.61577570e-01, 3.81151795e+00 ]
      - [ 1.75280595e+00, 3.04247469e-01, 4.51629972e+00 ]
      - [ 2.16540647e+00, 4.03467894e-01, 3.39022326e+00 ]
      - [ 1.70986283e+00, 3.83825272e-01, 3.52271938e+00 ]
      - [ 2.33279443e+00, 4.74819481e-01, 3.11732507e+00 ]
      - [ 1.53291631e+00, 3.10991585e-01, 4.54014206e+00 ]
      - [ 2.28624439e+00, 3.24991822e-01, 4.67533827e+00 ]
      - [ 1.82067728e+00, 3.21908146e-01, 4.15850306e+00 ]
      - [ 2.23937798e+00, 4.06950980e-01, 3.37835217e+00 ]
      - [ 2.49726176e+00, 4.17961359e-01, 3.23945594e+00 ]
      - [ 2.79403043e+00, 3.50004613e-01, 3.93533397e+00 ]
      - [ 1.51800919e+00, 3.57662648e-01, 3.92081666e+00 ]
      - [ 1.37718749e+00, 3.44302297e-01, 4.01225090e+00 ]
      - [ 1.53547919e+00, 3.57900113e-01, 3.93584585e+00 ]
      - [ 1.76011336e+00, 4.24856752e-01, 3.32450938e+00 ]
      - [ 1.98472595e+00, 4.86302644e-01, 3.07661700e+00 ]
      - [ 2.07669163e+00, 4.43111092e-01, 3.26170492e+00 ]
      - [ 1.88197410e+00, 4.34732765e-01, 3.22886395e+00 ]
      - [ 1.82301486e+00, 4.05258387e-01, 3.34317112e+00 ]
      - [ 1.59311032e+00, 3.49289328e-01, 3.89159346e+00 ]
      - [ 1.57274246e+00, 3.62738431e-01, 3.79306722e+00 ]
      - [ 2.38135934e+00, 3.92421693e-01, 3.53049564e+00 ]
      - [ 1.67011964e+00, 2.71867841e-01, 5.79232645e+00 ]
      - [ 2.56606269e+00, 3.68861347e-01, 3.74757695e+00 ]
      - [ 1.65152836e+00, 4.22734797e-01, 3.35381579e+00 ]
      - [ 1.85525310e+00, 3.22221786e-01, 4.34643221e+00 ]
      - [ 2.31766915e+00, 3.03866833e-01, 4.66096115e+00 ]
      - [ 1.64782953e+00, 3.37962508e-01, 4.15471888e+00 ]
      - [ 1.75881958e+00, 4.39729869e-01, 3.13104558e+00 ]
      - [ 1.65433443e+00, 2.98734576e-01, 4.65561342e+00 ]
      - [ 2.02776289e+00, 4.45939869e-01, 3.13231587e+00 ]
      - [ 2.13186359e+00, 4.14286852e-01, 3.33369613e+00 ]
      - [ 2.69169354e+00, 4.47474629e-01, 3.24155688e+00 ]
      - [ 1.92906749e+00, 4.46545094e-01, 3.24482751e+00 ]
      - [ 1.58827305e+00, 4.16435957e-01, 3.40989852e+00 ]
      - [ 1.80174255e+00, 4.17121828e-01, 3.32570362e+00 ]
      - [ 3.12705636e+00, 4.02437687e-01, 3.57101274e+00 ]
      - [ 1.72735679e+00, 3.30312878e-01, 4.32460022e+00 ]
      - [ 1.24924004e+00, 3.35424840e-01, 4.03118896e+00 ]
      - [ 2.25775099e+00, 3.84886861e-01, 3.51956367e+00 ]
      - [ 2.32142329e+00, 3.97854805e-01, 3.44436407e+00 ]
      - [ 2.32161498e+00, 3.46381217e-01, 3.96876025e+00 ]
      - [ 1.69556868e+00, 4.27070230e-01, 3.32064772e+00 ]
      - [ 1.65538180e+00, 3.73848468e-01, 3.58716512e+00 ]
      - [ 1.51054823e+00, 3.37253302e-01, 4.02470779e+00 ]
      - [ 3.67273045e+00, 3.83989692e-01, 3.57939076e+00 ]
      - [ 1.75316072e+00, 4.16018069e-01, 3.31777287e+00 ]
      - [ 1.86167765e+00, 3.05476367e-01, 5.19070625e+00 ]
      - [ 2.17516041e+00, 3.46764654e-01, 3.88594723e+00 ]
      - [ 2.00844884e+00, 4.69974607e-01, 3.10204172e+00 ]
      - [ 1.63061774e+00, 3.44427496e-01, 4.06046200e+00 ]
      - [ 1.74470782e+00, 3.91407937e-01, 3.40350580e+00 ]
      - [ 1.94243324e+00, 3.24921101e-01, 4.33735895e+00 ]
      - [ 1.92876351e+00, 4.03768539e-01, 3.32558131e+00 ]
      - [ 1.71682680e+00, 3.94512177e-01, 3.46684170e+00 ]
      - [ 2.06833720e+00, 4.14424151e-01, 3.31156325e+00 ]
      - [ 1.47949100e+00, 3.50923806e-01, 4.17517281e+00 ]
      - [ 2.69914556e+00, 3.60173315e-01, 3.89631462e+00 ]
      - [ 1.90081072e+00, 3.15006405e-01, 4.70774317e+00 ]
      - [ 1.81292260e+00, 4.49616253e-01, 3.10330558e+00 ]
      - [ 1.93980777e+00, 3.58594179e-01, 3.71663809e+00 ]
      - [ 1.62062359e+00, 3.45805585e-01, 3.97891283e+00 ]
      - [ 1.81855619e+00, 3.95856321e-01, 3.40819716e+00 ]
      - [ 2.48339128e+00, 3.81534785e-01, 3.64428663e+00 ]
      - [ 1.60690892e+00, 3.18916172e-01, 4.30400753e+00 ]
      - [ 2.48510742e+00, 3.70819807e-01, 3.68289971e+00 ]
      - [ 1.56126511e+00, 4.11495298e-01, 3.50964475e+00 ]
      - [ 1.56401896e+00, 3.63558263e-01, 3.73378968e+00 ]
      - [ 1.96490669e+00, 4.29409921e-01, 3.23420191e+00 ]
      - [ 1.65278745e+00, 3.57278347e-01, 3.80949116e+00 ]
      - [ 1.56780410e+00, 4.29368913e-01, 3.31025934e+00 ]
      - [ 1.96314859e+00, 4.58663613e-01, 3.13171411e+00 ]
      - [ 1.60174251e+00, 3.37588847e-01, 4.24970675e+00 ]
      - [ 2.02363563e+00, 4.39019740e-01, 3.16675639e+00 ]
      - [ 2.17438674e+00, 4.19565260e-01, 3.23122597e+00 ]
      - [ 2.52661276e+00, 4.11495596e-01, 3.35196996e+00 ]
      - [ 1.68554890e+00, 4.27853346e-01, 3.19814491e+00 ]
      - [ 2.07770348e+00, 3.83136362e-01, 3.49990201e+00 ]
      - [ 5.09131145e+00, 4.23429579e-01, 3.40724039e+00 ]
      - [ 1.51717532e+00, 3.56517464e-01, 3.92563939e+00 ]
      - [ 1.84971905e+00, 4.21048313e-01, 3.29275107e+00 ]
      - [ 1.78127766e+00, 2.78228164e-01, 5.23457193e+00 ]
      - [ 1.70051336e+00, 3.49368423e-01, 3.87415314e+00 ]
      - [ 2.02097869e+00, 4.15209770e-01, 3.33274627e+00 ]
      - [ 2.12761116e+00, 4.25907820e-01, 3.28617191e+00 ]
      - [ 2.18158197e+00, 3.13783377e-01, 4.45511246e+00 ]
      - [ 2.24386764e+00, 4.15522695e-01, 3.30761027e+00 ]
      - [ 2.31689262e+00, 5.12608051e-01, 3.03329587e+00 ]
      - [ 2.08772326e+00, 3.21747631e-01, 4.46452332e+00 ]
      - [ 1.56295025e+00, 3.46937090e-01, 3.92976475e+00 ]
      - [ 1.73076701e+00, 3.38334054e-01, 4.02461338e+00 ]
      - [ 2.26057076e+00, 4.75790203e-01, 3.12466621e+00 ]
      - [ 2.79032540e+00, 4.41766083e-01, 3.15438628e+00 ]
      - [ 1.86514771e+00, 4.49262917e-01, 3.23154831e+00 ]
      - [ 1.53289819e+00, 3.62100273e-01, 3.93193150e+00 ]
      - [ 1.57114649e+00, 3.05007666e-01, 4.78405476e+00 ]
      - [ 1.94484782e+00, 4.39128667e-01, 3.16240931e+00 ]
      - [ 1.57685578e+00, 3.13452065e-01, 4.43369389e+00 ]
      - [ 1.62634885e+00, 3.63159597e-01, 3.75825715e+00 ]
      - [ 4.81119299e+00, 4.48795855e-01, 3.44960046e+00 ]
      - [ 1.65709019e+00, 3.89410943e-01, 3.51691842e+00 ]
      - [ 2.31181169e+00, 4.17213589e-01, 3.36756468e+00 ]
      - [ 1.59759414e+00, 3.46460015e-01, 3.95931697e+00 ]
      - [ 2.58780766e+00, 3.81642282e-01, 3.56475401e+00 ]
      - [ 1.59752822e+00, 3.49820018e-01, 3.96548748e+00 ]
      - [ 2.00553036e+00, 2.83545345e-01, 5.41669512e+00 ]
      - [ 1.89850903e+00, 4.03807253e-01, 3.37286472e+00 ]
      - [ 1.87489128e+00, 2.92960256e-01, 5.05964184e+00 ]
      - [ 3.66240001e+00, 3.45111877e-01, 4.32708979e+00 ]
      - [ 1.82736087e+00, 3.91480058e-01, 3.45053482e+00 ]
      - [ 1.75139916e+00, 2.77660429e-01, 5.18205023e+00 ]
      - [ 1.86533213e+00, 3.49978894e-01, 3.82365799e+00 ]
      - [ 1.57737005e+00, 4.24370378e-01, 3.31843090e+00 ]
      - [ 2.37896848e+00, 4.33170468e-01, 3.30272293e+00 ]
      - [ 1.52606702e+00, 3.68015498e-01, 3.81560826e+00 ]
      - [ 1.80856133e+00, 2.60256588e-01, 5.58823252e+00 ]
      - [ 1.83522141e+00, 4.20405716e-01, 3.33575392e+00 ]
      - [ 1.46242869e+00, 3.96825373e-01, 3.57507372e+00 ]
      - [ 2.14649320e+00, 3.26537371e-01, 4.57413816e+00 ]
      - [ 1.61343491e+00, 3.21578115e-01, 4.50918674e+00 ]
      - [ 2.04533696e+00, 3.39187235e-01, 3.97056603e+00 ]
      - [ 2.12507915e+00, 3.98374975e-01, 3.39337206e+00 ]
      - [ 1.81746602e+00, 3.51982087e-01, 3.82127237e+00 ]
      - [ 2.31952739e+00, 4.13425237e-01, 3.29157043e+00 ]
      - [ 1.75864422e+00, 3.28463346e-01, 4.16806412e+00 ]
      - [ 2.08101439e+00, 4.04029191e-01, 3.36977744e+00 ]
      - [ 4.31483841e+00, 5.88181317e-01, 2.77378440e+00 ]
      - [ 2.23422050e+00, 3.82709056e-01, 3.53344083e+00 ]
      - [ 1.64003479e+00, 3.94540429e-01, 3.49179411e+00 ]
      - [ 1.92642403e+00, 4.20859247e-01, 3.33472681e+00 ]
      - [ 1.65613115e+00, 3.55560660e-01, 3.83535194e+00 ]
      - [ 1.58420289e+00, 3.45648736e-01, 3.93446994e+00 ]
      - [ 1.83001876e+00, 4.27227825e-01, 3.27234888e+00 ]
      - [ 1.95113134e+00, 4.27119553e-01, 3.26889443e+00 ]
      - [ 1.75496209e+00, 4.66117114e-01, 3.07163858e+00 ]
      - [ 1.87019575e+00, 3.66368055e-01, 3.63786173e+00 ]
      - [ 2.24370408e+00, 5.34993768e-01, 2.89261460e+00 ]
      - [ 3.96040845e+00, 3.66445094e-01, 4.25330305e+00 ]
      - [ 2.43893862e+00, 3.82300586e-01, 3.58053493e+00 ]
      - [ 1.94576192e+00, 4.67082202e-01, 3.08272386e+00 ]
      - [ 1.83889961e+00, 3.13826591e-01, 4.68814611e+00 ]
      - [ 2.22375989e+00, 2.95225233e-01, 4.89032602e+00 ]
      - [ 1.85532856e+00, 4.62840438e-01, 3.15038514e+00 ]
      - [ 1.74803078e+00, 4.46893394e-01, 3.13502049e+00 ]
      - [ 1.51829529e+00, 3.54306340e-01, 3.85745549e+00 ]
      - [ 1.54035735e+00, 3.40427488e-01, 4.30397320e+00 ]
      - [ 2.01604128e+00, 4.25890386e-01, 3.16107273e+00 ]
      - [ 1.51424253e+00, 3.52053970e-01, 3.92526579e+00 ]
      - [ 1.82517564e+00, 3.96215111e-01, 3.40830016e+00 ]
      - [ 2.35400605e+00, 4.25505459e-01, 3.24687052e+00 ]
      - [ 1.51426363e+00, 3.64890635e-01, 3.84540153e+00 ]
      - [ 1.45567214e+00, 4.00403947e-01, 3.63829446e+00 ]
      - [ 2.03332186e+00, 4.06363219e-01, 3.38830209e+00 ]
      - [ 1.53834903e+00, 3.60574126e-01, 3.89888477e+00 ]
      - [ 1.69726348e+00, 3.27835321e-01, 4.26672220e+00 ]
      - [ 1.52291298e+00, 3.90202880e-01, 3.68671131e+00 ]
      - [ 1.73033059e+00, 3.95993322e-01, 3.44660783e+00 ]
      - [ 1.95396388e+00, 3.94690573e-01, 3.37983131e+00 ]
      - [ 1.89274836e+00, 3.70352626e-01, 3.56673861e+00 ]
      - [ 1.57670915e+00, 4.19271111e-01, 3.25068426e+00 ]
      - [ 1.90845168e+00, 4.32547480e-01, 3.17325735e+00 ]
      - [ 1.49858987e+00, 3.90639484e-01, 3.59725523e+00 ]
      - [ 4.54182053e+00, 3.71134132e-01, 3.89761305e+00 ]
      - [ 1.73222089e+00, 3.71024609e-01, 3.58496451e+00 ]
      - [ 2.40236831e+00, 3.46670210e-01, 3.88673019e+00 ]
      - [ 1.79459703e+00, 4.11833912e-01, 3.30577469e+00 ]
      - [ 2.53792500e+00, 3.18149030e-01, 4.56546164e+00 ]
      - [ 1.70759749e+00, 3.81873190e-01, 3.58581734e+00 ]
      - [ 3.84599137e+00, 3.19003552e-01, 4.49626589e+00 ]
      - [ 2.14416957e+00, 4.38362122e-01, 3.19338059e+00 ]
      - [ 1.58922970e+00, 3.72307897e-01, 3.72848487e+00 ]
      - [ 1.66577172e+00, 3.75990391e-01, 3.61941552e+00 ]
      - [ 1.78895962e+00, 3.68659496e-01, 3.63906527e+00 ]
      - [ 1.99181676e+00, 2.84944624e-01, 4.94727325e+00 ]
      - [ 1.62272918e+00, 3.59044850e-01, 3.82858825e+00 ]
      - [ 1.62426341e+00, 3.60262781e-01, 3.73946643e+00 ]
      - [ 1.89470005e+00, 4.02294695e-01, 3.39679837e+00 ]
      - [ 2.41135573e+00, 4.21247184e-01, 3.20745707e+00 ]
      - [ 1.92451155e+00, 4.32611704e-01, 3.22619152e+00 ]
      - [ 1.97743058e+00, 3.98779601e-01, 3.38656187e+00 ]
      - [ 1.52560973e+00, 3.58628035e-01, 3.95344925e+00 ]
      - [ 1.56650937e+00, 3.86939734e-01, 3.45121980e+00 ]
      - [ 1.65411258e+00, 2.96986252e-01, 4.66655207e+00 ]
      - [ 1.55838096e+00, 3.32254499e-01, 4.23835850e+00 ]
      - [ 1.55766344e+00, 3.71982366e-01, 3.84497643e+00 ]
      - [ 1.95604563e+00, 4.36390996e-01, 3.13047314e+00 ]
      - [ 1.72838283e+00, 3.16983253e-01, 4.74626637e+00 ]
      - [ 1.68597031e+00, 2.94680715e-01, 4.83823490e+00 ]
      - [ 1.63454998e+00, 3.69909346e-01, 3.67255616e+00 ]
      - [ 1.72743583e+00, 4.47833627e-01, 3.00106454e+00 ]
      - [ 1.55884624e+00, 3.69928837e-01, 3.70665908e+00 ]
      - [ 1.91969526e+00, 4.55530345e-01, 3.18487501e+00 ]
      - [ 1.50792658e+00, 3.70246291e-01, 3.77281761e+00 ]
      - [ 2.35139370e+00, 3.77454996e-01, 3.55401039e+00 ]
      - [ 1.56139970e+00, 3.76624584e-01, 3.70733094e+00 ]
      - [ 2.38558865e+00, 3.32860172e-01, 4.07601357e+00 ]
      - [ 1.83097160e+00, 8.74978602e-01, 1.83808553e+00 ]
      - [ 1.88799667e+00, 4.24096674e-01, 3.22506785e+00 ]
      - [ 2.18908310e+00, 4.04751897e-01, 3.40808153e+00 ]
      - [ 2.12932658e+00, 3.29508632e-01, 4.24677467e+00 ]
      - [ 1.84762859e+00, 4.01241630e-01, 3.38133001e+00 ]
      - [ 2.65935755e+00, 3.73984724e-01, 3.74097753e+00 ]
      - [ 3.65015411e+00, 4.06229079e-01, 3.49950290e+00 ]
      - [ 2.31791639e+00, 3.97185177e-01, 3.48211527e+00 ]
      - [ 2.98513460e+00, 2.97299862e-01, 4.92988205e+00 ]
      - [ 3.80413294e+00, 3.85131687e-01, 3.66698337e+00 ]
      - [ 1.81318736e+00, 3.87549162e-01, 3.47409654e+00 ]
      - [ 1.62620211e+00, 3.46025616e-01, 4.06087923e+00 ]
      - [ 2.37712240e+00, 3.39969784e-01, 4.00831318e+00 ]
      - [ 1.58219814e+00, 4.24786508e-01, 3.36231208e+00 ]
      - [ 1.45770109e+00, 3.81514639e-01, 3.78897047e+00 ]
      - [ 1.62962663e+00, 3.98773283e-01, 3.44109392e+00 ]
      - [ 2.28928971e+00, 3.75616580e-01, 3.61899781e+00 ]
      - [ 2.06070805e+00, 4.44657922e-01, 3.13602614e+00 ]
      - [ 1.79114425e+00, 4.28615957e-01, 3.23271275e+00 ]
      - [ 1.95968795e+00, 3.45695496e-01, 3.89383817e+00 ]
      - [ 2.12680364e+00, 3.27692360e-01, 4.28259754e+00 ]
      - [ 2.55569029e+00, 5.02832234e-01, 3.11733198e+00 ]
      - [ 1.47390091e+00, 3.32041115e-01, 4.12249327e+00 ]
      - [ 2.61710119e+00, 3.97066861e-01, 3.55012202e+00 ]
      - [ 1.62896299e+00, 3.35626990e-01, 4.17672682e+00 ]
      - [ 2.30042553e+00, 3.93378913e-01, 3.42357683e+00 ]
      - [ 1.84027612e+00, 4.37303692e-01, 3.19002128e+00 ]
      - [ 2.66583872e+00, 3.31706166e-01, 4.21788406e+00 ]
      - [ 1.83696091e+00, 3.07968110e-01, 4.27313375e+00 ]
      - [ 1.75417459e+00, 3.88298899e-01, 3.48995614e+00 ]
      - [ 1.98130929e+00, 4.98647064e-01, 2.93003058e+00 ]
      - [ 1.90226102e+00, 4.12630171e-01, 3.26859641e+00 ]
      - [ 2.21657515e+00, 3.13215107e-01, 4.82560682e+00 ]
      - [ 1.59662402e+00, 3.56800467e-01, 3.83869338e+00 ]
      - [ 2.63788509e+00, 4.01605427e-01, 3.48518705e+00 ]
      - [ 2.76767421e+00, 3.86424989e-01, 3.61104250e+00 ]
      - [ 1.53514612e+00, 3.31115574e-01, 4.41105461e+00 ]
      - [ 1.74997687e+00, 4.23183501e-01, 3.25610781e+00 ]
      - [ 1.67735898e+00, 3.97669077e-01, 3.45692396e+00 ]
      - [ 1.57510114e+00, 3.65752697e-01, 3.71780515e+00 ]
      - [ 2.09141421e+00, 4.07970458e-01, 3.34402227e+00 ]
      - [ 2.36716938e+00, 4.13543224e-01, 3.37020659e+00 ]
      - [ 1.48087144e+00, 3.75582337e-01, 3.75742936e+00 ]
      - [ 1.67224896e+00, 3.48173082e-01, 3.96846986e+00 ]
      - [ 2.25471616e+00, 3.28806758e-01, 4.61267328e+00 ]
      - [ 1.82938349e+00, 3.03181916e-01, 4.59578419e+00 ]
      - [ 1.65177321e+00, 3.26715469e-01, 4.25597095e+00 ]
      - [ 2.04671550e+00, 3.25780421e-01, 4.19245100e+00 ]
      - [ 2.78703523e+00, 4.04837787e-01, 3.44032741e+00 ]
      - [ 1.51457286e+00, 3.58452111e-01, 4.03710699e+00 ]
      - [ 1.86338806e+00, 4.16542649e-01, 3.28233051e+00 ]
      - [ 1.57530558e+00, 3.70434940e-01, 3.75690484e+00 ]
      - [ 1.66133285e+00, 3.43401849e-01, 3.93289876e+00 ]
      - [ 1.76662791e+00, 3.51250201e-01, 3.79193711e+00 ]
      - [ 1.75551045e+00, 3.86233121e-01, 3.46691990e+00 ]
      - [ 1.60446060e+00, 4.14336145e-01, 3.29024386e+00 ]
      - [ 2.25639653e+00, 4.47518289e-01, 3.07247829e+00 ]
      - [ 2.33846617e+00, 3.97344619e-01, 3.44236565e+00 ]
      - [ 1.52386951e+00, 3.81974846e-01, 3.67239380e+00 ]
      - [ 1.64070237e+00, 4.17184353e-01, 3.33909631e+00 ]
      - [ 3.07928777e+00, 3.58758599e-01, 4.03349686e+00 ]
      - [ 2.05897927e+00, 4.75899607e-01, 2.96851730e+00 ]
      - [ 1.85960126e+00, 3.22506398e-01, 4.38852358e+00 ]
      - [ 1.77753818e+00, 3.17089319e-01, 4.69760704e+00 ]
      - [ 1.99897778e+00, 4.26082432e-01, 3.14756203e+00 ]
      - [ 1.67793143e+00, 4.02743995e-01, 3.37945724e+00 ]
      - [ 1.43510175e+00, 2.84143716e-01, 5.33535671e+00 ]
      - [ 1.91974378e+00, 2.85402000e-01, 4.92437363e+00 ]
      - [ 2.38543224e+00, 4.54056203e-01, 3.13591909e+00 ]
      - [ 1.77217877e+00, 3.19575310e-01, 4.35199738e+00 ]
      - [ 1.54569292e+00, 2.92927802e-01, 4.90182924e+00 ]
      - [ 2.09697604e+00, 4.19958293e-01, 3.22247553e+00 ]
      - [ 1.82028437e+00, 3.93659621e-01, 3.44524789e+00 ]
      - [ 2.22440147e+00, 4.05998468e-01, 3.35018134e+00 ]
      - [ 2.57046342e+00, 3.83811533e-01, 3.48499417e+00 ]
      - [ 1.59314501e+00, 3.65063190e-01, 3.74093151e+00 ]
      - [ 1.94218540e+00, 4.02730972e-01, 3.39771557e+00 ]
      - [ 1.55664325e+00, 3.58082801e-01, 4.06060028e+00 ]
      - [ 1.51540768e+00, 3.49564910e-01, 4.05322886e+00 ]
      - [ 1.72468960e+00, 3.91404539e-01, 3.49043179e+00 ]
      - [ 1.74642015e+00, 3.27027798e-01, 4.33936644e+00 ]
      - [ 1.78620636e+00, 4.79846656e-01, 2.93993306e+00 ]
      - [ 1.87770033e+00, 3.94209862e-01, 3.43158364e+00 ]
      - [ 2.02828956e+00, 3.23005497e-01, 4.64644003e+00 ]
      - [ 1.83526838e+00, 3.75085533e-01, 3.58008099e+00 ]
      - [ 2.59016061e+00, 3.65371406e-01, 3.78004742e+00 ]
      - [ 1.57841492e+00, 3.48867089e-01, 3.98814631e+00 ]
      - [ 1.80078959e+00, 3.41909111e-01, 3.93271041e+00 ]
      - [ 1.70013773e+00, 5.87615490e-01, 2.69061542e+00 ]
      - [ 1.57826018e+00, 3.40003669e-01, 4.08462906e+00 ]
      - [ 3.58571458e+00, 3.75382066e-01, 3.67941070e+00 ]
      - [ 1.82924640e+00, 4.85993952e-01, 3.11359930e+00 ]
      - [ 1.40675521e+00, 5.39610982e-01, 3.00857353e+00 ]
      - [ 3.01942253e+00, 4.41943437e-01, 3.22179151e+00 ]
      - [ 1.62410522e+00, 3.44458550e-01, 3.94592261e+00 ]
      - [ 2.25883865e+00, 6.88820720e-01, 2.31260991e+00 ]
      - [ 1.60445249e+00, 3.45869243e-01, 3.98918819e+00 ]
      - [ 1.58557129e+00, 3.55054945e-01, 3.88836217e+00 ]
      - [ 2.05450773e+00, 4.30494815e-01, 3.20790958e+00 ]
      - [ 2.48260379e+00, 4.04651612e-01, 3.43474841e+00 ]
      - [ 2.33427095e+00, 3.93130332e-01, 3.49256611e+00 ]
      - [ 2.13764501e+00, 3.24483544e-01, 4.78219032e+00 ]
      - [ 1.60223985e+00, 4.17595744e-01, 3.38469601e+00 ]
      - [ 1.64277792e+00, 3.59119505e-01, 3.79620790e+00 ]
      - [ 2.34083486e+00, 3.25749159e-01, 4.27062416e+00 ]
      - [ 2.28980970e+00, 3.42593491e-01, 4.00570393e+00 ]
      - [ 1.58290231e+00, 3.65854263e-01, 3.80971241e+00 ]
      - [ 1.59807301e+00, 3.27398777e-01, 4.38614082e+00 ]
      - [ 2.01497221e+00, 3.24408531e-01, 4.34486485e+00 ]
      - [ 1.59860003e+00, 3.71991277e-01, 3.72781467e+00 ]
      - [ 1.59310710e+00, 3.39736611e-01, 4.16504812e+00 ]
      - [ 1.67921209e+00, 4.38920021e-01, 3.22303534e+00 ]
      - [ 2.17761946e+00, 3.04811329e-01, 4.61914253e+00 ]
      - [ 5.24398088e+00, 2.63494581e-01, 5.83834171e+00 ]
      - [ 2.10881352e+00, 3.99492651e-01, 3.39971089e+00 ]
      - [ 1.76989794e+00, 3.22879046e-01, 4.36191893e+00 ]
      - [ 2.36636209e+00, 3.54896814e-01, 3.69744253e+00 ]
      - [ 1.43165100e+00, 3.03969324e-01, 4.49631214e+00 ]
      - [ 1.74015689e+00, 4.04113293e-01, 3.38470912e+00 ]
      - [ 2.03370094e+00, 2.76066661e-01, 5.34996080e+00 ]
      - [ 1.71742260e+00, 3.84317845e-01, 3.50673771e+00 ]
      - [ 2.19653082e+00, 4.05986607e-01, 3.37947941e+00 ]
      - [ 2.22041798e+00, 4.21244025e-01, 3.23999906e+00 ]
      - [ 1.60999060e+00, 3.40685517e-01, 4.20116663e+00 ]
      - [ 1.99872422e+00, 4.05345887e-01, 3.36095262e+00 ]
      - [ 2.15472889e+00, 4.68518227e-01, 2.98371863e+00 ]
      - [ 6.09122181e+00, 5.58597088e-01, 2.73451614e+00 ]
      - [ 2.11980820e+00, 3.21426421e-01, 4.37565756e+00 ]
      - [ 1.79569924e+00, 3.12932193e-01, 4.42756891e+00 ]
      - [ 2.25833797e+00, 4.56448227e-01, 3.05803013e+00 ]
      - [ 2.04009843e+00, 2.88777381e-01, 5.16022539e+00 ]
      - [ 1.56612837e+00, 3.54752034e-01, 4.03191376e+00 ]
      - [ 1.66137159e+00, 3.90577883e-01, 3.51760507e+00 ]
      - [ 1.70637035e+00, 3.51348966e-01, 3.84404445e+00 ]
      - [ 1.70736563e+00, 3.24662894e-01, 4.31613445e+00 ]
      - [ 3.01945662e+00, 3.78813773e-01, 3.71476316e+00 ]
      - [ 1.63143778e+00, 3.92822206e-01, 3.46175623e+00 ]
      - [ 1.71586049e+00, 3.44538122e-01, 3.99377418e+00 ]
      - [ 2.28875375e+00, 4.46329027e-01, 3.18446803e+00 ]
      - [ 2.12403131e+00, 3.03790569e-01, 4.72088051e+00 ]
      - [ 2.26330805e+00, 3.27261865e-01, 4.33012056e+00 ]
      - [ 2.57973099e+00, 4.43360716e-01, 3.27235866e+00 ]
      - [ 1.63278103e+00, 4.01982009e-01, 3.44986272e+00 ]
      - [ 2.25649476e+00, 3.05356711e-01, 4.71995497e+00 ]
      - [ 1.89101052e+00, 4.06420827e-01, 3.37853312e+00 ]
      - [ 2.02260375e+00, 3.97721738e-01, 3.41333652e+00 ]
      - [ 1.50147104e+00, 3.46360922e-01, 4.22003222e+00 ]
      - [ 1.60582817e+00, 3.47028434e-01, 4.02570438e+00 ]
      - [ 1.97562385e+00, 3.35790813e-01, 4.03198099e+00 ]
      - [ 1.64233649e+00, 3.25761080e-01, 4.34660912e+00 ]
      - [ 1.76180816e+00, 3.25007319e-01, 4.38777161e+00 ]
      - [ 2.10444617e+00, 4.41394478e-01, 3.10938096e+00 ]
      - [ 1.68729854e+00, 4.10299301e-01, 3.33093905e+00 ]
      - [ 1.31460023e+00, 5.31648695e-01, 2.55022478e+00 ]
      - [ 1.59467101e+00, 3.84682477e-01, 3.53939986e+00 ]
      - [ 1.98291767e+00, 4.49895144e-01, 3.09032607e+00 ]
      - [ 1.84474444e+00, 2.57274538e-01, 5.76347446e+00 ]
      - [ 1.77923143e+00, 3.24498266e-01, 4.30233908e+00 ]
      - [ 1.57657838e+00, 3.75556856e-01, 3.65185618e+00 ]
      - [ 3.61056185e+00, 3.67283881e-01, 3.86611223e+00 ]
      - [ 1.67556751e+00, 3.94502133e-01, 3.48313618e+00 ]
      - [ 1.77203453e+00, 3.99237692e-01, 3.39629340e+00 ]
      - [ 1.65899909e+00, 3.83318812e-01, 3.51115060e+00 ]
      - [ 2.65856481e+00, 3.70623976e-01, 3.84629726e+00 ]
      - [ 2.09321809e+00, 3.10229212e-01, 4.64975643e+00 ]
      - [ 1.63810945e+00, 3.52157474e-01, 3.93238807e+00 ]
      - [ 2.65022588e+00, 3.78547400e-01, 3.54900622e+00 ]
      - [ 3.67912793e+00, 3.69965911e-01, 4.00588894e+00 ]
      - [ 1.61179566e+00, 3.64105344e-01, 3.77750134e+00 ]
      - [ 1.58912182e+00, 3.69611323e-01, 3.82465482e+00 ]
      - [ 2.23075581e+00, 3.32343608e-01, 4.37961817e+00 ]
      - [ 2.64075565e+00, 4.17801946e-01, 3.42953372e+00 ]
      - [ 1.84948921e+00, 3.94704431e-01, 3.42764688e+00 ]
      - [ 1.53782582e+00, 3.65855575e-01, 3.64529586e+00 ]
      - [ 1.69509149e+00, 3.47537339e-01, 3.89826155e+00 ]
      - [ 2.75421023e+00, 4.10490006e-01, 3.30147028e+00 ]
      - [ 2.00342870e+00, 4.19435740e-01, 3.30185294e+00 ]
      - [ 1.75103796e+00, 3.98955584e-01, 3.43227649e+00 ]
      - [ 2.23123431e+00, 2.81662345e-01, 5.14282274e+00 ]
      - [ 2.10602856e+00, 3.01835716e-01, 4.82820654e+00 ]
      - [ 2.14260054e+00, 4.06934738e-01, 3.33941984e+00 ]
      - [ 1.68346941e+00, 3.19400579e-01, 4.42500448e+00 ]
      - [ 2.51746845e+00, 4.15561020e-01, 3.40277290e+00 ]
      - [ 1.61371863e+00, 3.93344522e-01, 3.45106053e+00 ]
      - [ 1.69386280e+00, 3.59944403e-01, 3.70923543e+00 ]
      - [ 4.02758360e+00, 4.35206532e-01, 3.28424454e+00 ]
      - [ 1.62521827e+00, 3.96657854e-01, 3.41054130e+00 ]
      - [ 2.47961307e+00, 3.82941782e-01, 3.57865810e+00 ]
      - [ 1.63125277e+00, 3.96483332e-01, 3.47800422e+00 ]
      - [ 1.63692832e+00, 3.43308449e-01, 4.04402971e+00 ]
      - [ 1.65457201e+00, 3.82639557e-01, 3.57603836e+00 ]
      - [ 2.06003928e+00, 4.40701514e-01, 3.25937343e+00 ]
      - [ 1.60336208e+00, 3.43887061e-01, 4.09499693e+00 ]
      - [ 3.16550374e+00, 3.56031775e-01, 3.90593219e+00 ]
      - [ 2.34541774e+00, 4.34809595e-01, 3.25343084e+00 ]
      - [ 1.71687293e+00, 4.01510090e-01, 3.42685080e+00 ]
      - [ 2.44193649e+00, 4.12715405e-01, 3.30175543e+00 ]
      - [ 1.44897139e+00, 4.19235498e-01, 3.23728967e+00 ]
      - [ 1.58722019e+00, 3.64073813e-01, 3.65620208e+00 ]
      - [ 2.15901542e+00, 3.29451650e-01, 4.14548349e+00 ]
      - [ 2.03559971e+00, 4.37621981e-01, 3.17318869e+00 ]
      - [ 1.60643518e+00, 3.72340053e-01, 3.69608712e+00 ]
      - [ 1.70982790e+00, 4.32834387e-01, 3.15994453e+00 ]
      - [ 2.00934076e+00, 4.20204490e-01, 3.29344177e+00 ]
      - [ 1.55740595e+00, 3.88348252e-01, 3.58085346e+00 ]
      - [ 1.78225088e+00, 4.13581431e-01, 3.27254176e+00 ]
      - [ 2.02325678e+00, 4.06106412e-01, 3.33924484e+00 ]
      - [ 3.36492968e+00, 4.20930415e-01, 3.51763296e+00 ]
      - [ 2.08144832e+00, 4.14176196e-01, 3.34304452e+00 ]
      - [ 3.47000027e+00, 4.09704208e-01, 3.45956159e+00 ]
      - [ 1.79413939e+00, 4.13047820e-01, 3.35082293e+00 ]
      - [ 2.20724297e+00, 4.07103568e-01, 3.40268254e+00 ]
      - [ 1.43221223e+00, 3.56461763e-01, 3.88146210e+00 ]
      - [ 2.07038856e+00, 3.01779568e-01, 4.65204477e+00 ]
      - [ 2.86397266e+00, 3.15710336e-01, 4.66667891e+00 ]
      - [ 2.05210233e+00, 4.55996275e-01, 3.06507754e+00 ]
      - [ 1.60834777e+00, 4.20065552e-01, 3.26958895e+00 ]
      - [ 1.53200483e+00, 3.25421005e-01, 4.33203268e+00 ]
      - [ 1.96985388e+00, 4.10230130e-01, 3.26473999e+00 ]
      - [ 1.62225306e+00, 3.94132197e-01, 3.42932415e+00 ]
      - [ 3.92444897e+00, 4.08386052e-01, 3.43098283e+00 ]
      - [ 1.64482820e+00, 4.57158774e-01, 3.07996130e+00 ]
      - [ 2.46411729e+00, 3.77423882e-01, 3.61490989e+00 ]
      - [ 1.68885672e+00, 3.33857775e-01, 4.21871519e+00 ]
      - [ 1.57304418e+00, 3.63299876e-01, 3.85089517e+00 ]
      - [ 1.69951928e+00, 3.10131103e-01, 4.75456905e+00 ]
      - [ 3.07265449e+00, 3.94853592e-01, 3.51188707e+00 ]
      - [ 2.15816879e+00, 3.58733594e-01, 3.73331976e+00 ]
      - [ 7.61319113e+00, 4.94382054e-01, 3.01297212e+00 ]
      - [ 1.95443726e+00, 4.25902575e-01, 3.25779581e+00 ]
      - [ 1.75534177e+00, 4.22368407e-01, 3.32920170e+00 ]
      - [ 2.29386783e+00, 3.48657250e-01, 3.89768386e+00 ]
      - [ 1.70983994e+00, 4.08655792e-01, 3.35799646e+00 ]
      - [ 2.23988557e+00, 4.32594270e-01, 3.18174767e+00 ]
      - [ 1.52502894e+00, 4.02341276e-01, 3.36147237e+00 ]
      - [ 1.90087175e+00, 3.81696314e-01, 3.45678806e+00 ]
      - [ 2.62196636e+00, 4.44069505e-01, 3.27921128e+00 ]
      - [ 1.63407707e+00, 3.60029727e-01, 3.76883078e+00 ]
      - [ 2.47109509e+00, 3.75872046e-01, 3.61275125e+00 ]
      - [ 3.86441731e+00, 3.59550029e-01, 3.81429887e+00 ]
      - [ 3.77374625e+00, 3.89476895e-01, 3.63609791e+00 ]
      - [ 1.80223835e+00, 4.05224651e-01, 3.39724922e+00 ]
      - [ 1.61148655e+00, 3.73314440e-01, 3.68901396e+00 ]
      - [ 1.62184894e+00, 3.27249229e-01, 4.50146008e+00 ]
      - [ 2.19395351e+00, 3.66763592e-01, 3.65402436e+00 ]
      - [ 2.71831703e+00, 3.91220003e-01, 3.61188078e+00 ]
      - [ 2.85815668e+00, 6.05087936e-01, 2.70881891e+00 ]
      - [ 2.33373713e+00, 3.41968060e-01, 4.02624369e+00 ]
      - [ 1.60981488e+00, 3.55364323e-01, 3.90408659e+00 ]
      - [ 1.63722193e+00, 3.86559635e-01, 3.56315184e+00 ]
      - [ 2.02953434e+00, 3.69130492e-01, 3.61076260e+00 ]
      - [ 1.47117901e+00, 3.22355032e-01, 4.18401432e+00 ]
      - [ 2.24197316e+00, 3.87179226e-01, 3.51671648e+00 ]
      - [ 1.77263045e+00, 3.63974810e-01, 3.70822811e+00 ]
      - [ 1.99479389e+00, 3.46232802e-01, 3.81814861e+00 ]
      - [ 3.73598623e+00, 4.22353685e-01, 3.26344705e+00 ]
      - [ 1.83914936e+00, 4.23093498e-01, 3.26887321e+00 ]
      - [ 2.16840267e+00, 4.89766717e-01, 2.98332143e+00 ]
      - [ 2.27795815e+00, 3.29310000e-01, 4.19023943e+00 ]
      - [ 1.81280804e+00, 3.13686341e-01, 4.59070015e+00 ]
      - [ 1.68632233e+00, 3.51255238e-01, 3.87815213e+00 ]
      - [ 1.60988522e+00, 3.52296025e-01, 3.97698784e+00 ]
      - [ 2.47456741e+00, 3.92931968e-01, 3.56654167e+00 ]
      - [ 2.15314746e+00, 3.89508992e-01, 3.47626853e+00 ]
      - [ 2.19519782e+00, 3.86659563e-01, 3.48918986e+00 ]
      - [ 1.69876289e+00, 3.24068457e-01, 4.27456141e+00 ]
      - [ 2.59096026e+00, 3.82132411e-01, 3.60998940e+00 ]
      - [ 4.98191881e+00, 3.44817787e-01, 4.37358236e+00 ]
      - [ 1.98669159e+00, 4.22276348e-01, 3.31068206e+00 ]
      - [ 1.92368865e+00, 5.32268465e-01, 2.94924641e+00 ]
      - [ 1.88003969e+00, 3.63581479e-01, 3.70413136e+00 ]
      - [ 1.67848539e+00, 2.86959559e-01, 4.95645380e+00 ]
      - [ 1.52124786e+00, 3.71546805e-01, 3.84062338e+00 ]
      - [ 1.74275231e+00, 3.68578732e-01, 3.60634279e+00 ]
      - [ 1.70840979e+00, 4.08330411e-01, 3.39275002e+00 ]
      - [ 2.50379491e+00, 3.95770252e-01, 3.47490573e+00 ]
      - [ 3.57696033e+00, 2.82126069e-01, 4.97416687e+00 ]
      - [ 1.61147034e+00, 3.44100773e-01, 4.05278492e+00 ]
      - [ 1.70645213e+00, 4.20638442e-01, 3.29473519e+00 ]
      - [ 1.60517693e+00, 3.29129338e-01, 4.23180008e+00 ]
      - [ 1.67588067e+00, 3.25260967e-01, 4.47533512e+00 ]
      - [ 1.73717034e+00, 4.20629650e-01, 3.18840027e+00 ]
      - [ 1.87642229e+00, 4.00749445e-01, 3.32993817e+00 ]
      - [ 1.70906949e+00, 3.33872467e-01, 4.11602402e+00 ]
      - [ 1.67003095e+00, 3.79323959e-01, 3.59311032e+00 ]
      - [ 2.93950081e+00, 2.66939968e-01, 5.33132172e+00 ]
      - [ 1.63037527e+00, 4.13778841e-01, 3.41611099e+00 ]
      - [ 1.84831560e+00, 4.19602007e-01, 3.33152509e+00 ]
      - [ 1.56689763e+00, 3.75841290e-01, 3.67514873e+00 ]
      - [ 2.00839353e+00, 4.12487358e-01, 3.34133863e+00 ]
      - [ 1.48360598e+00, 3.87983769e-01, 3.60052133e+00 ]
      - [ 1.63095987e+00, 3.33337605e-01, 4.19874048e+00 ]
      - [ 1.60072243e+00, 3.62565368e-01, 3.81048656e+00 ]
      - [ 1.89454615e+00, 4.26744491e-01, 3.30304551e+00 ]
      - [ 1.51813734e+00, 4.03210312e-01, 3.58332729e+00 ]
      - [ 2.35384750e+00, 4.13592041e-01, 3.33894181e+00 ]
      - [ 1.66859543e+00, 3.94225687e-01, 3.46726108e+00 ]
      - [ 1.66364431e+00, 3.53098273e-01, 3.74161506e+00 ]
      - [ 1.83171093e+00, 2.27024198e-01, 6.35053205e+00 ]
      - [ 2.23332334e+00, 4.33231831e-01, 3.28802729e+00 ]
      - [ 1.63294685e+00, 4.56154972e-01, 3.19023585e+00 ]
      - [ 1.70162451e+00, 3.59260201e-01, 3.78372955e+00 ]
      - [ 2.21049476e+00, 4.17475611e-01, 3.31402016e+00 ]
      - [ 2.62760735e+00, 3.70071799e-01, 3.74076080e+00 ]
      - [ 1.83996558e+00, 4.34180856e-01, 3.10750151e+00 ]
      - [ 1.24624276e+00, 3.32271636e-01, 4.13228083e+00 ]
      - [ 2.28928256e+00, 3.04598272e-01, 4.94826221e+00 ]
      - [ 1.87369275e+00, 3.50143433e-01, 3.74552536e+00 ]
      - [ 2.24962401e+00, 3.81850719e-01, 3.53265333e+00 ]
      - [ 1.50543845e+00, 3.44799668e-01, 4.10323143e+00 ]
      - [ 1.74245942e+00, 4.54789907e-01, 3.11676621e+00 ]
      - [ 2.15551591e+00, 2.84838021e-01, 4.97790146e+00 ]
      - [ 1.69356346e+00, 3.76919240e-01, 3.58004451e+00 ]
      - [ 1.58492327e+00, 3.44900578e-01, 4.08721256e+00 ]
      - [ 2.19695473e+00, 3.14315021e-01, 4.53292179e+00 ]
      - [ 1.80736160e+00, 3.31892669e-01, 4.11237621e+00 ]
      - [ 1.75297379e+00, 3.33390832e-01, 4.08088779e+00 ]
      - [ 2.50203800e+00, 3.34290236e-01, 4.25487089e+00 ]
      - [ 2.51617813e+00, 3.74783814e-01, 3.67546773e+00 ]
      - [ 1.88510680e+00, 4.10433263e-01, 3.32016182e+00 ]
      - [ 1.77767551e+00, 3.90389651e-01, 3.46195602e+00 ]
      - [ 1.62552881e+00, 3.37490916e-01, 4.31474304e+00 ]
      - [ 2.08935261e+00, 4.16917562e-01, 3.28515697e+00 ]
      - [ 1.58653545e+00, 2.77342439e-01, 5.13788223e+00 ]
      - [ 1.56754827e+00, 4.03779209e-01, 3.44626379e+00 ]
      - [ 1.58150041e+00, 3.46442461e-01, 4.10303259e+00 ]
      - [ 1.88863337e+00, 4.09972906e-01, 3.33489013e+00 ]
      - [ 1.71682441e+00, 3.83977145e-01, 3.52550864e+00 ]
      - [ 1.59234619e+00, 3.35842997e-01, 4.34873915e+00 ]
      - [ 1.93428516e+00, 4.60926592e-01, 3.00132847e+00 ]
      - [ 1.87935770e+00, 3.27573597e-01, 4.22974443e+00 ]
      - [ 1.82888234e+00, 3.25423121e-01, 4.21131897e+00 ]
      - [ 1.81177247e+00, 3.60533267e-01, 3.69873691e+00 ]
      - [ 1.62078130e+00, 3.96421254e-01, 3.45556831e+00 ]
      - [ 1.86169827e+00, 4.35963839e-01, 3.25114584e+00 ]
      - [ 1.78399324e+00, 2.89200544e-01, 4.94774151e+00 ]
      - [ 2.55397201e+00, 4.17314261e-01, 3.32800198e+00 ]
      - [ 1.88082373e+00, 3.95171046e-01, 3.42125773e+00 ]
      - [ 1.54339540e+00, 3.79348725e-01, 3.69994187e+00 ]
      - [ 2.20744181e+00, 3.47374022e-01, 3.87417150e+00 ]
      - [ 1.59201801e+00, 3.52459550e-01, 3.97567821e+00 ]
      - [ 2.32578063e+00, 3.70072573e-01, 3.55872488e+00 ]
      - [ 1.73819947e+00, 4.61917490e-01, 3.13184214e+00 ]
      - [ 1.70725262e+00, 3.19546372e-01, 4.44082928e+00 ]
      - [ 2.11056972e+00, 3.09495658e-01, 4.67279291e+00 ]
      - [ 1.94571519e+00, 4.08365607e-01, 3.36424375e+00 ]
      - [ 3.71898317e+00, 3.89007688e-01, 3.61227846e+00 ]
      - [ 2.31108999e+00, 2.46015385e-01, 6.42454004e+00 ]
      - [ 1.71664190e+00, 2.96917200e-01, 4.73198891e+00 ]
      - [ 2.18971586e+00, 4.23257619e-01, 3.31860876e+00 ]
      - [ 1.60770476e+00, 3.32903594e-01, 4.23307371e+00 ]
      - [ 1.80835783e+00, 3.95581454e-01, 3.40334153e+00 ]
      - [ 1.79932010e+00, 3.85962367e-01, 3.49123216e+00 ]
      - [ 2.53305292e+00, 3.95474076e-01, 3.45973802e+00 ]
      - [ 4.03577662e+00, 4.06583220e-01, 3.44517922e+00 ]
      - [ 1.72225201e+00, 3.14135522e-01, 4.55925846e+00 ]
      - [ 2.19249773e+00, 3.68956804e-01, 3.64728141e+00 ]
      - [ 1.37635136e+00, 2.50455588e-01, 6.14284515e+00 ]
      - [ 2.60637307e+00, 3.78861934e-01, 3.72044969e+00 ]
      - [ 1.82979572e+00, 4.17821616e-01, 3.23953104e+00 ]
      - [ 2.16983056e+00, 4.04273093e-01, 3.37316036e+00 ]
      - [ 2.46034431e+00, 3.87512177e-01, 3.47730422e+00 ]
      - [ 1.72680950e+00, 3.81790191e-01, 3.52629209e+00 ]
      - [ 2.81135154e+00, 3.42103362e-01, 3.94294047e+00 ]
      - [ 1.58240378e+00, 3.82157475e-01, 3.57670498e+00 ]
      - [ 2.32602739e+00, 4.17059869e-01, 3.36968970e+00 ]
      - [ 1.65367436e+00, 3.33903641e-01, 4.17222500e+00 ]
      - [ 1.78785777e+00, 4.32848692e-01, 3.22031760e+00 ]
      - [ 3.32143974e+00, 2.80162215e-01, 5.29632759e+00 ]
      - [ 1.42174423e+00, 3.40060294e-01, 4.05853891e+00 ]
      - [ 1.66674590e+00, 3.29959720e-01, 4.32772446e+00 ]
      - [ 2.27617264e+00, 3.46059948e-01, 3.93032908e+00 ]
      - [ 2.71424294e+00, 3.73675227e-01, 3.68594813e+00 ]
      - [ 1.61194456e+00, 3.58708709e-01, 3.87012124e+00 ]
      - [ 1.73468184e+00, 3.30506474e-01, 4.26954317e+00 ]
      - [ 1.60978055e+00, 3.38430285e-01, 4.17196751e+00 ]
      - [ 2.52523518e+00, 3.50180656e-01, 3.95112586e+00 ]
      - [ 2.29707384e+00, 4.08069760e-01, 3.39291883e+00 ]
      - [ 2.90601897e+00, 3.44169021e-01, 4.32707691e+00 ]
      - [ 2.80970240e+00, 5.44422448e-01, 2.76490116e+00 ]
      - [ 1.87986052e+00, 4.14303660e-01, 3.26644444e+00 ]
      - [ 2.01798797e+00, 3.92436504e-01, 3.44957280e+00 ]
      - [ 1.59567237e+00, 3.47948730e-01, 4.04529428e+00 ]
      - [ 3.65786028e+00, 4.04426247e-01, 3.58609343e+00 ]
      - [ 2.36550140e+00, 3.97308528e-01, 3.45384598e+00 ]
      - [ 1.62353814e+00, 2.80999959e-01, 4.96347952e+00 ]
      - [ 2.80047345e+00, 3.93833071e-01, 3.57679510e+00 ]
      - [ 1.53632188e+00, 4.08845961e-01, 3.40456176e+00 ]
      - [ 1.74101448e+00, 3.19659293e-01, 4.33358812e+00 ]
      - [ 3.54686809e+00, 4.03062701e-01, 3.44070649e+00 ]
      - [ 1.51375401e+00, 3.13405484e-01, 4.81658411e+00 ]
      - [ 1.87284279e+00, 3.14113259e-01, 4.49325609e+00 ]
      - [ 1.66953111e+00, 4.00563657e-01, 3.41994452e+00 ]
      - [ 1.79286540e+00, 4.20929670e-01, 3.19092751e+00 ]
      - [ 2.16693234e+00, 3.98787856e-01, 3.40334892e+00 ]
      - [ 1.72620571e+00, 2.70934790e-01, 5.24413443e+00 ]
      - [ 1.96353102e+00, 2.98087448e-01, 4.94170189e+00 ]
      - [ 3.52793455e+00, 3.68805379e-01, 3.79470730e+00 ]
      - [ 1.44050920e+00, 4.04170424e-01, 3.38138604e+00 ]
      - [ 3.28036761e+00, 4.76232350e-01, 3.11230969e+00 ]
      - [ 1.56823254e+00, 3.71659517e-01, 3.72486782e+00 ]
      - [ 1.79447722e+00, 4.36809123e-01, 3.26616335e+00 ]
      - [ 1.65376461e+00, 3.46250445e-01, 3.95104861e+00 ]
      - [ 1.48144042e+00, 3.71871024e-01, 3.73037505e+00 ]
      - [ 1.50498188e+00, 3.94400805e-01, 3.61546564e+00 ]
      - [ 2.12696505e+00, 3.73517632e-01, 3.56573606e+00 ]
      - [ 1.58068526e+00, 3.94701451e-01, 3.55496764e+00 ]
      - [ 1.97805846e+00, 3.13583195e-01, 4.68148327e+00 ]
      - [ 1.52833688e+00, 3.46593648e-01, 4.17440224e+00 ]
      - [ 1.75914454e+00, 3.80114347e-01, 3.54937458e+00 ]
      - [ 1.81964862e+00, 3.94589335e-01, 3.38607001e+00 ]
      - [ 2.21988511e+00, 3.77220422e-01, 3.58404064e+00 ]
      - [ 2.14383984e+00, 4.15725172e-01, 3.27023673e+00 ]
      - [ 1.63234460e+00, 3.38631690e-01, 4.04459476e+00 ]
      - [ 2.14107227e+00, 3.02594304e-01, 4.70343065e+00 ]
      - [ 1.54113936e+00, 3.58772367e-01, 4.00390863e+00 ]
      - [ 1.69314504e+00, 4.05112833e-01, 3.39039803e+00 ]
      - [ 1.98047638e+00, 3.26524615e-01, 4.23192883e+00 ]
      - [ 1.84773159e+00, 4.17765141e-01, 3.22864747e+00 ]
      - [ 2.85090780e+00, 3.56922835e-01, 4.19497442e+00 ]
      - [ 1.61959541e+00, 3.17186266e-01, 4.61834431e+00 ]
      - [ 1.97754443e+00, 4.12653267e-01, 3.33026671e+00 ]
      - [ 1.84292305e+00, 4.44972545e-01, 3.14164090e+00 ]
      - [ 1.67646456e+00, 3.33405793e-01, 4.15558386e+00 ]
      - [ 1.75023651e+00, 4.33371842e-01, 3.21118617e+00 ]
      - [ 3.30553770e+00, 3.88011456e-01, 3.50288296e+00 ]
      - [ 1.98497248e+00, 4.56595659e-01, 3.01113153e+00 ]
      - [ 1.50535309e+00, 3.89083147e-01, 3.71807289e+00 ]
      - [ 1.59410334e+00, 3.74866754e-01, 3.70347834e+00 ]
      - [ 1.92814565e+00, 3.11551362e-01, 4.74461651e+00 ]
      - [ 1.72806406e+00, 4.28531229e-01, 3.20286751e+00 ]
      - [ 1.83038402e+00, 3.90408576e-01, 3.45815134e+00 ]
      - [ 1.76600289e+00, 3.33736598e-01, 4.01692629e+00 ]
      - [ 2.06870294e+00, 3.48896742e-01, 3.84324574e+00 ]
      - [ 2.01676559e+00, 4.25090432e-01, 3.24092460e+00 ]
      - [ 2.49257565e+00, 3.82799506e-01, 3.62877631e+00 ]
      - [ 2.33012509e+00, 3.97927016e-01, 3.41386175e+00 ]
      - [ 1.76991010e+00, 4.74546105e-01, 3.18098211e+00 ]
      - [ 1.56324720e+00, 3.34396452e-01, 4.41118097e+00 ]
      - [ 2.07049131e+00, 3.27875376e-01, 4.26027918e+00 ]
      - [ 1.70245218e+00, 3.08172822e-01, 4.94140959e+00 ]
      - [ 1.90664196e+00, 4.36437249e-01, 3.28005791e+00 ]
      - [ 1.61373663e+00, 3.21677208e-01, 4.26851130e+00 ]
      - [ 2.15868878e+00, 4.09558862e-01, 3.35743022e+00 ]
      - [ 1.52042079e+00, 3.21782202e-01, 4.39678860e+00 ]
      - [ 2.12115097e+00, 4.21092540e-01, 3.32825613e+00 ]
      - [ 1.69250119e+00, 3.38742554e-01, 4.09861565e+00 ]
      - [ 2.38894224e+00, 3.55480403e-01, 3.86460328e+00 ]
      - [ 2.05475044e+00, 4.11687315e-01, 3.32347274e+00 ]
      - [ 2.28588533e+00, 4.23911184e-01, 3.21866155e+00 ]
      - [ 1.62943470e+00, 3.32698733e-01, 4.11162519e+00 ]
      - [ 2.20834184e+00, 4.24034268e-01, 3.23475361e+00 ]
      - [ 1.95491207e+00, 3.46262723e-01, 3.88172078e+00 ]
      - [ 1.88936293e+00, 3.82473260e-01, 3.51680326e+00 ]
      - [ 1.37921178e+00, 3.71665984e-01, 3.76763248e+00 ]
      - [ 1.83323455e+00, 3.82732570e-01, 3.51511335e+00 ]
      - [ 1.53959656e+00, 3.79224747e-01, 3.56654286e+00 ]
      - [ 2.37111592e+00, 3.38266671e-01, 4.28292799e+00 ]
      - [ 1.94866252e+00, 3.87499869e-01, 3.47715163e+00 ]
      - [ 2.09341955e+00, 3.68553251e-01, 3.62824821e+00 ]
      - [ 2.43023729e+00, 4.26971883e-01, 3.29860568e+00 ]
      - [ 1.70785296e+00, 4.06662762e-01, 3.40242672e+00 ]
      - [ 2.05045772e+00, 4.24363434e-01, 3.32329249e+00 ]
      - [ 1.73732138e+00, 3.17521095e-01, 4.53508139e+00 ]
      - [ 1.77605033e+00, 4.22124356e-01, 3.26841235e+00 ]
      - [ 1.54930544e+00, 3.22194487e-01, 4.46737814e+00 ]
      - [ 1.71508634e+00, 3.76317054e-01, 3.56399250e+00 ]
      - [ 2.15881324e+00, 3.63481492e-01, 3.68408918e+00 ]
      - [ 1.92490387e+00, 4.12079006e-01, 3.34810519e+00 ]
      - [ 2.97520256e+00, 4.24347758e-01, 3.39722490e+00 ]
      - [ 1.94087911e+00, 4.28279072e-01, 3.30243540e+00 ]
      - [ 2.01319909e+00, 4.32778746e-01, 3.25385571e+00 ]
      - [ 1.56118977e+00, 4.28120285e-01, 3.31963062e+00 ]
      - [ 2.51220942e+00, 4.40022647e-01, 3.23813939e+00 ]
      - [ 1.33308220e+00, 3.17957193e-01, 4.47470474e+00 ]
      - [ 1.85157287e+00, 4.19546753e-01, 3.30874848e+00 ]
      - [ 1.65949357e+00, 3.19731951e-01, 4.46494246e+00 ]
      - [ 1.94128728e+00, 3.29024613e-01, 4.09815550e+00 ]
      - [ 1.56591451e+00, 3.75566036e-01, 3.58683586e+00 ]
      - [ 3.21379590e+00, 3.38988304e-01, 4.04756784e+00 ]
      - [ 1.44213676e+00, 3.98726612e-01, 3.57785082e+00 ]
      - [ 2.18443871e+00, 3.03607345e-01, 4.89385271e+00 ]
      - [ 2.74259233e+00, 6.02428019e-01, 2.66437864e+00 ]
      - [ 1.80025768e+00, 4.36552376e-01, 3.19921160e+00 ]
      - [ 2.02065945e+00, 4.27800566e-01, 3.28002906e+00 ]
      - [ 4.70795488e+00, 3.32754731e-01, 4.09381390e+00 ]
      - [ 1.66669118e+00, 3.95950884e-01, 3.47485352e+00 ]
      - [ 1.92479753e+00, 4.08663601e-01, 3.35924864e+00 ]
      - [ 3.45606828e+00, 3.60477298e-01, 3.80392361e+00 ]
      - [ 1.65259659e+00, 4.50177789e-01, 3.12514091e+00 ]
      - [ 2.47502685e+00, 3.98869902e-01, 3.45240998e+00 ]
      - [ 1.86038220e+00, 3.74603987e-01, 3.52912712e+00 ]
      - [ 1.60287642e+00, 3.59842002e-01, 3.85517073e+00 ]
      - [ 2.54915452e+00, 3.47880334e-01, 4.02964306e+00 ]
      - [ 2.51981091e+00, 3.92909169e-01, 3.58709240e+00 ]
      - [ 2.34108329e+00, 3.22034359e-01, 4.59951401e+00 ]
      - [ 1.50132132e+00, 3.69456470e-01, 3.84973073e+00 ]
      - [ 2.19950223e+00, 3.96103472e-01, 3.41114688e+00 ]
      - [ 2.07364964e+00, 4.03362900e-01, 3.37339401e+00 ]
      - [ 2.49581194e+00, 4.41274136e-01, 3.23686814e+00 ]
      - [ 1.35925698e+00, 3.59504670e-01, 3.78289127e+00 ]
      - [ 2.85142827e+00, 4.32782561e-01, 3.19542170e+00 ]
      - [ 1.83429027e+00, 2.17508867e-01, 7.12628651e+00 ]
      - [ 1.56127095e+00, 4.00996953e-01, 3.43270159e+00 ]
      - [ 6.63130093e+00, 4.53309238e-01, 3.26198697e+00 ]
      - [ 1.58993936e+00, 3.47837269e-01, 3.87407780e+00 ]
      - [ 1.77112758e+00, 4.06106025e-01, 3.36941433e+00 ]
      - [ 2.12050414e+00, 2.04721734e-01, 6.85280609e+00 ]
      - [ 1.49398172e+00, 3.32810909e-01, 4.46383381e+00 ]
      - [ 1.53425550e+00, 3.61590892e-01, 4.02938747e+00 ]
      - [ 2.25620055e+00, 3.26484233e-01, 4.38662672e+00 ]
      - [ 2.52472973e+00, 3.38329494e-01, 3.96057558e+00 ]
      - [ 1.83319199e+00, 3.24786097e-01, 4.26672649e+00 ]
      - [ 1.88797390e+00, 4.28958088e-01, 3.27961159e+00 ]
      - [ 1.62927139e+00, 3.46211761e-01, 4.03382826e+00 ]
      - [ 2.00986767e+00, 3.61266226e-01, 3.69453430e+00 ]
      - [ 2.07213736e+00, 3.28368336e-01, 4.41877985e+00 ]
      - [ 1.60086429e+00, 3.81080806e-01, 3.65989447e+00 ]
      - [ 1.58772230e+00, 3.94708335e-01, 3.49509358e+00 ]
      - [ 2.43231916e+00, 3.87231916e-01, 3.55618191e+00 ]
      - [ 1.53257167e+00, 3.78232956e-01, 3.72722793e+00 ]
      - [ 1.65947306e+00, 4.12957221e-01, 3.35631824e+00 ]
      - [ 1.82466960e+00, 3.28600138e-01, 4.06505632e+00 ]
      - [ 1.61721778e+00, 3.60807091e-01, 3.81692243e+00 ]
      - [ 1.76716578e+00, 4.52571958e-01, 3.01802945e+00 ]
      - [ 1.61394799e+00, 3.40652734e-01, 3.92315507e+00 ]
      - [ 3.35666347e+00, 3.80535156e-01, 3.81392503e+00 ]
      - [ 2.35178256e+00, 4.03430074e-01, 3.43469644e+00 ]
      - [ 1.47350156e+00, 3.29609305e-01, 4.20920038e+00 ]
      - [ 2.14831591e+00, 3.98843378e-01, 3.31054878e+00 ]
      - [ 3.69797468e+00, 3.60390514e-01, 3.91455770e+00 ]
      - [ 2.49398971e+00, 4.15380239e-01, 3.31873584e+00 ]
      - [ 1.82271183e+00, 4.47384477e-01, 3.12737656e+00 ]
      - [ 1.92976487e+00, 3.70117873e-01, 3.58715439e+00 ]
      - [ 2.36463642e+00, 4.20202792e-01, 3.17885041e+00 ]
      - [ 1.81620765e+00, 3.91343594e-01, 3.39828348e+00 ]
      - [ 1.56659961e+00, 4.94585365e-01, 2.84846830e+00 ]
      - [ 2.36180949e+00, 4.19426292e-01, 3.35193992e+00 ]
      - [ 1.77650559e+00, 4.50546026e-01, 3.12423348e+00 ]
      - [ 1.22665262e+00, 3.67604971e-01, 3.79045105e+00 ]
      - [ 1.65831089e+00, 3.71668518e-01, 3.66045046e+00 ]
      - [ 2.16304588e+00, 3.99780095e-01, 3.42636395e+00 ]
      - [ 1.75522804e+00, 4.21172827e-01, 3.34457326e+00 ]
      - [ 1.70162392e+00, 3.62393767e-01, 3.62894583e+00 ]
      - [ 1.43146920e+00, 3.37724924e-01, 4.20180511e+00 ]
      - [ 3.66701198e+00, 3.51931453e-01, 4.07046270e+00 ]
      - [ 1.66042054e+00, 3.92837673e-01, 3.51187897e+00 ]
      - [ 1.88601935e+00, 3.95905614e-01, 3.39119434e+00 ]
      - [ 1.66711617e+00, 3.32577705e-01, 4.25376463e+00 ]
      - [ 4.06801128e+00, 3.74007314e-01, 3.79464126e+00 ]
      - [ 2.26052999e+00, 4.12664473e-01, 3.28951359e+00 ]
      - [ 3.24665737e+00, 3.80026639e-01, 3.62674475e+00 ]
      - [ 1.43497813e+00, 3.29485834e-01, 4.53593826e+00 ]
      - [ 2.61228228e+00, 3.04424256e-01, 4.81877756e+00 ]
      - [ 1.79193795e+00, 4.40366447e-01, 3.28398657e+00 ]
      - [ 1.74275541e+00, 4.33245033e-01, 3.17468715e+00 ]
      - [ 1.76456070e+00, 4.08239961e-01, 3.37380123e+00 ]
      - [ 2.98501444e+00, 4.19681847e-01, 3.35843539e+00 ]
      - [ 1.89510739e+00, 3.15505505e-01, 4.43549776e+00 ]
      - [ 2.23893428e+00, 4.32920247e-01, 3.12877035e+00 ]
      - [ 1.85690486e+00, 3.84575546e-01, 3.48412538e+00 ]
      - [ 3.00453234e+00, 4.05142456e-01, 3.64397645e+00 ]
      - [ 1.73660886e+00, 4.12027329e-01, 3.36462021e+00 ]
      - [ 2.16455030e+00, 3.24907631e-01, 4.20822477e+00 ]
      - [ 1.51841938e+00, 3.86070162e-01, 3.61245370e+00 ]
      - [ 2.41286159e+00, 4.44075048e-01, 3.13573265e+00 ]
      - [ 2.60335898e+00, 3.59087437e-01, 3.72212601e+00 ]
      - [ 1.62801600e+00, 4.00155008e-01, 3.37369943e+00 ]
      - [ 2.14153194e+00, 4.10122454e-01, 3.31124401e+00 ]
      - [ 1.69279921e+00, 2.95693010e-01, 4.79717493e+00 ]
      - [ 1.74003470e+00, 3.45191896e-01, 3.89494586e+00 ]
      - [ 1.88601577e+00, 3.73234153e-01, 3.59443521e+00 ]
      - [ 2.19756556e+00, 2.80006081e-01, 5.25138617e+00 ]
      - [ 2.28887391e+00, 3.28439385e-01, 4.41515064e+00 ]
      - [ 2.10828924e+00, 4.24859166e-01, 3.24554300e+00 ]
      - [ 2.10031343e+00, 3.88454556e-01, 3.48230529e+00 ]
      - [ 3.44459033e+00, 3.20522636e-01, 4.51396656e+00 ]
      - [ 1.56718099e+00, 3.39154512e-01, 4.33729172e+00 ]
      - [ 2.03675985e+00, 5.43853462e-01, 2.93607020e+00 ]
      - [ 1.49160480e+00, 3.39018464e-01, 4.17733669e+00 ]
      - [ 2.11700654e+00, 4.07581210e-01, 3.39084983e+00 ]
      - [ 1.55258536e+00, 3.69257480e-01, 3.70927501e+00 ]
      - [ 2.56384254e+00, 3.59910429e-01, 3.89757442e+00 ]
      - [ 2.01864338e+00, 3.21634680e-01, 4.31468773e+00 ]
      - [ 1.79594815e+00, 3.83158267e-01, 3.52830458e+00 ]
      - [ 2.30878043e+00, 3.92468125e-01, 3.46651983e+00 ]
      - [ 2.23240376e+00, 3.79567951e-01, 3.56002283e+00 ]
      - [ 1.62793624e+00, 3.12500447e-01, 4.67782831e+00 ]
      - [ 1.67709291e+00, 3.44024122e-01, 3.93469238e+00 ]
      - [ 2.05621600e+00, 4.20814693e-01, 3.23758340e+00 ]
      - [ 2.09589195e+00, 4.31052804e-01, 3.23458409e+00 ]
      - [ 1.58394289e+00, 3.66469055e-01, 3.72707319e+00 ]
      - [ 1.82093120e+00, 4.13890868e-01, 3.31969547e+00 ]
      - [ 2.03579998e+00, 4.37606573e-01, 3.19026470e+00 ]
      - [ 2.08540177e+00, 4.05793190e-01, 3.33271956e+00 ]
      - [ 1.69922149e+00, 3.98565114e-01, 3.44322896e+00 ]
      - [ 2.68229485e+00, 3.61336917e-01, 3.82450151e+00 ]
      - [ 1.65881610e+00, 3.84950459e-01, 3.48440957e+00 ]
      - [ 1.56299186e+00, 3.52262259e-01, 3.96424294e+00 ]
      - [ 1.64570463e+00, 3.34554434e-01, 4.36409521e+00 ]
      - [ 1.93536305e+00, 2.75003403e-01, 5.27817535e+00 ]
      - [ 1.99136376e+00, 4.33340549e-01, 3.25661302e+00 ]
      - [ 1.62060201e+00, 3.79947007e-01, 3.59169245e+00 ]
      - [ 1.99586701e+00, 4.62042898e-01, 2.97885919e+00 ]
      - [ 1.61957026e+00, 3.31682980e-01, 4.26608276e+00 ]
      - [ 1.79331720e+00, 4.60893452e-01, 3.09378099e+00 ]
      - [ 1.66893888e+00, 3.57569069e-01, 3.74639726e+00 ]
      - [ 1.81432891e+00, 3.73108447e-01, 3.57822251e+00 ]
      - [ 2.07881880e+00, 4.35235143e-01, 3.29338408e+00 ]
      - [ 2.60645318e+00, 3.21669608e-01, 4.19944525e+00 ]
      - [ 1.67303753e+00, 4.53321785e-01, 3.05788445e+00 ]
      - [ 1.62978804e+00, 3.66576999e-01, 3.73261046e+00 ]
      - [ 1.74474084e+00, 3.24184567e-01, 4.27125502e+00 ]
      - [ 2.18078327e+00, 4.27217782e-01, 3.21869063e+00 ]
      - [ 1.68828583e+00, 3.15984249e-01, 4.36076069e+00 ]
      - [ 1.82093048e+00, 4.31673557e-01, 3.29300761e+00 ]
      - [ 1.96467412e+00, 4.37620163e-01, 3.12543917e+00 ]
      - [ 1.58700621e+00, 3.75640392e-01, 3.64403343e+00 ]
      - [ 1.70266712e+00, 3.90383273e-01, 3.46906853e+00 ]
      - [ 1.84324026e+00, 4.08820182e-01, 3.35917234e+00 ]
      - [ 3.42328525e+00, 2.90829748e-01, 5.17417383e+00 ]
      - [ 2.68632770e+00, 3.77808124e-01, 3.66777301e+00 ]
      - [ 1.55740929e+00, 3.51386547e-01, 4.17162848e+00 ]
      - [ 1.66002512e+00, 3.90588582e-01, 3.52073288e+00 ]
      - [ 2.31235385e+00, 4.33846295e-01, 3.25093055e+00 ]
      - [ 1.89010572e+00, 3.99628609e-01, 3.35674930e+00 ]
      - [ 2.06905985e+00, 4.11589473e-01, 3.31602693e+00 ]
      - [ 2.14158916e+00, 4.34725851e-01, 3.25213456e+00 ]
      - [ 1.51367295e+00, 3.47984493e-01, 4.10250998e+00 ]
      - [ 1.94634879e+00, 4.10393775e-01, 3.35007691e+00 ]
      - [ 2.18067384e+00, 4.09207493e-01, 3.32106924e+00 ]
      - [ 2.32600141e+00, 4.46272194e-01, 3.22779870e+00 ]
      - [ 1.58913028e+00, 3.90277296e-01, 3.51769757e+00 ]
      - [ 1.65966392e+00, 3.43481898e-01, 4.02773142e+00 ]
      - [ 2.17529631e+00, 3.84209305e-01, 3.47273254e+00 ]
      - [ 3.29664540e+00, 3.61952364e-01, 3.89563227e+00 ]
      - [ 2.63291073e+00, 3.52915972e-01, 3.85667801e+00 ]
      - [ 1.83595729e+00, 4.18964505e-01, 3.33116198e+00 ]
      - [ 1.89867628e+00, 3.07879061e-01, 4.76955795e+00 ]
      - [ 2.21829152e+00, 3.93964171e-01, 3.46611834e+00 ]
      - [ 1.82787979e+00, 4.39430386e-01, 3.25047088e+00 ]
      - [ 2.60302591e+00, 4.03455019e-01, 3.36098313e+00 ]
      - [ 2.06761193e+00, 3.99357975e-01, 3.28373313e+00 ]
      - [ 4.16554165e+00, 4.21014220e-01, 3.42775106e+00 ]
      - [ 1.71831346e+00, 3.38586956e-01, 3.99232531e+00 ]
      - [ 1.99582040e+00, 3.70761216e-01, 3.60550785e+00 ]
      - [ 4.32428885e+00, 3.81542176e-01, 3.70225477e+00 ]
      - [ 2.03754711e+00, 4.17995304e-01, 3.31782722e+00 ]
      - [ 2.14189959e+00, 4.07057315e-01, 3.38646436e+00 ]
      - [ 1.68563139e+00, 3.73080373e-01, 3.59721088e+00 ]
      - [ 1.64877856e+00, 3.60784739e-01, 3.73836756e+00 ]
      - [ 1.67232442e+00, 4.28963423e-01, 3.25840163e+00 ]
      - [ 1.54550803e+00, 3.68260354e-01, 3.85156107e+00 ]
      - [ 2.28418398e+00, 3.58232558e-01, 3.72032666e+00 ]
      - [ 1.87305629e+00, 2.45052353e-01, 5.68987894e+00 ]
      - [ 1.72803295e+00, 4.05679643e-01, 3.39204168e+00 ]
      - [ 2.54530597e+00, 4.21735734e-01, 3.28060484e+00 ]
      - [ 1.65502775e+00, 4.33081180e-01, 3.28742290e+00 ]
      - [ 1.54012501e+00, 3.56515586e-01, 4.10506821e+00 ]
      - [ 1.66787195e+00, 4.27424341e-01, 3.30658317e+00 ]
      - [ 2.05819321e+00, 2.99745917e-01, 4.63461447e+00 ]
      - [ 2.36204553e+00, 3.56706023e-01, 3.76341009e+00 ]
      - [ 1.84680188e+00, 4.12242174e-01, 3.35814214e+00 ]
      - [ 1.69580877e+00, 4.38276768e-01, 3.13767409e+00 ]
      - [ 2.05125046e+00, 4.49913442e-01, 3.15524435e+00 ]
      - [ 1.66318989e+00, 3.20342779e-01, 4.35942268e+00 ]
      - [ 1.85900271e+00, 3.66001904e-01, 3.70491385e+00 ]
      - [ 1.76395190e+00, 3.38736206e-01, 4.02039957e+00 ]
      - [ 2.22749400e+00, 3.86732519e-01, 3.59097695e+00 ]
      - [ 1.66919458e+00, 3.52091491e-01, 3.91971827e+00 ]
      - [ 2.20431972e+00, 3.54074419e-01, 3.86204433e+00 ]
      - [ 2.44261980e+00, 4.07638878e-01, 3.41239643e+00 ]
      - [ 1.51264155e+00, 3.75728309e-01, 3.64058065e+00 ]
      - [ 1.76770961e+00, 3.59808087e-01, 3.90199375e+00 ]
      - [ 1.51006079e+00, 4.09698546e-01, 3.76230574e+00 ]
      - [ 2.20453238e+00, 4.03685063e-01, 3.28062081e+00 ]
      - [ 1.84730780e+00, 4.37335402e-01, 3.23658609e+00 ]
      - [ 1.72438073e+00, 3.50110650e-01, 3.99058032e+00 ]
      - [ 1.76325190e+00, 3.41912568e-01, 3.99025893e+00 ]
      - [ 1.62002742e+00, 4.18962628e-01, 3.44900513e+00 ]
      - [ 1.93022788e+00, 3.40750992e-01, 4.04405880e+00 ]
      - [ 1.85003674e+00, 3.34952921e-01, 4.19551992e+00 ]
      - [ 2.44373059e+00, 3.60578299e-01, 3.82844472e+00 ]
      - [ 1.88832819e+00, 3.40160251e-01, 4.02557087e+00 ]
      - [ 2.14696717e+00, 4.14941788e-01, 3.24885201e+00 ]
      - [ 2.15952897e+00, 3.37659091e-01, 4.02799940e+00 ]
      - [ 2.53628802e+00, 4.08591062e-01, 3.43007779e+00 ]
      - [ 1.74580026e+00, 4.25088793e-01, 3.33925462e+00 ]
      - [ 2.01798296e+00, 4.42452520e-01, 3.45986605e+00 ]
      - [ 2.42068720e+00, 3.83219272e-01, 3.55927849e+00 ]
      - [ 2.30241966e+00, 3.73723745e-01, 3.62526679e+00 ]
      - [ 1.71148741e+00, 3.39658141e-01, 4.11151314e+00 ]
      - [ 2.42979121e+00, 4.32739347e-01, 3.25111794e+00 ]
      - [ 2.03006697e+00, 3.32590789e-01, 4.06338787e+00 ]
      - [ 1.66978431e+00, 3.62614423e-01, 3.97304988e+00 ]
      - [ 1.60093868e+00, 4.13598001e-01, 3.23432136e+00 ]
      - [ 1.86610973e+00, 3.08811307e-01, 4.70009613e+00 ]
      - [ 1.86553669e+00, 4.42995876e-01, 3.17187905e+00 ]
      - [ 2.10882616e+00, 3.70544702e-01, 3.81395888e+00 ]
      - [ 1.78704894e+00, 3.40310872e-01, 4.00590181e+00 ]
      - [ 2.03238988e+00, 3.38575959e-01, 3.97353339e+00 ]
      - [ 1.83802700e+00, 3.38102043e-01, 3.97834611e+00 ]
      - [ 2.32172608e+00, 3.86293590e-01, 3.56068635e+00 ]
      - [ 1.86728799e+00, 3.28777224e-01, 4.11361074e+00 ]
      - [ 2.35894656e+00, 4.52971131e-01, 3.04486823e+00 ]
      - [ 1.75079417e+00, 3.56509835e-01, 3.90722561e+00 ]
      - [ 1.52662551e+00, 3.54285061e-01, 3.94393253e+00 ]
      - [ 2.23968148e+00, 3.49113286e-01, 4.03205633e+00 ]
      - [ 2.22687125e+00, 4.21494216e-01, 3.35154057e+00 ]
      - [ 2.49937201e+00, 3.67338568e-01, 3.75843525e+00 ]
      - [ 1.78858781e+00, 4.42452669e-01, 3.04490876e+00 ]
      - [ 1.81715655e+00, 4.37132150e-01, 3.05459833e+00 ]
      - [ 1.65511656e+00, 4.22065675e-01, 3.19363070e+00 ]
      - [ 1.75547314e+00, 3.38955671e-01, 3.96192074e+00 ]
      - [ 2.00377321e+00, 3.38752389e-01, 4.02695131e+00 ]
      - [ 1.78392422e+00, 3.33243310e-01, 4.04938030e+00 ]
      - [ 1.57903540e+00, 3.20502609e-01, 4.33610868e+00 ]
      - [ 1.64888489e+00, 3.50282341e-01, 3.95448995e+00 ]
      - [ 2.56636786e+00, 3.81479144e-01, 3.79299521e+00 ]
      - [ 1.62195146e+00, 4.30279195e-01, 3.13682842e+00 ]
      - [ 2.24079370e+00, 3.92834663e-01, 3.42706084e+00 ]
      - [ 2.07442307e+00, 4.54110920e-01, 2.96727705e+00 ]
      - [ 1.66242099e+00, 3.40831399e-01, 3.98440146e+00 ]
      - [ 2.26668024e+00, 3.93202811e-01, 3.43470359e+00 ]
      - [ 2.07958746e+00, 4.47559208e-01, 3.05138874e+00 ]
      - [ 2.15807748e+00, 3.56517792e-01, 3.92148924e+00 ]
      - [ 2.17573881e+00, 3.61326545e-01, 3.88210392e+00 ]
      - [ 2.07259917e+00, 4.32754397e-01, 3.34352136e+00 ]
      - [ 2.80834556e+00, 4.31606144e-01, 3.10532117e+00 ]
      - [ 1.87314510e+00, 3.45326215e-01, 3.97809887e+00 ]
      - [ 2.58398438e+00, 4.12978202e-01, 3.21683192e+00 ]
      - [ 2.18421817e+00, 4.05298531e-01, 3.22542262e+00 ]
      - [ 2.13806653e+00, 4.19679821e-01, 3.21899843e+00 ]
      - [ 1.70255899e+00, 3.44773948e-01, 3.93886232e+00 ]
      - [ 2.40113068e+00, 4.02528524e-01, 3.38618279e+00 ]
      - [ 1.55955541e+00, 3.15556496e-01, 4.45024347e+00 ]
      - [ 2.09856844e+00, 3.96098703e-01, 3.55875874e+00 ]
      - [ 1.60972989e+00, 3.17556083e-01, 4.35185385e+00 ]
      - [ 1.47443128e+00, 4.48987961e-01, 3.13693786e+00 ]
      - [ 2.13471031e+00, 4.89346355e-01, 3.08728600e+00 ]
      - [ 1.60740590e+00, 3.43455702e-01, 4.03319597e+00 ]
      - [ 2.05004716e+00, 3.54020268e-01, 4.00030613e+00 ]
      - [ 2.15687609e+00, 4.10681218e-01, 3.31484151e+00 ]
      - [ 2.65944958e+00, 3.74267191e-01, 3.56465864e+00 ]
      - [ 2.30867314e+00, 3.71717602e-01, 3.61402702e+00 ]
      - [ 2.04779243e+00, 4.29586202e-01, 3.04792380e+00 ]
      - [ 2.26026845e+00, 3.86137575e-01, 3.44665146e+00 ]
      - [ 1.64418304e+00, 2.93934017e-01, 4.85161161e+00 ]
      - [ 2.46281838e+00, 3.91920477e-01, 3.47958803e+00 ]
      - [ 1.90383816e+00, 4.48295683e-01, 3.12467098e+00 ]
      - [ 1.70979834e+00, 3.27200562e-01, 4.21453333e+00 ]
      - [ 1.54663289e+00, 3.59636426e-01, 3.85646987e+00 ]
      - [ 1.55006838e+00, 3.66785288e-01, 3.73720837e+00 ]
      - [ 1.81523037e+00, 3.49970400e-01, 3.99595475e+00 ]
      - [ 2.01245952e+00, 3.64347428e-01, 3.92267990e+00 ]
      - [ 2.17905331e+00, 3.80189598e-01, 3.70063686e+00 ]
      - [ 2.29171920e+00, 3.84966135e-01, 3.42328596e+00 ]
      - [ 2.18485999e+00, 4.16136503e-01, 3.56183529e+00 ]
      - [ 2.02887416e+00, 4.10091817e-01, 3.48356032e+00 ]
      - [ 1.84760439e+00, 3.47247690e-01, 4.00828314e+00 ]
      - [ 2.19184494e+00, 4.17541414e-01, 3.22495985e+00 ]
      - [ 1.75591016e+00, 3.28542739e-01, 4.14956045e+00 ]
      - [ 2.39856219e+00, 3.90979618e-01, 3.65563846e+00 ]
      - [ 1.96037149e+00, 4.29388493e-01, 3.13620925e+00 ]
      - [ 1.97796857e+00, 4.06143904e-01, 3.49287224e+00 ]
      - [ 2.80221796e+00, 3.95109683e-01, 3.48296690e+00 ]
      - [ 1.84994423e+00, 4.36663955e-01, 3.11653876e+00 ]
      - [ 2.09997535e+00, 3.44773173e-01, 4.02271843e+00 ]
      - [ 1.78754425e+00, 3.37026656e-01, 4.19210863e+00 ]
      - [ 1.93741715e+00, 4.13365096e-01, 3.41216159e+00 ]
      - [ 3.96316862e+00, 3.89562041e-01, 3.44620657e+00 ]
      - [ 2.27151060e+00, 3.40671718e-01, 4.05711031e+00 ]
      - [ 1.71810985e+00, 3.98097873e-01, 3.62981820e+00 ]
      - [ 1.86915898e+00, 2.84284294e-01, 5.06623077e+00 ]
      - [ 1.29176950e+00, 2.99374044e-01, 4.72127390e+00 ]
      - [ 2.38500166e+00, 3.86774629e-01, 3.44060707e+00 ]
      - [ 1.88049066e+00, 3.98729354e-01, 3.60635638e+00 ]
      - [ 2.25310278e+00, 5.29214323e-01, 2.65000534e+00 ]
      - [ 2.84458613e+00, 3.63381147e-01, 3.68683147e+00 ]
      - [ 1.68210876e+00, 2.68314093e-01, 5.25436306e+00 ]
      - [ 1.65594304e+00, 3.44785035e-01, 4.05842972e+00 ]
      - [ 2.29256368e+00, 3.72888088e-01, 3.69474220e+00 ]
      - [ 1.80742788e+00, 3.33684176e-01, 4.09067822e+00 ]
      - [ 1.53824389e+00, 3.40174943e-01, 4.11026287e+00 ]
      - [ 1.85726893e+00, 4.29823458e-01, 3.37758398e+00 ]
      - [ 1.59961832e+00, 4.16440398e-01, 3.19596171e+00 ]
      - [ 2.27124763e+00, 3.91020566e-01, 3.39746284e+00 ]
      - [ 2.26642203e+00, 3.79901975e-01, 3.60158896e+00 ]
      - [ 2.06909752e+00, 4.14410144e-01, 3.37448883e+00 ]
      - [ 2.18025064e+00, 4.31434304e-01, 3.07819533e+00 ]
      - [ 1.54255402e+00, 4.26571012e-01, 3.24805403e+00 ]
      - [ 1.97024643e+00, 4.42455679e-01, 3.05318427e+00 ]
      - [ 1.63416100e+00, 3.54595840e-01, 3.93664646e+00 ]
      - [ 2.00997567e+00, 3.37449431e-01, 4.22955465e+00 ]
      - [ 2.06754422e+00, 3.44198585e-01, 3.95657563e+00 ]
      - [ 1.87930369e+00, 3.22962135e-01, 4.28340530e+00 ]
      - [ 2.29150605e+00, 4.23501730e-01, 3.21060348e+00 ]
      - [ 1.73631287e+00, 4.30255294e-01, 3.03470850e+00 ]
      - [ 2.01863956e+00, 4.12844419e-01, 3.44413733e+00 ]
      - [ 1.73079097e+00, 4.22055691e-01, 3.33033943e+00 ]
      - [ 2.33805728e+00, 3.60471576e-01, 3.67120767e+00 ]
      - [ 2.36118007e+00, 3.99438709e-01, 3.37546253e+00 ]
      - [ 1.83325684e+00, 3.25889409e-01, 4.37373352e+00 ]
      - [ 1.96452188e+00, 3.31770182e-01, 4.03680897e+00 ]
      - [ 1.86148071e+00, 4.35936242e-01, 3.15583897e+00 ]
      - [ 1.79791856e+00, 3.41213942e-01, 4.08992052e+00 ]
      - [ 1.68981862e+00, 3.40372205e-01, 4.04941940e+00 ]
      - [ 1.51925147e+00, 4.36144650e-01, 3.16815305e+00 ]
      - [ 2.12138462e+00, 3.29483807e-01, 4.01684189e+00 ]
      - [ 1.86903191e+00, 3.25252682e-01, 4.15365267e+00 ]
      - [ 2.02922583e+00, 3.61269444e-01, 3.88765073e+00 ]
      - [ 2.04810667e+00, 3.16063643e-01, 4.40096807e+00 ]
      - [ 2.42908716e+00, 3.66655648e-01, 3.69151878e+00 ]
      - [ 2.23336983e+00, 3.40609252e-01, 4.23587847e+00 ]
      - [ 1.91176474e+00, 3.92577320e-01, 3.67313027e+00 ]
      - [ 1.68409407e+00, 4.22074169e-01, 3.39133644e+00 ]
      - [ 1.96865916e+00, 3.42865914e-01, 3.96323466e+00 ]
      - [ 1.80121756e+00, 2.84644365e-01, 4.99280119e+00 ]
      - [ 1.71540523e+00, 3.54202300e-01, 3.93227839e+00 ]
      - [ 2.48955345e+00, 3.95591944e-01, 3.47371793e+00 ]
      - [ 2.22041249e+00, 3.36757571e-01, 3.97197986e+00 ]
      - [ 2.47489595e+00, 3.89344513e-01, 3.58592224e+00 ]
      - [ 1.38904822e+00, 1.49559960e-01, 9.27540874e+00 ]
      - [ 2.27996445e+00, 3.31179857e-01, 4.31668901e+00 ]
      - [ 1.58844268e+00, 3.88918340e-01, 3.63446808e+00 ]
      - [ 2.44823933e+00, 3.66532803e-01, 3.67133307e+00 ]
      - [ 2.23446751e+00, 3.74978304e-01, 3.69605565e+00 ]
      - [ 2.28726029e+00, 3.84602726e-01, 3.49095154e+00 ]
      - [ 1.73025215e+00, 3.46328199e-01, 4.05485439e+00 ]
      - [ 2.03132653e+00, 3.08254272e-01, 4.43031836e+00 ]
      - [ 2.21163273e+00, 4.16243553e-01, 3.26496339e+00 ]
      - [ 1.97347200e+00, 4.27436560e-01, 3.27491498e+00 ]
      - [ 1.80981708e+00, 3.36227864e-01, 4.09396315e+00 ]
      - [ 1.67543972e+00, 3.40831876e-01, 4.02732277e+00 ]
      - [ 2.16328883e+00, 3.45678478e-01, 4.03849030e+00 ]
      - [ 2.10104918e+00, 4.40561682e-01, 3.11658359e+00 ]
      - [ 2.16157627e+00, 4.22500819e-01, 3.20514369e+00 ]
      - [ 6.04833317e+00, 3.83277923e-01, 3.63430643e+00 ]
      - [ 2.27458525e+00, 3.16746473e-01, 4.24223995e+00 ]
      - [ 2.23413467e+00, 3.48729253e-01, 3.89934444e+00 ]
      - [ 1.66576695e+00, 3.28978896e-01, 4.19519949e+00 ]
      - [ 1.76046944e+00, 3.46487284e-01, 3.94288421e+00 ]
      - [ 1.77701116e+00, 3.47602725e-01, 4.02262020e+00 ]
      - [ 2.02079749e+00, 3.16882581e-01, 4.32989836e+00 ]
      - [ 2.11343265e+00, 3.61689985e-01, 3.93933582e+00 ]
      - [ 2.28815007e+00, 2.66409069e-01, 5.32165432e+00 ]
      - [ 2.18558645e+00, 4.46560442e-01, 3.21146059e+00 ]
      - [ 1.89873743e+00, 3.43179435e-01, 3.95164084e+00 ]
      - [ 2.12781239e+00, 3.37440938e-01, 3.99300027e+00 ]
      - [ 2.12162757e+00, 3.37790102e-01, 4.13232899e+00 ]
      - [ 1.78659427e+00, 3.20687443e-01, 4.29594326e+00 ]
      - [ 2.52173328e+00, 3.67161393e-01, 3.76758361e+00 ]
      - [ 1.98143303e+00, 2.78604537e-01, 5.33065224e+00 ]
      - [ 1.81383157e+00, 4.35954332e-01, 3.07549667e+00 ]
      - [ 2.11251569e+00, 4.35022473e-01, 3.23825455e+00 ]
      - [ 1.83294356e+00, 4.25998032e-01, 3.27728009e+00 ]
      - [ 1.92668569e+00, 3.57539982e-01, 3.97594714e+00 ]
      - [ 1.96052635e+00, 4.38448370e-01, 3.10548329e+00 ]
      - [ 1.61463523e+00, 3.18306357e-01, 4.12281752e+00 ]
      - [ 1.84968567e+00, 3.42107862e-01, 4.11346245e+00 ]
      - [ 1.89448071e+00, 4.24839497e-01, 3.30839252e+00 ]
      - [ 2.54383659e+00, 4.60180998e-01, 3.04039979e+00 ]
      - [ 1.97182357e+00, 3.50319356e-01, 3.94209266e+00 ]
      - [ 1.74292052e+00, 3.47160459e-01, 3.94945908e+00 ]
      - [ 2.20776820e+00, 3.54031354e-01, 3.93226218e+00 ]
      - [ 1.84165025e+00, 3.38969648e-01, 3.96645880e+00 ]
      - [ 2.16036892e+00, 3.24635535e-01, 4.11617231e+00 ]
      - [ 1.75548458e+00, 3.27003628e-01, 4.25305033e+00 ]
      - [ 1.74457669e+00, 3.66640270e-01, 3.92799950e+00 ]
      - [ 2.90916109e+00, 3.60909104e-01, 3.84306622e+00 ]
      - [ 2.55159593e+00, 4.34847504e-01, 3.23580837e+00 ]
      - [ 2.12957764e+00, 4.75975573e-01, 2.97716904e+00 ]
      - [ 2.00757885e+00, 4.31168228e-01, 3.21718001e+00 ]
      - [ 2.75878239e+00, 4.13166612e-01, 3.34153914e+00 ]
      - [ 2.43445897e+00, 4.09206241e-01, 3.31387925e+00 ]
      - [ 2.36411881e+00, 4.01950151e-01, 3.40032005e+00 ]
      - [ 2.26488495e+00, 3.55832368e-01, 3.74629116e+00 ]
      - [ 2.37079835e+00, 3.96757662e-01, 3.39033723e+00 ]
      - [ 2.11673784e+00, 3.47000420e-01, 3.98883867e+00 ]
      - [ 1.55415750e+00, 4.21711922e-01, 3.31293654e+00 ]
      - [ 2.76029277e+00, 4.38742846e-01, 3.06878400e+00 ]
      - [ 1.76560152e+00, 3.38072032e-01, 4.03771114e+00 ]
      - [ 2.29809546e+00, 3.70460302e-01, 3.59244967e+00 ]
      - [ 2.38519120e+00, 3.73092383e-01, 3.53596807e+00 ]
      - [ 1.18008506e+00, 3.01307559e-01, 4.54515648e+00 ]
      - [ 2.45858860e+00, 3.59945208e-01, 3.81572938e+00 ]
      - [ 2.33771348e+00, 3.82500708e-01, 3.66313672e+00 ]
      - [ 2.35583568e+00, 3.58907700e-01, 3.77363110e+00 ]
      - [ 1.64335048e+00, 3.42729837e-01, 3.94647503e+00 ]
      - [ 1.76330543e+00, 3.62992316e-01, 3.87386799e+00 ]
      - [ 1.52548993e+00, 3.84852916e-01, 3.61085558e+00 ]
      - [ 2.40528870e+00, 2.67533839e-01, 5.15147972e+00 ]
      - [ 1.91717172e+00, 4.40990210e-01, 3.11361051e+00 ]
      - [ 2.18179989e+00, 4.06349868e-01, 3.40078735e+00 ]
      - [ 1.63144827e+00, 3.45774502e-01, 3.97804213e+00 ]
      - [ 2.43228269e+00, 3.86841893e-01, 3.46424246e+00 ]
      - [ 1.60312390e+00, 3.43116730e-01, 3.97418141e+00 ]
      - [ 1.58721876e+00, 3.37692291e-01, 3.93682671e+00 ]
      - [ 2.25767803e+00, 3.99795681e-01, 3.50332952e+00 ]
      - [ 1.91015899e+00, 3.61647844e-01, 3.87845230e+00 ]
      - [ 2.33424211e+00, 4.06689584e-01, 3.31099916e+00 ]
      - [ 1.83880067e+00, 3.29967707e-01, 4.16813660e+00 ]
      - [ 2.03457618e+00, 3.44370097e-01, 4.02725172e+00 ]
      - [ 2.25151467e+00, 3.84709924e-01, 3.53653717e+00 ]
      - [ 1.86366594e+00, 4.63717610e-01, 3.11912131e+00 ]
      - [ 1.89343953e+00, 3.81423354e-01, 3.79124594e+00 ]
      - [ 1.84562492e+00, 3.38118106e-01, 4.13493490e+00 ]
      - [ 2.32164550e+00, 3.59498441e-01, 3.66687465e+00 ]
      - [ 1.53386283e+00, 4.00840670e-01, 3.36619973e+00 ]
      - [ 2.22164035e+00, 3.49725217e-01, 3.88209295e+00 ]
      - [ 1.79687250e+00, 3.43385994e-01, 3.97346711e+00 ]
      - [ 1.62900674e+00, 3.40798885e-01, 4.11270952e+00 ]
      - [ 2.31283975e+00, 3.78528029e-01, 3.56773400e+00 ]
      - [ 1.83242428e+00, 3.55914444e-01, 4.06406546e+00 ]
      - [ 1.51770568e+00, 3.37371558e-01, 4.14267206e+00 ]
      - [ 1.58133137e+00, 3.72770816e-01, 3.85050702e+00 ]
      - [ 1.93064976e+00, 3.34526151e-01, 4.07922316e+00 ]
      - [ 2.35527039e+00, 4.23806012e-01, 3.26083326e+00 ]
      - [ 2.19466400e+00, 3.80303621e-01, 3.70923781e+00 ]
      - [ 1.76690149e+00, 3.59746128e-01, 3.92650962e+00 ]
      - [ 2.01159811e+00, 3.38185966e-01, 4.12638998e+00 ]
      - [ 1.50236177e+00, 3.58955920e-01, 3.79465580e+00 ]
      - [ 1.60494089e+00, 3.49623173e-01, 3.92187977e+00 ]
      - [ 2.04741955e+00, 4.30408448e-01, 3.09569287e+00 ]
      - [ 1.58229995e+00, 3.41279179e-01, 4.19954491e+00 ]
      - [ 2.29330635e+00, 3.67437840e-01, 3.59914398e+00 ]
      - [ 2.33235359e+00, 4.39150244e-01, 3.41837835e+00 ]
      - [ 1.94623256e+00, 4.36914772e-01, 3.13871050e+00 ]
      - [ 1.61186349e+00, 3.68186623e-01, 3.74931240e+00 ]
      - [ 2.21200514e+00, 4.03084695e-01, 3.29904556e+00 ]
      - [ 1.65294123e+00, 3.47922951e-01, 3.93049645e+00 ]
      - [ 1.62521732e+00, 3.40598047e-01, 4.10338449e+00 ]
      - [ 2.17772174e+00, 3.71000022e-01, 3.87149453e+00 ]
      - [ 1.54500473e+00, 3.17217231e-01, 4.29929209e+00 ]
      - [ 1.94708765e+00, 3.94722581e-01, 3.68604422e+00 ]
      - [ 2.17445469e+00, 3.92301351e-01, 3.51391578e+00 ]
      - [ 2.27190661e+00, 3.92206103e-01, 4.03646612e+00 ]
      - [ 1.87556159e+00, 3.31684709e-01, 4.15381241e+00 ]
      - [ 2.35005713e+00, 3.70750964e-01, 3.67754126e+00 ]
      - [ 1.45379746e+00, 3.82877082e-01, 3.68692398e+00 ]
      - [ 1.65040231e+00, 3.65689367e-01, 3.81613111e+00 ]
      - [ 1.53161764e+00, 3.90419036e-01, 3.59272838e+00 ]
      - [ 1.43049359e+00, 3.42515707e-01, 4.02756357e+00 ]
      - [ 2.31106067e+00, 3.87551129e-01, 3.50064993e+00 ]
      - [ 1.90426910e+00, 3.17970186e-01, 4.36540794e+00 ]
      - [ 2.15767121e+00, 4.26992804e-01, 3.11160421e+00 ]
      - [ 2.26339602e+00, 3.93465579e-01, 3.44123578e+00 ]
      - [ 1.49673486e+00, 3.77873570e-01, 3.61622834e+00 ]
      - [ 2.12926316e+00, 3.50928932e-01, 3.88837886e+00 ]
      - [ 2.48874784e+00, 3.98743629e-01, 3.51494360e+00 ]
      - [ 1.98144257e+00, 3.69040877e-01, 3.93971491e+00 ]
      - [ 2.00182128e+00, 3.61309737e-01, 3.87016940e+00 ]
      - [ 2.02344513e+00, 3.47192407e-01, 4.01925707e+00 ]
      - [ 2.27296615e+00, 3.36198747e-01, 4.34782839e+00 ]
      - [ 2.40567088e+00, 4.14378285e-01, 3.30441952e+00 ]
      - [ 1.42553771e+00, 4.35009092e-01, 3.12834501e+00 ]
      - [ 1.91159892e+00, 3.32562745e-01, 4.03657818e+00 ]
      - [ 2.26586461e+00, 3.50558132e-01, 3.90134096e+00 ]
      - [ 2.20809221e+00, 4.21891153e-01, 3.12575483e+00 ]
      - [ 3.11586308e+00, 3.83162528e-01, 3.53308415e+00 ]
      - [ 1.96304309e+00, 6.49578810e-01, 2.43378448e+00 ]
      - [ 2.28034210e+00, 4.19339776e-01, 3.32010221e+00 ]
      - [ 1.64084375e+00, 3.40456337e-01, 3.99485111e+00 ]
      - [ 2.16906166e+00, 3.09448570e-01, 4.55233955e+00 ]
      - [ 2.07742357e+00, 3.42375726e-01, 4.01267815e+00 ]
      - [ 2.08243132e+00, 4.09329653e-01, 3.44529152e+00 ]
      - [ 2.15426707e+00, 4.44902748e-01, 3.06049252e+00 ]
      - [ 1.80537796e+00, 3.57961267e-01, 3.91026163e+00 ]
      - [ 1.76476574e+00, 3.39264959e-01, 4.00163794e+00 ]
      - [ 1.88982463e+00, 3.23674709e-01, 4.40783834e+00 ]
      - [ 2.04013848e+00, 3.11144352e-01, 4.52658606e+00 ]
      - [ 1.63707328e+00, 4.31074560e-01, 3.10583091e+00 ]
      - [ 2.30612612e+00, 3.87025714e-01, 3.52957654e+00 ]
      - [ 2.34125113e+00, 4.09859806e-01, 3.41378760e+00 ]
      - [ 2.56108427e+00, 4.70672607e-01, 3.24758530e+00 ]
      - [ 2.27521610e+00, 3.71110082e-01, 3.60597825e+00 ]
      - [ 2.15961003e+00, 3.46054316e-01, 3.96447110e+00 ]
      - [ 1.99067771e+00, 3.71571720e-01, 3.80294418e+00 ]
      - [ 2.11346936e+00, 3.91226292e-01, 3.60214376e+00 ]
      - [ 2.01878238e+00, 3.31837595e-01, 3.99700069e+00 ]
      - [ 1.69767988e+00, 3.34204733e-01, 4.06800938e+00 ]
      - [ 1.78191459e+00, 3.86889428e-01, 3.67462635e+00 ]
      - [ 2.24732113e+00, 3.39780241e-01, 4.20545912e+00 ]
      - [ 2.15392828e+00, 4.13582385e-01, 3.31776810e+00 ]
      - [ 1.53985310e+00, 3.84614736e-01, 3.59964824e+00 ]
      - [ 1.67130172e+00, 3.33454728e-01, 4.03982687e+00 ]
      - [ 1.49626279e+00, 3.24901372e-01, 4.17630482e+00 ]
      - [ 2.25971866e+00, 3.14891368e-01, 4.25504160e+00 ]
      - [ 2.03529572e+00, 3.58209968e-01, 3.92647099e+00 ]
      - [ 2.25224924e+00, 3.54979843e-01, 3.80458713e+00 ]
      - [ 2.25501561e+00, 3.96353453e-01, 3.41124249e+00 ]
      - [ 1.90931904e+00, 3.42740148e-01, 3.98794937e+00 ]
      - [ 4.95891094e+00, 3.41312230e-01, 4.16866779e+00 ]
      - [ 1.72073400e+00, 3.54609877e-01, 3.92020059e+00 ]
      - [ 2.25650597e+00, 3.92421186e-01, 3.46883869e+00 ]
      - [ 1.60021210e+00, 3.90362859e-01, 3.84653878e+00 ]
      - [ 1.71044803e+00, 3.62441659e-01, 3.88130856e+00 ]
      - [ 1.84446859e+00, 3.46582651e-01, 3.93380380e+00 ]
      - [ 1.70473015e+00, 5.13830900e-01, 2.79253316e+00 ]
      - [ 2.17092466e+00, 4.09496367e-01, 3.34963369e+00 ]
      - [ 3.33140755e+00, 3.52482796e-01, 3.88995075e+00 ]
      - [ 3.35918903e+00, 4.32633489e-01, 3.19127679e+00 ]
      - [ 1.73644257e+00, 3.18762600e-01, 4.34319067e+00 ]
      - [ 1.74217069e+00, 4.03364569e-01, 3.56541443e+00 ]
      - [ 1.89589858e+00, 3.37888837e-01, 4.41302109e+00 ]
      - [ 2.39015508e+00, 4.39896464e-01, 3.05658793e+00 ]
      - [ 2.00532317e+00, 3.47035766e-01, 4.04780865e+00 ]
      - [ 2.08648276e+00, 4.11761016e-01, 3.37123990e+00 ]
      - [ 1.91899145e+00, 3.25392812e-01, 4.17590523e+00 ]
      - [ 2.59453464e+00, 3.61132979e-01, 3.66775823e+00 ]
      - [ 1.84753728e+00, 4.38070178e-01, 3.21010160e+00 ]
      - [ 2.50349808e+00, 4.24095273e-01, 3.22413731e+00 ]
      - [ 2.53912735e+00, 3.60369623e-01, 3.72706747e+00 ]
      - [ 1.71861434e+00, 3.48752946e-01, 3.93190479e+00 ]
      - [ 1.67101419e+00, 4.11888450e-01, 3.40035391e+00 ]
      - [ 2.34874773e+00, 4.07863319e-01, 3.32611418e+00 ]
      - [ 2.26943588e+00, 4.09130841e-01, 3.39191532e+00 ]
      - [ 1.75644839e+00, 4.35129225e-01, 3.18492126e+00 ]
      - [ 1.93411434e+00, 2.96310097e-01, 4.81452990e+00 ]
      - [ 2.54001021e+00, 4.12332684e-01, 3.27472878e+00 ]
      - [ 2.25980306e+00, 3.78389031e-01, 3.59143066e+00 ]
      - [ 2.10802412e+00, 3.32501739e-01, 4.25268269e+00 ]
      - [ 3.04645061e+00, 3.05665195e-01, 5.05156374e+00 ]
      - [ 1.99833500e+00, 3.46700430e-01, 3.98388386e+00 ]
      - [ 2.09058690e+00, 4.29032058e-01, 3.16782856e+00 ]
      - [ 2.12102318e+00, 4.21267837e-01, 3.20503020e+00 ]
      - [ 2.05501390e+00, 2.64086217e-01, 5.44965935e+00 ]
      - [ 2.25175428e+00, 4.09673899e-01, 3.21547318e+00 ]
      - [ 2.22374630e+00, 4.04031277e-01, 3.41167116e+00 ]
      - [ 1.82038665e+00, 3.45747679e-01, 3.98849249e+00 ]
      - [ 1.83699989e+00, 3.43200177e-01, 3.96176791e+00 ]
      - [ 1.65497446e+00, 3.00853401e-01, 4.83862019e+00 ]
      - [ 2.41157818e+00, 3.14595550e-01, 4.35764742e+00 ]
      - [ 2.07023263e+00, 3.31460983e-01, 4.09058189e+00 ]
      - [ 3.58460426e+00, 3.83455515e-01, 3.55315948e+00 ]
      - [ 2.06847429e+00, 2.73231328e-01, 5.31988192e+00 ]
      - [ 1.89207411e+00, 3.91545594e-01, 3.69349217e+00 ]
      - [ 1.68208313e+00, 3.59906793e-01, 3.89440250e+00 ]
      - [ 2.21799994e+00, 4.01947498e-01, 3.41323781e+00 ]
      - [ 1.91116869e+00, 3.31410617e-01, 4.05990267e+00 ]
      - [ 2.60725117e+00, 4.19707984e-01, 3.25747705e+00 ]
      - [ 1.52768505e+00, 3.77802312e-01, 3.66278625e+00 ]
      - [ 1.85465407e+00, 4.29784775e-01, 3.16872334e+00 ]
      - [ 1.84677172e+00, 4.34015125e-01, 3.16066575e+00 ]
      - [ 2.05654287e+00, 4.24912214e-01, 3.11213946e+00 ]
      - [ 1.63229167e+00, 3.47524017e-01, 3.89431548e+00 ]
      - [ 2.21906447e+00, 3.86839718e-01, 3.56337047e+00 ]
      - [ 2.21855402e+00, 3.86281252e-01, 3.62161779e+00 ]
      - [ 2.17631841e+00, 3.54684919e-01, 3.85148215e+00 ]
      - [ 1.68996620e+00, 4.37007040e-01, 3.17187548e+00 ]
      - [ 1.95388699e+00, 4.31625754e-01, 3.14077377e+00 ]
      - [ 1.99230421e+00, 4.29741085e-01, 3.16005135e+00 ]
      - [ 1.61987519e+00, 3.09934288e-01, 4.58670235e+00 ]
      - [ 1.65903282e+00, 3.16224366e-01, 4.73209476e+00 ]
      - [ 2.56154704e+00, 3.47615480e-01, 4.00810337e+00 ]
      - [ 1.73155105e+00, 4.04562384e-01, 3.59502816e+00 ]
      - [ 2.29123330e+00, 4.08230364e-01, 3.39818597e+00 ]
      - [ 1.91424429e+00, 4.34341788e-01, 3.14198208e+00 ]
      - [ 2.81697345e+00, 1.12783000e-01, 1.28242636e+01 ]
      - [ 2.22658324e+00, 3.61031771e-01, 3.79988337e+00 ]
      - [ 1.61618471e+00, 4.25485998e-01, 3.11372352e+00 ]
      - [ 2.06247520e+00, 3.35669190e-01, 4.10493803e+00 ]
      - [ 1.90409768e+00, 3.40986848e-01, 4.00171709e+00 ]
      - [ 1.76002002e+00, 4.19150203e-01, 3.28032160e+00 ]
      - [ 1.93546307e+00, 4.58441913e-01, 2.90434742e+00 ]
      - [ 2.26417732e+00, 3.86010557e-01, 3.52671623e+00 ]
      - [ 2.26275849e+00, 4.04248953e-01, 3.36056423e+00 ]
      - [ 1.90014815e+00, 3.26742798e-01, 4.23375654e+00 ]
      - [ 1.73181462e+00, 3.25558513e-01, 4.20825338e+00 ]
      - [ 2.35186243e+00, 3.84645104e-01, 3.46976614e+00 ]
      - [ 2.14446831e+00, 3.24274987e-01, 4.34201860e+00 ]
      - [ 3.44552469e+00, 3.95981163e-01, 3.35763550e+00 ]
      - [ 2.51868439e+00, 3.98054600e-01, 3.53560066e+00 ]
      - [ 1.99225652e+00, 3.26807827e-01, 4.52101326e+00 ]
      - [ 2.35318112e+00, 3.76560658e-01, 3.70833373e+00 ]
      - [ 1.97379494e+00, 4.08308476e-01, 3.46990132e+00 ]
      - [ 1.61921310e+00, 3.33695203e-01, 4.08845520e+00 ]
      - [ 2.41669846e+00, 3.44234198e-01, 4.01788855e+00 ]
      - [ 1.66213250e+00, 3.29786539e-01, 4.18922472e+00 ]
      - [ 2.14335465e+00, 3.32758754e-01, 4.30241346e+00 ]
      - [ 2.28556013e+00, 3.76771510e-01, 3.64241910e+00 ]
      - [ 2.08498645e+00, 4.24201578e-01, 3.21331263e+00 ]
      - [ 2.47223711e+00, 3.79402906e-01, 3.63218570e+00 ]
      - [ 1.52507222e+00, 4.34450179e-01, 3.30713677e+00 ]
      - [ 2.47580647e+00, 4.02637571e-01, 3.29522967e+00 ]
      - [ 2.48578715e+00, 4.04204398e-01, 3.32519722e+00 ]
      - [ 2.17323375e+00, 4.20003384e-01, 3.24727130e+00 ]
      - [ 1.50001788e+00, 2.43517891e-01, 6.22044849e+00 ]
      - [ 2.06173801e+00, 4.59708989e-01, 2.99603105e+00 ]
      - [ 1.48273957e+00, 3.31433296e-01, 4.09789085e+00 ]
      - [ 1.84011757e+00, 3.34610671e-01, 4.06610107e+00 ]
      - [ 3.72639346e+00, 3.40223163e-01, 4.00397158e+00 ]
      - [ 1.80158257e+00, 3.69356275e-01, 3.84258342e+00 ]
      - [ 2.02624846e+00, 3.35652590e-01, 4.11207247e+00 ]
      - [ 1.83978558e+00, 3.94679874e-01, 3.65702653e+00 ]
      - [ 2.48248744e+00, 3.55643630e-01, 3.78611302e+00 ]
      - [ 2.06433034e+00, 4.48220372e-01, 3.05603480e+00 ]
      - [ 1.49520767e+00, 3.99194866e-01, 3.40155816e+00 ]
      - [ 1.67927790e+00, 3.48264843e-01, 4.06012869e+00 ]
      - [ 1.02347314e+00, 3.39235693e-01, 4.17183590e+00 ]
      - [ 1.89751923e+00, 4.39184636e-01, 3.10891104e+00 ]
      - [ 2.19655538e+00, 3.04586142e-01, 4.68221331e+00 ]
      - [ 1.71569300e+00, 2.99787939e-01, 4.85824108e+00 ]
      - [ 1.94146824e+00, 4.48112488e-01, 3.17265010e+00 ]
      - [ 1.62931049e+00, 3.32897455e-01, 4.12644148e+00 ]
      - [ 1.79119813e+00, 4.28740352e-01, 3.16726732e+00 ]
      - [ 1.78289652e+00, 3.48014325e-01, 3.98676276e+00 ]
      - [ 1.82327056e+00, 4.38064784e-01, 3.17488217e+00 ]
      - [ 1.97406113e+00, 4.74177420e-01, 2.93632221e+00 ]
      - [ 2.05424166e+00, 3.16660523e-01, 4.38961315e+00 ]
      - [ 2.06295633e+00, 4.22379255e-01, 3.20532012e+00 ]
      - [ 1.71297050e+00, 3.12929541e-01, 4.32200623e+00 ]
      - [ 2.24515486e+00, 3.73317897e-01, 3.66999555e+00 ]
      - [ 1.49431884e+00, 4.06795084e-01, 3.36308074e+00 ]
      - [ 2.37544489e+00, 4.35292691e-01, 3.24330568e+00 ]
      - [ 1.71471465e+00, 4.34664845e-01, 3.25862885e+00 ]
      - [ 1.72078431e+00, 3.78408432e-01, 3.77596188e+00 ]
      - [ 1.75055087e+00, 3.37487429e-01, 4.05452394e+00 ]
      - [ 1.36189508e+00, 3.77182335e-01, 3.58502793e+00 ]
      - [ 1.77323568e+00, 4.36633050e-01, 3.25415087e+00 ]
      - [ 1.87877238e+00, 3.22542936e-01, 4.19552803e+00 ]
      - [ 2.28431249e+00, 3.33724052e-01, 4.13000202e+00 ]
      - [ 1.89726067e+00, 3.31812918e-01, 4.24079561e+00 ]
      - [ 1.56932616e+00, 4.16680276e-01, 3.36302924e+00 ]
      - [ 2.36724734e+00, 3.07422817e-01, 4.57750225e+00 ]
      - [ 1.86269283e+00, 4.06242341e-01, 3.54417944e+00 ]
      - [ 1.65891325e+00, 3.52590233e-01, 3.96194863e+00 ]
      - [ 2.04645324e+00, 2.55336225e-01, 5.57811642e+00 ]
      - [ 2.52851415e+00, 4.33067292e-01, 3.11847997e+00 ]
      - [ 1.91392124e+00, 3.84832412e-01, 3.71950483e+00 ]
      - [ 1.73411334e+00, 3.27586353e-01, 4.25825644e+00 ]
      - [ 1.62940121e+00, 4.11053151e-01, 3.44217014e+00 ]
      - [ 2.91090250e+00, 3.15968186e-01, 4.27560663e+00 ]
      - [ 1.87628543e+00, 3.20339471e-01, 4.26138496e+00 ]
      - [ 2.05253386e+00, 4.27263647e-01, 3.05653310e+00 ]
      - [ 1.93148160e+00, 3.40022355e-01, 3.98955798e+00 ]
      - [ 2.35209441e+00, 3.70683372e-01, 3.69549394e+00 ]
      - [ 1.55297816e+00, 4.01552856e-01, 3.41335607e+00 ]
      - [ 2.36430693e+00, 3.99586856e-01, 3.40765524e+00 ]
      - [ 1.95141256e+00, 3.41696501e-01, 4.01407766e+00 ]
      - [ 2.21988559e+00, 3.83888394e-01, 3.56652308e+00 ]
      - [ 1.65052569e+00, 3.35156083e-01, 4.04697132e+00 ]
      - [ 2.34839439e+00, 3.74471098e-01, 3.65302300e+00 ]
      - [ 2.15875435e+00, 3.47740650e-01, 3.92097926e+00 ]
      - [ 2.19392562e+00, 3.50858271e-01, 3.85260177e+00 ]
      - [ 1.88821459e+00, 3.25352311e-01, 4.21679831e+00 ]
      - [ 1.85095596e+00, 3.38929325e-01, 4.09080982e+00 ]
      - [ 1.60765636e+00, 3.34318548e-01, 4.14065361e+00 ]
      - [ 2.46490002e+00, 3.72120857e-01, 3.60060811e+00 ]
      - [ 1.67403889e+00, 3.31721544e-01, 4.15473080e+00 ]
      - [ 1.97218227e+00, 4.44378138e-01, 3.19952250e+00 ]
      - [ 2.06441927e+00, 3.17224950e-01, 4.24095774e+00 ]
      - [ 1.90158594e+00, 3.34390670e-01, 4.02744675e+00 ]
      - [ 1.49106097e+00, 4.02612031e-01, 3.49231339e+00 ]
      - [ 2.26537633e+00, 3.83818090e-01, 3.53954792e+00 ]
      - [ 1.64129651e+00, 3.48264933e-01, 3.91947484e+00 ]
      - [ 1.49357593e+00, 3.77832711e-01, 3.63347268e+00 ]
      - [ 1.61852205e+00, 3.88388455e-01, 3.62844372e+00 ]
      - [ 1.93179548e+00, 3.27575117e-01, 4.26514673e+00 ]
      - [ 2.13470125e+00, 4.22699451e-01, 3.20073414e+00 ]
      - [ 2.07029939e+00, 3.48086089e-01, 4.01404715e+00 ]
      - [ 1.66459596e+00, 4.17247802e-01, 3.27586770e+00 ]
      - [ 1.89439058e+00, 5.52082479e-01, 2.77027822e+00 ]
      - [ 2.67805552e+00, 4.25448000e-01, 3.34838462e+00 ]
      - [ 1.84865451e+00, 3.57520133e-01, 3.90712166e+00 ]
      - [ 1.66755307e+00, 3.56411994e-01, 3.91656137e+00 ]
      - [ 1.67705512e+00, 4.21904773e-01, 3.29173160e+00 ]
      - [ 1.81458843e+00, 4.01008248e-01, 3.56944251e+00 ]
      - [ 1.66264105e+00, 3.50960612e-01, 3.92658496e+00 ]
      - [ 1.69686902e+00, 4.01825190e-01, 3.54728150e+00 ]
      - [ 1.88282013e+00, 3.25773239e-01, 4.40691900e+00 ]
      - [ 1.79295516e+00, 3.88748676e-01, 3.71561122e+00 ]
      - [ 2.06089473e+00, 2.72241354e-01, 5.12873507e+00 ]
      - [ 2.37999511e+00, 3.66570979e-01, 3.66056347e+00 ]
      - [ 1.95451713e+00, 3.49815696e-01, 3.99182439e+00 ]
      - [ 2.21595979e+00, 3.51163149e-01, 3.86159778e+00 ]
      - [ 2.00467110e+00, 3.33462000e-01, 4.14481211e+00 ]
      - [ 1.75376499e+00, 3.37472439e-01, 4.05157900e+00 ]
      - [ 2.63451838e+00, 3.81793469e-01, 3.72730422e+00 ]
      - [ 1.84128904e+00, 4.37211156e-01, 3.14284801e+00 ]
      - [ 2.25659657e+00, 3.58454347e-01, 3.79757357e+00 ]
      - [ 5.96803474e+00, 3.98771524e-01, 3.63302684e+00 ]
      - [ 2.38579392e+00, 3.71851027e-01, 3.61767292e+00 ]
      - [ 2.15926909e+00, 3.47474128e-01, 3.89527631e+00 ]
      - [ 1.97261286e+00, 4.46501315e-01, 3.10987663e+00 ]
      - [ 1.75916362e+00, 3.07741761e-01, 4.37783337e+00 ]
      - [ 2.32880592e+00, 4.06584740e-01, 3.34990883e+00 ]
      - [ 2.19591928e+00, 3.45641166e-01, 4.02799749e+00 ]
      - [ 1.78681540e+00, 3.32168102e-01, 4.22210550e+00 ]
      - [ 1.53784180e+00, 3.53058428e-01, 3.84559274e+00 ]
      - [ 2.39288139e+00, 4.00929332e-01, 3.45559883e+00 ]
      - [ 1.90766191e+00, 3.67161483e-01, 3.84189510e+00 ]
      - [ 2.27144790e+00, 3.88041586e-01, 3.39512110e+00 ]
      - [ 2.01253057e+00, 3.74391586e-01, 3.76474094e+00 ]
      - [ 2.16321945e+00, 4.21941876e-01, 3.09657502e+00 ]
      - [ 2.17283726e+00, 4.03506786e-01, 3.34847307e+00 ]
      - [ 2.04862523e+00, 3.60195309e-01, 3.86028528e+00 ]
      - [ 1.76606476e+00, 4.15487021e-01, 3.62407827e+00 ]
      - [ 2.06538033e+00, 3.51123750e-01, 3.92112422e+00 ]
      - [ 2.51101828e+00, 3.42405736e-01, 4.09718657e+00 ]
      - [ 1.67740500e+00, 3.42908919e-01, 3.97080708e+00 ]
      - [ 1.74875069e+00, 4.32438582e-01, 3.07825923e+00 ]
      - [ 1.79111207e+00, 4.32122409e-01, 3.30856824e+00 ]
      - [ 2.33789945e+00, 3.47734749e-01, 3.84416604e+00 ]
      - [ 2.05214930e+00, 3.53913784e-01, 3.96574211e+00 ]
      - [ 1.74821031e+00, 3.44512939e-01, 4.09509134e+00 ]
      - [ 1.52967942e+00, 3.29344898e-01, 4.06846905e+00 ]
      - [ 2.10540748e+00, 3.38133812e-01, 4.03658295e+00 ]
      - [ 2.27884126e+00, 4.40155953e-01, 3.06365609e+00 ]
      - [ 1.80917978e+00, 4.26914096e-01, 3.11203432e+00 ]
      - [ 2.25707197e+00, 4.07078266e-01, 3.21822619e+00 ]
      - [ 2.19447184e+00, 3.63851398e-01, 3.77887893e+00 ]
      - [ 2.22395396e+00, 3.96427631e-01, 3.50553536e+00 ]
      - [ 1.78786993e+00, 3.48065674e-01, 3.95620251e+00 ]
      - [ 2.17603707e+00, 4.42240477e-01, 3.11970830e+00 ]
      - [ 1.81935179e+00, 3.72641683e-01, 3.79471588e+00 ]
      - [ 2.14302993e+00, 4.07680988e-01, 3.36522484e+00 ]
      - [ 1.91393340e+00, 3.34508777e-01, 4.08337212e+00 ]
      - [ 1.81123507e+00, 4.12858784e-01, 3.63290763e+00 ]
      - [ 1.85620987e+00, 3.37996364e-01, 3.97045231e+00 ]
      - [ 2.38716149e+00, 3.61617923e-01, 3.84217596e+00 ]
      - [ 2.19969893e+00, 4.30166304e-01, 3.28508401e+00 ]
      - [ 1.84549510e+00, 3.47644717e-01, 4.07673216e+00 ]
      - [ 2.12495947e+00, 4.12890613e-01, 3.46463013e+00 ]
      - [ 2.44998240e+00, 4.17496115e-01, 3.33144927e+00 ]
      - [ 1.83977771e+00, 3.25645298e-01, 4.35490417e+00 ]
      - [ 2.26048160e+00, 3.79073352e-01, 3.59963250e+00 ]
      - [ 1.54876173e+00, 3.49093258e-01, 3.96597171e+00 ]
      - [ 1.67237103e+00, 3.32459062e-01, 4.03522110e+00 ]
      - [ 1.77531934e+00, 3.52094591e-01, 3.98246121e+00 ]
      - [ 3.44961047e+00, 4.61571485e-01, 3.19162178e+00 ]
      - [ 1.95371354e+00, 3.34519714e-01, 4.14921331e+00 ]
      - [ 2.74496388e+00, 3.34442854e-01, 4.14043951e+00 ]
      - [ 1.69718039e+00, 4.08842713e-01, 3.40751481e+00 ]
      - [ 2.24890327e+00, 3.40469420e-01, 4.03247452e+00 ]
      - [ 1.74191964e+00, 3.49328935e-01, 3.99891615e+00 ]
      - [ 1.61445177e+00, 3.53996605e-01, 3.90826726e+00 ]
      - [ 2.32277393e+00, 3.75766665e-01, 3.56042171e+00 ]
      - [ 2.24197984e+00, 4.19540614e-01, 3.29229403e+00 ]
      - [ 1.90198648e+00, 3.11780602e-01, 4.40084743e+00 ]
      - [ 2.00607562e+00, 2.84467667e-01, 5.14312172e+00 ]
      - [ 1.94186580e+00, 3.36527109e-01, 3.98488808e+00 ]
      - [ 1.96831775e+00, 3.91632438e-01, 3.68461370e+00 ]
      - [ 1.81580758e+00, 4.29415345e-01, 3.26312113e+00 ]
      - [ 1.99417639e+00, 3.19687545e-01, 4.22327566e+00 ]
      - [ 1.98326766e+00, 3.27605873e-01, 4.07796001e+00 ]
      - [ 2.03032112e+00, 3.43791842e-01, 4.00038719e+00 ]
      - [ 2.47499442e+00, 3.67857009e-01, 3.63083053e+00 ]
      - [ 1.70604610e+00, 4.22865331e-01, 3.17278838e+00 ]
      - [ 1.90169764e+00, 4.78571177e-01, 2.86281872e+00 ]
      - [ 2.52109003e+00, 3.86435986e-01, 3.64135408e+00 ]
      - [ 1.80396283e+00, 3.36477637e-01, 4.02463627e+00 ]
      - [ 1.66848087e+00, 2.74309635e-01, 5.33921099e+00 ]
      - [ 2.12249637e+00, 4.14780289e-01, 3.39432311e+00 ]
      - [ 2.17242408e+00, 4.24150437e-01, 3.14175320e+00 ]
      - [ 1.64916539e+00, 3.45937759e-01, 3.98660040e+00 ]
      - [ 1.76741660e+00, 3.37771714e-01, 4.05300331e+00 ]
      - [ 2.36937356e+00, 4.14410621e-01, 3.24241161e+00 ]
      - [ 1.84120095e+00, 3.15522045e-01, 4.38624907e+00 ]
      - [ 1.81093955e+00, 4.54947501e-01, 2.99891543e+00 ]
      - [ 2.20188046e+00, 3.47662926e-01, 3.85043311e+00 ]
      - [ 2.52559924e+00, 4.02934432e-01, 3.44461536e+00 ]
      - [ 2.12726998e+00, 4.47801679e-01, 2.95006418e+00 ]
      - [ 3.00068307e+00, 4.48201686e-01, 3.05317950e+00 ]
      - [ 2.30993462e+00, 3.64123553e-01, 3.72316790e+00 ]
      - [ 2.40085697e+00, 3.98239434e-01, 3.46757197e+00 ]
      - [ 1.90362763e+00, 4.29166943e-01, 3.36875010e+00 ]
      - [ 1.52376807e+00, 3.49398911e-01, 3.91939712e+00 ]
      - [ 1.88136530e+00, 2.97660649e-01, 4.67972517e+00 ]
      - [ 1.72411430e+00, 3.28779191e-01, 4.09491873e+00 ]
      - [ 2.12628102e+00, 3.48795176e-01, 4.20812654e+00 ]
      - [ 1.67801571e+00, 3.19968104e-01, 4.35186243e+00 ]
      - [ 1.90819395e+00, 3.08489144e-01, 4.37025356e+00 ]
      - [ 2.06158137e+00, 4.36325431e-01, 3.30385041e+00 ]
      - [ 2.43144131e+00, 3.53006184e-01, 3.86683917e+00 ]
      - [ 2.15674090e+00, 3.18692505e-01, 4.33542585e+00 ]
      - [ 1.73759723e+00, 3.52210760e-01, 3.96367240e+00 ]
      - [ 1.92087090e+00, 3.39411408e-01, 4.06749773e+00 ]
      - [ 1.90376389e+00, 3.21918368e-01, 4.23256111e+00 ]
      - [ 1.91753209e+00, 3.40561628e-01, 4.06624222e+00 ]
      - [ 1.91163015e+00, 3.47246408e-01, 4.01945496e+00 ]
      - [ 1.56565762e+00, 4.50145841e-01, 2.86835480e+00 ]
      - [ 2.09238768e+00, 3.45114082e-01, 3.92782807e+00 ]
      - [ 1.89060318e+00, 3.26678157e-01, 4.15943098e+00 ]
      - [ 2.07557034e+00, 3.49823266e-01, 3.98980522e+00 ]
      - [ 1.73507953e+00, 3.32260460e-01, 4.10045719e+00 ]
      - [ 2.08146095e+00, 3.40604872e-01, 4.00688791e+00 ]
      - [ 2.06395245e+00, 4.07675952e-01, 3.52412629e+00 ]
      - [ 2.28010845e+00, 3.96333456e-01, 3.39834690e+00 ]
      - [ 1.88183701e+00, 3.39378923e-01, 4.11744690e+00 ]
      - [ 2.71327472e+00, 3.19426835e-01, 4.55429316e+00 ]
      - [ 1.76251578e+00, 3.27022433e-01, 4.03493452e+00 ]
      - [ 1.81314468e+00, 3.24164897e-01, 4.15073299e+00 ]
      - [ 2.04681730e+00, 3.31969142e-01, 4.02986670e+00 ]
      - [ 1.94727063e+00, 4.43140775e-01, 3.08097291e+00 ]
      - [ 1.83359444e+00, 3.59441221e-01, 3.90714025e+00 ]
      - [ 2.17367649e+00, 4.17513847e-01, 3.33248591e+00 ]
      - [ 1.96735072e+00, 4.04817939e-01, 3.55775928e+00 ]
      - [ 1.62105274e+00, 3.42207521e-01, 4.06330299e+00 ]
      - [ 2.54166842e+00, 4.06404436e-01, 3.31089044e+00 ]
      - [ 2.00676632e+00, 4.51952785e-01, 3.24032307e+00 ]
      - [ 1.92624092e+00, 4.37266231e-01, 3.23046088e+00 ]
      - [ 1.59641540e+00, 3.20863843e-01, 4.36926031e+00 ]
      - [ 2.11587596e+00, 4.21664357e-01, 3.26064324e+00 ]
      - [ 2.23173976e+00, 3.43716025e-01, 4.02862835e+00 ]
      - [ 2.52960038e+00, 3.52296561e-01, 3.87382102e+00 ]
      - [ 2.19991088e+00, 3.82113487e-01, 3.61444068e+00 ]
      - [ 2.41518998e+00, 3.67811978e-01, 3.70014906e+00 ]
      - [ 1.75217700e+00, 3.55870038e-01, 3.92194963e+00 ]
      - [ 1.96288240e+00, 3.53441030e-01, 3.93464923e+00 ]
      - [ 2.26915216e+00, 4.06730205e-01, 3.44357777e+00 ]
      - [ 2.38766956e+00, 3.92901838e-01, 3.47150326e+00 ]
      - [ 1.59698212e+00, 4.26125318e-01, 3.20095158e+00 ]
      - [ 2.55470634e+00, 3.61284703e-01, 3.99882340e+00 ]
      - [ 1.94897389e+00, 4.23513472e-01, 3.27039933e+00 ]
      - [ 3.50815225e+00, 3.93923551e-01, 3.50072384e+00 ]
      - [ 2.27959800e+00, 3.85698318e-01, 3.49413109e+00 ]
      - [ 1.56622946e+00, 3.21967512e-01, 4.35268164e+00 ]
      - [ 1.96811485e+00, 3.42332512e-01, 4.07497168e+00 ]
      - [ 1.93361783e+00, 4.29888308e-01, 3.47676349e+00 ]
      - [ 2.22995925e+00, 3.67867738e-01, 3.72566915e+00 ]
      - [ 2.35882711e+00, 3.85542840e-01, 3.47223091e+00 ]
      - [ 2.32893991e+00, 4.36001897e-01, 3.16786456e+00 ]
      - [ 1.81004667e+00, 3.06015521e-01, 4.62729120e+00 ]
      - [ 1.74580836e+00, 3.42960209e-01, 3.97625208e+00 ]
      - [ 1.79574943e+00, 3.21659386e-01, 4.40518856e+00 ]
      - [ 1.47243166e+00, 4.16997552e-01, 3.17937922e+00 ]
      - [ 2.30904222e+00, 4.15031314e-01, 3.27827358e+00 ]
      - [ 2.20970130e+00, 4.35270905e-01, 3.46502829e+00 ]
      - [ 1.67192388e+00, 3.83193433e-01, 3.69415569e+00 ]
      - [ 1.71212018e+00, 4.11878288e-01, 3.40025759e+00 ]
      - [ 2.18764877e+00, 3.13743025e-01, 4.35926151e+00 ]
      - [ 2.32727480e+00, 3.57869357e-01, 3.77897263e+00 ]
      - [ 1.60825002e+00, 3.46153378e-01, 3.91900635e+00 ]
      - [ 2.22490501e+00, 4.23018813e-01, 3.34577632e+00 ]
      - [ 3.09822726e+00, 3.77268195e-01, 3.66188526e+00 ]
      - [ 1.86619449e+00, 3.28715891e-01, 4.11962605e+00 ]
      - [ 2.39816761e+00, 3.70366096e-01, 3.58751678e+00 ]
      - [ 1.90478468e+00, 4.50341433e-01, 3.06557488e+00 ]
      - [ 2.33947444e+00, 3.80381852e-01, 3.77157283e+00 ]
      - [ 1.94019806e+00, 4.49065328e-01, 3.18592906e+00 ]
      - [ 1.86708689e+00, 3.05558175e-01, 4.46353149e+00 ]
      - [ 1.87768245e+00, 3.43573540e-01, 3.97369051e+00 ]
      - [ 2.02760696e+00, 3.09267253e-01, 4.46559477e+00 ]
      - [ 1.84669232e+00, 3.15210909e-01, 4.47335625e+00 ]
      - [ 2.42841077e+00, 3.94199997e-01, 3.37800837e+00 ]
      - [ 2.14226341e+00, 3.07509065e-01, 4.44577312e+00 ]
      - [ 2.45253181e+00, 4.63238001e-01, 3.00765967e+00 ]
      - [ 1.80237889e+00, 4.33247834e-01, 3.10579133e+00 ]
      - [ 1.92785692e+00, 3.41222554e-01, 3.97907662e+00 ]
      - [ 2.01706409e+00, 4.54459608e-01, 2.92962742e+00 ]
      - [ 2.47393107e+00, 3.57849211e-01, 3.78958416e+00 ]
      - [ 2.07179141e+00, 4.56290931e-01, 3.11131620e+00 ]
      - [ 1.80145097e+00, 4.33095247e-01, 3.11088371e+00 ]
