%YAML:1.0
mysvm: !!opencv-ml-svm
   svm_type: C_SVC
   kernel: { type:RBF, gamma:1.5000000000000001e-04 }
   C: 1.0000000000000001e-01
   term_criteria: { epsilon:9.9999999747524271e-07, iterations:1000 }
   var_all: 3
   var_count: 3
   class_count: 2
   class_labels: !!opencv-matrix
      rows: 1
      cols: 2
      dt: i
      data: [ 0, 1 ]
   sv_total: 2000
   support_vectors:
      - [ 1.73398435e+00, 4.02261138e-01, 3.47656822e+00 ]
      - [ 2.75182033e+00, 3.80256265e-01, 3.61448765e+00 ]
      - [ 2.16801500e+00, 3.95540446e-01, 3.45317650e+00 ]
      - [ 1.48246348e+00, 3.66550177e-01, 3.86652136e+00 ]
      - [ 1.13426828e+00, 3.42133224e-01, 4.18043089e+00 ]
      - [ 3.32900190e+00, 4.02132809e-01, 3.47890258e+00 ]
      - [ 1.61219728e+00, 3.47099960e-01, 3.89856982e+00 ]
      - [ 1.46138453e+00, 4.09373254e-01, 3.52991891e+00 ]
      - [ 1.48948956e+00, 3.31949651e-01, 4.16818953e+00 ]
      - [ 1.81067765e+00, 4.21263486e-01, 3.31169915e+00 ]
      - [ 1.82481682e+00, 3.19756389e-01, 4.34717512e+00 ]
      - [ 2.02126241e+00, 2.99213827e-01, 5.03654003e+00 ]
      - [ 2.20676947e+00, 4.29113656e-01, 3.23877716e+00 ]
      - [ 2.33724046e+00, 3.31995636e-01, 4.14375401e+00 ]
      - [ 2.74050689e+00, 4.24317926e-01, 3.25979519e+00 ]
      - [ 1.72225201e+00, 3.14135522e-01, 4.55925846e+00 ]
      - [ 3.80785465e+00, 4.15842593e-01, 3.37941432e+00 ]
      - [ 1.86553407e+00, 3.29924881e-01, 4.09226894e+00 ]
      - [ 1.73142540e+00, 4.23045397e-01, 3.24676824e+00 ]
      - [ 2.42354274e+00, 4.93882686e-01, 2.93756437e+00 ]
      - [ 4.26681995e+00, 2.80650645e-01, 5.31051922e+00 ]
      - [ 1.79804349e+00, 4.38074261e-01, 3.20491695e+00 ]
      - [ 2.03022099e+00, 4.07372534e-01, 3.31339622e+00 ]
      - [ 2.07163906e+00, 3.19550097e-01, 4.31456375e+00 ]
      - [ 2.43784928e+00, 4.73992735e-01, 3.13354611e+00 ]
      - [ 1.88107300e+00, 2.92499006e-01, 4.74448013e+00 ]
      - [ 1.59951866e+00, 3.32329124e-01, 4.23528099e+00 ]
      - [ 1.66745877e+00, 3.94339412e-01, 3.46889114e+00 ]
      - [ 1.68654013e+00, 3.66329938e-01, 3.63651586e+00 ]
      - [ 2.53463507e+00, 3.98756355e-01, 3.45996952e+00 ]
      - [ 1.53464627e+00, 3.41001362e-01, 4.15896130e+00 ]
      - [ 1.71004057e+00, 4.09584433e-01, 3.37473607e+00 ]
      - [ 2.01283169e+00, 4.24952239e-01, 3.26843858e+00 ]
      - [ 2.15189433e+00, 4.14403915e-01, 3.34781861e+00 ]
      - [ 1.49156070e+00, 3.81779164e-01, 3.72057581e+00 ]
      - [ 1.83260369e+00, 3.94993514e-01, 3.41264129e+00 ]
      - [ 1.53463006e+00, 3.14871460e-01, 4.43892908e+00 ]
      - [ 3.01063800e+00, 3.79735440e-01, 3.67348528e+00 ]
      - [ 1.55782390e+00, 2.85569459e-01, 5.29466343e+00 ]
      - [ 1.62728679e+00, 3.32536727e-01, 4.38707781e+00 ]
      - [ 1.53627825e+00, 3.79909217e-01, 3.70551658e+00 ]
      - [ 2.06647992e+00, 4.60681528e-01, 3.01299477e+00 ]
      - [ 2.39417553e+00, 3.79896671e-01, 3.57343197e+00 ]
      - [ 2.18699336e+00, 4.32188958e-01, 3.16986489e+00 ]
      - [ 1.59424317e+00, 3.16777021e-01, 4.47136116e+00 ]
      - [ 1.48366213e+00, 2.76378751e-01, 5.34157705e+00 ]
      - [ 2.48584318e+00, 3.48808885e-01, 3.90747476e+00 ]
      - [ 1.55309832e+00, 3.42335492e-01, 4.04555082e+00 ]
      - [ 2.06140423e+00, 4.48308766e-01, 3.15257835e+00 ]
      - [ 1.48538697e+00, 3.24989647e-01, 4.20247078e+00 ]
      - [ 2.05824089e+00, 4.22579765e-01, 3.21678925e+00 ]
      - [ 2.04962182e+00, 4.42376018e-01, 3.09332323e+00 ]
      - [ 2.80682993e+00, 3.97774577e-01, 3.58482790e+00 ]
      - [ 1.55759072e+00, 3.83954227e-01, 3.62830234e+00 ]
      - [ 1.69062972e+00, 4.44832563e-01, 3.00705791e+00 ]
      - [ 2.04322147e+00, 4.03824717e-01, 3.38416886e+00 ]
      - [ 2.31209779e+00, 3.90724063e-01, 3.50790286e+00 ]
      - [ 2.71877646e+00, 4.15773898e-01, 3.26229048e+00 ]
      - [ 1.63806331e+00, 3.38541269e-01, 4.09056950e+00 ]
      - [ 5.64057398e+00, 3.57524514e-01, 3.82207036e+00 ]
      - [ 1.74764836e+00, 2.99205273e-01, 4.77363443e+00 ]
      - [ 1.67762625e+00, 4.20387298e-01, 3.34867859e+00 ]
      - [ 1.42375767e+00, 3.79188657e-01, 3.66250396e+00 ]
      - [ 1.83452666e+00, 3.61818016e-01, 3.69772983e+00 ]
      - [ 1.86723495e+00, 4.08026218e-01, 3.34543467e+00 ]
      - [ 1.75120080e+00, 3.15477729e-01, 4.91884184e+00 ]
      - [ 2.25758052e+00, 4.50437963e-01, 3.15972185e+00 ]
      - [ 2.16212940e+00, 4.36780572e-01, 3.10805035e+00 ]
      - [ 1.82246339e+00, 2.90653229e-01, 4.69090414e+00 ]
      - [ 1.68515742e+00, 3.52122426e-01, 3.85996366e+00 ]
      - [ 3.93732429e+00, 3.68376255e-01, 3.95020747e+00 ]
      - [ 1.55658174e+00, 3.75585467e-01, 3.75376701e+00 ]
      - [ 2.36713743e+00, 3.04584503e-01, 4.98940229e+00 ]
      - [ 1.70917666e+00, 3.54110837e-01, 3.82262588e+00 ]
      - [ 1.42256129e+00, 6.72101736e-01, 2.30056739e+00 ]
      - [ 2.14118528e+00, 4.41051871e-01, 3.24403071e+00 ]
      - [ 2.02941942e+00, 4.35147852e-01, 3.25370240e+00 ]
      - [ 1.84512937e+00, 4.12742585e-01, 3.24129224e+00 ]
      - [ 1.80111575e+00, 4.43018019e-01, 3.14633155e+00 ]
      - [ 2.86522770e+00, 6.80020809e-01, 2.36848307e+00 ]
      - [ 1.93904769e+00, 4.25847173e-01, 3.21252465e+00 ]
      - [ 1.56403697e+00, 3.78340423e-01, 3.61694741e+00 ]
      - [ 2.22213912e+00, 2.94108033e-01, 4.90778112e+00 ]
      - [ 1.90641904e+00, 4.70679045e-01, 3.14571309e+00 ]
      - [ 1.75349915e+00, 4.27334875e-01, 3.26178193e+00 ]
      - [ 1.80025768e+00, 4.36552376e-01, 3.19921160e+00 ]
      - [ 3.30340958e+00, 3.03748995e-01, 4.75078058e+00 ]
      - [ 1.76406562e+00, 4.24700558e-01, 3.15378761e+00 ]
      - [ 1.59945560e+00, 3.41528922e-01, 4.06231356e+00 ]
      - [ 3.26260710e+00, 3.82475138e-01, 3.75580454e+00 ]
      - [ 1.47041690e+00, 3.57274324e-01, 4.18678617e+00 ]
      - [ 1.58804989e+00, 3.85619879e-01, 3.62911820e+00 ]
      - [ 4.44896936e+00, 2.05463424e-01, 6.87126017e+00 ]
      - [ 1.42621553e+00, 3.66563022e-01, 3.80757427e+00 ]
      - [ 1.51537907e+00, 3.88150126e-01, 3.59202099e+00 ]
      - [ 1.49371171e+00, 3.21070194e-01, 4.47337818e+00 ]
      - [ 1.66533422e+00, 3.95381331e-01, 3.44337726e+00 ]
      - [ 1.71627820e+00, 3.38630617e-01, 4.01718473e+00 ]
      - [ 2.00887728e+00, 4.49865937e-01, 3.14400005e+00 ]
      - [ 1.77907705e+00, 4.04590428e-01, 3.35561299e+00 ]
      - [ 2.20670223e+00, 3.45048666e-01, 3.88254213e+00 ]
      - [ 1.44942188e+00, 3.44057262e-01, 3.95813894e+00 ]
      - [ 2.80260992e+00, 3.28847796e-01, 4.30879402e+00 ]
      - [ 1.91417348e+00, 3.68174344e-01, 3.64414549e+00 ]
      - [ 2.62261248e+00, 3.60837996e-01, 3.80645370e+00 ]
      - [ 1.55633259e+00, 3.43905479e-01, 4.03097010e+00 ]
      - [ 2.14257026e+00, 3.95694435e-01, 3.42611957e+00 ]
      - [ 4.15623379e+00, 3.66048664e-01, 3.79951382e+00 ]
      - [ 3.17573142e+00, 3.67675781e-01, 3.97578263e+00 ]
      - [ 2.03484225e+00, 4.44682419e-01, 3.11528730e+00 ]
      - [ 1.82049620e+00, 3.04834157e-01, 4.65483761e+00 ]
      - [ 2.21010113e+00, 4.09889460e-01, 3.30326819e+00 ]
      - [ 1.74704599e+00, 3.48902434e-01, 3.86042452e+00 ]
      - [ 2.09266639e+00, 4.00316268e-01, 3.35145378e+00 ]
      - [ 1.90905881e+00, 4.06811923e-01, 3.34956026e+00 ]
      - [ 1.99972928e+00, 4.44850624e-01, 3.22980905e+00 ]
      - [ 1.53988099e+00, 3.65154803e-01, 3.82519341e+00 ]
      - [ 2.48065853e+00, 4.08883959e-01, 3.42808867e+00 ]
      - [ 1.71709013e+00, 3.79664510e-01, 3.55161214e+00 ]
      - [ 1.56183314e+00, 3.88632178e-01, 3.52976012e+00 ]
      - [ 2.41335964e+00, 4.06007767e-01, 3.37882280e+00 ]
      - [ 2.48120522e+00, 3.70983601e-01, 3.67738867e+00 ]
      - [ 2.06986141e+00, 4.74501342e-01, 2.96819520e+00 ]
      - [ 2.04705453e+00, 4.50946182e-01, 3.18272090e+00 ]
      - [ 2.14053369e+00, 4.39227164e-01, 3.21889949e+00 ]
      - [ 3.01047397e+00, 3.60316485e-01, 3.80376983e+00 ]
      - [ 1.74255323e+00, 4.54113185e-01, 3.15745282e+00 ]
      - [ 2.16998959e+00, 4.23114657e-01, 3.26659727e+00 ]
      - [ 2.82607746e+00, 3.77795815e-01, 3.66780686e+00 ]
      - [ 1.92484736e+00, 4.09956485e-01, 3.28130698e+00 ]
      - [ 1.71401620e+00, 2.98997670e-01, 4.93365860e+00 ]
      - [ 2.04427981e+00, 3.88572574e-01, 3.40865922e+00 ]
      - [ 2.07987213e+00, 2.79057056e-01, 5.58839989e+00 ]
      - [ 1.85857379e+00, 4.39689964e-01, 3.19781876e+00 ]
      - [ 2.37495089e+00, 4.02046084e-01, 3.41241932e+00 ]
      - [ 2.99587584e+00, 4.17299688e-01, 3.42110372e+00 ]
      - [ 2.16837859e+00, 3.44984859e-01, 3.89149261e+00 ]
      - [ 3.01222324e+00, 3.39460909e-01, 4.09547472e+00 ]
      - [ 1.79851305e+00, 4.26341176e-01, 3.18802214e+00 ]
      - [ 1.56682432e+00, 3.33393872e-01, 4.55828285e+00 ]
      - [ 1.53740728e+00, 3.33277553e-01, 4.24035311e+00 ]
      - [ 1.71719468e+00, 4.14389551e-01, 3.32724547e+00 ]
      - [ 1.71317613e+00, 3.20514172e-01, 4.42186689e+00 ]
      - [ 1.85016191e+00, 3.22292060e-01, 4.30773640e+00 ]
      - [ 2.12302446e+00, 3.14993292e-01, 4.33352661e+00 ]
      - [ 2.81232738e+00, 3.59039307e-01, 3.81305909e+00 ]
      - [ 1.75082231e+00, 3.21544379e-01, 4.26378965e+00 ]
      - [ 1.89794648e+00, 3.87623250e-01, 3.45216036e+00 ]
      - [ 1.63137722e+00, 3.50722313e-01, 3.86235619e+00 ]
      - [ 1.65753329e+00, 3.96428645e-01, 3.47259212e+00 ]
      - [ 1.49145758e+00, 3.64533663e-01, 3.76766658e+00 ]
      - [ 1.91886127e+00, 3.21881443e-01, 4.37056780e+00 ]
      - [ 2.21899009e+00, 4.02301401e-01, 3.40068150e+00 ]
      - [ 1.66616082e+00, 3.74494284e-01, 3.55576658e+00 ]
      - [ 2.08756328e+00, 4.01263714e-01, 3.39230347e+00 ]
      - [ 1.70075548e+00, 4.01902348e-01, 3.38358212e+00 ]
      - [ 2.43798041e+00, 3.29029411e-01, 4.17300558e+00 ]
      - [ 2.59168935e+00, 4.10525858e-01, 3.39775276e+00 ]
      - [ 1.55737472e+00, 3.82592648e-01, 3.59176397e+00 ]
      - [ 2.20077491e+00, 4.25791860e-01, 3.25666380e+00 ]
      - [ 2.53046751e+00, 4.16647047e-01, 3.28130174e+00 ]
      - [ 1.70816600e+00, 3.38162959e-01, 4.02810192e+00 ]
      - [ 1.55719507e+00, 4.09510314e-01, 3.41375327e+00 ]
      - [ 3.80119371e+00, 4.40871418e-01, 3.23418379e+00 ]
      - [ 2.58839679e+00, 3.61654073e-01, 3.76795244e+00 ]
      - [ 2.04310751e+00, 4.35704112e-01, 3.24683571e+00 ]
      - [ 1.74323344e+00, 3.71748477e-01, 3.52926064e+00 ]
      - [ 1.67677164e+00, 3.24202210e-01, 4.56155300e+00 ]
      - [ 2.03607821e+00, 3.36630344e-01, 3.94254041e+00 ]
      - [ 1.59336603e+00, 3.70067149e-01, 3.68052816e+00 ]
      - [ 2.08030653e+00, 4.42124546e-01, 3.21872306e+00 ]
      - [ 1.92052341e+00, 3.71350318e-01, 3.53724146e+00 ]
      - [ 1.62990379e+00, 3.49545598e-01, 3.91739607e+00 ]
      - [ 1.61462128e+00, 3.02610010e-01, 4.71878576e+00 ]
      - [ 1.85309613e+00, 3.79207343e-01, 3.53705096e+00 ]
      - [ 1.52408564e+00, 3.65812927e-01, 3.85983205e+00 ]
      - [ 2.24613667e+00, 4.23954368e-01, 3.29661393e+00 ]
      - [ 2.19776678e+00, 3.66397053e-01, 3.66881609e+00 ]
      - [ 1.60571980e+00, 3.02208722e-01, 4.80583715e+00 ]
      - [ 1.57084465e+00, 3.21248502e-01, 4.40415907e+00 ]
      - [ 2.41552854e+00, 2.98792511e-01, 4.58439970e+00 ]
      - [ 2.13434625e+00, 3.26672584e-01, 4.32648945e+00 ]
      - [ 2.01660466e+00, 4.47054863e-01, 3.15097260e+00 ]
      - [ 1.86998379e+00, 3.57229382e-01, 3.74093294e+00 ]
      - [ 1.51031947e+00, 3.64393651e-01, 3.78763962e+00 ]
      - [ 5.56190348e+00, 4.04212415e-01, 3.63990998e+00 ]
      - [ 4.72377539e+00, 2.76681513e-01, 5.24757814e+00 ]
      - [ 2.01865196e+00, 4.08991158e-01, 3.30817914e+00 ]
      - [ 3.36620808e+00, 3.95913780e-01, 3.42195344e+00 ]
      - [ 1.72155631e+00, 3.87571692e-01, 3.49114704e+00 ]
      - [ 2.60606670e+00, 3.08793098e-01, 4.91166592e+00 ]
      - [ 2.08186603e+00, 4.16434765e-01, 3.30446291e+00 ]
      - [ 1.56705511e+00, 3.70988697e-01, 3.65528345e+00 ]
      - [ 1.51562190e+00, 3.87186199e-01, 3.59270883e+00 ]
      - [ 1.95379806e+00, 5.02175629e-01, 2.70564175e+00 ]
      - [ 2.19358134e+00, 3.83176208e-01, 3.45613647e+00 ]
      - [ 1.57687676e+00, 3.50757301e-01, 4.02995634e+00 ]
      - [ 1.98122299e+00, 3.11533183e-01, 4.56002235e+00 ]
      - [ 1.56243289e+00, 3.33931625e-01, 4.26029348e+00 ]
      - [ 1.89381194e+00, 4.20096725e-01, 3.30667353e+00 ]
      - [ 4.65910530e+00, 3.10303539e-01, 5.00453281e+00 ]
      - [ 1.47665286e+00, 3.47676188e-01, 4.06276274e+00 ]
      - [ 1.63856614e+00, 3.32676977e-01, 4.18677473e+00 ]
      - [ 1.61881840e+00, 3.07703048e-01, 4.62968826e+00 ]
      - [ 1.47737706e+00, 3.68418396e-01, 3.95961976e+00 ]
      - [ 1.89747238e+00, 4.53860670e-01, 3.17844296e+00 ]
      - [ 1.50726140e+00, 3.67173731e-01, 3.88311625e+00 ]
      - [ 5.12630415e+00, 4.86236423e-01, 3.14875555e+00 ]
      - [ 1.79768229e+00, 3.07734460e-01, 4.69250107e+00 ]
      - [ 1.58245194e+00, 2.92387038e-01, 5.35963917e+00 ]
      - [ 1.80786765e+00, 4.32232350e-01, 3.19403625e+00 ]
      - [ 1.67003655e+00, 3.28217328e-01, 4.31036472e+00 ]
      - [ 1.53417540e+00, 3.57880920e-01, 3.83437943e+00 ]
      - [ 1.64649594e+00, 3.84126633e-01, 3.57095385e+00 ]
      - [ 1.56394541e+00, 5.50565124e-01, 2.91676283e+00 ]
      - [ 1.77089119e+00, 4.21765357e-01, 3.28721857e+00 ]
      - [ 1.68624365e+00, 3.33887935e-01, 4.09955549e+00 ]
      - [ 1.62279904e+00, 3.37366670e-01, 4.10383177e+00 ]
      - [ 2.02831125e+00, 4.28465933e-01, 3.27396774e+00 ]
      - [ 1.64699781e+00, 3.23066235e-01, 4.25388050e+00 ]
      - [ 3.08680725e+00, 3.37706476e-01, 4.43276167e+00 ]
      - [ 1.87163305e+00, 4.48007464e-01, 3.10541701e+00 ]
      - [ 2.12753749e+00, 3.90946150e-01, 3.46080422e+00 ]
      - [ 1.75236762e+00, 4.03903872e-01, 3.37780952e+00 ]
      - [ 1.86974633e+00, 4.43189263e-01, 3.20739174e+00 ]
      - [ 1.69999814e+00, 4.06811833e-01, 3.30574250e+00 ]
      - [ 2.31178331e+00, 5.25025904e-01, 2.82252383e+00 ]
      - [ 2.05455160e+00, 3.97496134e-01, 3.40021873e+00 ]
      - [ 2.19865179e+00, 3.18384618e-01, 4.34790325e+00 ]
      - [ 1.75576413e+00, 3.28940421e-01, 4.13355064e+00 ]
      - [ 2.32181907e+00, 4.18423355e-01, 3.27556086e+00 ]
      - [ 1.69617391e+00, 3.70821714e-01, 3.64480281e+00 ]
      - [ 3.76861525e+00, 3.25393289e-01, 4.53185177e+00 ]
      - [ 1.59950352e+00, 3.78797770e-01, 3.64812303e+00 ]
      - [ 1.70823264e+00, 3.56717110e-01, 3.76134825e+00 ]
      - [ 1.61121154e+00, 3.71447623e-01, 3.68855000e+00 ]
      - [ 1.54661500e+00, 3.83149862e-01, 3.62743092e+00 ]
      - [ 2.08076477e+00, 3.18528056e-01, 4.71846008e+00 ]
      - [ 1.54193699e+00, 2.95580864e-01, 4.80775070e+00 ]
      - [ 1.70536315e+00, 3.99607629e-01, 3.42787051e+00 ]
      - [ 2.34567475e+00, 3.04291040e-01, 4.81834221e+00 ]
      - [ 1.60153055e+00, 3.55811626e-01, 3.84558892e+00 ]
      - [ 1.66173792e+00, 3.74340266e-01, 3.57152200e+00 ]
      - [ 1.55849040e+00, 4.39728558e-01, 3.28311777e+00 ]
      - [ 1.72184610e+00, 3.33339453e-01, 4.10694122e+00 ]
      - [ 1.55144286e+00, 4.01662141e-01, 3.50916791e+00 ]
      - [ 3.06886888e+00, 3.76450151e-01, 3.89238310e+00 ]
      - [ 1.60175788e+00, 3.35439473e-01, 4.30122995e+00 ]
      - [ 1.68910873e+00, 4.04643267e-01, 3.40283394e+00 ]
      - [ 1.61435366e+00, 3.69801939e-01, 3.70752788e+00 ]
      - [ 2.28018236e+00, 3.97583127e-01, 3.42076540e+00 ]
      - [ 2.73265219e+00, 4.83532786e-01, 3.04661131e+00 ]
      - [ 1.69406056e+00, 4.27249253e-01, 3.25138021e+00 ]
      - [ 1.50642478e+00, 3.84946197e-01, 3.58742642e+00 ]
      - [ 1.71132433e+00, 3.32044333e-01, 4.23066378e+00 ]
      - [ 1.97665071e+00, 4.60005343e-01, 3.13724542e+00 ]
      - [ 1.73058546e+00, 3.35017353e-01, 4.03251410e+00 ]
      - [ 2.23322415e+00, 3.48895192e-01, 3.85208893e+00 ]
      - [ 2.08221865e+00, 4.45909470e-01, 3.22224855e+00 ]
      - [ 1.60662019e+00, 3.35328549e-01, 4.17403746e+00 ]
      - [ 1.65562677e+00, 3.65325391e-01, 3.73547721e+00 ]
      - [ 1.59163547e+00, 3.74639869e-01, 3.66310644e+00 ]
      - [ 2.00552344e+00, 3.29403371e-01, 4.01000977e+00 ]
      - [ 1.76307392e+00, 3.67451489e-01, 3.64249921e+00 ]
      - [ 2.45205975e+00, 3.35861444e-01, 4.08572006e+00 ]
      - [ 2.50375676e+00, 3.93908530e-01, 3.49801564e+00 ]
      - [ 2.80920172e+00, 5.54895759e-01, 2.86329341e+00 ]
      - [ 2.47101331e+00, 3.67081314e-01, 3.57738471e+00 ]
      - [ 1.62166679e+00, 3.43990952e-01, 4.02887106e+00 ]
      - [ 1.70406759e+00, 3.45718741e-01, 3.89217567e+00 ]
      - [ 2.29118824e+00, 3.30657870e-01, 4.33678293e+00 ]
      - [ 1.68553591e+00, 2.57267863e-01, 5.75235653e+00 ]
      - [ 2.55049062e+00, 3.50296825e-01, 3.91885567e+00 ]
      - [ 1.67279637e+00, 3.74599129e-01, 3.59605145e+00 ]
      - [ 3.94330096e+00, 3.62995595e-01, 3.89392138e+00 ]
      - [ 2.04839301e+00, 4.16001379e-01, 3.32553983e+00 ]
      - [ 3.09836435e+00, 3.56165767e-01, 3.88058186e+00 ]
      - [ 1.88108051e+00, 4.14030880e-01, 3.31093121e+00 ]
      - [ 4.55523443e+00, 3.62594962e-01, 3.82511663e+00 ]
      - [ 1.57183063e+00, 3.96349967e-01, 3.50390220e+00 ]
      - [ 2.79951954e+00, 3.49058688e-01, 4.43995094e+00 ]
      - [ 1.78687608e+00, 3.61031085e-01, 3.73014140e+00 ]
      - [ 1.72133470e+00, 3.20308477e-01, 4.27614117e+00 ]
      - [ 1.61658990e+00, 3.39450806e-01, 4.09869099e+00 ]
      - [ 1.76966655e+00, 4.55898345e-01, 3.15339279e+00 ]
      - [ 3.34951377e+00, 3.64687681e-01, 3.94734406e+00 ]
      - [ 1.65453005e+00, 3.27486724e-01, 4.24073029e+00 ]
      - [ 3.12614655e+00, 4.41339582e-01, 3.14589572e+00 ]
      - [ 1.67858660e+00, 3.53249222e-01, 3.82620811e+00 ]
      - [ 1.79538631e+00, 3.33287299e-01, 4.07453966e+00 ]
      - [ 1.65134394e+00, 4.08599466e-01, 3.40636444e+00 ]
      - [ 1.60847318e+00, 3.92571568e-01, 3.49295902e+00 ]
      - [ 2.03395271e+00, 3.89015019e-01, 3.43319249e+00 ]
      - [ 1.71353781e+00, 4.15558785e-01, 3.23502135e+00 ]
      - [ 1.62833011e+00, 3.53409439e-01, 3.89633155e+00 ]
      - [ 3.26190853e+00, 3.88128698e-01, 3.63678527e+00 ]
      - [ 2.32600570e+00, 4.35934573e-01, 3.12870526e+00 ]
      - [ 2.13276362e+00, 4.37721282e-01, 3.26107883e+00 ]
      - [ 3.89633822e+00, 3.70406687e-01, 3.80758286e+00 ]
      - [ 1.91047454e+00, 3.88807058e-01, 3.45679545e+00 ]
      - [ 2.78099895e+00, 4.24359500e-01, 3.22388506e+00 ]
      - [ 1.56474960e+00, 3.56167555e-01, 3.84573078e+00 ]
      - [ 1.70399964e+00, 3.48065883e-01, 3.86900282e+00 ]
      - [ 2.14479494e+00, 3.08332890e-01, 4.26616478e+00 ]
      - [ 2.03107500e+00, 3.74991924e-01, 3.54058838e+00 ]
      - [ 1.57141078e+00, 3.38406414e-01, 4.08487988e+00 ]
      - [ 1.69285131e+00, 3.15549433e-01, 4.47417593e+00 ]
      - [ 1.91012526e+00, 4.03531253e-01, 3.38510346e+00 ]
      - [ 2.18732858e+00, 4.47391868e-01, 3.15736294e+00 ]
      - [ 1.67449617e+00, 4.33791667e-01, 3.14225864e+00 ]
      - [ 1.59963131e+00, 3.40300292e-01, 4.03041697e+00 ]
      - [ 2.68574667e+00, 3.93016398e-01, 3.48417926e+00 ]
      - [ 1.64361739e+00, 4.12701070e-01, 3.36898637e+00 ]
      - [ 1.51509976e+00, 3.40553075e-01, 4.31531048e+00 ]
      - [ 1.82830751e+00, 3.67006004e-01, 3.60708427e+00 ]
      - [ 1.95542288e+00, 4.32813615e-01, 3.22399974e+00 ]
      - [ 2.18321443e+00, 4.45163131e-01, 3.10369873e+00 ]
      - [ 2.09263015e+00, 3.27226728e-01, 4.22581148e+00 ]
      - [ 1.65603733e+00, 4.43798631e-01, 3.08200955e+00 ]
      - [ 2.82324839e+00, 4.30515140e-01, 3.36273456e+00 ]
      - [ 1.79442883e+00, 3.63985807e-01, 3.65349627e+00 ]
      - [ 1.60467076e+00, 5.17091930e-01, 2.61327839e+00 ]
      - [ 2.24071240e+00, 4.45429593e-01, 3.19570136e+00 ]
      - [ 1.95171511e+00, 3.97675365e-01, 3.38330603e+00 ]
      - [ 5.60364199e+00, 4.23468292e-01, 3.34997201e+00 ]
      - [ 2.40088248e+00, 3.62304002e-01, 3.73300385e+00 ]
      - [ 1.50580764e+00, 3.57088476e-01, 3.81767702e+00 ]
      - [ 1.57803273e+00, 3.52336586e-01, 3.93319821e+00 ]
      - [ 2.11060262e+00, 4.05918688e-01, 3.35803628e+00 ]
      - [ 2.17093706e+00, 3.17258835e-01, 4.60639620e+00 ]
      - [ 2.00985241e+00, 3.44527781e-01, 3.91550636e+00 ]
      - [ 1.52945459e+00, 3.45580101e-01, 4.06212759e+00 ]
      - [ 1.50439692e+00, 3.67100656e-01, 3.73812842e+00 ]
      - [ 1.40552270e+00, 5.04705250e-01, 3.06533432e+00 ]
      - [ 1.91709781e+00, 2.83659101e-01, 5.30574322e+00 ]
      - [ 1.57981980e+00, 3.41211915e-01, 4.16509962e+00 ]
      - [ 1.69957042e+00, 3.87594879e-01, 3.49759579e+00 ]
      - [ 2.65098071e+00, 3.93318951e-01, 3.52471185e+00 ]
      - [ 1.71997118e+00, 3.96613985e-01, 3.39725399e+00 ]
      - [ 2.19068098e+00, 4.14196610e-01, 3.35769796e+00 ]
      - [ 1.65799606e+00, 3.73552054e-01, 3.61616921e+00 ]
      - [ 1.52288377e+00, 3.15420657e-01, 4.58244753e+00 ]
      - [ 1.53862464e+00, 4.32055324e-01, 3.13415980e+00 ]
      - [ 2.07437158e+00, 3.85545999e-01, 3.48995090e+00 ]
      - [ 2.57566071e+00, 3.54501814e-01, 3.90207696e+00 ]
      - [ 2.01285577e+00, 3.83211732e-01, 3.49418163e+00 ]
      - [ 1.51601005e+00, 3.51671338e-01, 4.13288069e+00 ]
      - [ 2.25044584e+00, 4.22386140e-01, 3.30959463e+00 ]
      - [ 2.46447873e+00, 3.95462006e-01, 3.48163939e+00 ]
      - [ 1.64181054e+00, 3.64796966e-01, 3.70014310e+00 ]
      - [ 2.91006279e+00, 3.95277351e-01, 3.51239634e+00 ]
      - [ 1.61224389e+00, 3.28956991e-01, 4.32517862e+00 ]
      - [ 1.52040792e+00, 3.31384987e-01, 4.28247499e+00 ]
      - [ 1.80368876e+00, 3.27841431e-01, 4.19780588e+00 ]
      - [ 2.09137607e+00, 4.40797627e-01, 3.25071359e+00 ]
      - [ 1.63231421e+00, 4.00502414e-01, 3.44544673e+00 ]
      - [ 2.12791967e+00, 4.29157555e-01, 3.29781795e+00 ]
      - [ 2.05752134e+00, 3.94058824e-01, 3.41499233e+00 ]
      - [ 1.88634169e+00, 4.50617820e-01, 3.17971396e+00 ]
      - [ 1.59045458e+00, 3.34533066e-01, 4.17646456e+00 ]
      - [ 2.75990009e+00, 3.44788492e-01, 3.96763158e+00 ]
      - [ 2.58844781e+00, 4.07592148e-01, 3.45400620e+00 ]
      - [ 1.42771626e+00, 2.92299986e-01, 5.15996981e+00 ]
      - [ 1.90193820e+00, 3.95948678e-01, 3.41215539e+00 ]
      - [ 1.61499417e+00, 3.27194154e-01, 4.44140673e+00 ]
      - [ 1.66823983e+00, 3.68259579e-01, 3.68809247e+00 ]
      - [ 2.04580331e+00, 4.25796241e-01, 3.23286462e+00 ]
      - [ 2.01135206e+00, 3.12819213e-01, 4.67612171e+00 ]
      - [ 2.04081273e+00, 4.09328580e-01, 3.34980345e+00 ]
      - [ 1.89970648e+00, 3.28361481e-01, 4.17889977e+00 ]
      - [ 1.36495757e+00, 3.74631733e-01, 3.62900186e+00 ]
      - [ 1.70708048e+00, 3.46494943e-01, 3.87341928e+00 ]
      - [ 2.52277136e+00, 4.36964571e-01, 3.27445149e+00 ]
      - [ 2.30264139e+00, 4.78657842e-01, 3.11651301e+00 ]
      - [ 1.88313282e+00, 4.19991165e-01, 3.29644156e+00 ]
      - [ 1.96984243e+00, 4.51763421e-01, 3.12966132e+00 ]
      - [ 1.72223294e+00, 4.25433755e-01, 3.24113703e+00 ]
      - [ 1.72331774e+00, 4.57170159e-01, 3.10411763e+00 ]
      - [ 1.72023976e+00, 4.00884926e-01, 3.38665581e+00 ]
      - [ 1.80622971e+00, 3.14554662e-01, 4.31867504e+00 ]
      - [ 1.74905217e+00, 3.11402500e-01, 4.85387707e+00 ]
      - [ 2.30566812e+00, 3.09145898e-01, 4.35800219e+00 ]
      - [ 1.91209412e+00, 4.06590849e-01, 3.31945705e+00 ]
      - [ 1.76385200e+00, 5.19315064e-01, 3.00944710e+00 ]
      - [ 2.88933873e+00, 3.64196330e-01, 3.85694909e+00 ]
      - [ 1.58735645e+00, 3.22546989e-01, 4.22242689e+00 ]
      - [ 2.02603817e+00, 4.22733486e-01, 3.29820204e+00 ]
      - [ 2.44341946e+00, 3.68301600e-01, 3.63594532e+00 ]
      - [ 2.02260208e+00, 4.06845212e-01, 3.32627153e+00 ]
      - [ 1.70808971e+00, 4.06453013e-01, 3.40006089e+00 ]
      - [ 1.59294736e+00, 3.45433503e-01, 3.97527456e+00 ]
      - [ 1.65588439e+00, 3.12197208e-01, 4.66918230e+00 ]
      - [ 1.68928862e+00, 4.04873729e-01, 3.37755322e+00 ]
      - [ 1.75831699e+00, 4.42226410e-01, 3.08498836e+00 ]
      - [ 2.02909493e+00, 3.13079417e-01, 4.81394434e+00 ]
      - [ 1.93868518e+00, 4.03555155e-01, 3.34792781e+00 ]
      - [ 1.65493965e+00, 3.48560661e-01, 3.92989564e+00 ]
      - [ 1.62174952e+00, 3.35219681e-01, 4.12682247e+00 ]
      - [ 1.37453151e+00, 3.35649103e-01, 4.47603750e+00 ]
      - [ 2.64537811e+00, 4.23701495e-01, 3.21421766e+00 ]
      - [ 2.27569246e+00, 3.27348471e-01, 4.15730572e+00 ]
      - [ 1.67618358e+00, 4.07974899e-01, 3.37770724e+00 ]
      - [ 1.55557418e+00, 3.58356118e-01, 3.94714189e+00 ]
      - [ 1.99614120e+00, 3.10657084e-01, 4.56146669e+00 ]
      - [ 1.96989238e+00, 4.28676069e-01, 3.19833326e+00 ]
      - [ 2.00182462e+00, 4.33286816e-01, 3.24747777e+00 ]
      - [ 1.91749978e+00, 4.33728993e-01, 3.15025902e+00 ]
      - [ 1.60903764e+00, 4.06723022e-01, 3.48297024e+00 ]
      - [ 1.71917450e+00, 3.59405369e-01, 3.74477696e+00 ]
      - [ 2.61525249e+00, 4.76651639e-01, 3.22473454e+00 ]
      - [ 1.71289659e+00, 3.45560133e-01, 3.93414950e+00 ]
      - [ 2.12788343e+00, 4.24506664e-01, 3.22008491e+00 ]
      - [ 1.84506667e+00, 3.14524651e-01, 4.34337521e+00 ]
      - [ 1.96923089e+00, 4.29845870e-01, 3.17375946e+00 ]
      - [ 2.83367419e+00, 3.48571062e-01, 4.04028559e+00 ]
      - [ 4.05149031e+00, 2.62813151e-01, 5.97579288e+00 ]
      - [ 2.03039908e+00, 3.61425430e-01, 3.65979028e+00 ]
      - [ 1.55454516e+00, 3.76354218e-01, 3.70144606e+00 ]
      - [ 2.08196712e+00, 3.91557127e-01, 3.43470383e+00 ]
      - [ 2.43345380e+00, 4.04168546e-01, 3.36901236e+00 ]
      - [ 1.57905102e+00, 4.17288125e-01, 3.45670295e+00 ]
      - [ 2.08097506e+00, 4.35947120e-01, 3.24742508e+00 ]
      - [ 1.50956404e+00, 4.33784127e-01, 3.20468903e+00 ]
      - [ 1.70953774e+00, 4.06093925e-01, 3.33031654e+00 ]
      - [ 1.77964389e+00, 3.95427346e-01, 3.41819859e+00 ]
      - [ 3.08455086e+00, 3.25467229e-01, 4.44125175e+00 ]
      - [ 1.62248409e+00, 3.22098404e-01, 4.50485277e+00 ]
      - [ 1.39148510e+00, 8.80093336e-01, 1.82412660e+00 ]
      - [ 1.83035517e+00, 3.93485248e-01, 3.43473196e+00 ]
      - [ 1.63124633e+00, 3.31803381e-01, 4.19760752e+00 ]
      - [ 4.05747032e+00, 3.96827638e-01, 3.56947446e+00 ]
      - [ 1.49243653e+00, 3.49101633e-01, 4.12499905e+00 ]
      - [ 2.46189904e+00, 4.44546133e-01, 3.22240257e+00 ]
      - [ 1.82975280e+00, 4.26232040e-01, 3.24160099e+00 ]
      - [ 2.42282557e+00, 2.66997397e-01, 5.51812172e+00 ]
      - [ 1.94267786e+00, 3.31780612e-01, 4.07203817e+00 ]
      - [ 1.73289073e+00, 4.35910970e-01, 3.28104115e+00 ]
      - [ 2.66311836e+00, 3.80009770e-01, 3.58657336e+00 ]
      - [ 1.64231110e+00, 3.35969388e-01, 4.14198923e+00 ]
      - [ 2.42347813e+00, 3.84264827e-01, 3.56416631e+00 ]
      - [ 1.57003820e+00, 3.72011751e-01, 3.71875668e+00 ]
      - [ 1.65955710e+00, 3.54503274e-01, 3.74266434e+00 ]
      - [ 1.77938473e+00, 4.14620280e-01, 3.31984568e+00 ]
      - [ 1.48149586e+00, 3.45667243e-01, 4.14557552e+00 ]
      - [ 1.70312226e+00, 3.61274809e-01, 3.72330022e+00 ]
      - [ 1.69415081e+00, 4.47548896e-01, 3.25310421e+00 ]
      - [ 2.37118030e+00, 3.98248732e-01, 3.43532085e+00 ]
      - [ 2.03848696e+00, 4.39710826e-01, 3.17423415e+00 ]
      - [ 2.30272245e+00, 4.09297526e-01, 3.32733631e+00 ]
      - [ 4.05248880e+00, 2.96247154e-01, 5.14294672e+00 ]
      - [ 1.68944621e+00, 3.67712617e-01, 3.67131519e+00 ]
      - [ 1.69037509e+00, 3.52410913e-01, 3.85665774e+00 ]
      - [ 2.55934024e+00, 4.02948678e-01, 3.41754317e+00 ]
      - [ 2.27256465e+00, 4.03833628e-01, 3.41807151e+00 ]
      - [ 1.93833458e+00, 4.41150606e-01, 3.18788981e+00 ]
      - [ 1.58249617e+00, 3.92090738e-01, 3.52741480e+00 ]
      - [ 1.89267969e+00, 3.02895695e-01, 4.56614208e+00 ]
      - [ 2.66210032e+00, 4.68212485e-01, 3.03311348e+00 ]
      - [ 1.15808809e+00, 3.62350941e-01, 3.81925082e+00 ]
      - [ 3.11042261e+00, 3.36507827e-01, 4.36241102e+00 ]
      - [ 3.68105125e+00, 4.06375647e-01, 3.59195709e+00 ]
      - [ 1.62179410e+00, 3.56456459e-01, 3.79227281e+00 ]
      - [ 1.78024697e+00, 3.76108944e-01, 3.58897185e+00 ]
      - [ 2.13005304e+00, 3.17698002e-01, 4.32386065e+00 ]
      - [ 1.31668937e+00, 3.88328850e-01, 3.62340832e+00 ]
      - [ 2.43317056e+00, 3.21051598e-01, 4.58390236e+00 ]
      - [ 1.84734368e+00, 3.66548270e-01, 3.64580965e+00 ]
      - [ 1.74102068e+00, 4.21170741e-01, 3.32006478e+00 ]
      - [ 2.84837747e+00, 4.21833932e-01, 3.35845017e+00 ]
      - [ 2.21814036e+00, 3.28311473e-01, 4.18163681e+00 ]
      - [ 1.58423674e+00, 3.52611005e-01, 3.87025905e+00 ]
      - [ 1.71719563e+00, 3.75402391e-01, 3.62193751e+00 ]
      - [ 1.70334554e+00, 3.97501826e-01, 3.40376282e+00 ]
      - [ 1.65177321e+00, 3.26715469e-01, 4.25597095e+00 ]
      - [ 2.31669831e+00, 4.05655742e-01, 3.39055300e+00 ]
      - [ 1.76721561e+00, 4.55712557e-01, 3.18839645e+00 ]
      - [ 1.48897719e+00, 3.88289601e-01, 3.74635768e+00 ]
      - [ 1.64158487e+00, 3.34659100e-01, 4.12269688e+00 ]
      - [ 1.56810880e+00, 3.13450545e-01, 5.01774931e+00 ]
      - [ 2.96779919e+00, 3.69773477e-01, 3.94654870e+00 ]
      - [ 4.07038212e+00, 3.28492224e-01, 4.43677378e+00 ]
      - [ 3.04049349e+00, 5.02425253e-01, 2.82640696e+00 ]
      - [ 1.58668494e+00, 3.31829786e-01, 4.09753132e+00 ]
      - [ 3.69862556e+00, 4.03771639e-01, 3.47234344e+00 ]
      - [ 1.70434642e+00, 3.31069320e-01, 4.17073202e+00 ]
      - [ 1.61559677e+00, 3.60822946e-01, 3.80234313e+00 ]
      - [ 1.70190179e+00, 3.57189059e-01, 3.72730398e+00 ]
      - [ 1.77931750e+00, 4.28659439e-01, 3.29117608e+00 ]
      - [ 2.12548518e+00, 4.53083783e-01, 3.13903761e+00 ]
      - [ 2.45788503e+00, 3.99575919e-01, 3.45545554e+00 ]
      - [ 1.99485004e+00, 4.38377321e-01, 3.22827578e+00 ]
      - [ 1.82335556e+00, 3.14509630e-01, 4.52558184e+00 ]
      - [ 1.62046540e+00, 3.29754829e-01, 4.32063961e+00 ]
      - [ 2.12670302e+00, 4.03221548e-01, 3.35791183e+00 ]
      - [ 1.85554862e+00, 4.05841410e-01, 3.35414863e+00 ]
      - [ 1.58461022e+00, 3.76964331e-01, 3.63023257e+00 ]
      - [ 1.54293621e+00, 3.37260395e-01, 4.27950954e+00 ]
      - [ 1.46281707e+00, 4.11944449e-01, 3.48974848e+00 ]
      - [ 2.02844858e+00, 3.99482876e-01, 3.39259291e+00 ]
      - [ 2.06363773e+00, 4.10033435e-01, 3.32471490e+00 ]
      - [ 1.82541502e+00, 3.23973715e-01, 4.38137197e+00 ]
      - [ 1.39948404e+00, 3.91100347e-01, 3.54581404e+00 ]
      - [ 2.38455749e+00, 4.27705854e-01, 3.29178143e+00 ]
      - [ 1.78845358e+00, 4.20285344e-01, 3.24493265e+00 ]
      - [ 1.56416285e+00, 3.77675354e-01, 3.67262530e+00 ]
      - [ 1.60185635e+00, 3.01251709e-01, 4.61093712e+00 ]
      - [ 3.31868172e+00, 4.06152695e-01, 3.39361405e+00 ]
      - [ 2.32073140e+00, 4.01686639e-01, 3.43980312e+00 ]
      - [ 2.37047291e+00, 4.06691015e-01, 3.41809082e+00 ]
      - [ 1.85696447e+00, 4.03119236e-01, 3.33807468e+00 ]
      - [ 2.39240122e+00, 3.90333712e-01, 3.43175030e+00 ]
      - [ 1.60245538e+00, 3.50009888e-01, 3.90619969e+00 ]
      - [ 3.75740600e+00, 4.01986450e-01, 3.54196310e+00 ]
      - [ 1.51817441e+00, 3.74089420e-01, 3.80799341e+00 ]
      - [ 1.80801940e+00, 4.23924416e-01, 3.23007965e+00 ]
      - [ 2.07486010e+00, 4.29680020e-01, 3.23779130e+00 ]
      - [ 1.51605546e+00, 3.98784995e-01, 3.43850875e+00 ]
      - [ 2.27590656e+00, 3.92172158e-01, 3.47369409e+00 ]
      - [ 3.24807787e+00, 3.90341699e-01, 3.53212428e+00 ]
      - [ 1.97937119e+00, 4.40633297e-01, 3.09949970e+00 ]
      - [ 2.30005980e+00, 4.75528598e-01, 3.05980778e+00 ]
      - [ 1.62780404e+00, 4.10620064e-01, 3.35366106e+00 ]
      - [ 1.69336200e+00, 4.33922678e-01, 3.17969060e+00 ]
      - [ 2.28364253e+00, 4.25030470e-01, 3.29245234e+00 ]
      - [ 2.06369877e+00, 4.21875775e-01, 3.27979326e+00 ]
      - [ 2.32747340e+00, 3.70020747e-01, 3.63164258e+00 ]
      - [ 2.25576305e+00, 3.20408285e-01, 4.35164404e+00 ]
      - [ 2.54819465e+00, 3.88969898e-01, 3.51014113e+00 ]
      - [ 2.05402112e+00, 4.50942487e-01, 3.11986947e+00 ]
      - [ 1.48617375e+00, 3.72491866e-01, 3.79694223e+00 ]
      - [ 2.18399477e+00, 4.09839302e-01, 3.30959487e+00 ]
      - [ 2.04864407e+00, 4.18036312e-01, 3.29564857e+00 ]
      - [ 1.96980453e+00, 4.29738998e-01, 3.23831487e+00 ]
      - [ 1.51608777e+00, 3.41144890e-01, 3.95429015e+00 ]
      - [ 1.54141188e+00, 3.65735978e-01, 3.91127253e+00 ]
      - [ 2.23147011e+00, 3.92168611e-01, 3.45479703e+00 ]
      - [ 3.98628592e+00, 3.86902243e-01, 3.55904746e+00 ]
      - [ 1.77952230e+00, 3.92919689e-01, 3.40476894e+00 ]
      - [ 1.78498375e+00, 3.48868817e-01, 3.83400822e+00 ]
      - [ 2.43574524e+00, 4.08025175e-01, 3.34594464e+00 ]
      - [ 1.68131196e+00, 4.59249556e-01, 3.06314588e+00 ]
      - [ 1.62316191e+00, 4.07469064e-01, 3.39381123e+00 ]
      - [ 1.87198400e+00, 4.45362270e-01, 3.08226132e+00 ]
      - [ 2.00092030e+00, 3.19249004e-01, 4.52981567e+00 ]
      - [ 1.56327868e+00, 3.67339581e-01, 3.79314923e+00 ]
      - [ 1.71855044e+00, 3.98325205e-01, 3.39200521e+00 ]
      - [ 1.78629529e+00, 3.25331151e-01, 4.31452465e+00 ]
      - [ 2.42629027e+00, 4.22260523e-01, 3.35172176e+00 ]
      - [ 1.57949984e+00, 3.51849884e-01, 3.89802718e+00 ]
      - [ 1.42227709e+00, 4.10485297e-01, 3.35386968e+00 ]
      - [ 1.63077211e+00, 3.29612136e-01, 4.22942162e+00 ]
      - [ 1.67461658e+00, 4.29676473e-01, 3.19877744e+00 ]
      - [ 1.56197298e+00, 3.21924239e-01, 4.18707323e+00 ]
      - [ 1.56203628e+00, 3.46415699e-01, 3.99144673e+00 ]
      - [ 2.41180706e+00, 4.51477677e-01, 3.10057998e+00 ]
      - [ 2.14562201e+00, 4.25592214e-01, 3.18340039e+00 ]
      - [ 2.23460770e+00, 4.10190821e-01, 3.33245635e+00 ]
      - [ 1.79143333e+00, 4.34995711e-01, 3.18860388e+00 ]
      - [ 1.54256964e+00, 3.45285833e-01, 4.08514214e+00 ]
      - [ 2.94198275e+00, 2.93293387e-01, 4.93700171e+00 ]
      - [ 1.57302511e+00, 3.70189130e-01, 3.73766661e+00 ]
      - [ 1.61915576e+00, 4.00789022e-01, 3.38446045e+00 ]
      - [ 2.56835818e+00, 3.95569563e-01, 3.37780523e+00 ]
      - [ 3.95525956e+00, 5.10649800e-01, 3.02732539e+00 ]
      - [ 1.73382854e+00, 4.72084939e-01, 3.03843236e+00 ]
      - [ 2.08517957e+00, 3.23179394e-01, 4.30310726e+00 ]
      - [ 1.60754931e+00, 3.41060907e-01, 4.04227352e+00 ]
      - [ 1.67632699e+00, 3.56165498e-01, 3.72814631e+00 ]
      - [ 2.06569886e+00, 4.46188867e-01, 3.20098186e+00 ]
      - [ 1.91542184e+00, 6.04332089e-01, 2.38237500e+00 ]
      - [ 1.52708387e+00, 3.53653431e-01, 3.99794865e+00 ]
      - [ 1.48245156e+00, 3.78500938e-01, 3.82550883e+00 ]
      - [ 3.15996504e+00, 4.57205176e-01, 3.27584982e+00 ]
      - [ 3.07308316e+00, 4.07301992e-01, 3.27552772e+00 ]
      - [ 3.05121946e+00, 3.95499915e-01, 3.60179901e+00 ]
      - [ 1.54607856e+00, 3.84678900e-01, 3.58582902e+00 ]
      - [ 1.71520388e+00, 4.35632527e-01, 3.16887164e+00 ]
      - [ 2.14036536e+00, 4.14751053e-01, 3.33699083e+00 ]
      - [ 1.60871971e+00, 3.66812170e-01, 3.69106412e+00 ]
      - [ 4.08202171e+00, 4.54991192e-01, 3.11742210e+00 ]
      - [ 2.27087069e+00, 4.41126496e-01, 3.21662235e+00 ]
      - [ 1.61801112e+00, 4.10708904e-01, 3.33120108e+00 ]
      - [ 2.49494863e+00, 3.94252032e-01, 3.51444960e+00 ]
      - [ 1.47359037e+00, 3.74935269e-01, 3.68114090e+00 ]
      - [ 2.09322476e+00, 4.16044682e-01, 3.30306673e+00 ]
      - [ 1.73322082e+00, 3.70054275e-01, 3.62748694e+00 ]
      - [ 2.49870539e+00, 3.87945086e-01, 3.53417778e+00 ]
      - [ 1.54383683e+00, 3.43910307e-01, 4.08448267e+00 ]
      - [ 2.05979609e+00, 4.74035203e-01, 3.05037522e+00 ]
      - [ 1.59127569e+00, 3.65051091e-01, 3.72548246e+00 ]
      - [ 1.94338906e+00, 4.31313038e-01, 3.19130349e+00 ]
      - [ 1.80098832e+00, 4.48875874e-01, 3.16134262e+00 ]
      - [ 2.24897146e+00, 3.18773091e-01, 4.40933657e+00 ]
      - [ 1.88857698e+00, 3.73936087e-01, 3.55224347e+00 ]
      - [ 1.63767636e+00, 4.35361892e-01, 3.22054505e+00 ]
      - [ 1.98221123e+00, 3.76439929e-01, 3.55457973e+00 ]
      - [ 2.65618944e+00, 3.87273610e-01, 3.59171009e+00 ]
      - [ 1.68351686e+00, 3.18263382e-01, 4.24329710e+00 ]
      - [ 1.82149446e+00, 2.90864825e-01, 5.22213125e+00 ]
      - [ 1.59712040e+00, 4.15237516e-01, 3.31195211e+00 ]
      - [ 3.92404461e+00, 3.78943443e-01, 3.78416276e+00 ]
      - [ 1.73610890e+00, 4.09028381e-01, 3.32597280e+00 ]
      - [ 1.88023829e+00, 3.17513317e-01, 4.38574171e+00 ]
      - [ 1.89127564e+00, 4.02369440e-01, 3.38790441e+00 ]
      - [ 1.76232314e+00, 4.30404812e-01, 3.27974248e+00 ]
      - [ 1.40214121e+00, 3.17046076e-01, 4.54164410e+00 ]
      - [ 1.88995647e+00, 3.15345883e-01, 4.44785309e+00 ]
      - [ 1.55869412e+00, 4.11592066e-01, 3.33895302e+00 ]
      - [ 2.39441848e+00, 3.13007742e-01, 4.78922081e+00 ]
      - [ 1.86175001e+00, 4.30143684e-01, 3.23707151e+00 ]
      - [ 1.77596819e+00, 4.28833336e-01, 3.23891163e+00 ]
      - [ 1.54641926e+00, 3.43845308e-01, 4.05200052e+00 ]
      - [ 1.78070366e+00, 3.97626013e-01, 3.39786196e+00 ]
      - [ 2.46072078e+00, 4.51971799e-01, 3.19569659e+00 ]
      - [ 2.16898346e+00, 2.84112662e-01, 5.29156351e+00 ]
      - [ 2.81006026e+00, 3.56636822e-01, 3.96363258e+00 ]
      - [ 1.28753638e+00, 3.64826471e-01, 3.83717895e+00 ]
      - [ 1.64529955e+00, 4.23612535e-01, 3.21009994e+00 ]
      - [ 2.41683555e+00, 3.81557316e-01, 3.53881693e+00 ]
      - [ 1.77602100e+00, 3.31902981e-01, 4.11665249e+00 ]
      - [ 2.37652683e+00, 3.26893955e-01, 4.21865511e+00 ]
      - [ 1.46279752e+00, 2.85616130e-01, 5.08816290e+00 ]
      - [ 1.81319284e+00, 3.47433925e-01, 3.89448047e+00 ]
      - [ 1.21580386e+00, 4.70582008e-01, 2.89447975e+00 ]
      - [ 2.53284192e+00, 4.11204278e-01, 3.44371319e+00 ]
      - [ 1.93243062e+00, 2.90210903e-01, 4.93040323e+00 ]
      - [ 1.50736868e+00, 3.50068510e-01, 3.93598557e+00 ]
      - [ 2.22518802e+00, 4.07640785e-01, 3.34479403e+00 ]
      - [ 1.35641909e+00, 3.50524634e-01, 3.85774016e+00 ]
      - [ 1.68099952e+00, 4.14572954e-01, 3.38253546e+00 ]
      - [ 2.84082317e+00, 3.34503591e-01, 4.21727753e+00 ]
      - [ 3.27978230e+00, 3.67250651e-01, 4.04793119e+00 ]
      - [ 1.62716830e+00, 3.51640075e-01, 3.88819075e+00 ]
      - [ 1.89129531e+00, 4.01726007e-01, 3.35003161e+00 ]
      - [ 1.66297066e+00, 3.31300020e-01, 4.69551754e+00 ]
      - [ 2.79211855e+00, 3.74521554e-01, 3.73631191e+00 ]
      - [ 1.93732381e+00, 4.30747718e-01, 3.17285132e+00 ]
      - [ 4.71221733e+00, 2.85381854e-01, 5.04656696e+00 ]
      - [ 1.63530123e+00, 3.20045352e-01, 4.21105194e+00 ]
      - [ 3.02062869e+00, 3.65600824e-01, 3.84299827e+00 ]
      - [ 2.53293920e+00, 3.37592363e-01, 4.11464691e+00 ]
      - [ 1.74925029e+00, 3.19138259e-01, 4.31943750e+00 ]
      - [ 1.71312177e+00, 4.07572299e-01, 3.36949062e+00 ]
      - [ 1.69740760e+00, 3.45281869e-01, 3.95291209e+00 ]
      - [ 1.49131060e+00, 3.89048070e-01, 3.46882701e+00 ]
      - [ 1.52690256e+00, 4.25182730e-01, 3.22449756e+00 ]
      - [ 1.53571403e+00, 3.93535465e-01, 3.57707596e+00 ]
      - [ 1.64261544e+00, 4.03825313e-01, 3.38243389e+00 ]
      - [ 1.61215234e+00, 3.91233146e-01, 3.48635173e+00 ]
      - [ 1.51067126e+00, 3.76807123e-01, 3.82671380e+00 ]
      - [ 1.59319055e+00, 3.93000394e-01, 3.55538344e+00 ]
      - [ 1.92083800e+00, 3.06973904e-01, 4.64580059e+00 ]
      - [ 1.66580772e+00, 4.32839483e-01, 3.29764009e+00 ]
      - [ 1.49789298e+00, 3.84038389e-01, 3.67899299e+00 ]
      - [ 1.53405213e+00, 3.58930349e-01, 3.88557339e+00 ]
      - [ 2.29777956e+00, 4.27736759e-01, 3.24813437e+00 ]
      - [ 3.05707312e+00, 3.87569457e-01, 3.50918341e+00 ]
      - [ 1.55774486e+00, 3.77124101e-01, 3.72762251e+00 ]
      - [ 2.72753024e+00, 4.11830455e-01, 3.39318228e+00 ]
      - [ 2.02476668e+00, 4.57512408e-01, 3.02633405e+00 ]
      - [ 1.74517334e+00, 4.13468122e-01, 3.33309531e+00 ]
      - [ 2.48734283e+00, 3.38977635e-01, 4.02449036e+00 ]
      - [ 1.64442253e+00, 3.88862610e-01, 3.54218745e+00 ]
      - [ 1.76138246e+00, 2.86857724e-01, 4.93386507e+00 ]
      - [ 1.51460052e+00, 3.42257261e-01, 4.45691299e+00 ]
      - [ 1.98314822e+00, 4.27609324e-01, 3.26710820e+00 ]
      - [ 1.83926880e+00, 4.21093792e-01, 3.29348016e+00 ]
      - [ 1.72323346e+00, 4.23673421e-01, 3.31371403e+00 ]
      - [ 1.66218245e+00, 4.03380811e-01, 3.34829140e+00 ]
      - [ 3.63166332e+00, 2.15500668e-01, 6.82167244e+00 ]
      - [ 1.68399739e+00, 4.12763685e-01, 3.35302734e+00 ]
      - [ 1.46819198e+00, 4.16251808e-01, 3.46845412e+00 ]
      - [ 1.53845596e+00, 3.92042458e-01, 3.59253478e+00 ]
      - [ 1.57521200e+00, 3.18827122e-01, 4.36847019e+00 ]
      - [ 1.67732179e+00, 3.61979574e-01, 3.68748999e+00 ]
      - [ 1.64803398e+00, 3.11090261e-01, 5.00225401e+00 ]
      - [ 2.00970078e+00, 4.25136805e-01, 3.27270198e+00 ]
      - [ 1.84403050e+00, 3.82578969e-01, 3.49458766e+00 ]
      - [ 1.47492385e+00, 3.80250812e-01, 3.78480768e+00 ]
      - [ 1.49253726e+00, 3.55424196e-01, 3.93897128e+00 ]
      - [ 1.75529671e+00, 2.90337443e-01, 4.76650238e+00 ]
      - [ 5.08174515e+00, 3.56545895e-01, 4.25674963e+00 ]
      - [ 1.64371657e+00, 4.13885921e-01, 3.36474729e+00 ]
      - [ 1.62635696e+00, 3.44378918e-01, 3.98574495e+00 ]
      - [ 1.50189793e+00, 3.68530869e-01, 3.75876999e+00 ]
      - [ 1.54112494e+00, 3.49145979e-01, 3.93153119e+00 ]
      - [ 3.42634773e+00, 3.74268442e-01, 3.87261581e+00 ]
      - [ 2.21141076e+00, 3.87930185e-01, 3.45409679e+00 ]
      - [ 1.91563535e+00, 4.48033780e-01, 3.15892100e+00 ]
      - [ 1.46816301e+00, 3.76529515e-01, 3.74048567e+00 ]
      - [ 2.39642644e+00, 4.46352184e-01, 3.15300322e+00 ]
      - [ 2.04243994e+00, 2.86830753e-01, 5.25264072e+00 ]
      - [ 2.22896338e+00, 3.96792263e-01, 3.45499253e+00 ]
      - [ 1.48310447e+00, 3.87112439e-01, 3.55552769e+00 ]
      - [ 2.43781996e+00, 4.98155713e-01, 2.79060912e+00 ]
      - [ 1.99865997e+00, 3.77367407e-01, 3.55294681e+00 ]
      - [ 2.45537496e+00, 3.88148040e-01, 3.51940656e+00 ]
      - [ 1.86905169e+00, 4.06527907e-01, 3.33549333e+00 ]
      - [ 2.22832131e+00, 3.01083773e-01, 5.05993938e+00 ]
      - [ 1.60332549e+00, 3.89820695e-01, 3.43182230e+00 ]
      - [ 3.26884127e+00, 4.55347866e-01, 3.08088875e+00 ]
      - [ 1.52111959e+00, 3.29791129e-01, 4.21341372e+00 ]
      - [ 2.43260646e+00, 4.03721333e-01, 3.45162821e+00 ]
      - [ 1.65811586e+00, 3.65690440e-01, 3.67274880e+00 ]
      - [ 1.64145708e+00, 3.57246488e-01, 3.77985883e+00 ]
      - [ 1.56906700e+00, 3.61913472e-01, 3.83149123e+00 ]
      - [ 2.06791520e+00, 3.80029589e-01, 3.47520852e+00 ]
      - [ 1.35429478e+00, 3.98997217e-01, 3.46950769e+00 ]
      - [ 1.60111034e+00, 3.99678826e-01, 3.46269846e+00 ]
      - [ 1.75560260e+00, 4.10603732e-01, 3.35977721e+00 ]
      - [ 1.84565187e+00, 3.07899177e-01, 5.00009108e+00 ]
      - [ 2.15542436e+00, 4.65117723e-01, 3.15817714e+00 ]
      - [ 1.68374753e+00, 3.09163898e-01, 4.84508801e+00 ]
      - [ 2.49446106e+00, 4.53421652e-01, 3.10379982e+00 ]
      - [ 1.68104720e+00, 3.46630007e-01, 3.91820741e+00 ]
      - [ 3.09057546e+00, 4.03870255e-01, 3.62811780e+00 ]
      - [ 2.02679777e+00, 4.44497228e-01, 3.11010695e+00 ]
      - [ 1.58971715e+00, 3.57495338e-01, 3.90218472e+00 ]
      - [ 1.49407279e+00, 3.57407480e-01, 3.76890922e+00 ]
      - [ 1.61644459e+00, 3.89322430e-01, 3.56391883e+00 ]
      - [ 2.03801441e+00, 3.16307962e-01, 4.51420784e+00 ]
      - [ 1.80717087e+00, 5.10639310e-01, 3.03086734e+00 ]
      - [ 1.97415304e+00, 3.64802003e-01, 3.63125372e+00 ]
      - [ 1.62831891e+00, 3.50653946e-01, 3.88185930e+00 ]
      - [ 1.62499726e+00, 4.05942529e-01, 3.42678118e+00 ]
      - [ 1.76525080e+00, 4.01090503e-01, 3.38766217e+00 ]
      - [ 2.59759355e+00, 4.35526758e-01, 3.16388702e+00 ]
      - [ 1.87443602e+00, 3.06322336e-01, 5.06393909e+00 ]
      - [ 1.97186077e+00, 4.19320911e-01, 3.29276633e+00 ]
      - [ 1.73035586e+00, 3.59922171e-01, 3.74036002e+00 ]
      - [ 1.74298561e+00, 4.21512723e-01, 3.24997354e+00 ]
      - [ 1.64550400e+00, 3.56351852e-01, 3.76115346e+00 ]
      - [ 2.12996173e+00, 4.01549697e-01, 3.38637328e+00 ]
      - [ 1.48658168e+00, 4.10091043e-01, 3.56868052e+00 ]
      - [ 1.91468382e+00, 4.07905281e-01, 3.35219860e+00 ]
      - [ 2.27937675e+00, 4.52975094e-01, 3.21136260e+00 ]
      - [ 1.52434802e+00, 3.60304594e-01, 3.89157748e+00 ]
      - [ 2.19139528e+00, 3.97032410e-01, 3.38009572e+00 ]
      - [ 2.20391989e+00, 4.55149055e-01, 3.20980620e+00 ]
      - [ 1.57165647e+00, 3.34820390e-01, 4.18386030e+00 ]
      - [ 1.55552876e+00, 3.79852802e-01, 3.68543172e+00 ]
      - [ 1.60180187e+00, 3.13611329e-01, 4.31731939e+00 ]
      - [ 1.50069010e+00, 3.83558482e-01, 3.73997784e+00 ]
      - [ 1.84495735e+00, 3.10917675e-01, 4.61660004e+00 ]
      - [ 1.80771899e+00, 3.73216301e-01, 3.60529017e+00 ]
      - [ 2.65439582e+00, 3.69405687e-01, 3.62559867e+00 ]
      - [ 2.58648157e+00, 3.71097535e-01, 3.66538644e+00 ]
      - [ 1.78830504e+00, 4.16909963e-01, 3.31673241e+00 ]
      - [ 2.33441687e+00, 4.16543037e-01, 3.34375954e+00 ]
      - [ 1.62308824e+00, 3.52499783e-01, 3.88562965e+00 ]
      - [ 1.90269792e+00, 3.84137303e-01, 3.50913548e+00 ]
      - [ 1.54939795e+00, 3.78590137e-01, 3.72229815e+00 ]
      - [ 1.64861596e+00, 3.29110354e-01, 4.30818987e+00 ]
      - [ 1.60328257e+00, 3.26927543e-01, 4.34624052e+00 ]
      - [ 1.67899513e+00, 4.10321891e-01, 3.35751367e+00 ]
      - [ 1.60072768e+00, 3.25682789e-01, 4.18822432e+00 ]
      - [ 2.11653066e+00, 3.82555932e-01, 3.48854446e+00 ]
      - [ 2.91749883e+00, 4.38067347e-01, 3.21117759e+00 ]
      - [ 2.54429603e+00, 3.93800467e-01, 3.42633390e+00 ]
      - [ 1.64918792e+00, 3.29557747e-01, 4.43677282e+00 ]
      - [ 1.49125659e+00, 4.17358994e-01, 3.42486858e+00 ]
      - [ 2.86682796e+00, 4.45283949e-01, 3.20093322e+00 ]
      - [ 1.52733231e+00, 3.81845981e-01, 3.54898167e+00 ]
      - [ 1.63071668e+00, 3.39304060e-01, 4.10048962e+00 ]
      - [ 1.75648236e+00, 3.54252130e-01, 3.80147600e+00 ]
      - [ 1.58255506e+00, 4.24151480e-01, 3.32991219e+00 ]
      - [ 1.46461892e+00, 3.38082969e-01, 4.10146236e+00 ]
      - [ 1.67849469e+00, 2.92892337e-01, 4.73178005e+00 ]
      - [ 1.55846620e+00, 3.66041064e-01, 3.72007012e+00 ]
      - [ 2.12706256e+00, 3.15758049e-01, 4.47334051e+00 ]
      - [ 2.34621477e+00, 4.10344064e-01, 3.30160236e+00 ]
      - [ 2.04398465e+00, 3.94735932e-01, 3.41194677e+00 ]
      - [ 1.57325995e+00, 3.37090909e-01, 4.15054417e+00 ]
      - [ 2.82930946e+00, 3.76695603e-01, 3.71078897e+00 ]
      - [ 1.74723530e+00, 4.06437337e-01, 3.35678840e+00 ]
      - [ 1.27867103e+00, 3.14460725e-01, 4.40779972e+00 ]
      - [ 1.95932674e+00, 4.24956590e-01, 3.23401642e+00 ]
      - [ 1.77788222e+00, 3.95131320e-01, 3.41573763e+00 ]
      - [ 1.68291628e+00, 3.27799499e-01, 4.24839926e+00 ]
      - [ 1.66446221e+00, 3.80868286e-01, 3.52994204e+00 ]
      - [ 1.41330564e+00, 3.98843378e-01, 3.54577208e+00 ]
      - [ 6.24829435e+00, 4.85730082e-01, 3.14933538e+00 ]
      - [ 1.70692039e+00, 4.07320231e-01, 3.33125949e+00 ]
      - [ 3.65877128e+00, 3.62541318e-01, 4.09595585e+00 ]
      - [ 1.70202494e+00, 3.26398045e-01, 4.23101044e+00 ]
      - [ 1.66636324e+00, 3.26336175e-01, 4.31334782e+00 ]
      - [ 1.52700460e+00, 3.70192945e-01, 3.79150772e+00 ]
      - [ 2.05345368e+00, 4.05526638e-01, 3.30056643e+00 ]
      - [ 1.51027334e+00, 3.29714864e-01, 4.24497843e+00 ]
      - [ 1.55502045e+00, 3.42093915e-01, 4.06922150e+00 ]
      - [ 1.55200291e+00, 3.21503609e-01, 4.69919348e+00 ]
      - [ 1.77836120e+00, 4.17366266e-01, 3.31793380e+00 ]
      - [ 2.27558780e+00, 4.47604775e-01, 3.13626957e+00 ]
      - [ 2.05414319e+00, 4.88644481e-01, 2.96369839e+00 ]
      - [ 1.53812027e+00, 3.54089499e-01, 3.80160379e+00 ]
      - [ 2.02391267e+00, 4.36586261e-01, 3.19735718e+00 ]
      - [ 2.36648059e+00, 3.97617221e-01, 3.44639754e+00 ]
      - [ 1.57817411e+00, 3.71386111e-01, 3.63939929e+00 ]
      - [ 1.87581837e+00, 3.83073121e-01, 3.48987484e+00 ]
      - [ 2.71433258e+00, 3.70229334e-01, 3.64027333e+00 ]
      - [ 3.48249316e+00, 4.37392473e-01, 3.11470127e+00 ]
      - [ 2.53246450e+00, 4.00714517e-01, 3.30642033e+00 ]
      - [ 2.64389515e+00, 4.03703809e-01, 3.35816360e+00 ]
      - [ 1.70553446e+00, 3.08177859e-01, 4.62504864e+00 ]
      - [ 1.55433166e+00, 3.91571373e-01, 3.59755635e+00 ]
      - [ 1.78790939e+00, 3.75137925e-01, 3.56236243e+00 ]
      - [ 1.63834465e+00, 3.62227827e-01, 3.75067782e+00 ]
      - [ 1.53360701e+00, 3.21117103e-01, 4.33720160e+00 ]
      - [ 1.78026998e+00, 4.08901930e-01, 3.35611796e+00 ]
      - [ 1.72854567e+00, 3.34020555e-01, 4.00805521e+00 ]
      - [ 1.89389968e+00, 4.29936498e-01, 3.23012209e+00 ]
      - [ 1.43510175e+00, 2.84143716e-01, 5.33535671e+00 ]
      - [ 6.20137310e+00, 5.42009056e-01, 2.76370692e+00 ]
      - [ 2.95946932e+00, 3.59049141e-01, 3.82916737e+00 ]
      - [ 2.03508353e+00, 3.59389096e-01, 3.68313217e+00 ]
      - [ 1.69381392e+00, 3.43875974e-01, 3.91399717e+00 ]
      - [ 4.45214987e+00, 4.25653666e-01, 3.20248652e+00 ]
      - [ 2.67960429e+00, 4.53069925e-01, 3.16298485e+00 ]
      - [ 1.69478762e+00, 3.76642048e-01, 3.59388256e+00 ]
      - [ 1.70618963e+00, 4.24256772e-01, 3.28591895e+00 ]
      - [ 2.53805494e+00, 3.49534512e-01, 3.92567396e+00 ]
      - [ 1.59774065e+00, 3.37881833e-01, 4.08316565e+00 ]
      - [ 4.07163525e+00, 3.68840009e-01, 3.85039783e+00 ]
      - [ 2.61318159e+00, 3.68872672e-01, 3.72365761e+00 ]
      - [ 1.50614607e+00, 3.83233935e-01, 3.75428367e+00 ]
      - [ 1.84935522e+00, 4.16141093e-01, 3.28203106e+00 ]
      - [ 1.77152932e+00, 4.60152358e-01, 3.06716919e+00 ]
      - [ 1.62814510e+00, 3.26299697e-01, 4.20566368e+00 ]
      - [ 2.34945107e+00, 4.13173616e-01, 3.34692311e+00 ]
      - [ 2.16865516e+00, 3.93822908e-01, 3.37528348e+00 ]
      - [ 1.61335611e+00, 4.10506845e-01, 3.26355696e+00 ]
      - [ 2.49365902e+00, 4.19288605e-01, 3.24627686e+00 ]
      - [ 1.78757536e+00, 3.64075065e-01, 3.70216942e+00 ]
      - [ 3.83692408e+00, 4.11541224e-01, 3.44963145e+00 ]
      - [ 3.90884066e+00, 3.92776847e-01, 3.58412623e+00 ]
      - [ 2.36216688e+00, 3.35898072e-01, 4.03524828e+00 ]
      - [ 1.57392943e+00, 3.51252645e-01, 3.97243500e+00 ]
      - [ 1.72441280e+00, 4.21053797e-01, 3.30124283e+00 ]
      - [ 1.81403756e+00, 4.36658353e-01, 3.22732711e+00 ]
      - [ 1.91839314e+00, 4.36638892e-01, 3.15546632e+00 ]
      - [ 1.89124298e+00, 3.51304740e-01, 3.81880021e+00 ]
      - [ 2.57671642e+00, 4.65630114e-01, 3.03153539e+00 ]
      - [ 2.63495183e+00, 3.86687994e-01, 3.54863214e+00 ]
      - [ 1.79667521e+00, 5.02593160e-01, 2.75536871e+00 ]
      - [ 1.49261701e+00, 3.60870391e-01, 3.85900569e+00 ]
      - [ 1.57890856e+00, 4.10878599e-01, 3.45431209e+00 ]
      - [ 1.67293179e+00, 3.10940027e-01, 4.51760674e+00 ]
      - [ 1.70724976e+00, 3.15933734e-01, 4.56020594e+00 ]
      - [ 1.64999247e+00, 3.41135234e-01, 4.07277489e+00 ]
      - [ 1.59424758e+00, 4.24159408e-01, 3.39940643e+00 ]
      - [ 1.69858229e+00, 3.44309509e-01, 3.86231279e+00 ]
      - [ 2.19292235e+00, 4.22318608e-01, 3.27827334e+00 ]
      - [ 4.40360594e+00, 3.84925872e-01, 3.92378092e+00 ]
      - [ 1.65615773e+00, 4.19445664e-01, 3.29918170e+00 ]
      - [ 2.35178494e+00, 3.33252311e-01, 4.22144651e+00 ]
      - [ 1.56002629e+00, 3.53031367e-01, 3.93704271e+00 ]
      - [ 1.95488465e+00, 4.47779626e-01, 3.17530990e+00 ]
      - [ 2.44949675e+00, 3.00976932e-01, 5.00548124e+00 ]
      - [ 2.14852500e+00, 4.30897772e-01, 3.17436457e+00 ]
      - [ 1.79398954e+00, 3.65788728e-01, 3.65764856e+00 ]
      - [ 1.52424395e+00, 3.33892554e-01, 4.64855433e+00 ]
      - [ 1.20968616e+00, 3.13508064e-01, 4.51022863e+00 ]
      - [ 1.71076858e+00, 3.81415367e-01, 3.53498340e+00 ]
      - [ 2.01437163e+00, 4.16615307e-01, 3.21769714e+00 ]
      - [ 3.03545332e+00, 3.85693252e-01, 3.52754545e+00 ]
      - [ 1.62359238e+00, 3.82063806e-01, 3.53217626e+00 ]
      - [ 1.71426857e+00, 3.34597051e-01, 4.04337072e+00 ]
      - [ 2.34836459e+00, 4.50506151e-01, 2.97652245e+00 ]
      - [ 1.69882441e+00, 4.53071386e-01, 3.00143099e+00 ]
      - [ 2.50704408e+00, 3.37910086e-01, 4.19643354e+00 ]
      - [ 2.22762179e+00, 3.46003741e-01, 3.88620567e+00 ]
      - [ 1.98892558e+00, 2.77007222e-01, 5.52999544e+00 ]
      - [ 1.61352015e+00, 3.64681363e-01, 3.72275996e+00 ]
      - [ 1.55342281e+00, 3.76296192e-01, 3.76544809e+00 ]
      - [ 2.32457447e+00, 4.42079574e-01, 3.18248224e+00 ]
      - [ 1.60401309e+00, 3.61171216e-01, 3.77953148e+00 ]
      - [ 1.71900594e+00, 4.22099292e-01, 3.31428218e+00 ]
      - [ 3.18026614e+00, 4.28301781e-01, 3.29259729e+00 ]
      - [ 1.61874437e+00, 2.94051319e-01, 4.89869833e+00 ]
      - [ 1.56867111e+00, 3.41104299e-01, 4.03128624e+00 ]
      - [ 3.28033948e+00, 3.41561735e-01, 4.12895298e+00 ]
      - [ 1.62978911e+00, 3.23559791e-01, 4.40471697e+00 ]
      - [ 2.44391346e+00, 4.40112263e-01, 3.18281388e+00 ]
      - [ 1.58009219e+00, 3.25499564e-01, 4.20688772e+00 ]
      - [ 1.53608537e+00, 3.25721562e-01, 4.28437042e+00 ]
      - [ 1.52705026e+00, 4.17076230e-01, 3.33004498e+00 ]
      - [ 3.15797782e+00, 4.37981933e-01, 3.21821070e+00 ]
      - [ 1.58197021e+00, 3.60747516e-01, 3.81602693e+00 ]
      - [ 1.71261168e+00, 3.54415268e-01, 3.82129359e+00 ]
      - [ 2.10239220e+00, 3.95356894e-01, 3.38758969e+00 ]
      - [ 3.22339296e+00, 3.63425106e-01, 3.76934409e+00 ]
      - [ 1.76557052e+00, 3.21819812e-01, 4.24600554e+00 ]
      - [ 1.55534303e+00, 4.14249033e-01, 3.38964820e+00 ]
      - [ 1.47015131e+00, 3.11915755e-01, 4.52693081e+00 ]
      - [ 2.13812089e+00, 3.52303535e-01, 3.80801129e+00 ]
      - [ 1.51755261e+00, 3.47048938e-01, 3.84653687e+00 ]
      - [ 3.43886924e+00, 4.06689584e-01, 3.66686296e+00 ]
      - [ 1.41847742e+00, 3.60126853e-01, 3.78197813e+00 ]
      - [ 1.67835736e+00, 3.26698512e-01, 4.34748316e+00 ]
      - [ 2.00989246e+00, 6.24918222e-01, 2.58341956e+00 ]
      - [ 2.19542956e+00, 4.09777850e-01, 3.37661695e+00 ]
      - [ 1.59155011e+00, 3.96650106e-01, 3.42779374e+00 ]
      - [ 1.61132288e+00, 3.01424205e-01, 4.59201384e+00 ]
      - [ 1.56478596e+00, 3.47522616e-01, 4.02744865e+00 ]
      - [ 1.58991885e+00, 3.50869030e-01, 4.00297737e+00 ]
      - [ 1.97829866e+00, 4.15420622e-01, 3.30837750e+00 ]
      - [ 1.57379758e+00, 3.32889646e-01, 4.19750309e+00 ]
      - [ 1.75575554e+00, 4.51732695e-01, 3.10750103e+00 ]
      - [ 2.14483285e+00, 3.31664622e-01, 4.07461309e+00 ]
      - [ 1.62196839e+00, 3.59721392e-01, 3.81589317e+00 ]
      - [ 1.90070200e+00, 4.12892759e-01, 3.29898047e+00 ]
      - [ 2.31542349e+00, 4.12748218e-01, 3.39184260e+00 ]
      - [ 2.75374842e+00, 4.03921545e-01, 3.46116209e+00 ]
      - [ 1.60258436e+00, 3.58356386e-01, 3.87493134e+00 ]
      - [ 1.81675720e+00, 4.17241931e-01, 3.25760984e+00 ]
      - [ 2.47232461e+00, 4.18212146e-01, 3.36115885e+00 ]
      - [ 4.38757658e+00, 4.24738586e-01, 3.67203474e+00 ]
      - [ 2.23681641e+00, 4.05218661e-01, 3.32433510e+00 ]
      - [ 2.16596794e+00, 3.20952803e-01, 4.53292847e+00 ]
      - [ 1.44351900e+00, 3.83777320e-01, 3.81727576e+00 ]
      - [ 1.36794567e+00, 4.24786866e-01, 3.39086413e+00 ]
      - [ 1.73355269e+00, 3.11777830e-01, 4.61296606e+00 ]
      - [ 1.80095863e+00, 3.92210096e-01, 3.45339608e+00 ]
      - [ 1.93405008e+00, 3.28328580e-01, 4.07269812e+00 ]
      - [ 2.38940549e+00, 4.69814360e-01, 3.19032717e+00 ]
      - [ 1.52934873e+00, 3.28326344e-01, 4.14672136e+00 ]
      - [ 1.74125981e+00, 4.23215181e-01, 3.21564364e+00 ]
      - [ 2.55571556e+00, 3.22169632e-01, 4.59031105e+00 ]
      - [ 1.73348510e+00, 3.18039179e-01, 4.41144657e+00 ]
      - [ 1.50990725e+00, 4.46703762e-01, 3.18101311e+00 ]
      - [ 1.75559604e+00, 4.14719284e-01, 3.28102255e+00 ]
      - [ 2.26458025e+00, 4.33605134e-01, 3.18887806e+00 ]
      - [ 2.08620071e+00, 4.04467374e-01, 3.31604385e+00 ]
      - [ 1.92895019e+00, 3.13191444e-01, 4.43040276e+00 ]
      - [ 1.72848177e+00, 4.75571007e-01, 2.91375184e+00 ]
      - [ 1.79812634e+00, 2.69117355e-01, 5.45642567e+00 ]
      - [ 1.37105513e+00, 3.64204317e-01, 3.75707555e+00 ]
      - [ 2.40800619e+00, 4.00985837e-01, 3.39175701e+00 ]
      - [ 1.54675436e+00, 3.38977456e-01, 3.99904346e+00 ]
      - [ 2.75902104e+00, 4.99055654e-01, 2.89448404e+00 ]
      - [ 2.07285643e+00, 3.10972869e-01, 4.63966370e+00 ]
      - [ 6.44529104e+00, 4.59481329e-01, 3.18255067e+00 ]
      - [ 1.79584157e+00, 4.29458201e-01, 3.12523985e+00 ]
      - [ 1.61223114e+00, 3.81297916e-01, 3.62900853e+00 ]
      - [ 1.37554216e+00, 4.70102549e-01, 3.09652495e+00 ]
      - [ 1.58334291e+00, 4.41936791e-01, 3.09056759e+00 ]
      - [ 5.33924389e+00, 3.90450150e-01, 3.81770778e+00 ]
      - [ 1.61036646e+00, 4.21730667e-01, 3.37439132e+00 ]
      - [ 1.70056856e+00, 3.03530246e-01, 4.79646587e+00 ]
      - [ 3.66966414e+00, 3.77028793e-01, 3.68011761e+00 ]
      - [ 2.45257568e+00, 4.21359122e-01, 3.28728342e+00 ]
      - [ 2.11368060e+00, 3.98784012e-01, 3.41036010e+00 ]
      - [ 1.66068769e+00, 4.08276826e-01, 3.36060405e+00 ]
      - [ 1.53428352e+00, 3.65505457e-01, 3.65743876e+00 ]
      - [ 1.68094814e+00, 4.20207620e-01, 3.28002524e+00 ]
      - [ 1.96928275e+00, 4.09418285e-01, 3.33572650e+00 ]
      - [ 2.01274347e+00, 3.79600018e-01, 3.49632025e+00 ]
      - [ 1.79155946e+00, 4.20579970e-01, 3.29802394e+00 ]
      - [ 1.71846056e+00, 3.22732598e-01, 4.41559219e+00 ]
      - [ 2.17494702e+00, 3.19461107e-01, 4.60002995e+00 ]
      - [ 2.51552272e+00, 4.16341096e-01, 3.30138588e+00 ]
      - [ 1.55987048e+00, 2.88209140e-01, 4.82667398e+00 ]
      - [ 1.78909981e+00, 3.85014385e-01, 3.50301003e+00 ]
      - [ 2.08537865e+00, 3.24708045e-01, 4.40573645e+00 ]
      - [ 3.02557373e+00, 4.15367454e-01, 3.39771485e+00 ]
      - [ 1.91251409e+00, 4.11786109e-01, 3.29871082e+00 ]
      - [ 1.63983619e+00, 3.20544600e-01, 4.28717422e+00 ]
      - [ 2.33146977e+00, 3.72142553e-01, 3.59392524e+00 ]
      - [ 1.66514659e+00, 3.42583388e-01, 3.98324728e+00 ]
      - [ 1.84634233e+00, 3.14909607e-01, 4.55070210e+00 ]
      - [ 1.71804535e+00, 4.39697176e-01, 3.09936714e+00 ]
      - [ 1.53688705e+00, 4.27564710e-01, 3.19163680e+00 ]
      - [ 3.33856606e+00, 6.97051764e-01, 2.15850687e+00 ]
      - [ 2.24277067e+00, 4.21353757e-01, 3.17962790e+00 ]
      - [ 1.81071281e+00, 4.31286007e-01, 3.19693971e+00 ]
      - [ 1.54474270e+00, 3.36915433e-01, 4.11085320e+00 ]
      - [ 1.76060748e+00, 3.08749467e-01, 4.61773443e+00 ]
      - [ 1.68907869e+00, 3.21789145e-01, 4.57438421e+00 ]
      - [ 2.01782179e+00, 4.55421031e-01, 3.13648343e+00 ]
      - [ 1.96015215e+00, 4.66968656e-01, 3.03116465e+00 ]
      - [ 1.61611307e+00, 3.22010696e-01, 4.53043795e+00 ]
      - [ 2.23848438e+00, 3.67686152e-01, 3.66200614e+00 ]
      - [ 2.50016642e+00, 3.67182285e-01, 3.70292902e+00 ]
      - [ 1.57384527e+00, 3.27341408e-01, 4.26141071e+00 ]
      - [ 1.61170745e+00, 3.16694200e-01, 4.49921656e+00 ]
      - [ 1.76585770e+00, 3.94655198e-01, 3.41319585e+00 ]
      - [ 1.73025703e+00, 3.20111752e-01, 4.36433840e+00 ]
      - [ 2.50186014e+00, 3.98230821e-01, 3.49850130e+00 ]
      - [ 1.65364563e+00, 4.37628955e-01, 3.11285734e+00 ]
      - [ 1.49853027e+00, 4.07117903e-01, 3.41584826e+00 ]
      - [ 1.78153861e+00, 3.00105184e-01, 4.87349558e+00 ]
      - [ 2.00676298e+00, 4.25761998e-01, 3.28684044e+00 ]
      - [ 1.90211689e+00, 3.25637043e-01, 4.58650398e+00 ]
      - [ 1.72788215e+00, 3.70541841e-01, 3.60894608e+00 ]
      - [ 1.55269206e+00, 3.68430257e-01, 3.76748848e+00 ]
      - [ 1.56659746e+00, 3.34706247e-01, 4.28338766e+00 ]
      - [ 1.77914393e+00, 3.26396525e-01, 4.22631693e+00 ]
      - [ 2.89550972e+00, 3.84890020e-01, 3.66775823e+00 ]
      - [ 1.29828441e+00, 2.91665792e-01, 4.97826481e+00 ]
      - [ 3.47956872e+00, 1.95927516e-01, 7.16084146e+00 ]
      - [ 1.82818151e+00, 3.62218976e-01, 3.73796415e+00 ]
      - [ 1.62776136e+00, 3.21364462e-01, 4.21679592e+00 ]
      - [ 3.62178040e+00, 3.52679133e-01, 3.89868712e+00 ]
      - [ 2.53539848e+00, 5.39840996e-01, 2.89583874e+00 ]
      - [ 2.12878966e+00, 3.49597275e-01, 3.93436337e+00 ]
      - [ 2.06125236e+00, 4.69099313e-01, 2.98094749e+00 ]
      - [ 2.19486666e+00, 3.56791079e-01, 3.81761384e+00 ]
      - [ 1.93080366e+00, 4.68860686e-01, 3.04563975e+00 ]
      - [ 1.61100912e+00, 3.78667295e-01, 3.74338126e+00 ]
      - [ 1.64787149e+00, 4.41350132e-01, 3.14391899e+00 ]
      - [ 2.13483715e+00, 3.36160421e-01, 3.96103406e+00 ]
      - [ 2.32722616e+00, 4.57697242e-01, 2.98372507e+00 ]
      - [ 1.91391528e+00, 3.65380824e-01, 3.88923621e+00 ]
      - [ 2.56987238e+00, 3.70827973e-01, 3.95782280e+00 ]
      - [ 1.52471054e+00, 3.38793010e-01, 4.01192665e+00 ]
      - [ 1.53133643e+00, 3.62064570e-01, 3.81355262e+00 ]
      - [ 1.74360919e+00, 3.51149827e-01, 3.93106270e+00 ]
      - [ 2.01414108e+00, 4.03268158e-01, 3.53357077e+00 ]
      - [ 2.07362604e+00, 3.46060932e-01, 3.93508673e+00 ]
      - [ 2.04808068e+00, 4.77350026e-01, 2.99247408e+00 ]
      - [ 1.85127223e+00, 3.61146867e-01, 3.91301107e+00 ]
      - [ 1.74905491e+00, 4.11058635e-01, 3.48839450e+00 ]
      - [ 1.98248231e+00, 4.66298729e-01, 2.86534166e+00 ]
      - [ 1.54614365e+00, 3.55998755e-01, 3.86050057e+00 ]
      - [ 1.67991531e+00, 4.27195638e-01, 3.18556905e+00 ]
      - [ 2.34377384e+00, 3.73302460e-01, 3.81083870e+00 ]
      - [ 1.62191212e+00, 4.16460931e-01, 3.34200573e+00 ]
      - [ 2.33513188e+00, 3.93800914e-01, 3.60865712e+00 ]
      - [ 2.10921669e+00, 4.45330173e-01, 3.42000937e+00 ]
      - [ 2.34895015e+00, 3.76852930e-01, 3.61653090e+00 ]
      - [ 1.92844021e+00, 3.09338927e-01, 4.62427950e+00 ]
      - [ 1.62174284e+00, 3.51582259e-01, 3.92909098e+00 ]
      - [ 1.87493062e+00, 4.34623480e-01, 3.15761948e+00 ]
      - [ 2.32909465e+00, 3.68308425e-01, 3.63236022e+00 ]
      - [ 1.68644357e+00, 3.34487110e-01, 4.23569822e+00 ]
      - [ 1.53291261e+00, 3.75239283e-01, 3.77094078e+00 ]
      - [ 2.27288270e+00, 4.10507083e-01, 3.26946115e+00 ]
      - [ 2.09438825e+00, 4.20597553e-01, 3.34905529e+00 ]
      - [ 1.75945890e+00, 3.08360398e-01, 4.43397188e+00 ]
      - [ 1.77870214e+00, 3.47590744e-01, 4.00320196e+00 ]
      - [ 2.35561299e+00, 3.77085745e-01, 3.60742569e+00 ]
      - [ 1.72400188e+00, 3.19328249e-01, 4.43376303e+00 ]
      - [ 2.54656553e+00, 5.37420869e-01, 2.90662956e+00 ]
      - [ 1.49356019e+00, 3.57261598e-01, 3.81646514e+00 ]
      - [ 1.82377362e+00, 3.38503212e-01, 4.06534910e+00 ]
      - [ 2.07422423e+00, 4.07654136e-01, 3.62978792e+00 ]
      - [ 1.75292253e+00, 3.41404885e-01, 4.25319958e+00 ]
      - [ 2.27713871e+00, 3.97353113e-01, 3.49451160e+00 ]
      - [ 1.77887380e+00, 3.42969179e-01, 4.07614279e+00 ]
      - [ 2.13271737e+00, 3.41282278e-01, 3.99642587e+00 ]
      - [ 2.28571010e+00, 4.31336492e-01, 3.09139752e+00 ]
      - [ 2.05448842e+00, 4.27950859e-01, 3.22422838e+00 ]
      - [ 1.78412759e+00, 3.42195660e-01, 4.07676792e+00 ]
      - [ 2.03224826e+00, 3.52807999e-01, 3.93235779e+00 ]
      - [ 2.59833217e+00, 3.58759880e-01, 3.71481776e+00 ]
      - [ 1.95371354e+00, 3.34519714e-01, 4.14921331e+00 ]
      - [ 1.95319557e+00, 3.84290606e-01, 3.74383378e+00 ]
      - [ 2.29674268e+00, 4.05537486e-01, 3.25852060e+00 ]
      - [ 1.65316367e+00, 4.16718543e-01, 3.44615746e+00 ]
      - [ 1.69621682e+00, 4.03005362e-01, 3.65986753e+00 ]
      - [ 1.88487935e+00, 3.31523180e-01, 4.05186319e+00 ]
      - [ 2.04116511e+00, 4.26288158e-01, 3.19195533e+00 ]
      - [ 2.41224670e+00, 3.94101471e-01, 3.43950629e+00 ]
      - [ 2.12873578e+00, 3.62733901e-01, 3.86536980e+00 ]
      - [ 1.73177087e+00, 3.28702688e-01, 4.05424833e+00 ]
      - [ 1.55138552e+00, 2.86771297e-01, 4.98251534e+00 ]
      - [ 2.13192630e+00, 4.31875616e-01, 3.13843369e+00 ]
      - [ 1.59412706e+00, 3.40454847e-01, 4.01773024e+00 ]
      - [ 1.91303253e+00, 3.37915778e-01, 4.00697613e+00 ]
      - [ 4.94669724e+00, 1.75122812e-01, 7.89335442e+00 ]
      - [ 2.59904194e+00, 3.84226531e-01, 3.58354187e+00 ]
      - [ 2.08832741e+00, 4.28012967e-01, 3.12413049e+00 ]
      - [ 1.85900187e+00, 3.27989429e-01, 4.19888639e+00 ]
      - [ 1.81876302e+00, 3.21933120e-01, 4.25315332e+00 ]
      - [ 3.52162552e+00, 3.89772773e-01, 3.58012795e+00 ]
      - [ 1.60018432e+00, 3.49002153e-01, 3.97300220e+00 ]
      - [ 1.73186052e+00, 3.48449677e-01, 3.97668815e+00 ]
      - [ 2.35962510e+00, 3.69419128e-01, 3.58578825e+00 ]
      - [ 2.22979689e+00, 3.60175431e-01, 3.78977656e+00 ]
      - [ 1.83213174e+00, 3.44944626e-01, 3.98589444e+00 ]
      - [ 2.43914723e+00, 2.70566404e-01, 5.28042889e+00 ]
      - [ 2.08150148e+00, 4.20418650e-01, 3.28307676e+00 ]
      - [ 1.95325196e+00, 4.43926334e-01, 3.18057179e+00 ]
      - [ 1.62039506e+00, 3.44064444e-01, 4.25232792e+00 ]
      - [ 1.89537656e+00, 4.34814781e-01, 3.18460536e+00 ]
      - [ 2.44612622e+00, 4.13681805e-01, 3.59260392e+00 ]
      - [ 1.69847298e+00, 3.74918282e-01, 3.79573560e+00 ]
      - [ 1.34656930e+00, 3.77537310e-01, 3.58599114e+00 ]
      - [ 1.65726674e+00, 3.41063112e-01, 4.03541994e+00 ]
      - [ 1.67616761e+00, 3.55254889e-01, 3.88686895e+00 ]
      - [ 1.93275285e+00, 4.32609200e-01, 3.07714105e+00 ]
      - [ 2.17691374e+00, 4.32755083e-01, 3.14733839e+00 ]
      - [ 2.20130563e+00, 3.99472356e-01, 3.40143037e+00 ]
      - [ 1.88827372e+00, 3.39881450e-01, 4.02843237e+00 ]
      - [ 2.58724999e+00, 4.18656528e-01, 3.13922381e+00 ]
      - [ 2.13255572e+00, 3.41781259e-01, 4.06639481e+00 ]
      - [ 1.77891946e+00, 4.30470020e-01, 3.15251637e+00 ]
      - [ 1.74269342e+00, 3.30781907e-01, 4.11942625e+00 ]
      - [ 6.13766670e+00, 4.01564598e-01, 3.51354337e+00 ]
      - [ 2.03326797e+00, 4.57547694e-01, 2.98720932e+00 ]
      - [ 1.73028386e+00, 4.26362664e-01, 3.27558541e+00 ]
      - [ 1.63442552e+00, 3.43677372e-01, 3.92264724e+00 ]
      - [ 2.43421268e+00, 3.44582587e-01, 3.95749283e+00 ]
      - [ 1.84446406e+00, 3.38060796e-01, 4.14783144e+00 ]
      - [ 2.28111649e+00, 3.54288697e-01, 3.83529067e+00 ]
      - [ 2.11851668e+00, 4.18979168e-01, 3.32402921e+00 ]
      - [ 1.95265162e+00, 4.56869036e-01, 3.21658564e+00 ]
      - [ 2.17897177e+00, 4.09057856e-01, 3.38654852e+00 ]
      - [ 1.87328005e+00, 3.48387688e-01, 3.97080469e+00 ]
      - [ 2.24964380e+00, 3.73505116e-01, 3.67185616e+00 ]
      - [ 2.33393526e+00, 4.78487343e-01, 2.87846971e+00 ]
      - [ 1.66611481e+00, 3.29231977e-01, 4.15611124e+00 ]
      - [ 1.77910006e+00, 3.34918618e-01, 4.12033892e+00 ]
      - [ 2.31794167e+00, 3.72034132e-01, 3.57664752e+00 ]
      - [ 1.79008114e+00, 3.53458315e-01, 3.95749640e+00 ]
      - [ 1.65450799e+00, 3.48659664e-01, 3.91082549e+00 ]
      - [ 1.84071898e+00, 3.34579796e-01, 4.01719999e+00 ]
      - [ 1.78713262e+00, 3.36611003e-01, 4.07067585e+00 ]
      - [ 1.76712358e+00, 4.49818671e-01, 3.01664472e+00 ]
      - [ 1.82803643e+00, 3.35861504e-01, 4.22402191e+00 ]
      - [ 2.13952780e+00, 4.13304359e-01, 3.33503962e+00 ]
      - [ 2.11997747e+00, 4.02160197e-01, 3.64479136e+00 ]
      - [ 1.85840654e+00, 3.38774860e-01, 4.05406284e+00 ]
      - [ 2.50464940e+00, 2.68993407e-01, 5.42042303e+00 ]
      - [ 1.82824409e+00, 3.33093971e-01, 4.08689928e+00 ]
      - [ 1.80309832e+00, 4.38907951e-01, 3.15186238e+00 ]
      - [ 1.86919546e+00, 4.22334969e-01, 3.43858337e+00 ]
      - [ 2.17678738e+00, 4.37614232e-01, 3.04479909e+00 ]
      - [ 2.31398654e+00, 3.69927794e-01, 3.80197597e+00 ]
      - [ 1.95681691e+00, 3.65927875e-01, 3.88173342e+00 ]
      - [ 1.75079417e+00, 3.56509835e-01, 3.90722561e+00 ]
      - [ 1.90666997e+00, 3.50662619e-01, 3.99369764e+00 ]
      - [ 2.32453942e+00, 3.54925215e-01, 3.77687311e+00 ]
      - [ 3.58554316e+00, 4.09477204e-01, 3.40391302e+00 ]
      - [ 2.13522577e+00, 4.29643571e-01, 3.29231668e+00 ]
      - [ 1.90332007e+00, 4.53339994e-01, 3.01305151e+00 ]
      - [ 2.37507367e+00, 4.07176822e-01, 3.32037449e+00 ]
      - [ 2.55634308e+00, 3.29600275e-01, 4.32879210e+00 ]
      - [ 2.37396431e+00, 4.44941372e-01, 3.28609252e+00 ]
      - [ 2.01515746e+00, 4.30015564e-01, 3.20692301e+00 ]
      - [ 1.74292052e+00, 3.47160459e-01, 3.94945908e+00 ]
      - [ 1.48226941e+00, 3.40467751e-01, 3.97991276e+00 ]
      - [ 1.86457455e+00, 3.23169708e-01, 4.20776176e+00 ]
      - [ 2.09193826e+00, 4.28462058e-01, 3.12220454e+00 ]
      - [ 2.59918165e+00, 3.83034080e-01, 3.61530733e+00 ]
      - [ 1.53113449e+00, 3.60150635e-01, 3.80554438e+00 ]
      - [ 2.25007129e+00, 4.07482177e-01, 3.31434798e+00 ]
      - [ 1.87380826e+00, 2.90959090e-01, 4.77700949e+00 ]
      - [ 1.80154526e+00, 3.57732445e-01, 3.95155573e+00 ]
      - [ 1.81233358e+00, 4.14982140e-01, 3.57816434e+00 ]
      - [ 1.77051699e+00, 2.86281288e-01, 4.91862774e+00 ]
      - [ 2.41384363e+00, 3.81711036e-01, 3.68472195e+00 ]
      - [ 2.00471997e+00, 3.79359126e-01, 3.77848196e+00 ]
      - [ 1.57948244e+00, 3.23229641e-01, 4.19432449e+00 ]
      - [ 1.63239682e+00, 3.64380568e-01, 3.86248755e+00 ]
      - [ 1.79703343e+00, 3.53046983e-01, 3.96914315e+00 ]
      - [ 1.90128338e+00, 3.12776834e-01, 4.35299826e+00 ]
      - [ 1.89501774e+00, 4.54168528e-01, 2.94454646e+00 ]
      - [ 2.26134777e+00, 4.40614909e-01, 3.26430821e+00 ]
      - [ 2.29860067e+00, 3.62599194e-01, 3.83530116e+00 ]
      - [ 1.61996269e+00, 4.53012049e-01, 2.97872639e+00 ]
      - [ 2.25224924e+00, 3.54979843e-01, 3.80458713e+00 ]
      - [ 2.02840233e+00, 3.37777913e-01, 4.05991030e+00 ]
      - [ 2.25035667e+00, 3.01770300e-01, 4.86046553e+00 ]
      - [ 1.64888895e+00, 3.03851277e-01, 4.54134893e+00 ]
      - [ 1.73218608e+00, 3.37608576e-01, 4.04474497e+00 ]
      - [ 1.74263084e+00, 3.44694018e-01, 3.99197960e+00 ]
      - [ 1.88487840e+00, 3.37430865e-01, 3.98370647e+00 ]
      - [ 1.88768041e+00, 3.54391366e-01, 3.92387080e+00 ]
      - [ 2.17332292e+00, 4.10936147e-01, 3.30161405e+00 ]
      - [ 1.77168953e+00, 3.05658251e-01, 4.54041910e+00 ]
      - [ 1.84258747e+00, 3.03332120e-01, 4.49154091e+00 ]
      - [ 1.78417218e+00, 2.87745535e-01, 4.92353535e+00 ]
      - [ 2.48148465e+00, 3.80864233e-01, 3.55061102e+00 ]
      - [ 1.90025830e+00, 2.92929620e-01, 4.87704182e+00 ]
      - [ 2.24117637e+00, 3.62258732e-01, 3.73593736e+00 ]
      - [ 2.07505870e+00, 4.45185035e-01, 3.06183839e+00 ]
      - [ 1.46965945e+00, 4.02480692e-01, 3.40362787e+00 ]
      - [ 2.33010268e+00, 3.67284685e-01, 3.66068339e+00 ]
      - [ 2.47035074e+00, 4.07134175e-01, 3.40642309e+00 ]
      - [ 2.62891030e+00, 3.51851463e-01, 3.87271404e+00 ]
      - [ 1.75712419e+00, 3.16909850e-01, 4.25041151e+00 ]
      - [ 1.75684750e+00, 4.26938981e-01, 3.23261905e+00 ]
      - [ 1.79783344e+00, 3.67982626e-01, 3.86502290e+00 ]
      - [ 2.00294614e+00, 4.40938294e-01, 3.11166286e+00 ]
      - [ 1.94958186e+00, 3.25486034e-01, 4.41712713e+00 ]
      - [ 1.68405521e+00, 3.38230997e-01, 4.03368902e+00 ]
      - [ 2.01017714e+00, 3.57281476e-01, 3.90683508e+00 ]
      - [ 1.65915859e+00, 3.34729999e-01, 4.21071815e+00 ]
      - [ 2.60478258e+00, 3.73538136e-01, 3.65665007e+00 ]
      - [ 1.64525270e+00, 3.42732817e-01, 3.99673963e+00 ]
      - [ 1.54775751e+00, 4.57139552e-01, 2.95083618e+00 ]
      - [ 1.76755619e+00, 3.38262320e-01, 4.08713484e+00 ]
      - [ 2.28544235e+00, 3.99482697e-01, 3.42976427e+00 ]
      - [ 1.86371052e+00, 3.46121311e-01, 4.01614571e+00 ]
      - [ 2.46918511e+00, 3.51297081e-01, 3.80897713e+00 ]
      - [ 7.62448311e+00, 4.82675880e-01, 2.97467184e+00 ]
      - [ 1.76346374e+00, 3.50724995e-01, 3.97952604e+00 ]
      - [ 1.97052383e+00, 4.30367798e-01, 3.10199952e+00 ]
      - [ 2.02569246e+00, 4.54316318e-01, 3.01806140e+00 ]
      - [ 2.12754107e+00, 3.58634353e-01, 3.97986841e+00 ]
      - [ 1.92222834e+00, 4.31063324e-01, 3.23146439e+00 ]
      - [ 1.97178090e+00, 3.38607490e-01, 4.09473848e+00 ]
      - [ 2.44033599e+00, 4.95964646e-01, 2.91073108e+00 ]
      - [ 2.37304020e+00, 3.83853525e-01, 3.61778307e+00 ]
      - [ 2.26734018e+00, 4.04918998e-01, 3.36231303e+00 ]
      - [ 1.99571359e+00, 4.33156878e-01, 3.46429491e+00 ]
      - [ 1.50522852e+00, 4.31556165e-01, 3.19625139e+00 ]
      - [ 2.40679598e+00, 3.65787834e-01, 3.89024353e+00 ]
      - [ 1.84299898e+00, 3.96854818e-01, 3.65155125e+00 ]
      - [ 2.44975567e+00, 4.07455951e-01, 3.20724177e+00 ]
      - [ 1.67036617e+00, 3.38941008e-01, 4.08745766e+00 ]
      - [ 1.70012093e+00, 3.66318345e-01, 3.87398267e+00 ]
      - [ 2.24355674e+00, 3.68476182e-01, 3.73645258e+00 ]
      - [ 2.39293718e+00, 3.40005308e-01, 3.88081574e+00 ]
      - [ 1.99017274e+00, 2.93301314e-01, 4.82534361e+00 ]
      - [ 1.85636222e+00, 3.45870942e-01, 3.99758554e+00 ]
      - [ 1.80280244e+00, 3.36126089e-01, 4.18474245e+00 ]
      - [ 1.93830252e+00, 3.80992323e-01, 3.77416682e+00 ]
      - [ 2.35079002e+00, 3.82668436e-01, 3.45822859e+00 ]
      - [ 2.07044673e+00, 3.48187536e-01, 4.03950882e+00 ]
      - [ 2.50299978e+00, 3.65428448e-01, 3.83593106e+00 ]
      - [ 2.15130377e+00, 3.60983104e-01, 3.88394785e+00 ]
      - [ 1.89014649e+00, 3.47539574e-01, 3.96251035e+00 ]
      - [ 1.62952495e+00, 3.45916778e-01, 3.93085575e+00 ]
      - [ 2.48903990e+00, 3.71434152e-01, 3.65469718e+00 ]
      - [ 1.65378916e+00, 4.05525178e-01, 3.51788259e+00 ]
      - [ 2.16347313e+00, 4.42423910e-01, 3.20282507e+00 ]
      - [ 2.03401423e+00, 3.33966702e-01, 4.09717274e+00 ]
      - [ 2.21313167e+00, 3.51416141e-01, 4.07293510e+00 ]
      - [ 2.07221389e+00, 5.27303994e-01, 2.80062127e+00 ]
      - [ 2.14003229e+00, 3.52376133e-01, 3.93933368e+00 ]
      - [ 1.96509171e+00, 4.34374690e-01, 3.10166669e+00 ]
      - [ 2.29763222e+00, 3.29822212e-01, 4.12330437e+00 ]
      - [ 2.18697214e+00, 3.50946754e-01, 3.87932491e+00 ]
      - [ 2.26154041e+00, 4.17702943e-01, 3.19327068e+00 ]
      - [ 1.79229629e+00, 4.40508842e-01, 3.07676196e+00 ]
      - [ 2.88655591e+00, 3.72251302e-01, 3.77736640e+00 ]
      - [ 4.08945894e+00, 3.92041087e-01, 3.53209043e+00 ]
      - [ 1.63161397e+00, 3.43034774e-01, 3.94595885e+00 ]
      - [ 1.61666417e+00, 3.11414301e-01, 4.34544516e+00 ]
      - [ 1.74723279e+00, 3.60736042e-01, 3.88023424e+00 ]
      - [ 2.01166511e+00, 3.42285752e-01, 3.98953819e+00 ]
      - [ 1.92548132e+00, 3.12215447e-01, 4.41012669e+00 ]
      - [ 2.02405310e+00, 4.39130634e-01, 3.07852316e+00 ]
      - [ 1.95480454e+00, 4.33112383e-01, 3.24139404e+00 ]
      - [ 2.46530128e+00, 3.57698500e-01, 3.77970982e+00 ]
      - [ 2.12106514e+00, 3.43586057e-01, 4.07237864e+00 ]
      - [ 1.88157070e+00, 3.42098951e-01, 4.08748484e+00 ]
      - [ 1.91455984e+00, 3.33071768e-01, 4.06350470e+00 ]
      - [ 2.90793848e+00, 3.52546990e-01, 3.88194275e+00 ]
      - [ 1.76048982e+00, 3.23311508e-01, 4.13873625e+00 ]
      - [ 1.67422009e+00, 3.43759388e-01, 3.97320938e+00 ]
      - [ 2.16719413e+00, 4.20687020e-01, 3.22702694e+00 ]
      - [ 2.01840949e+00, 3.10417980e-01, 4.48921299e+00 ]
      - [ 1.87879145e+00, 3.52754056e-01, 3.94817543e+00 ]
      - [ 1.96298707e+00, 4.39678699e-01, 3.06953430e+00 ]
      - [ 1.65495300e+00, 3.51980656e-01, 4.07665396e+00 ]
      - [ 2.77161789e+00, 4.76393014e-01, 2.97791028e+00 ]
      - [ 2.27154636e+00, 4.66141850e-01, 3.03925753e+00 ]
      - [ 1.91827571e+00, 4.41484720e-01, 3.06607628e+00 ]
      - [ 2.12070608e+00, 3.53977442e-01, 3.92918754e+00 ]
      - [ 1.79832458e+00, 3.43024909e-01, 4.05073643e+00 ]
      - [ 1.92929685e+00, 3.34216923e-01, 4.07948685e+00 ]
      - [ 1.79178655e+00, 3.68079156e-01, 3.85646653e+00 ]
      - [ 2.11479330e+00, 4.15430844e-01, 3.37157822e+00 ]
      - [ 3.36654568e+00, 4.03473318e-01, 3.33270192e+00 ]
      - [ 2.20978308e+00, 4.00378346e-01, 3.38559508e+00 ]
      - [ 1.68096507e+00, 3.33052337e-01, 4.15655899e+00 ]
      - [ 1.61616313e+00, 4.05419648e-01, 3.40918732e+00 ]
      - [ 1.61301374e+00, 4.04886276e-01, 3.41489196e+00 ]
      - [ 1.54084086e+00, 4.67617035e-01, 3.00662923e+00 ]
      - [ 2.34768558e+00, 3.74568671e-01, 3.57766914e+00 ]
      - [ 2.12290645e+00, 4.18785870e-01, 3.20396042e+00 ]
      - [ 2.49617791e+00, 3.87795627e-01, 3.47177505e+00 ]
      - [ 2.45341086e+00, 4.12633538e-01, 3.29583549e+00 ]
      - [ 2.05038333e+00, 3.22778046e-01, 4.22953987e+00 ]
      - [ 1.83961880e+00, 4.30758566e-01, 3.26971745e+00 ]
      - [ 1.78029752e+00, 3.30427736e-01, 4.25921822e+00 ]
      - [ 1.89920533e+00, 3.27574968e-01, 4.16468334e+00 ]
      - [ 1.84026563e+00, 3.31666678e-01, 4.06505775e+00 ]
      - [ 1.75055516e+00, 3.42705816e-01, 4.09548950e+00 ]
      - [ 1.64967740e+00, 3.39386553e-01, 4.05030298e+00 ]
      - [ 2.15194416e+00, 4.04475361e-01, 3.43157220e+00 ]
      - [ 2.25790167e+00, 3.90597939e-01, 3.42459702e+00 ]
      - [ 2.22975135e+00, 3.37714046e-01, 4.03338385e+00 ]
      - [ 1.73677313e+00, 4.31931227e-01, 3.13860726e+00 ]
      - [ 2.04438257e+00, 3.23809981e-01, 4.26033783e+00 ]
      - [ 5.57140684e+00, 3.93604398e-01, 3.46797156e+00 ]
      - [ 1.80758309e+00, 3.48716408e-01, 4.01080227e+00 ]
      - [ 2.19145012e+00, 4.06003177e-01, 3.27976155e+00 ]
      - [ 1.70683086e+00, 3.27913791e-01, 4.23929358e+00 ]
      - [ 2.13245344e+00, 4.23819184e-01, 3.23914433e+00 ]
      - [ 1.87537396e+00, 3.48576576e-01, 3.98500490e+00 ]
      - [ 2.30678701e+00, 3.82773399e-01, 3.61584067e+00 ]
      - [ 2.11971521e+00, 3.51642370e-01, 3.92145348e+00 ]
      - [ 2.01897526e+00, 3.95268053e-01, 3.61550784e+00 ]
      - [ 2.66572213e+00, 3.79112095e-01, 3.53144455e+00 ]
      - [ 1.96811366e+00, 4.21176434e-01, 3.33545995e+00 ]
      - [ 1.99527872e+00, 3.40328932e-01, 4.09984589e+00 ]
      - [ 2.03151274e+00, 3.72821033e-01, 3.83098459e+00 ]
      - [ 1.60812628e+00, 3.19309771e-01, 4.42632484e+00 ]
      - [ 1.59593797e+00, 3.23529154e-01, 4.30154419e+00 ]
      - [ 2.25230813e+00, 3.85592610e-01, 3.58181381e+00 ]
      - [ 1.96105087e+00, 3.43129456e-01, 4.01346016e+00 ]
      - [ 2.08488488e+00, 4.63697702e-01, 2.91877842e+00 ]
      - [ 1.96282339e+00, 4.26201075e-01, 3.26755214e+00 ]
      - [ 1.85572827e+00, 3.46734941e-01, 3.97468734e+00 ]
      - [ 1.80462623e+00, 4.45191741e-01, 3.22875476e+00 ]
      - [ 1.67970335e+00, 3.92326951e-01, 3.75285602e+00 ]
      - [ 2.93923426e+00, 4.40624774e-01, 3.24087763e+00 ]
      - [ 1.63861549e+00, 3.35404754e-01, 4.02156067e+00 ]
      - [ 2.32683611e+00, 4.19001728e-01, 3.22317290e+00 ]
      - [ 1.82729375e+00, 4.34019476e-01, 3.12310839e+00 ]
      - [ 1.68187559e+00, 4.36176270e-01, 3.16621447e+00 ]
      - [ 1.93611538e+00, 3.05850953e-01, 4.65436506e+00 ]
      - [ 1.88868415e+00, 3.09409559e-01, 4.53004599e+00 ]
      - [ 2.34999132e+00, 3.39781791e-01, 4.05777216e+00 ]
      - [ 2.23108149e+00, 3.58850032e-01, 3.86463118e+00 ]
      - [ 2.39354539e+00, 3.90166670e-01, 3.34939003e+00 ]
      - [ 1.80460918e+00, 4.32510704e-01, 3.26912618e+00 ]
      - [ 1.73877490e+00, 3.28666687e-01, 4.36381531e+00 ]
      - [ 2.33333778e+00, 3.84820879e-01, 3.57864261e+00 ]
      - [ 2.49638677e+00, 4.35650647e-01, 3.08872962e+00 ]
      - [ 2.02989006e+00, 4.08749074e-01, 3.47656083e+00 ]
      - [ 1.81255126e+00, 4.17119563e-01, 3.38331294e+00 ]
      - [ 1.46987152e+00, 4.02163804e-01, 3.46347356e+00 ]
      - [ 1.80611658e+00, 4.38497245e-01, 3.29899573e+00 ]
      - [ 2.14470482e+00, 3.71930659e-01, 3.76580262e+00 ]
      - [ 1.70364070e+00, 4.26194966e-01, 3.13133168e+00 ]
      - [ 2.49452615e+00, 3.99577677e-01, 3.43214417e+00 ]
      - [ 2.65890670e+00, 4.08011347e-01, 3.55043483e+00 ]
      - [ 1.47894990e+00, 3.58426273e-01, 3.81184840e+00 ]
      - [ 2.10046411e+00, 3.38701248e-01, 3.97963619e+00 ]
      - [ 1.83251131e+00, 3.57479364e-01, 3.96771026e+00 ]
      - [ 2.04205561e+00, 4.06871796e-01, 3.59497166e+00 ]
      - [ 1.77190566e+00, 3.46741915e-01, 3.96780634e+00 ]
      - [ 1.98732245e+00, 3.35639089e-01, 4.00684786e+00 ]
      - [ 1.58595371e+00, 3.82087111e-01, 3.68759179e+00 ]
      - [ 1.83513010e+00, 3.61310184e-01, 3.91679764e+00 ]
      - [ 2.19125819e+00, 3.89071971e-01, 3.64721966e+00 ]
      - [ 1.84964967e+00, 3.10154229e-01, 4.40031767e+00 ]
      - [ 2.30055428e+00, 4.38351154e-01, 3.19586134e+00 ]
      - [ 1.94944847e+00, 4.30102199e-01, 3.09808540e+00 ]
      - [ 2.35169101e+00, 3.87665004e-01, 3.57965088e+00 ]
      - [ 1.72356546e+00, 3.71497095e-01, 3.80623937e+00 ]
      - [ 1.77924573e+00, 4.58636224e-01, 3.00914073e+00 ]
      - [ 1.92166257e+00, 4.26117748e-01, 3.30274248e+00 ]
      - [ 2.04742861e+00, 3.23069632e-01, 4.18071747e+00 ]
      - [ 1.77409208e+00, 3.59813184e-01, 4.07482862e+00 ]
      - [ 2.06794095e+00, 4.64219898e-01, 2.98887086e+00 ]
      - [ 2.06574893e+00, 4.25816894e-01, 3.22694921e+00 ]
      - [ 2.27363324e+00, 3.61440986e-01, 3.81694746e+00 ]
      - [ 1.97241151e+00, 3.21873039e-01, 4.28177023e+00 ]
      - [ 1.59563398e+00, 3.42558205e-01, 4.14998674e+00 ]
      - [ 2.15412188e+00, 3.69274795e-01, 3.78195906e+00 ]
      - [ 1.97635293e+00, 4.30539280e-01, 3.16740084e+00 ]
      - [ 1.47227502e+00, 3.48376930e-01, 3.89333630e+00 ]
      - [ 2.34340286e+00, 3.81603688e-01, 3.65390372e+00 ]
      - [ 1.75145864e+00, 4.46986526e-01, 2.98045158e+00 ]
      - [ 1.64763427e+00, 3.29885453e-01, 3.98854542e+00 ]
      - [ 1.63712919e+00, 4.00360018e-01, 3.55094814e+00 ]
      - [ 2.17145896e+00, 4.27894473e-01, 3.36354160e+00 ]
      - [ 2.09853697e+00, 4.09869671e-01, 3.48203564e+00 ]
      - [ 1.85395813e+00, 4.29212272e-01, 3.40269494e+00 ]
      - [ 2.31712651e+00, 3.89350057e-01, 3.41377091e+00 ]
      - [ 1.95111108e+00, 3.92244875e-01, 3.68692112e+00 ]
      - [ 1.78414690e+00, 3.46799999e-01, 3.95309615e+00 ]
      - [ 1.83649862e+00, 4.30041164e-01, 3.14101243e+00 ]
      - [ 2.48483205e+00, 3.66321236e-01, 3.73767853e+00 ]
      - [ 1.92354012e+00, 4.09269989e-01, 3.51317382e+00 ]
      - [ 1.82342517e+00, 3.20564955e-01, 4.31742811e+00 ]
      - [ 2.46561432e+00, 4.16653991e-01, 3.25953698e+00 ]
      - [ 1.71412730e+00, 3.37064296e-01, 4.02129221e+00 ]
      - [ 1.65514255e+00, 3.36397409e-01, 4.06585455e+00 ]
      - [ 2.24275923e+00, 4.06222790e-01, 3.48505878e+00 ]
      - [ 2.34665966e+00, 3.61328363e-01, 3.76302505e+00 ]
      - [ 2.47521567e+00, 3.50831628e-01, 3.97671747e+00 ]
      - [ 2.42797852e+00, 3.66896868e-01, 3.63448644e+00 ]
      - [ 1.61071026e+00, 3.55645150e-01, 3.90718889e+00 ]
      - [ 2.25881004e+00, 3.86647969e-01, 3.57507157e+00 ]
      - [ 2.15314388e+00, 3.45083714e-01, 3.92812347e+00 ]
      - [ 1.87606871e+00, 3.24225366e-01, 4.21427298e+00 ]
      - [ 1.85009873e+00, 3.13029945e-01, 4.29863882e+00 ]
      - [ 2.05423403e+00, 5.72171390e-01, 2.85532761e+00 ]
      - [ 1.73657846e+00, 4.64932442e-01, 2.92908430e+00 ]
      - [ 2.07034469e+00, 3.75517279e-01, 3.79937482e+00 ]
      - [ 2.00959802e+00, 3.39453310e-01, 4.09850931e+00 ]
      - [ 1.69571865e+00, 3.33437800e-01, 4.05579090e+00 ]
      - [ 2.36784816e+00, 3.42730254e-01, 4.02241087e+00 ]
      - [ 1.81978142e+00, 4.28809375e-01, 3.21541452e+00 ]
      - [ 1.81570888e+00, 3.34251136e-01, 4.05284739e+00 ]
      - [ 2.34718442e+00, 3.94837558e-01, 3.61381102e+00 ]
      - [ 2.17768979e+00, 3.39667410e-01, 3.97795916e+00 ]
      - [ 2.09883761e+00, 4.03501242e-01, 3.49682069e+00 ]
      - [ 1.45719957e+00, 3.78867567e-01, 3.54062176e+00 ]
      - [ 2.37794304e+00, 3.41320872e-01, 3.93492270e+00 ]
      - [ 2.32264948e+00, 3.82908076e-01, 3.71294856e+00 ]
      - [ 2.12829185e+00, 3.97788525e-01, 3.58881307e+00 ]
      - [ 1.83546686e+00, 4.18584645e-01, 3.37565684e+00 ]
      - [ 1.49958885e+00, 4.15369242e-01, 3.28300571e+00 ]
      - [ 1.68117750e+00, 3.37766886e-01, 3.97625327e+00 ]
      - [ 1.98666751e+00, 4.32577997e-01, 3.09607029e+00 ]
      - [ 2.30838704e+00, 3.88358265e-01, 3.44082260e+00 ]
      - [ 1.83850861e+00, 3.44643563e-01, 4.01830435e+00 ]
      - [ 2.21953988e+00, 3.72059166e-01, 3.73190498e+00 ]
      - [ 2.57772541e+00, 3.78800750e-01, 3.62885332e+00 ]
      - [ 1.76672041e+00, 4.27888751e-01, 3.12661386e+00 ]
      - [ 1.83742619e+00, 3.39646369e-01, 4.03109789e+00 ]
      - [ 2.25928235e+00, 3.81142288e-01, 3.61176395e+00 ]
      - [ 2.13213754e+00, 4.48689997e-01, 3.28262258e+00 ]
      - [ 1.65045714e+00, 4.55650419e-01, 2.97348237e+00 ]
      - [ 1.62233531e+00, 3.55933875e-01, 3.88222075e+00 ]
      - [ 2.06318045e+00, 4.23844248e-01, 3.25040460e+00 ]
      - [ 2.18967319e+00, 5.11295676e-01, 3.07192945e+00 ]
      - [ 1.84969282e+00, 3.48523319e-01, 3.99851394e+00 ]
      - [ 1.74672258e+00, 4.39174652e-01, 3.07808495e+00 ]
      - [ 1.75137866e+00, 4.46678698e-01, 3.08963370e+00 ]
      - [ 1.94517398e+00, 4.42122042e-01, 3.08738852e+00 ]
      - [ 1.90611243e+00, 3.35019380e-01, 4.00423813e+00 ]
      - [ 2.20499635e+00, 3.97816032e-01, 3.41914654e+00 ]
      - [ 1.57449090e+00, 3.66212487e-01, 3.77447915e+00 ]
      - [ 1.98065710e+00, 3.17920029e-01, 4.33111668e+00 ]
      - [ 2.24007893e+00, 3.97982985e-01, 3.32810402e+00 ]
      - [ 2.33566308e+00, 3.80197227e-01, 3.53252244e+00 ]
      - [ 2.01903200e+00, 3.47753614e-01, 3.95149755e+00 ]
      - [ 2.24681449e+00, 3.70399803e-01, 3.75827146e+00 ]
      - [ 2.00613117e+00, 3.35820347e-01, 4.15330458e+00 ]
      - [ 1.60031438e+00, 3.28922629e-01, 4.05136776e+00 ]
      - [ 2.42443585e+00, 4.01206225e-01, 3.35613728e+00 ]
      - [ 2.13100243e+00, 4.68047589e-01, 3.03993249e+00 ]
      - [ 2.24235892e+00, 3.63513023e-01, 3.70908642e+00 ]
      - [ 2.12472105e+00, 3.27919632e-01, 4.44109392e+00 ]
      - [ 1.76494920e+00, 3.13343912e-01, 4.56829405e+00 ]
      - [ 1.34065878e+00, 3.67770463e-01, 3.71569228e+00 ]
      - [ 2.37068176e+00, 3.15893948e-01, 4.52493477e+00 ]
      - [ 1.59297860e+00, 2.58430451e-01, 5.39622116e+00 ]
      - [ 3.48235750e+00, 4.41834480e-01, 3.15976524e+00 ]
      - [ 1.84370947e+00, 3.36837202e-01, 4.10670233e+00 ]
      - [ 2.17137575e+00, 4.93018150e-01, 3.04818225e+00 ]
      - [ 1.82940149e+00, 3.19384813e-01, 4.33649969e+00 ]
      - [ 1.89746976e+00, 4.25705880e-01, 3.68198252e+00 ]
      - [ 2.25569654e+00, 3.83024484e-01, 3.59208441e+00 ]
      - [ 2.07642007e+00, 3.29545438e-01, 4.13968086e+00 ]
      - [ 2.05670595e+00, 4.27014410e-01, 3.28095913e+00 ]
      - [ 1.82821679e+00, 3.24142128e-01, 4.28057814e+00 ]
      - [ 2.02809024e+00, 3.40148300e-01, 4.01527405e+00 ]
      - [ 2.28021097e+00, 3.78945798e-01, 3.61651707e+00 ]
      - [ 2.04086733e+00, 4.26484644e-01, 3.22908163e+00 ]
      - [ 1.84617996e+00, 3.72876585e-01, 3.81085229e+00 ]
      - [ 1.88046038e+00, 3.43596935e-01, 4.05276442e+00 ]
      - [ 1.98217201e+00, 4.62107450e-01, 3.09433222e+00 ]
      - [ 2.22979546e+00, 4.55029726e-01, 3.07542753e+00 ]
      - [ 2.20981669e+00, 4.17970061e-01, 3.22745061e+00 ]
      - [ 1.79026759e+00, 3.43819231e-01, 4.00354195e+00 ]
      - [ 1.88554871e+00, 3.55929881e-01, 3.96382046e+00 ]
      - [ 1.68050861e+00, 3.65589678e-01, 3.93944669e+00 ]
      - [ 1.97159088e+00, 4.34560537e-01, 3.23293424e+00 ]
      - [ 2.25738430e+00, 3.96965683e-01, 3.40737677e+00 ]
      - [ 2.19084835e+00, 4.06089008e-01, 3.35929990e+00 ]
      - [ 2.05338812e+00, 3.82338226e-01, 3.72193646e+00 ]
      - [ 2.22951293e+00, 3.68397593e-01, 3.71751332e+00 ]
      - [ 2.23824596e+00, 4.12906140e-01, 3.31418848e+00 ]
      - [ 2.38073444e+00, 3.71187121e-01, 3.76814556e+00 ]
      - [ 1.74580288e+00, 4.03385878e-01, 3.59458804e+00 ]
      - [ 2.27947021e+00, 3.96449596e-01, 3.40631604e+00 ]
      - [ 1.70517552e+00, 4.15779471e-01, 3.56547952e+00 ]
      - [ 2.29331779e+00, 3.72969240e-01, 3.70825124e+00 ]
      - [ 2.24325895e+00, 4.37195033e-01, 3.03511572e+00 ]
      - [ 1.79282963e+00, 2.97862709e-01, 4.61619806e+00 ]
      - [ 2.21199512e+00, 4.21336532e-01, 3.23609662e+00 ]
      - [ 1.87781572e+00, 3.26508522e-01, 4.28638840e+00 ]
      - [ 1.96462417e+00, 3.45458776e-01, 3.98174787e+00 ]
      - [ 2.47034860e+00, 4.08670008e-01, 3.42796493e+00 ]
      - [ 2.45301962e+00, 3.89567971e-01, 3.55734801e+00 ]
      - [ 1.81249416e+00, 3.94609630e-01, 3.74570251e+00 ]
      - [ 1.59564805e+00, 3.70118082e-01, 3.78239918e+00 ]
      - [ 1.68342483e+00, 3.08509588e-01, 4.59392548e+00 ]
      - [ 1.99550462e+00, 3.98060709e-01, 3.59775090e+00 ]
      - [ 2.13208103e+00, 3.15635085e-01, 4.39576864e+00 ]
      - [ 2.12217498e+00, 4.07252073e-01, 3.45211577e+00 ]
      - [ 1.58380973e+00, 4.16691542e-01, 3.26800609e+00 ]
      - [ 2.03013730e+00, 3.18889409e-01, 4.17840385e+00 ]
      - [ 2.40528417e+00, 3.82460594e-01, 3.58269000e+00 ]
      - [ 1.80516708e+00, 4.45474803e-01, 3.03007531e+00 ]
      - [ 1.97519076e+00, 3.39958221e-01, 4.15457439e+00 ]
      - [ 1.84624124e+00, 4.29553062e-01, 3.21671319e+00 ]
      - [ 1.79887700e+00, 4.42151308e-01, 3.01793051e+00 ]
      - [ 2.07810211e+00, 3.70050699e-01, 3.87216163e+00 ]
      - [ 1.73352075e+00, 3.54883432e-01, 3.92270279e+00 ]
      - [ 2.31298518e+00, 4.02748019e-01, 3.38817739e+00 ]
      - [ 2.38224483e+00, 3.43166590e-01, 3.99477410e+00 ]
      - [ 1.98229325e+00, 4.27187860e-01, 3.28228021e+00 ]
      - [ 1.91893649e+00, 4.51552212e-01, 3.15163493e+00 ]
      - [ 1.90325499e+00, 3.51307869e-01, 3.98414111e+00 ]
      - [ 2.27099991e+00, 4.08058017e-01, 3.39359355e+00 ]
      - [ 2.18785620e+00, 4.08933520e-01, 3.40620685e+00 ]
      - [ 2.24086499e+00, 4.04992521e-01, 3.32789040e+00 ]
      - [ 1.59622037e+00, 3.36695194e-01, 4.02467299e+00 ]
      - [ 1.94906759e+00, 4.70518768e-01, 2.95246482e+00 ]
      - [ 1.77945328e+00, 4.29768592e-01, 3.13381958e+00 ]
      - [ 2.71397185e+00, 3.96404684e-01, 3.26474333e+00 ]
      - [ 2.00155067e+00, 4.44458276e-01, 3.00386643e+00 ]
      - [ 1.89928448e+00, 3.57008159e-01, 3.92595792e+00 ]
      - [ 2.22626424e+00, 5.44897199e-01, 2.88465881e+00 ]
      - [ 2.74960184e+00, 3.66865754e-01, 3.61782789e+00 ]
      - [ 1.94777739e+00, 3.31462801e-01, 4.14143372e+00 ]
      - [ 1.71068442e+00, 3.27888519e-01, 4.22445393e+00 ]
      - [ 2.33919859e+00, 3.95566314e-01, 3.44578147e+00 ]
      - [ 2.35421085e+00, 3.49139988e-01, 3.94062352e+00 ]
      - [ 1.61445785e+00, 4.21357453e-01, 3.15015006e+00 ]
      - [ 1.89716876e+00, 3.27756226e-01, 4.25364637e+00 ]
      - [ 1.54343283e+00, 3.37209195e-01, 4.05225277e+00 ]
      - [ 2.05839086e+00, 4.43769902e-01, 2.93983293e+00 ]
      - [ 1.68875968e+00, 4.14754301e-01, 3.38488579e+00 ]
      - [ 1.75471425e+00, 4.34849173e-01, 3.08466887e+00 ]
      - [ 2.29114723e+00, 3.48178774e-01, 4.02644873e+00 ]
      - [ 2.00320911e+00, 3.54855657e-01, 3.94821262e+00 ]
      - [ 2.15764642e+00, 4.32898760e-01, 3.20704079e+00 ]
      - [ 2.05700159e+00, 4.52662587e-01, 3.19345260e+00 ]
      - [ 2.24287510e+00, 3.48156780e-01, 3.88590431e+00 ]
      - [ 1.72513986e+00, 3.45049560e-01, 3.98079896e+00 ]
      - [ 2.12400675e+00, 3.61137688e-01, 3.94427824e+00 ]
      - [ 1.98842275e+00, 4.34548020e-01, 3.15675187e+00 ]
      - [ 1.72599685e+00, 3.68050992e-01, 3.83256483e+00 ]
      - [ 1.65599179e+00, 3.53261769e-01, 3.91409397e+00 ]
      - [ 2.39207268e+00, 3.98642480e-01, 3.35089326e+00 ]
      - [ 2.09750533e+00, 4.10071909e-01, 3.47600532e+00 ]
      - [ 2.05170703e+00, 4.39144641e-01, 3.09245086e+00 ]
      - [ 1.56571019e+00, 3.58034015e-01, 3.83931160e+00 ]
      - [ 1.82351232e+00, 3.79120976e-01, 3.80132890e+00 ]
      - [ 1.72645164e+00, 3.59220356e-01, 3.96637464e+00 ]
      - [ 1.98242044e+00, 3.13906431e-01, 4.38998556e+00 ]
      - [ 1.91294754e+00, 4.53303456e-01, 3.00560641e+00 ]
      - [ 1.91558421e+00, 4.77976322e-01, 2.93687558e+00 ]
      - [ 2.08144236e+00, 3.54074925e-01, 3.91371775e+00 ]
      - [ 2.13352513e+00, 3.13846618e-01, 4.50135803e+00 ]
      - [ 1.50814950e+00, 4.06936973e-01, 3.33655667e+00 ]
      - [ 3.63796473e+00, 4.29303259e-01, 3.19008875e+00 ]
      - [ 1.27666640e+00, 3.99647444e-01, 3.39849997e+00 ]
      - [ 2.61664844e+00, 3.42018813e-01, 4.07309484e+00 ]
      - [ 1.69247031e+00, 3.38191122e-01, 4.13337040e+00 ]
      - [ 2.72265792e+00, 3.85478288e-01, 3.49041891e+00 ]
      - [ 2.33149290e+00, 3.93143028e-01, 3.40890408e+00 ]
      - [ 2.19257307e+00, 4.54168171e-01, 2.98072433e+00 ]
      - [ 2.35606456e+00, 3.59362006e-01, 3.89156938e+00 ]
      - [ 2.13844585e+00, 3.32383037e-01, 3.97513437e+00 ]
      - [ 1.71079803e+00, 4.45055872e-01, 3.19641185e+00 ]
      - [ 2.58320451e+00, 3.09392154e-01, 4.59288073e+00 ]
      - [ 2.31976199e+00, 3.61225188e-01, 3.65460300e+00 ]
      - [ 2.07665825e+00, 4.47575390e-01, 3.06081629e+00 ]
      - [ 1.75836825e+00, 3.51267785e-01, 3.93261981e+00 ]
      - [ 1.68648636e+00, 2.92208344e-01, 5.10432196e+00 ]
      - [ 1.86799717e+00, 3.34710926e-01, 4.09517813e+00 ]
      - [ 1.76297987e+00, 3.21096271e-01, 4.33937645e+00 ]
      - [ 1.80466568e+00, 4.05606091e-01, 3.56051731e+00 ]
      - [ 1.74978125e+00, 3.28619063e-01, 4.17277431e+00 ]
      - [ 2.29420686e+00, 3.75681132e-01, 3.56100535e+00 ]
      - [ 2.02634239e+00, 4.04148966e-01, 3.56734395e+00 ]
      - [ 2.25434041e+00, 3.81648034e-01, 3.55076623e+00 ]
      - [ 1.69963992e+00, 4.40478772e-01, 3.02704310e+00 ]
      - [ 1.86719906e+00, 3.35917503e-01, 4.05052710e+00 ]
      - [ 1.60371339e+00, 4.23706859e-01, 3.12706327e+00 ]
      - [ 2.36552477e+00, 3.44792426e-01, 3.99703765e+00 ]
      - [ 1.98859000e+00, 2.84848869e-01, 4.99506950e+00 ]
      - [ 2.95563316e+00, 3.92336220e-01, 3.45445108e+00 ]
      - [ 1.93144023e+00, 3.31490904e-01, 4.23584509e+00 ]
      - [ 2.13872290e+00, 4.23122317e-01, 3.25791836e+00 ]
      - [ 2.48409319e+00, 4.12364036e-01, 3.24325371e+00 ]
      - [ 1.87482154e+00, 3.46334994e-01, 3.96051788e+00 ]
      - [ 1.41529644e+00, 3.91295940e-01, 3.90971375e+00 ]
      - [ 1.94300628e+00, 3.44201833e-01, 4.05211020e+00 ]
      - [ 2.15510130e+00, 3.49340737e-01, 3.90521669e+00 ]
      - [ 1.93051600e+00, 4.31167901e-01, 3.31248307e+00 ]
      - [ 2.28433895e+00, 3.91509682e-01, 3.50350475e+00 ]
      - [ 2.40227604e+00, 3.63600135e-01, 3.77249765e+00 ]
      - [ 2.46122909e+00, 3.80828857e-01, 3.64733219e+00 ]
      - [ 1.63371563e+00, 3.17763329e-01, 4.39586782e+00 ]
      - [ 2.01913643e+00, 4.31574970e-01, 3.18126249e+00 ]
      - [ 2.73651600e+00, 3.72600079e-01, 3.70546222e+00 ]
      - [ 1.68124878e+00, 4.36245799e-01, 3.40588522e+00 ]
      - [ 2.20125985e+00, 4.12741691e-01, 3.27529883e+00 ]
      - [ 1.80677807e+00, 3.24609756e-01, 4.22673559e+00 ]
      - [ 2.00399423e+00, 4.31495607e-01, 3.19827604e+00 ]
      - [ 1.85512316e+00, 3.44830602e-01, 3.99130869e+00 ]
      - [ 2.56851172e+00, 3.74918580e-01, 3.68717647e+00 ]
      - [ 2.21646929e+00, 3.57919186e-01, 3.81530881e+00 ]
      - [ 3.96299434e+00, 4.08737272e-01, 3.52499413e+00 ]
      - [ 1.65858853e+00, 2.98517734e-01, 4.72573853e+00 ]
      - [ 1.88093436e+00, 3.19273919e-01, 4.24801779e+00 ]
      - [ 2.25425029e+00, 3.88737500e-01, 3.54400206e+00 ]
      - [ 2.06492686e+00, 3.74615669e-01, 3.81809282e+00 ]
      - [ 2.03943372e+00, 3.22993845e-01, 4.44920444e+00 ]
      - [ 2.39312005e+00, 3.68984252e-01, 3.61354518e+00 ]
      - [ 2.25222683e+00, 4.15797293e-01, 3.23430967e+00 ]
      - [ 1.81873608e+00, 3.24069172e-01, 4.35672283e+00 ]
      - [ 1.78245020e+00, 3.41143072e-01, 4.00367165e+00 ]
      - [ 2.05545378e+00, 3.22366208e-01, 4.36782265e+00 ]
      - [ 1.88626170e+00, 3.11815798e-01, 4.50503540e+00 ]
      - [ 1.42229187e+00, 3.26239586e-01, 4.11665297e+00 ]
      - [ 1.94765699e+00, 3.41426134e-01, 4.03038883e+00 ]
      - [ 1.65606606e+00, 3.34611267e-01, 4.13974667e+00 ]
      - [ 1.92013848e+00, 5.14837265e-01, 2.83320379e+00 ]
      - [ 1.77324486e+00, 3.34732652e-01, 4.01638460e+00 ]
      - [ 1.59467685e+00, 3.09393197e-01, 4.52905035e+00 ]
      - [ 2.36482263e+00, 3.43328059e-01, 3.86276531e+00 ]
      - [ 2.12282348e+00, 4.25951540e-01, 3.17161369e+00 ]
      - [ 1.76336837e+00, 3.36824745e-01, 4.20158625e+00 ]
      - [ 1.96098363e+00, 3.32781047e-01, 4.38150597e+00 ]
      - [ 2.20819998e+00, 4.16603655e-01, 3.25722456e+00 ]
      - [ 1.69342315e+00, 3.25487196e-01, 4.26364517e+00 ]
      - [ 2.28087878e+00, 3.83956730e-01, 3.59226322e+00 ]
      - [ 1.65974391e+00, 4.30080026e-01, 3.22977066e+00 ]
      - [ 2.38170743e+00, 3.63826454e-01, 3.63697124e+00 ]
      - [ 2.14157104e+00, 4.19326186e-01, 3.24115968e+00 ]
      - [ 2.09075022e+00, 3.45640719e-01, 3.98119259e+00 ]
      - [ 1.27662003e+00, 4.08409119e-01, 3.35933638e+00 ]
      - [ 1.80099559e+00, 3.52108717e-01, 4.00468397e+00 ]
      - [ 2.17325044e+00, 4.05965179e-01, 3.44390321e+00 ]
      - [ 2.01920462e+00, 3.55794460e-01, 3.90704536e+00 ]
      - [ 2.30302668e+00, 3.73476714e-01, 3.47433591e+00 ]
      - [ 2.31150150e+00, 4.35384721e-01, 3.25059652e+00 ]
      - [ 1.93310654e+00, 2.99444228e-01, 4.95127964e+00 ]
      - [ 2.06151748e+00, 4.43078518e-01, 3.27471948e+00 ]
      - [ 2.27308941e+00, 3.94756228e-01, 3.43014336e+00 ]
      - [ 4.50939894e+00, 4.16563898e-01, 3.40381551e+00 ]
      - [ 1.21815252e+00, 7.43479192e-01, 2.05379963e+00 ]
      - [ 1.71621227e+00, 4.34629947e-01, 3.15257883e+00 ]
      - [ 1.67628765e+00, 3.34656775e-01, 4.15804482e+00 ]
      - [ 2.00140119e+00, 4.26308513e-01, 3.07452011e+00 ]
      - [ 1.67158997e+00, 3.41174036e-01, 3.98892236e+00 ]
      - [ 1.77061534e+00, 3.46741855e-01, 3.98784161e+00 ]
      - [ 1.52305949e+00, 3.55776787e-01, 3.88448119e+00 ]
      - [ 1.75872302e+00, 3.50787669e-01, 3.95163083e+00 ]
      - [ 2.29971409e+00, 3.97087693e-01, 3.37536931e+00 ]
      - [ 1.55582464e+00, 3.38927090e-01, 4.10307884e+00 ]
      - [ 1.79641438e+00, 4.53070909e-01, 3.13877630e+00 ]
      - [ 1.88986290e+00, 4.44430411e-01, 2.97200346e+00 ]
      - [ 2.02495527e+00, 3.28353882e-01, 4.06840372e+00 ]
      - [ 1.64843237e+00, 4.28163439e-01, 3.17262864e+00 ]
      - [ 2.82113099e+00, 3.98945957e-01, 3.50088859e+00 ]
      - [ 2.21176505e+00, 4.05876338e-01, 3.30966926e+00 ]
      - [ 1.68940830e+00, 3.31157476e-01, 4.14699745e+00 ]
      - [ 1.97777414e+00, 4.36437070e-01, 3.11756158e+00 ]
      - [ 1.44601893e+00, 3.60542178e-01, 3.78657746e+00 ]
      - [ 1.90766442e+00, 4.57303613e-01, 2.91532922e+00 ]
      - [ 2.04621243e+00, 4.78917062e-01, 2.84372759e+00 ]
      - [ 2.36801171e+00, 3.86597842e-01, 3.49310946e+00 ]
      - [ 2.22212529e+00, 3.53966743e-01, 3.87954950e+00 ]
      - [ 2.37079835e+00, 3.96757662e-01, 3.39033723e+00 ]
      - [ 2.26436210e+00, 3.37611020e-01, 3.95130420e+00 ]
      - [ 1.90058386e+00, 3.84179413e-01, 3.70035958e+00 ]
      - [ 1.78604388e+00, 2.79975444e-01, 4.96573687e+00 ]
      - [ 2.07629085e+00, 4.20647532e-01, 3.30146575e+00 ]
      - [ 1.71090806e+00, 3.03720713e-01, 4.71925497e+00 ]
      - [ 1.86668849e+00, 4.53101516e-01, 2.95214486e+00 ]
      - [ 2.24684644e+00, 3.80945534e-01, 3.58798265e+00 ]
      - [ 2.20595169e+00, 3.92992258e-01, 3.54711676e+00 ]
      - [ 2.27980590e+00, 3.49417478e-01, 3.81799817e+00 ]
      - [ 2.18827295e+00, 3.61113131e-01, 4.07186508e+00 ]
      - [ 2.37291789e+00, 3.57164770e-01, 3.70747089e+00 ]
      - [ 2.03081083e+00, 4.52481806e-01, 3.20168304e+00 ]
      - [ 1.96260059e+00, 4.32470530e-01, 3.23150253e+00 ]
      - [ 1.70658433e+00, 3.27197433e-01, 4.26342344e+00 ]
      - [ 1.63811660e+00, 3.57205302e-01, 3.95533228e+00 ]
      - [ 2.34213281e+00, 4.01352048e-01, 3.32935309e+00 ]
      - [ 2.48275614e+00, 3.59380007e-01, 3.63854861e+00 ]
      - [ 1.72714603e+00, 3.33619595e-01, 4.29732800e+00 ]
      - [ 2.16164398e+00, 3.69897872e-01, 3.77271795e+00 ]
      - [ 1.81200612e+00, 3.35877538e-01, 4.04704428e+00 ]
      - [ 1.88547182e+00, 3.33760083e-01, 4.08589697e+00 ]
      - [ 1.79043210e+00, 3.63737345e-01, 3.96971154e+00 ]
      - [ 2.33967066e+00, 2.81889349e-01, 5.13612270e+00 ]
      - [ 1.72018039e+00, 4.55328137e-01, 3.11492276e+00 ]
      - [ 2.30585575e+00, 4.08522427e-01, 3.28435087e+00 ]
      - [ 1.83158362e+00, 3.32302213e-01, 4.07254362e+00 ]
      - [ 1.90143871e+00, 3.57965142e-01, 3.98392510e+00 ]
      - [ 1.88800550e+00, 3.20983529e-01, 4.47618628e+00 ]
      - [ 2.38473916e+00, 4.76044059e-01, 2.87512922e+00 ]
      - [ 1.83476877e+00, 3.11803699e-01, 4.42123556e+00 ]
      - [ 2.28869748e+00, 3.65292311e-01, 3.67252660e+00 ]
      - [ 2.70165825e+00, 3.92480135e-01, 3.55562186e+00 ]
      - [ 2.05135202e+00, 4.30527300e-01, 3.15388775e+00 ]
      - [ 2.43870592e+00, 3.80688250e-01, 3.59002662e+00 ]
      - [ 1.50807846e+00, 4.22034681e-01, 3.19501352e+00 ]
      - [ 1.89649701e+00, 3.17186385e-01, 4.26821280e+00 ]
      - [ 2.12084866e+00, 3.47707182e-01, 4.10827398e+00 ]
      - [ 1.72845471e+00, 3.07224572e-01, 4.54682446e+00 ]
