%YAML:1.0
mysvm: !!opencv-ml-svm
   svm_type: C_SVC
   kernel: { type:RBF, gamma:1.5000000000000001e-04 }
   C: 1.0000000000000001e-01
   term_criteria: { epsilon:9.9999999747524271e-07, iterations:1000 }
   var_all: 3
   var_count: 3
   class_count: 2
   class_labels: !!opencv-matrix
      rows: 1
      cols: 2
      dt: i
      data: [ 0, 1 ]
   sv_total: 2000
   support_vectors:
      - [ 1.75732756e+00, 3.59575450e-01, 3.99282765e+00 ]
      - [ 4.80833197e+00, 4.49985147e-01, 3.28645873e+00 ]
      - [ 1.93308377e+00, 4.00261313e-01, 3.45313859e+00 ]
      - [ 1.39284289e+00, 3.73908341e-01, 3.86337876e+00 ]
      - [ 1.47338665e+00, 3.60489041e-01, 3.96549606e+00 ]
      - [ 2.41261148e+00, 3.92810047e-01, 3.41446662e+00 ]
      - [ 1.67557168e+00, 3.84884477e-01, 3.63681626e+00 ]
      - [ 1.70833826e+00, 3.55034590e-01, 3.83875751e+00 ]
      - [ 3.23508620e+00, 4.73793596e-01, 3.10794353e+00 ]
      - [ 1.61641705e+00, 3.66638690e-01, 3.84000874e+00 ]
      - [ 2.35688353e+00, 4.26708400e-01, 3.30358768e+00 ]
      - [ 1.91423929e+00, 4.24649924e-01, 3.38664317e+00 ]
      - [ 1.92238259e+00, 3.57612342e-01, 3.82847261e+00 ]
      - [ 1.57238781e+00, 3.72262329e-01, 3.79880118e+00 ]
      - [ 1.19249952e+00, 2.98540324e-01, 5.06618929e+00 ]
      - [ 1.94247091e+00, 3.38394135e-01, 4.01511717e+00 ]
      - [ 2.14845109e+00, 4.22118515e-01, 3.37415957e+00 ]
      - [ 1.86812186e+00, 3.60198706e-01, 3.81806016e+00 ]
      - [ 1.86213148e+00, 3.45948458e-01, 3.97901702e+00 ]
      - [ 1.74647534e+00, 3.08151275e-01, 4.69427776e+00 ]
      - [ 1.79251099e+00, 3.52888554e-01, 3.96256590e+00 ]
      - [ 1.91536129e+00, 4.76733744e-01, 3.06859064e+00 ]
      - [ 1.86236000e+00, 4.02404547e-01, 3.50912547e+00 ]
      - [ 2.19983864e+00, 3.48017454e-01, 4.00258207e+00 ]
      - [ 1.62977242e+00, 3.91456127e-01, 3.52127457e+00 ]
      - [ 2.25353789e+00, 3.38285446e-01, 4.09733915e+00 ]
      - [ 1.81316173e+00, 3.97377431e-01, 3.53906775e+00 ]
      - [ 5.13180447e+00, 3.24572116e-01, 4.83351612e+00 ]
      - [ 2.02141356e+00, 3.85078490e-01, 3.64608288e+00 ]
      - [ 1.92459667e+00, 3.91258836e-01, 3.52460861e+00 ]
      - [ 1.70671344e+00, 4.60764259e-01, 3.10004878e+00 ]
      - [ 1.49056637e+00, 3.92163903e-01, 3.68216634e+00 ]
      - [ 1.44196022e+00, 4.20045167e-01, 3.32212281e+00 ]
      - [ 1.79623497e+00, 4.41153735e-01, 3.18043828e+00 ]
      - [ 2.57904959e+00, 3.71344596e-01, 3.81177020e+00 ]
      - [ 1.93980336e+00, 2.69965976e-01, 5.49202681e+00 ]
      - [ 2.69368052e+00, 5.91764808e-01, 2.61861968e+00 ]
      - [ 1.74409783e+00, 3.91222984e-01, 3.60677385e+00 ]
      - [ 1.86361897e+00, 4.75266904e-01, 3.09128284e+00 ]
      - [ 1.84090877e+00, 3.61142248e-01, 3.81246138e+00 ]
      - [ 1.53846109e+00, 4.46739197e-01, 3.28628182e+00 ]
      - [ 2.12220693e+00, 3.57935131e-01, 3.87857294e+00 ]
      - [ 1.66321504e+00, 4.16001409e-01, 3.46285677e+00 ]
      - [ 1.55006480e+00, 3.87341112e-01, 3.60209751e+00 ]
      - [ 1.59207320e+00, 3.54296088e-01, 4.00191593e+00 ]
      - [ 2.34308624e+00, 2.76177108e-01, 5.23672819e+00 ]
      - [ 3.84280348e+00, 3.67948592e-01, 3.96903944e+00 ]
      - [ 1.75764275e+00, 3.45023304e-01, 4.00595474e+00 ]
      - [ 1.43942535e+00, 3.52424920e-01, 4.13177395e+00 ]
      - [ 2.13294339e+00, 4.99550641e-01, 2.98067260e+00 ]
      - [ 1.65776861e+00, 2.75201321e-01, 5.50110292e+00 ]
      - [ 2.59709001e+00, 6.83517992e-01, 2.33596277e+00 ]
      - [ 1.67850542e+00, 4.09615874e-01, 3.37923527e+00 ]
      - [ 1.72582543e+00, 5.08181334e-01, 2.91962242e+00 ]
      - [ 1.70745218e+00, 3.97557437e-01, 3.50450373e+00 ]
      - [ 1.41691506e+00, 4.36654150e-01, 3.36792469e+00 ]
      - [ 2.01007247e+00, 4.07708555e-01, 3.46310925e+00 ]
      - [ 1.98062718e+00, 3.85596603e-01, 3.55937338e+00 ]
      - [ 1.56001902e+00, 3.87330204e-01, 3.65542483e+00 ]
      - [ 1.61773849e+00, 4.27676827e-01, 3.26502466e+00 ]
      - [ 1.70039880e+00, 4.16173667e-01, 3.37672877e+00 ]
      - [ 1.85543573e+00, 4.09904480e-01, 3.45679164e+00 ]
      - [ 2.43296123e+00, 3.74991506e-01, 3.59974051e+00 ]
      - [ 2.67256618e+00, 2.66828656e-01, 5.67297697e+00 ]
      - [ 1.55190635e+00, 3.99376273e-01, 3.47819042e+00 ]
      - [ 1.85043943e+00, 3.86035979e-01, 3.63401318e+00 ]
      - [ 1.92545664e+00, 7.01590478e-01, 2.26761532e+00 ]
      - [ 3.59193206e+00, 3.27444881e-01, 4.30003977e+00 ]
      - [ 1.41083598e+00, 3.98766428e-01, 3.66865611e+00 ]
      - [ 2.34977818e+00, 3.62628073e-01, 3.89238501e+00 ]
      - [ 5.03942347e+00, 5.06742835e-01, 3.16892624e+00 ]
      - [ 1.47490561e+00, 4.58418727e-01, 3.30663562e+00 ]
      - [ 4.21376181e+00, 6.80962682e-01, 2.33252907e+00 ]
      - [ 1.63880312e+00, 6.35569155e-01, 2.54948378e+00 ]
      - [ 1.54542315e+00, 3.48433226e-01, 4.16051197e+00 ]
      - [ 4.41837931e+00, 6.28522992e-01, 2.54791427e+00 ]
      - [ 1.50332403e+00, 4.22587037e-01, 3.41525197e+00 ]
      - [ 1.82241881e+00, 2.75917172e-01, 5.64284134e+00 ]
      - [ 1.39091969e+00, 3.82563889e-01, 3.81636953e+00 ]
      - [ 1.98194194e+00, 3.76716197e-01, 3.68818831e+00 ]
      - [ 1.51449513e+00, 3.63870680e-01, 4.01161766e+00 ]
      - [ 2.03471327e+00, 4.54597265e-01, 3.21460938e+00 ]
      - [ 1.69949007e+00, 3.91446441e-01, 3.57006001e+00 ]
      - [ 1.92775154e+00, 6.24195993e-01, 2.47548056e+00 ]
      - [ 1.91351855e+00, 3.57039332e-01, 3.86288190e+00 ]
      - [ 1.64829063e+00, 4.22852844e-01, 3.35640478e+00 ]
      - [ 2.94362807e+00, 2.75806040e-01, 5.74744511e+00 ]
      - [ 4.20954180e+00, 5.61169505e-01, 2.66924739e+00 ]
      - [ 1.14778697e+00, 4.80265111e-01, 3.37971973e+00 ]
      - [ 1.89342427e+00, 4.18692231e-01, 3.32761431e+00 ]
      - [ 8.16881239e-01, 9.65462998e-02, 1.58936195e+01 ]
      - [ 1.87640238e+00, 3.63284230e-01, 3.81084013e+00 ]
      - [ 1.84013999e+00, 6.20638788e-01, 2.58692789e+00 ]
      - [ 1.95001245e+00, 4.48205531e-01, 3.14858842e+00 ]
      - [ 5.15332985e+00, 3.87328714e-01, 3.89758301e+00 ]
      - [ 1.83099592e+00, 4.21006560e-01, 3.40853095e+00 ]
      - [ 1.84059513e+00, 4.37535703e-01, 3.23049879e+00 ]
      - [ 1.52322710e+00, 3.74054760e-01, 3.72985864e+00 ]
      - [ 3.00464725e+00, 4.23461765e-01, 3.55900145e+00 ]
      - [ 1.57765150e+00, 3.46732318e-01, 3.94129658e+00 ]
      - [ 1.54099536e+00, 4.14049149e-01, 3.49960089e+00 ]
      - [ 1.88872635e+00, 4.82325464e-01, 3.04227805e+00 ]
      - [ 1.54406333e+00, 4.22538668e-01, 3.35430622e+00 ]
      - [ 1.86707830e+00, 4.42653984e-01, 3.24969840e+00 ]
      - [ 1.55732465e+00, 4.21467870e-01, 3.34622073e+00 ]
      - [ 1.58879435e+00, 3.86930823e-01, 3.63938689e+00 ]
      - [ 2.63435388e+00, 3.58448923e-01, 3.87270689e+00 ]
      - [ 1.64703202e+00, 4.36956823e-01, 3.29512215e+00 ]
      - [ 1.00354600e+00, 4.09718424e-01, 3.64198184e+00 ]
      - [ 1.43221498e+00, 6.04834259e-01, 2.59856510e+00 ]
      - [ 1.71842015e+00, 4.16477889e-01, 3.26083660e+00 ]
      - [ 1.48233604e+00, 3.74786764e-01, 3.65055847e+00 ]
      - [ 1.62456417e+00, 4.03358668e-01, 3.46806574e+00 ]
      - [ 1.47951913e+00, 3.92089069e-01, 3.53251839e+00 ]
      - [ 3.65826416e+00, 2.96698511e-01, 4.75938845e+00 ]
      - [ 1.38370609e+00, 3.29749316e-01, 4.39055252e+00 ]
      - [ 4.55888224e+00, 3.57907534e-01, 3.83169699e+00 ]
      - [ 1.54381204e+00, 4.05659229e-01, 3.57627177e+00 ]
      - [ 3.15179324e+00, 4.02976722e-01, 3.62520981e+00 ]
      - [ 2.78635788e+00, 4.25198615e-01, 3.47104454e+00 ]
      - [ 1.49108779e+00, 3.88522446e-01, 3.70976758e+00 ]
      - [ 1.74507713e+00, 3.53449196e-01, 3.91122246e+00 ]
      - [ 2.73825169e+00, 4.81432140e-01, 3.11899328e+00 ]
      - [ 2.01338291e+00, 4.00293976e-01, 3.33938289e+00 ]
      - [ 4.03625059e+00, 3.64110976e-01, 4.05374193e+00 ]
      - [ 1.68004215e+00, 4.18257356e-01, 3.33794475e+00 ]
      - [ 1.47025418e+00, 3.87328684e-01, 3.64343977e+00 ]
      - [ 1.47983789e+00, 4.43597496e-01, 3.16768765e+00 ]
      - [ 1.68329966e+00, 3.65456402e-01, 3.74793696e+00 ]
      - [ 1.42661655e+00, 3.63173336e-01, 3.78696895e+00 ]
      - [ 1.43735337e+00, 4.04040188e-01, 3.53316450e+00 ]
      - [ 1.69174099e+00, 2.96703637e-01, 4.97971058e+00 ]
      - [ 4.35414076e+00, 3.12473685e-01, 4.53324032e+00 ]
      - [ 2.49159384e+00, 3.38456094e-01, 4.08252096e+00 ]
      - [ 1.53631997e+00, 2.37172604e-01, 6.92314100e+00 ]
      - [ 1.45655513e+00, 3.92517269e-01, 3.66705322e+00 ]
      - [ 1.85475647e+00, 3.67319584e-01, 3.78050637e+00 ]
      - [ 2.06250429e+00, 4.60439533e-01, 3.17973113e+00 ]
      - [ 6.77008915e+00, 3.56360823e-01, 4.19975901e+00 ]
      - [ 1.92781913e+00, 3.61804456e-01, 3.79576230e+00 ]
      - [ 4.05702782e+00, 5.83933473e-01, 2.56963325e+00 ]
      - [ 1.79338872e+00, 3.24677408e-01, 4.30053520e+00 ]
      - [ 1.50784302e+00, 3.76750082e-01, 3.79958892e+00 ]
      - [ 1.68306899e+00, 3.72796386e-01, 3.69331908e+00 ]
      - [ 3.00905919e+00, 3.26652616e-01, 4.30393791e+00 ]
      - [ 1.52695239e+00, 3.73630255e-01, 3.78257585e+00 ]
      - [ 1.66118705e+00, 3.77434999e-01, 3.74377656e+00 ]
      - [ 1.53206754e+00, 3.78205538e-01, 3.76755857e+00 ]
      - [ 1.43389559e+00, 3.83324265e-01, 3.76721740e+00 ]
      - [ 1.78113580e+00, 3.85768294e-01, 3.52394867e+00 ]
      - [ 1.58038127e+00, 3.82009417e-01, 3.71082902e+00 ]
      - [ 1.70502365e+00, 6.84250712e-01, 2.41611648e+00 ]
      - [ 1.54293108e+00, 4.22796220e-01, 3.35472989e+00 ]
      - [ 1.87693882e+00, 4.14530694e-01, 3.45346093e+00 ]
      - [ 1.63685453e+00, 3.97884011e-01, 3.60136938e+00 ]
      - [ 1.83642113e+00, 3.83377671e-01, 3.52504182e+00 ]
      - [ 1.55028784e+00, 2.96197891e-01, 5.11883211e+00 ]
      - [ 1.44929171e+00, 3.54341656e-01, 4.49832487e+00 ]
      - [ 2.20313382e+00, 4.56533402e-01, 3.17338490e+00 ]
      - [ 2.73612118e+00, 3.30512315e-01, 4.17038059e+00 ]
      - [ 1.67726111e+00, 3.80279481e-01, 3.68444157e+00 ]
      - [ 1.54557884e+00, 3.59102577e-01, 4.02812243e+00 ]
      - [ 2.43164015e+00, 2.71028638e-01, 5.34837580e+00 ]
      - [ 1.93020916e+00, 3.73425037e-01, 3.70980930e+00 ]
      - [ 3.97627807e+00, 3.79313022e-01, 3.87481809e+00 ]
      - [ 1.67749453e+00, 3.27654123e-01, 4.26803112e+00 ]
      - [ 1.52127659e+00, 4.19836193e-01, 3.36208653e+00 ]
      - [ 1.80899048e+00, 4.47404832e-01, 3.26342559e+00 ]
      - [ 1.71070552e+00, 4.17634815e-01, 3.38631916e+00 ]
      - [ 5.19399595e+00, 3.25247467e-01, 5.05430365e+00 ]
      - [ 1.90670192e+00, 4.75080878e-01, 3.07981515e+00 ]
      - [ 1.94553256e+00, 3.45332384e-01, 3.99116707e+00 ]
      - [ 1.49777770e+00, 3.37226570e-01, 4.34939814e+00 ]
      - [ 2.25135970e+00, 3.55922788e-01, 3.91182899e+00 ]
      - [ 1.51089036e+00, 3.99740785e-01, 3.51255751e+00 ]
      - [ 1.14643848e+00, 5.24170160e-01, 3.07847571e+00 ]
      - [ 1.99257946e+00, 3.95895511e-01, 3.54387760e+00 ]
      - [ 2.13644910e+00, 4.60274518e-01, 3.21115255e+00 ]
      - [ 1.28309584e+00, 4.74239886e-01, 3.38092709e+00 ]
      - [ 1.91992652e+00, 3.69070858e-01, 3.72669387e+00 ]
      - [ 1.62146950e+00, 3.90629381e-01, 3.64322948e+00 ]
      - [ 1.70137620e+00, 3.72211665e-01, 3.73614621e+00 ]
      - [ 6.12026978e+00, 4.25547093e-01, 3.53073931e+00 ]
      - [ 3.68801832e+00, 7.67612219e-01, 2.06603885e+00 ]
      - [ 1.68286657e+00, 4.14264083e-01, 3.35092831e+00 ]
      - [ 1.54553688e+00, 3.36406082e-01, 4.34144783e+00 ]
      - [ 1.63302290e+00, 2.73860276e-01, 5.34902048e+00 ]
      - [ 2.30189133e+00, 2.71586359e-01, 5.70063877e+00 ]
      - [ 1.93444824e+00, 3.50698501e-01, 3.96008945e+00 ]
      - [ 1.58434486e+00, 4.10738528e-01, 3.42710423e+00 ]
      - [ 2.20302629e+00, 3.75165522e-01, 3.72862649e+00 ]
      - [ 1.71653199e+00, 3.81235600e-01, 3.68080568e+00 ]
      - [ 1.42973840e+00, 4.10561204e-01, 3.48863459e+00 ]
      - [ 1.92130232e+00, 3.82371247e-01, 3.66857862e+00 ]
      - [ 1.64418614e+00, 3.38565737e-01, 4.19768286e+00 ]
      - [ 1.37350082e+00, 4.07613128e-01, 3.49281406e+00 ]
      - [ 5.26035023e+00, 3.79006624e-01, 3.86648130e+00 ]
      - [ 1.78798008e+00, 4.29293156e-01, 3.24064732e+00 ]
      - [ 2.91388893e+00, 3.72192770e-01, 3.67023182e+00 ]
      - [ 1.79860210e+00, 3.16684157e-01, 4.31522512e+00 ]
      - [ 1.58677936e+00, 4.26211119e-01, 3.40028143e+00 ]
      - [ 1.98702085e+00, 3.54712307e-01, 3.93678474e+00 ]
      - [ 1.78028345e+00, 4.08573240e-01, 3.49135399e+00 ]
      - [ 1.74646020e+00, 4.37506348e-01, 3.24929452e+00 ]
      - [ 2.81564856e+00, 3.71067941e-01, 3.72115350e+00 ]
      - [ 2.24864459e+00, 3.36559474e-01, 4.07733011e+00 ]
      - [ 1.42107534e+00, 4.30114925e-01, 3.26369286e+00 ]
      - [ 1.62988627e+00, 3.92088771e-01, 3.54571152e+00 ]
      - [ 1.75670624e+00, 4.61333126e-01, 3.17043090e+00 ]
      - [ 1.46018183e+00, 3.92856091e-01, 3.81774569e+00 ]
      - [ 2.85810041e+00, 3.69606733e-01, 3.81030583e+00 ]
      - [ 1.56573617e+00, 3.84602338e-01, 3.66011643e+00 ]
      - [ 1.69625103e+00, 3.96707624e-01, 3.54265571e+00 ]
      - [ 1.54155123e+00, 3.72749895e-01, 3.80664158e+00 ]
      - [ 4.13178539e+00, 4.76210505e-01, 3.15227175e+00 ]
      - [ 1.68355918e+00, 3.67442459e-01, 3.80154014e+00 ]
      - [ 1.41042221e+00, 4.13836390e-01, 3.46068239e+00 ]
      - [ 1.51218700e+00, 3.91351402e-01, 3.57573676e+00 ]
      - [ 2.44835782e+00, 3.77065837e-01, 3.70352125e+00 ]
      - [ 2.21170259e+00, 3.21229517e-01, 4.26754665e+00 ]
      - [ 2.07935596e+00, 3.58013928e-01, 3.86306381e+00 ]
      - [ 2.28097272e+00, 6.33796215e-01, 2.46725798e+00 ]
      - [ 1.69941878e+00, 3.45926464e-01, 3.99820566e+00 ]
      - [ 1.72602153e+00, 3.41793746e-01, 4.14684248e+00 ]
      - [ 1.03615928e+00, 4.59431231e-01, 3.31960273e+00 ]
      - [ 1.69254458e+00, 4.08587903e-01, 3.43201685e+00 ]
      - [ 1.72365057e+00, 3.86604160e-01, 3.66053247e+00 ]
      - [ 1.90815139e+00, 1.32600212e+00, 1.29901505e+00 ]
      - [ 1.85582614e+00, 3.95201772e-01, 3.55701423e+00 ]
      - [ 1.54420388e+00, 3.86139512e-01, 3.73883271e+00 ]
      - [ 1.76382947e+00, 4.21335042e-01, 3.37616372e+00 ]
      - [ 1.73318160e+00, 3.70211095e-01, 3.79195833e+00 ]
      - [ 1.80187476e+00, 4.06845033e-01, 3.45981455e+00 ]
      - [ 2.28948236e+00, 5.91744840e-01, 2.63130498e+00 ]
      - [ 1.50918698e+00, 3.68805289e-01, 3.91493344e+00 ]
      - [ 1.97488463e+00, 3.94893259e-01, 3.57112145e+00 ]
      - [ 1.90912890e+00, 2.72628933e-01, 5.86689806e+00 ]
      - [ 1.65734243e+00, 4.36935544e-01, 3.32929945e+00 ]
      - [ 1.74493325e+00, 3.79820019e-01, 3.66853142e+00 ]
      - [ 9.00899315e+00, 3.80715758e-01, 3.90072942e+00 ]
      - [ 1.50399387e+00, 3.77211422e-01, 3.87834406e+00 ]
      - [ 1.76887715e+00, 3.76438469e-01, 3.70735073e+00 ]
      - [ 1.42255402e+00, 3.81979108e-01, 3.72346401e+00 ]
      - [ 1.50839114e+00, 3.68945479e-01, 3.80770826e+00 ]
      - [ 2.43994355e+00, 3.95918220e-01, 3.64880228e+00 ]
      - [ 4.24979353e+00, 5.66923022e-01, 2.75021148e+00 ]
      - [ 2.65146255e+00, 3.58842641e-01, 3.81389451e+00 ]
      - [ 2.36733794e+00, 1.20453596e+00, 1.43967426e+00 ]
      - [ 1.67140698e+00, 3.99440348e-01, 3.50067163e+00 ]
      - [ 2.27768826e+00, 6.89949393e-01, 2.29775786e+00 ]
      - [ 1.77162385e+00, 3.79374295e-01, 3.68356395e+00 ]
      - [ 2.32390499e+00, 4.37569261e-01, 3.33526540e+00 ]
      - [ 1.68431675e+00, 4.12694156e-01, 3.31096029e+00 ]
      - [ 2.64094520e+00, 3.31147015e-01, 4.11839342e+00 ]
      - [ 2.11106133e+00, 3.52123410e-01, 3.93579555e+00 ]
      - [ 2.10346913e+00, 3.88815552e-01, 3.61429429e+00 ]
      - [ 1.88642013e+00, 6.20112598e-01, 2.51762319e+00 ]
      - [ 1.75128770e+00, 3.77600074e-01, 3.71864724e+00 ]
      - [ 1.59125936e+00, 4.09627438e-01, 3.47155881e+00 ]
      - [ 2.20891023e+00, 3.60519499e-01, 3.79845357e+00 ]
      - [ 1.36118650e+00, 3.15352201e-01, 4.55597401e+00 ]
      - [ 5.66432190e+00, 4.69606608e-01, 3.33792567e+00 ]
      - [ 1.72749555e+00, 4.05267090e-01, 3.52196836e+00 ]
      - [ 1.67159319e+00, 2.91984737e-01, 4.96470118e+00 ]
      - [ 1.42032540e+00, 3.69783998e-01, 3.72273040e+00 ]
      - [ 3.22181320e+00, 4.59490776e-01, 3.24049878e+00 ]
      - [ 1.64297640e+00, 4.17497337e-01, 3.40434980e+00 ]
      - [ 3.63105321e+00, 3.39776814e-01, 4.23686600e+00 ]
      - [ 1.55866742e+00, 3.99023652e-01, 3.47833276e+00 ]
      - [ 1.65120471e+00, 4.24616992e-01, 3.40994024e+00 ]
      - [ 1.52069831e+00, 4.01492953e-01, 3.58846831e+00 ]
      - [ 1.98025918e+00, 5.03160477e-01, 2.97292471e+00 ]
      - [ 2.02007723e+00, 3.74417633e-01, 3.74914336e+00 ]
      - [ 2.12928796e+00, 4.09773588e-01, 3.46781731e+00 ]
      - [ 2.40925074e+00, 1.65777281e-01, 8.95297432e+00 ]
      - [ 3.00199699e+00, 4.27441359e-01, 3.50561237e+00 ]
      - [ 1.68522072e+00, 3.98929536e-01, 3.49180770e+00 ]
      - [ 1.48198056e+00, 3.73936146e-01, 3.77176929e+00 ]
      - [ 2.14589453e+00, 3.99414897e-01, 3.56908584e+00 ]
      - [ 1.57035768e+00, 3.68097216e-01, 3.78309679e+00 ]
      - [ 1.81614339e+00, 3.19057792e-01, 4.45375395e+00 ]
      - [ 7.53113127e+00, 8.69738311e-02, 1.71444378e+01 ]
      - [ 1.69775915e+00, 3.97384703e-01, 3.42686963e+00 ]
      - [ 1.63449168e+00, 3.93214136e-01, 3.56322289e+00 ]
      - [ 2.35253954e+00, 3.74699622e-01, 3.77139497e+00 ]
      - [ 1.59847307e+00, 3.94191146e-01, 3.63709807e+00 ]
      - [ 1.71255815e+00, 3.83322060e-01, 3.61323810e+00 ]
      - [ 1.69940627e+00, 2.92433888e-01, 4.94871044e+00 ]
      - [ 1.81666839e+00, 4.39590156e-01, 3.14449143e+00 ]
      - [ 1.86607242e+00, 4.56768960e-01, 3.20903063e+00 ]
      - [ 2.01497626e+00, 4.26602334e-01, 3.38749480e+00 ]
      - [ 1.46638989e+00, 5.27552009e-01, 3.13706708e+00 ]
      - [ 2.73326397e+00, 3.79298121e-01, 3.80908799e+00 ]
      - [ 2.30185533e+00, 6.76612079e-01, 2.31553650e+00 ]
      - [ 1.91186118e+00, 4.53324825e-01, 3.18545413e+00 ]
      - [ 2.09270906e+00, 4.32618052e-01, 3.22083402e+00 ]
      - [ 1.69600999e+00, 3.83850068e-01, 3.60154748e+00 ]
      - [ 1.84419262e+00, 3.64768386e-01, 3.73533368e+00 ]
      - [ 1.57439077e+00, 4.22940224e-01, 3.46003628e+00 ]
      - [ 2.17847180e+00, 3.69591236e-01, 3.77441239e+00 ]
      - [ 4.79771709e+00, 4.24879253e-01, 3.52615571e+00 ]
      - [ 1.96122622e+00, 3.47239792e-01, 3.99416614e+00 ]
      - [ 2.25877619e+00, 6.51467085e-01, 2.42137241e+00 ]
      - [ 1.98100543e+00, 4.21789557e-01, 3.39935493e+00 ]
      - [ 4.04353094e+00, 4.46971923e-01, 3.24073744e+00 ]
      - [ 1.48781073e+00, 4.43892807e-01, 3.28322816e+00 ]
      - [ 4.20407295e+00, 3.18755388e-01, 4.53414583e+00 ]
      - [ 1.82340455e+00, 4.49313581e-01, 3.15508103e+00 ]
      - [ 1.86836874e+00, 4.35521454e-01, 3.29651380e+00 ]
      - [ 1.92919314e+00, 3.63011271e-01, 3.80813622e+00 ]
      - [ 1.71972752e+00, 3.80256772e-01, 3.67945862e+00 ]
      - [ 1.76128888e+00, 3.22603285e-01, 4.36998749e+00 ]
      - [ 1.28457284e+00, 4.19150442e-01, 3.29932427e+00 ]
      - [ 4.54451036e+00, 3.71955484e-01, 3.70543933e+00 ]
      - [ 1.36434579e+00, 5.78775108e-01, 2.68096447e+00 ]
      - [ 3.25039268e+00, 4.32363689e-01, 3.19103003e+00 ]
      - [ 5.94023466e+00, 3.05876523e-01, 4.73279619e+00 ]
      - [ 1.44404495e+00, 2.85109222e-01, 5.24244881e+00 ]
      - [ 1.43924272e+00, 3.48089874e-01, 4.34598255e+00 ]
      - [ 2.06000471e+00, 3.86603206e-01, 3.63239098e+00 ]
      - [ 1.44374478e+00, 4.06487733e-01, 3.46214294e+00 ]
      - [ 3.57073283e+00, 2.59441614e-01, 6.13729477e+00 ]
      - [ 2.38303590e+00, 3.91737491e-01, 3.62895870e+00 ]
      - [ 2.21313095e+00, 3.83274227e-01, 3.70655942e+00 ]
      - [ 1.42411470e+00, 4.50848937e-01, 3.11254740e+00 ]
      - [ 1.80404830e+00, 4.17987287e-01, 3.41977596e+00 ]
      - [ 1.78550935e+00, 3.75222117e-01, 3.69418931e+00 ]
      - [ 1.92551780e+00, 4.08037841e-01, 3.48971558e+00 ]
      - [ 1.78288710e+00, 3.61820966e-01, 3.83352065e+00 ]
      - [ 1.86454964e+00, 4.07155305e-01, 3.48766994e+00 ]
      - [ 1.74673676e+00, 4.42228585e-01, 3.25366807e+00 ]
      - [ 2.90712118e+00, 4.96479124e-01, 2.94146729e+00 ]
      - [ 1.58859622e+00, 4.14756298e-01, 3.48494196e+00 ]
      - [ 1.62908888e+00, 4.01405156e-01, 3.53096032e+00 ]
      - [ 1.69777071e+00, 3.94236714e-01, 3.58603573e+00 ]
      - [ 1.77810824e+00, 4.31476742e-01, 3.33851695e+00 ]
      - [ 2.00473118e+00, 4.84774858e-01, 3.06164336e+00 ]
      - [ 1.88977969e+00, 3.58237594e-01, 3.86150742e+00 ]
      - [ 1.84780097e+00, 4.17248756e-01, 3.31163645e+00 ]
      - [ 1.85078716e+00, 3.83556336e-01, 3.64820123e+00 ]
      - [ 2.49595213e+00, 3.68981093e-01, 3.80634856e+00 ]
      - [ 1.57356846e+00, 2.93778718e-01, 5.21702576e+00 ]
      - [ 4.92022514e+00, 3.46223682e-01, 4.29760981e+00 ]
      - [ 1.59849846e+00, 3.87114823e-01, 3.65396810e+00 ]
      - [ 1.93592107e+00, 4.15950269e-01, 3.44857049e+00 ]
      - [ 1.73029613e+00, 3.78436655e-01, 3.68901968e+00 ]
      - [ 3.12363982e+00, 3.95397902e-01, 3.68454623e+00 ]
      - [ 1.54490638e+00, 3.63640666e-01, 3.91389918e+00 ]
      - [ 2.63314724e+00, 4.02297586e-01, 3.48834085e+00 ]
      - [ 2.28932977e+00, 3.85945261e-01, 3.64333773e+00 ]
      - [ 1.54554963e+00, 4.08746928e-01, 3.51489615e+00 ]
      - [ 1.69967484e+00, 4.03313488e-01, 3.48113036e+00 ]
      - [ 1.90503180e+00, 3.38113606e-01, 4.01858187e+00 ]
      - [ 1.68034315e+00, 2.90514976e-01, 4.93458557e+00 ]
      - [ 1.44113755e+00, 8.31162035e-01, 1.94306922e+00 ]
      - [ 2.04623270e+00, 3.86734903e-01, 3.58131719e+00 ]
      - [ 1.88706446e+00, 3.69969636e-01, 3.75530386e+00 ]
      - [ 2.09198356e+00, 3.91599059e-01, 3.62056899e+00 ]
      - [ 2.21876216e+00, 3.50476980e-01, 3.97173715e+00 ]
      - [ 1.51339257e+00, 4.37269717e-01, 3.36530876e+00 ]
      - [ 5.34937477e+00, 3.05178463e-01, 4.66727400e+00 ]
      - [ 1.69903219e+00, 3.74764383e-01, 3.69769835e+00 ]
      - [ 2.45648837e+00, 8.56304348e-01, 1.90812385e+00 ]
      - [ 2.53372622e+00, 3.21739823e-01, 4.24778318e+00 ]
      - [ 1.54876089e+00, 4.20134425e-01, 3.43850946e+00 ]
      - [ 1.44319177e+00, 3.94541085e-01, 3.60943341e+00 ]
      - [ 1.37986529e+00, 3.84185046e-01, 3.60994077e+00 ]
      - [ 1.77653325e+00, 3.88581693e-01, 3.53020144e+00 ]
      - [ 1.86140704e+00, 3.62592489e-01, 3.80133033e+00 ]
      - [ 1.87339294e+00, 4.40033168e-01, 3.27408695e+00 ]
      - [ 1.72033262e+00, 3.67356092e-01, 3.81568503e+00 ]
      - [ 1.98416209e+00, 3.64587784e-01, 3.82863855e+00 ]
      - [ 1.69118357e+00, 5.09227097e-01, 2.96899557e+00 ]
      - [ 2.05291891e+00, 4.79192942e-01, 3.09936666e+00 ]
      - [ 1.71735191e+00, 3.45500380e-01, 3.91267467e+00 ]
      - [ 1.66611254e+00, 3.69907379e-01, 3.75210667e+00 ]
      - [ 1.43693376e+00, 3.81624669e-01, 3.51518822e+00 ]
      - [ 2.04283953e+00, 3.68137538e-01, 3.81282401e+00 ]
      - [ 1.74981403e+00, 3.57366145e-01, 3.86757565e+00 ]
      - [ 2.09019327e+00, 4.66113687e-01, 3.16152143e+00 ]
      - [ 4.28588247e+00, 3.86266321e-01, 3.61684847e+00 ]
      - [ 1.54467487e+00, 3.90312195e-01, 3.65840364e+00 ]
      - [ 1.56185317e+00, 4.28617626e-01, 3.36879730e+00 ]
      - [ 5.62991858e+00, 2.80751824e-01, 5.15516996e+00 ]
      - [ 2.72499299e+00, 3.54291141e-01, 4.02904749e+00 ]
      - [ 2.10201049e+00, 3.49094480e-01, 3.93367004e+00 ]
      - [ 1.49756670e+00, 3.52661133e-01, 3.95049477e+00 ]
      - [ 1.50504684e+00, 4.06864703e-01, 3.42327881e+00 ]
      - [ 2.18706298e+00, 3.66951048e-01, 3.84414530e+00 ]
      - [ 1.83365953e+00, 2.63912588e-01, 6.04920292e+00 ]
      - [ 3.10403562e+00, 4.43577647e-01, 3.32012057e+00 ]
      - [ 1.41960132e+00, 3.81510496e-01, 3.71872187e+00 ]
      - [ 1.68153167e+00, 3.75296354e-01, 3.74156427e+00 ]
      - [ 2.00549793e+00, 3.87680143e-01, 3.54383183e+00 ]
      - [ 2.64381862e+00, 5.79519153e-01, 2.65068531e+00 ]
      - [ 2.35264587e+00, 4.56534624e-01, 3.05265760e+00 ]
      - [ 2.04040861e+00, 4.89925593e-01, 3.03888655e+00 ]
      - [ 2.12051082e+00, 4.25278485e-01, 3.35409021e+00 ]
      - [ 2.03884077e+00, 4.52280581e-01, 3.23185968e+00 ]
      - [ 1.72963083e+00, 4.20035750e-01, 3.39262605e+00 ]
      - [ 1.63991892e+00, 3.72538716e-01, 3.72899413e+00 ]
      - [ 2.88964629e+00, 3.71197224e-01, 3.77254009e+00 ]
      - [ 1.73316193e+00, 3.94456863e-01, 3.58794284e+00 ]
      - [ 2.24075246e+00, 3.86051744e-01, 3.62346983e+00 ]
      - [ 2.05422854e+00, 4.61764991e-01, 3.12953901e+00 ]
      - [ 1.69360971e+00, 3.28155071e-01, 4.22749853e+00 ]
      - [ 4.98210716e+00, 4.07655001e-01, 3.70142746e+00 ]
      - [ 2.24511361e+00, 3.85487348e-01, 3.67626786e+00 ]
      - [ 2.82440805e+00, 2.67684162e-01, 5.23955584e+00 ]
      - [ 1.51854360e+00, 4.19322103e-01, 3.51287222e+00 ]
      - [ 2.47848368e+00, 3.42899531e-01, 4.10810137e+00 ]
      - [ 2.49838591e+00, 1.27023649e+00, 1.34977269e+00 ]
      - [ 4.67045498e+00, 4.63441491e-01, 3.24663138e+00 ]
      - [ 3.31201005e+00, 4.56953406e-01, 3.28791618e+00 ]
      - [ 1.64868104e+00, 3.82142574e-01, 3.63022327e+00 ]
      - [ 1.30615354e+00, 4.11154777e-01, 3.41394806e+00 ]
      - [ 1.88309860e+00, 4.26225066e-01, 3.31920552e+00 ]
      - [ 2.01877570e+00, 3.88679475e-01, 3.58280063e+00 ]
      - [ 4.73094511e+00, 3.60453099e-01, 4.16526031e+00 ]
      - [ 1.29847634e+00, 3.89064044e-01, 3.84705353e+00 ]
      - [ 1.60802436e+00, 3.87464225e-01, 3.64082837e+00 ]
      - [ 1.78124905e+00, 4.17378932e-01, 3.37668848e+00 ]
      - [ 1.84057832e+00, 3.82257462e-01, 3.60543799e+00 ]
      - [ 1.88127851e+00, 3.62966746e-01, 3.83558249e+00 ]
      - [ 1.66423512e+00, 3.94293964e-01, 3.57029843e+00 ]
      - [ 1.63153529e+00, 3.75648201e-01, 3.66105676e+00 ]
      - [ 1.64741266e+00, 4.23755080e-01, 3.30396986e+00 ]
      - [ 5.93396330e+00, 4.57289577e-01, 3.14568210e+00 ]
      - [ 1.61853659e+00, 3.37140828e-01, 4.19952011e+00 ]
      - [ 2.01460338e+00, 7.53982365e-01, 2.16547656e+00 ]
      - [ 1.55467224e+00, 4.14587528e-01, 3.45951867e+00 ]
      - [ 1.57709169e+00, 3.65589470e-01, 3.78633690e+00 ]
      - [ 4.10031414e+00, 2.89069086e-01, 4.94044638e+00 ]
      - [ 1.43305981e+00, 4.21065390e-01, 3.29945660e+00 ]
      - [ 2.76984572e+00, 3.02562326e-01, 4.59537840e+00 ]
      - [ 1.94543087e+00, 3.84567618e-01, 3.63286328e+00 ]
      - [ 2.28056836e+00, 4.00484413e-01, 3.59540391e+00 ]
      - [ 3.08499813e+00, 3.23481172e-01, 4.35165215e+00 ]
      - [ 1.42537069e+00, 3.66726846e-01, 3.69481373e+00 ]
      - [ 1.86430454e+00, 3.68087560e-01, 3.77136326e+00 ]
      - [ 1.96653402e+00, 3.77637476e-01, 3.72838140e+00 ]
      - [ 1.53033352e+00, 3.86112809e-01, 3.65915513e+00 ]
      - [ 2.10217810e+00, 3.78361642e-01, 3.66498542e+00 ]
      - [ 3.08888555e+00, 7.78268278e-01, 2.10177684e+00 ]
      - [ 1.72055435e+00, 3.81239563e-01, 3.65385485e+00 ]
      - [ 1.88963497e+00, 3.75726074e-01, 3.69652987e+00 ]
      - [ 1.47461987e+00, 3.84208173e-01, 3.69119906e+00 ]
      - [ 1.88805699e+00, 3.84786725e-01, 3.64350700e+00 ]
      - [ 1.87395549e+00, 3.77087235e-01, 3.65039587e+00 ]
      - [ 1.86856568e+00, 3.52670848e-01, 3.89908075e+00 ]
      - [ 2.18406367e+00, 7.26317465e-01, 2.21754432e+00 ]
      - [ 3.07627892e+00, 3.54841709e-01, 4.01478434e+00 ]
      - [ 1.80126119e+00, 4.57015783e-01, 3.20568633e+00 ]
      - [ 5.69205046e+00, 7.43050635e-01, 2.12910128e+00 ]
      - [ 1.76360798e+00, 3.44750822e-01, 4.02625084e+00 ]
      - [ 2.33482432e+00, 3.65187645e-01, 3.75800443e+00 ]
      - [ 1.96311879e+00, 4.06654179e-01, 3.39489818e+00 ]
      - [ 1.85614061e+00, 3.52347970e-01, 3.90130758e+00 ]
      - [ 1.93942523e+00, 3.95743549e-01, 3.54267883e+00 ]
      - [ 1.58069074e+00, 3.51647854e-01, 4.06753016e+00 ]
      - [ 1.96130824e+00, 2.87506282e-01, 5.05959463e+00 ]
      - [ 3.06548548e+00, 3.84159893e-01, 3.83663917e+00 ]
      - [ 3.76816869e+00, 6.60796881e-01, 2.40373540e+00 ]
      - [ 3.27910304e+00, 5.87293863e-01, 2.65050983e+00 ]
      - [ 1.76241052e+00, 3.99473369e-01, 3.47878408e+00 ]
      - [ 1.65920472e+00, 3.91313553e-01, 3.61805892e+00 ]
      - [ 1.43210328e+00, 4.28492337e-01, 3.27622247e+00 ]
      - [ 1.79707444e+00, 4.69877213e-01, 3.13265562e+00 ]
      - [ 2.28481960e+00, 3.69409263e-01, 3.79364133e+00 ]
      - [ 1.84396625e+00, 3.61274838e-01, 3.78676915e+00 ]
      - [ 1.63320529e+00, 3.80500972e-01, 3.68987012e+00 ]
      - [ 1.80054760e+00, 3.22681010e-01, 4.41785908e+00 ]
      - [ 1.59219813e+00, 4.06475365e-01, 3.49232674e+00 ]
      - [ 1.98108578e+00, 3.67465615e-01, 3.74418139e+00 ]
      - [ 1.51758623e+00, 6.18238270e-01, 2.62935925e+00 ]
      - [ 3.16341329e+00, 4.40677196e-01, 3.21426654e+00 ]
      - [ 3.10371685e+00, 3.28739136e-01, 4.26194334e+00 ]
      - [ 2.44853330e+00, 3.88532370e-01, 3.50179148e+00 ]
      - [ 5.98948097e+00, 3.45669925e-01, 4.27736759e+00 ]
      - [ 4.46608686e+00, 6.96260393e-01, 2.23774099e+00 ]
      - [ 1.79301488e+00, 3.54231209e-01, 3.82964039e+00 ]
      - [ 3.30593395e+00, 3.00836086e-01, 4.59458780e+00 ]
      - [ 1.74152207e+00, 3.75526667e-01, 3.72217035e+00 ]
      - [ 1.49903953e+00, 4.05491114e-01, 3.61938453e+00 ]
      - [ 1.69876969e+00, 4.21254665e-01, 3.40565300e+00 ]
      - [ 1.71082544e+00, 4.32531685e-01, 3.23614717e+00 ]
      - [ 4.52708244e+00, 3.60874265e-01, 3.91219234e+00 ]
      - [ 1.52543676e+00, 3.48592162e-01, 4.52548218e+00 ]
      - [ 1.85288441e+00, 3.53067935e-01, 3.89810181e+00 ]
      - [ 1.89575076e+00, 7.56106436e-01, 2.07684994e+00 ]
      - [ 2.22171235e+00, 3.84425044e-01, 3.61510754e+00 ]
      - [ 5.98182249e+00, 5.87213397e-01, 2.58002234e+00 ]
      - [ 1.63039124e+00, 3.66898239e-01, 3.74549890e+00 ]
      - [ 2.08202648e+00, 4.19717759e-01, 3.34659719e+00 ]
      - [ 1.71867740e+00, 3.74179393e-01, 3.70421672e+00 ]
      - [ 1.81352186e+00, 3.88859630e-01, 3.58418989e+00 ]
      - [ 1.66871071e+00, 3.73607695e-01, 3.67686582e+00 ]
      - [ 1.62324464e+00, 4.04519767e-01, 3.52700830e+00 ]
      - [ 1.54499042e+00, 3.59615922e-01, 3.94626117e+00 ]
      - [ 6.70097351e+00, 3.03640276e-01, 4.83254957e+00 ]
      - [ 1.80660737e+00, 3.78393412e-01, 3.68674254e+00 ]
      - [ 3.94786668e+00, 4.99471456e-01, 3.07968998e+00 ]
      - [ 4.43699026e+00, 3.41919929e-01, 4.09311676e+00 ]
      - [ 1.61176002e+00, 3.29773992e-01, 4.40543079e+00 ]
      - [ 2.44480228e+00, 4.83348995e-01, 3.07713485e+00 ]
      - [ 2.12169266e+00, 3.32524747e-01, 4.18114614e+00 ]
      - [ 3.73668504e+00, 3.76110435e-01, 3.82414913e+00 ]
      - [ 1.46603608e+00, 3.94991577e-01, 3.67537284e+00 ]
      - [ 3.50528479e+00, 3.08353722e-01, 4.59905052e+00 ]
      - [ 1.71857500e+00, 3.94684792e-01, 3.52533960e+00 ]
      - [ 1.66171587e+00, 3.66812587e-01, 3.76857972e+00 ]
      - [ 2.05195737e+00, 3.83889914e-01, 3.60501623e+00 ]
      - [ 2.03686857e+00, 3.70637864e-01, 3.78844547e+00 ]
      - [ 1.69919145e+00, 3.49669993e-01, 3.94986749e+00 ]
      - [ 1.86745918e+00, 3.37987393e-01, 4.07190657e+00 ]
      - [ 1.83947301e+00, 3.29736441e-01, 4.27402163e+00 ]
      - [ 1.56254911e+00, 4.50192094e-01, 3.18769836e+00 ]
      - [ 1.75859725e+00, 3.75506610e-01, 3.69832301e+00 ]
      - [ 2.10238719e+00, 3.85586619e-01, 3.64033985e+00 ]
      - [ 1.96093297e+00, 6.96223557e-01, 2.31173372e+00 ]
      - [ 1.66119409e+00, 3.74116540e-01, 3.74999022e+00 ]
      - [ 1.56982553e+00, 3.96017104e-01, 3.56933713e+00 ]
      - [ 1.98523164e+00, 3.65022182e-01, 3.83042932e+00 ]
      - [ 3.50136828e+00, 7.65637636e-01, 2.01329970e+00 ]
      - [ 2.59047055e+00, 1.15901470e+00, 1.49318242e+00 ]
      - [ 1.70732653e+00, 3.57522696e-01, 3.94312286e+00 ]
      - [ 2.24915767e+00, 3.67079645e-01, 3.81430244e+00 ]
      - [ 5.74084949e+00, 4.14673656e-01, 3.78515553e+00 ]
      - [ 1.59188783e+00, 4.30523187e-01, 3.22370410e+00 ]
      - [ 1.82285726e+00, 3.69592279e-01, 3.74888563e+00 ]
      - [ 2.36919093e+00, 3.38728428e-01, 4.08240223e+00 ]
      - [ 1.60428715e+00, 3.46747428e-01, 4.10487032e+00 ]
      - [ 2.08454227e+00, 3.69373322e-01, 3.78785443e+00 ]
      - [ 2.05296659e+00, 4.15644944e-01, 3.41525292e+00 ]
      - [ 1.54480600e+00, 3.25583637e-01, 4.53138399e+00 ]
      - [ 1.51580048e+00, 3.53804946e-01, 4.06198311e+00 ]
      - [ 2.03684807e+00, 2.86428571e-01, 5.55846167e+00 ]
      - [ 1.74676526e+00, 4.24059957e-01, 3.34982491e+00 ]
      - [ 1.54158843e+00, 3.25102985e-01, 4.40753984e+00 ]
      - [ 1.55500412e+00, 5.51030755e-01, 2.87250280e+00 ]
      - [ 1.94530201e+00, 3.64974946e-01, 3.79137397e+00 ]
      - [ 2.41472363e+00, 6.95520341e-01, 2.30190086e+00 ]
      - [ 1.77036989e+00, 4.14887458e-01, 3.35954356e+00 ]
      - [ 1.91622972e+00, 4.44664329e-01, 3.08320594e+00 ]
      - [ 1.69624412e+00, 4.11276698e-01, 3.47106695e+00 ]
      - [ 1.65228963e+00, 3.89643699e-01, 3.61289358e+00 ]
      - [ 1.48617351e+00, 4.16600674e-01, 3.36820817e+00 ]
      - [ 1.68443179e+00, 3.10191453e-01, 4.70153093e+00 ]
      - [ 2.05203700e+00, 5.27730644e-01, 2.84306479e+00 ]
      - [ 1.63843966e+00, 3.20223868e-01, 4.78640032e+00 ]
      - [ 1.49921954e+00, 3.49967718e-01, 3.96044374e+00 ]
      - [ 5.94454241e+00, 4.13445294e-01, 3.50168133e+00 ]
      - [ 1.76900315e+00, 4.00133103e-01, 3.44239712e+00 ]
      - [ 1.80999255e+00, 3.98169190e-01, 3.55184913e+00 ]
      - [ 4.28632021e+00, 4.72358793e-01, 3.25348973e+00 ]
      - [ 1.53039718e+00, 3.83166790e-01, 3.74775434e+00 ]
      - [ 2.24020243e+00, 4.83555943e-01, 3.00754809e+00 ]
      - [ 1.94361448e+00, 3.26939940e-01, 4.20030403e+00 ]
      - [ 1.82859302e+00, 3.89543116e-01, 3.58513212e+00 ]
      - [ 1.89452970e+00, 3.91892403e-01, 3.60108709e+00 ]
      - [ 1.56883478e+00, 4.24639821e-01, 3.29732299e+00 ]
      - [ 1.71148300e+00, 3.21346313e-01, 4.42295933e+00 ]
      - [ 1.41888154e+00, 3.86280864e-01, 3.94356990e+00 ]
      - [ 1.60823452e+00, 3.69952977e-01, 3.85511303e+00 ]
      - [ 1.92879593e+00, 4.13696766e-01, 3.35973883e+00 ]
      - [ 2.87215495e+00, 3.80308717e-01, 3.61608958e+00 ]
      - [ 2.13101697e+00, 3.74089181e-01, 3.76611590e+00 ]
      - [ 1.72933006e+00, 3.83210331e-01, 3.67999601e+00 ]
      - [ 2.60578752e+00, 3.03732127e-01, 4.60577250e+00 ]
      - [ 2.01242948e+00, 4.22193855e-01, 3.26250815e+00 ]
      - [ 1.95952070e+00, 7.58602977e-01, 2.03215289e+00 ]
      - [ 2.12194657e+00, 4.73247290e-01, 3.08068323e+00 ]
      - [ 1.60167086e+00, 4.13456172e-01, 3.41862869e+00 ]
      - [ 1.54816997e+00, 4.10038203e-01, 3.55708480e+00 ]
      - [ 1.78221798e+00, 4.11703467e-01, 3.44768953e+00 ]
      - [ 1.97236681e+00, 3.70229304e-01, 3.76156449e+00 ]
      - [ 1.76942670e+00, 4.07874167e-01, 3.31879020e+00 ]
      - [ 1.92327619e+00, 3.83882999e-01, 3.60888839e+00 ]
      - [ 3.99347305e+00, 3.34250629e-01, 4.04540682e+00 ]
      - [ 1.41313541e+00, 4.07608062e-01, 3.47301722e+00 ]
      - [ 1.98355377e+00, 3.59294474e-01, 3.79623628e+00 ]
      - [ 1.99505174e+00, 2.78359443e-01, 5.26683044e+00 ]
      - [ 5.85873270e+00, 4.29876447e-01, 3.60683298e+00 ]
      - [ 6.45842266e+00, 4.62243795e-01, 3.16002393e+00 ]
      - [ 1.65563238e+00, 3.71941805e-01, 3.72481990e+00 ]
      - [ 2.37605476e+00, 3.66958469e-01, 3.83752465e+00 ]
      - [ 2.25338554e+00, 3.70172352e-01, 3.68426013e+00 ]
      - [ 1.68339646e+00, 3.49171042e-01, 4.04254341e+00 ]
      - [ 1.72721314e+00, 3.88831377e-01, 3.59684515e+00 ]
      - [ 2.09529924e+00, 4.17475909e-01, 3.37862849e+00 ]
      - [ 1.98461854e+00, 4.33483481e-01, 3.27577782e+00 ]
      - [ 1.70481563e+00, 3.52260858e-01, 3.98527598e+00 ]
      - [ 3.48743081e+00, 4.05656338e-01, 3.59010959e+00 ]
      - [ 1.78157949e+00, 3.63588870e-01, 3.82808375e+00 ]
      - [ 2.46344042e+00, 3.65837038e-01, 3.84682798e+00 ]
      - [ 4.57767153e+00, 3.08603615e-01, 5.06803036e+00 ]
      - [ 1.67412984e+00, 4.08862561e-01, 3.46370268e+00 ]
      - [ 2.29784489e+00, 4.53602105e-01, 3.26785302e+00 ]
      - [ 1.68943453e+00, 4.18954521e-01, 3.37388945e+00 ]
      - [ 1.92413008e+00, 3.50722611e-01, 3.96526861e+00 ]
      - [ 2.07489753e+00, 4.71163183e-01, 3.07019663e+00 ]
      - [ 1.40912378e+00, 3.21575493e-01, 4.60249949e+00 ]
      - [ 1.82744026e+00, 3.98431808e-01, 3.50866985e+00 ]
      - [ 1.38317406e+00, 4.01075661e-01, 3.64435959e+00 ]
      - [ 1.65755093e+00, 4.26714063e-01, 3.37046456e+00 ]
      - [ 1.57280576e+00, 5.79571724e-01, 2.79093146e+00 ]
      - [ 1.85985744e+00, 2.33368814e-01, 6.63254881e+00 ]
      - [ 1.92567635e+00, 3.75736356e-01, 3.57881188e+00 ]
      - [ 1.98950493e+00, 3.77807468e-01, 3.66466546e+00 ]
      - [ 3.62406397e+00, 3.22824955e-01, 4.24327421e+00 ]
      - [ 1.83387768e+00, 2.48731345e-01, 5.86791515e+00 ]
      - [ 2.20246601e+00, 4.63606715e-01, 3.18206668e+00 ]
      - [ 3.76575661e+00, 6.67590201e-01, 2.36818719e+00 ]
      - [ 1.96931112e+00, 3.88626873e-01, 3.57201767e+00 ]
      - [ 1.63351941e+00, 3.90720963e-01, 3.57878876e+00 ]
      - [ 2.29910374e+00, 2.42026299e-01, 6.34743595e+00 ]
      - [ 1.96153402e+00, 3.63542557e-01, 3.82767940e+00 ]
      - [ 2.21378493e+00, 3.73768926e-01, 3.73466945e+00 ]
      - [ 1.72743499e+00, 4.48579878e-01, 3.26436305e+00 ]
      - [ 1.86496723e+00, 3.99597704e-01, 3.55520606e+00 ]
      - [ 1.90138340e+00, 4.14788157e-01, 3.42672801e+00 ]
      - [ 2.11646843e+00, 6.93026245e-01, 2.25226951e+00 ]
      - [ 1.56678939e+00, 5.52792907e-01, 2.81047511e+00 ]
      - [ 1.40757024e+00, 3.88990730e-01, 3.61204267e+00 ]
      - [ 1.80533433e+00, 4.47622091e-01, 3.20528579e+00 ]
      - [ 2.85491920e+00, 6.82701588e-01, 2.32648349e+00 ]
      - [ 2.96981549e+00, 7.02552259e-01, 2.25018978e+00 ]
      - [ 1.92686880e+00, 3.59819293e-01, 3.86848664e+00 ]
      - [ 1.85357106e+00, 4.13286358e-01, 3.40262866e+00 ]
      - [ 1.45434248e+00, 6.19417429e-01, 2.66817689e+00 ]
      - [ 3.26852489e+00, 5.22926271e-01, 2.85543323e+00 ]
      - [ 2.29952645e+00, 3.61784786e-01, 3.78530192e+00 ]
      - [ 1.70007360e+00, 3.85263473e-01, 3.65400910e+00 ]
      - [ 1.83000040e+00, 4.21897024e-01, 3.36904168e+00 ]
      - [ 1.86711800e+00, 3.77874017e-01, 3.68847799e+00 ]
      - [ 2.14115167e+00, 4.05580521e-01, 3.39739895e+00 ]
      - [ 2.15785789e+00, 1.00999522e+00, 1.66445720e+00 ]
      - [ 2.66601229e+00, 3.71012300e-01, 3.70022678e+00 ]
      - [ 1.88985503e+00, 3.81377369e-01, 3.68358707e+00 ]
      - [ 1.72589839e+00, 3.89567763e-01, 3.63259411e+00 ]
      - [ 2.40260577e+00, 4.70020264e-01, 3.09762955e+00 ]
      - [ 1.66698647e+00, 3.48358363e-01, 4.04960871e+00 ]
      - [ 3.49310780e+00, 7.58011281e-01, 2.12586737e+00 ]
      - [ 1.98506761e+00, 3.88641834e-01, 3.63606644e+00 ]
      - [ 1.75384235e+00, 4.50685441e-01, 3.19109368e+00 ]
      - [ 1.76123691e+00, 2.99061835e-01, 5.49504232e+00 ]
      - [ 1.88768733e+00, 3.79754335e-01, 3.68873835e+00 ]
      - [ 1.72114575e+00, 4.39003199e-01, 3.17921996e+00 ]
      - [ 2.09225917e+00, 4.90642071e-01, 3.02924466e+00 ]
      - [ 1.63615739e+00, 4.05544251e-01, 3.50348330e+00 ]
      - [ 1.73423004e+00, 4.27837282e-01, 3.20652509e+00 ]
      - [ 1.95429826e+00, 3.58000666e-01, 3.90860224e+00 ]
      - [ 1.44796538e+00, 3.77266914e-01, 3.92494774e+00 ]
      - [ 1.47968018e+00, 3.72372448e-01, 3.85108376e+00 ]
      - [ 1.26168406e+00, 4.65913475e-01, 3.09895897e+00 ]
      - [ 1.81926072e+00, 5.00838399e-01, 2.98040748e+00 ]
      - [ 1.41418338e+00, 4.02464479e-01, 3.71356821e+00 ]
      - [ 1.88985252e+00, 6.62680089e-01, 2.43450427e+00 ]
      - [ 2.36552024e+00, 3.81498754e-01, 3.73409176e+00 ]
      - [ 1.13599491e+00, 2.98060328e-01, 5.13443279e+00 ]
      - [ 1.80292225e+00, 3.34905297e-01, 4.09585571e+00 ]
      - [ 1.51464975e+00, 3.23610544e-01, 4.44411564e+00 ]
      - [ 1.97996187e+00, 3.65063578e-01, 3.80939794e+00 ]
      - [ 1.62993002e+00, 3.71429741e-01, 3.77036715e+00 ]
      - [ 2.12402916e+00, 3.71075094e-01, 3.78949094e+00 ]
      - [ 1.62499976e+00, 4.07901347e-01, 3.44091821e+00 ]
      - [ 1.58382571e+00, 3.88620526e-01, 3.60477948e+00 ]
      - [ 1.55486345e+00, 4.14394468e-01, 3.44741535e+00 ]
      - [ 1.00208509e+00, 3.63459766e-01, 4.54816437e+00 ]
      - [ 5.07665157e+00, 2.97012687e-01, 5.01747942e+00 ]
      - [ 1.72442222e+00, 4.12142068e-01, 3.42139101e+00 ]
      - [ 1.58176661e+00, 4.02794600e-01, 3.45988393e+00 ]
      - [ 1.92434573e+00, 3.67569447e-01, 3.80442667e+00 ]
      - [ 1.84251952e+00, 3.78148109e-01, 3.69167590e+00 ]
      - [ 1.94113028e+00, 4.07172143e-01, 3.41472530e+00 ]
      - [ 1.52355516e+00, 3.76130968e-01, 3.66413260e+00 ]
      - [ 4.73101854e+00, 6.29875422e-01, 2.48782754e+00 ]
      - [ 3.85915780e+00, 3.52095217e-01, 4.02904415e+00 ]
      - [ 1.55531323e+00, 3.84178072e-01, 3.67677879e+00 ]
      - [ 1.80446386e+00, 7.59018064e-01, 2.08890939e+00 ]
      - [ 1.58489621e+00, 3.55649948e-01, 3.89822650e+00 ]
      - [ 1.55632615e+00, 3.99852574e-01, 3.57163548e+00 ]
      - [ 1.63418579e+00, 3.98370355e-01, 3.45134425e+00 ]
      - [ 3.28266644e+00, 3.92804831e-01, 3.58584166e+00 ]
      - [ 3.02567506e+00, 2.90239751e-01, 4.75043488e+00 ]
      - [ 1.56158531e+00, 4.07880485e-01, 3.54484773e+00 ]
      - [ 2.11118841e+00, 4.07800376e-01, 3.45710683e+00 ]
      - [ 2.38438392e+00, 3.61205548e-01, 3.83803034e+00 ]
      - [ 1.88496196e+00, 3.94598246e-01, 3.55474925e+00 ]
      - [ 3.72133994e+00, 3.76587003e-01, 3.67034864e+00 ]
      - [ 3.55651331e+00, 5.28557122e-01, 2.80453253e+00 ]
      - [ 1.85311568e+00, 3.67114961e-01, 3.79698706e+00 ]
      - [ 1.58917105e+00, 4.50829655e-01, 3.21918344e+00 ]
      - [ 2.17093873e+00, 3.97333086e-01, 3.55103374e+00 ]
      - [ 1.91645157e+00, 4.51420248e-01, 3.23235297e+00 ]
      - [ 1.88450122e+00, 4.71317083e-01, 3.12517619e+00 ]
      - [ 4.11166048e+00, 7.56201982e-01, 2.06032753e+00 ]
      - [ 1.97599375e+00, 4.13549721e-01, 3.35926104e+00 ]
      - [ 2.16294122e+00, 6.27398968e-01, 2.53881574e+00 ]
      - [ 5.14969778e+00, 2.80316770e-01, 5.72763872e+00 ]
      - [ 1.88950932e+00, 4.02889431e-01, 3.49100876e+00 ]
      - [ 2.42791963e+00, 4.91484106e-01, 3.05663395e+00 ]
      - [ 1.92402613e+00, 3.51953536e-01, 3.95427036e+00 ]
      - [ 5.52353239e+00, 4.57940310e-01, 3.38705802e+00 ]
      - [ 2.04218626e+00, 3.68245035e-01, 3.76279497e+00 ]
      - [ 1.66976774e+00, 2.95072198e-01, 5.03514814e+00 ]
      - [ 3.60507226e+00, 4.56364810e-01, 3.37039995e+00 ]
      - [ 1.94614732e+00, 3.78355086e-01, 3.66087770e+00 ]
      - [ 2.20158148e+00, 4.42778140e-01, 3.25951004e+00 ]
      - [ 1.54632223e+00, 3.52114856e-01, 3.96155071e+00 ]
      - [ 2.30348396e+00, 4.44637090e-01, 3.31045437e+00 ]
      - [ 1.55733287e+00, 3.42404574e-01, 4.17978382e+00 ]
      - [ 1.50213385e+00, 4.89654690e-01, 3.19701052e+00 ]
      - [ 2.43160629e+00, 3.79244685e-01, 3.77834749e+00 ]
      - [ 1.65489960e+00, 4.25085664e-01, 3.38318896e+00 ]
      - [ 1.90497231e+00, 3.78252417e-01, 3.69390154e+00 ]
      - [ 1.61692584e+00, 4.25475627e-01, 3.43148375e+00 ]
      - [ 1.67182815e+00, 3.73439252e-01, 3.77731872e+00 ]
      - [ 1.85466230e+00, 3.80974770e-01, 3.62824583e+00 ]
      - [ 1.45576978e+00, 6.54186368e-01, 2.53262377e+00 ]
      - [ 1.55469489e+00, 4.43266600e-01, 3.30216694e+00 ]
      - [ 1.81615973e+00, 4.16611940e-01, 3.36980891e+00 ]
      - [ 4.63968086e+00, 3.41787875e-01, 4.41746998e+00 ]
      - [ 3.11848807e+00, 3.67941558e-01, 3.96886945e+00 ]
      - [ 1.69853199e+00, 3.59347522e-01, 3.79624581e+00 ]
      - [ 1.68659258e+00, 4.82134670e-01, 3.09661722e+00 ]
      - [ 1.75618649e+00, 4.09181207e-01, 3.40309978e+00 ]
      - [ 1.50678921e+00, 3.04649025e-01, 5.11273336e+00 ]
      - [ 1.78374219e+00, 3.91604066e-01, 3.58828831e+00 ]
      - [ 1.51485419e+00, 3.98366123e-01, 3.60787129e+00 ]
      - [ 4.76469374e+00, 3.38653624e-01, 4.51707888e+00 ]
      - [ 4.17603493e+00, 3.17448884e-01, 4.47620153e+00 ]
      - [ 1.84575844e+00, 5.21016300e-01, 2.87583613e+00 ]
      - [ 3.81121922e+00, 3.32043260e-01, 4.21220255e+00 ]
      - [ 1.65274978e+00, 4.32413965e-01, 3.19896960e+00 ]
      - [ 1.90881503e+00, 6.44545972e-01, 2.39486814e+00 ]
      - [ 2.29646921e+00, 3.57742339e-01, 3.93307900e+00 ]
      - [ 3.98003864e+00, 7.53331780e-01, 2.07780361e+00 ]
      - [ 1.81093454e+00, 3.60605001e-01, 3.78875399e+00 ]
      - [ 2.09525418e+00, 3.86975795e-01, 3.57532573e+00 ]
      - [ 1.84514487e+00, 4.17887390e-01, 3.27514887e+00 ]
      - [ 1.95553124e+00, 3.50024521e-01, 3.95225286e+00 ]
      - [ 2.58444476e+00, 3.02925318e-01, 4.60095310e+00 ]
      - [ 2.49231219e+00, 3.94145727e-01, 3.57962132e+00 ]
      - [ 2.60481358e+00, 4.88719404e-01, 3.07061553e+00 ]
      - [ 1.55195582e+00, 3.93346637e-01, 3.50738764e+00 ]
      - [ 2.07802510e+00, 3.78068715e-01, 3.69170833e+00 ]
      - [ 1.92466211e+00, 3.73999476e-01, 3.75792170e+00 ]
      - [ 2.26086926e+00, 3.48902434e-01, 3.91222167e+00 ]
      - [ 1.90378618e+00, 5.41248322e-01, 2.81729841e+00 ]
      - [ 2.35324168e+00, 4.07030493e-01, 3.42038965e+00 ]
      - [ 2.11227703e+00, 4.80552703e-01, 3.06333637e+00 ]
      - [ 1.85284996e+00, 3.76093924e-01, 3.69034219e+00 ]
      - [ 1.80838931e+00, 3.88106257e-01, 3.51238203e+00 ]
      - [ 2.68508053e+00, 4.13642377e-01, 3.57597542e+00 ]
      - [ 1.75771677e+00, 2.67708391e-01, 5.85868120e+00 ]
      - [ 2.07951903e+00, 1.09911716e+00, 1.51739860e+00 ]
      - [ 4.61530018e+00, 4.31012511e-01, 3.18893147e+00 ]
      - [ 1.27394402e+00, 3.09487730e-01, 4.81939507e+00 ]
      - [ 3.13726592e+00, 3.00303221e-01, 4.76638317e+00 ]
      - [ 2.26580882e+00, 2.81408697e-01, 5.35449362e+00 ]
      - [ 1.79054332e+00, 3.80151570e-01, 3.67072558e+00 ]
      - [ 5.31892014e+00, 4.85715359e-01, 3.00605536e+00 ]
      - [ 4.14337015e+00, 3.34568352e-01, 4.12687349e+00 ]
      - [ 1.79485917e+00, 3.61737072e-01, 3.79873157e+00 ]
      - [ 1.73634672e+00, 6.34213924e-01, 2.50220394e+00 ]
      - [ 1.72507441e+00, 4.23322201e-01, 3.22670674e+00 ]
      - [ 1.88659537e+00, 2.14406371e-01, 7.09406376e+00 ]
      - [ 2.16139293e+00, 3.51848245e-01, 3.90404367e+00 ]
      - [ 2.00582671e+00, 3.79923671e-01, 3.70663476e+00 ]
      - [ 1.70793521e+00, 3.75612915e-01, 3.70697260e+00 ]
      - [ 1.91032994e+00, 3.10937017e-01, 4.35757160e+00 ]
      - [ 1.41220546e+00, 4.53520417e-01, 3.24450850e+00 ]
      - [ 1.63777804e+00, 3.42102230e-01, 4.25817251e+00 ]
      - [ 2.21887159e+00, 3.66145223e-01, 3.83862662e+00 ]
      - [ 2.27322435e+00, 3.77325624e-01, 3.63564658e+00 ]
      - [ 1.61859584e+00, 3.78880024e-01, 3.69604993e+00 ]
      - [ 1.64504433e+00, 3.99933666e-01, 3.40446639e+00 ]
      - [ 1.78714526e+00, 3.29526901e-01, 4.24022198e+00 ]
      - [ 2.63843679e+00, 4.18112338e-01, 3.35439038e+00 ]
      - [ 1.93249643e+00, 3.02760988e-01, 4.77630854e+00 ]
      - [ 2.80256701e+00, 4.51968789e-01, 3.34406018e+00 ]
      - [ 2.32207537e+00, 3.43709707e-01, 4.01875401e+00 ]
      - [ 2.05131793e+00, 3.36659938e-01, 4.03365135e+00 ]
      - [ 1.84158027e+00, 3.56369853e-01, 3.88311791e+00 ]
      - [ 2.04597044e+00, 3.87843937e-01, 3.59514070e+00 ]
      - [ 2.03514838e+00, 3.71211022e-01, 3.76363873e+00 ]
      - [ 1.81796801e+00, 4.85771418e-01, 3.07097650e+00 ]
      - [ 2.08178878e+00, 3.93978059e-01, 3.58832264e+00 ]
      - [ 2.04145908e+00, 3.18745285e-01, 4.44893551e+00 ]
      - [ 2.65635467e+00, 3.83222818e-01, 3.71380281e+00 ]
      - [ 1.50464952e+00, 3.90857786e-01, 3.58914375e+00 ]
      - [ 1.56626070e+00, 5.44278741e-01, 2.85855055e+00 ]
      - [ 1.43051207e+00, 3.98414493e-01, 3.61439061e+00 ]
      - [ 2.02377057e+00, 4.50496197e-01, 3.24437618e+00 ]
      - [ 2.08310270e+00, 6.82711542e-01, 2.29981017e+00 ]
      - [ 1.60805166e+00, 4.02389586e-01, 3.52540255e+00 ]
      - [ 1.89421284e+00, 4.56168771e-01, 3.18162227e+00 ]
      - [ 2.08585691e+00, 3.72530729e-01, 3.73505616e+00 ]
      - [ 1.41333735e+00, 3.45229715e-01, 4.20298481e+00 ]
      - [ 1.67572701e+00, 3.78812909e-01, 3.70962548e+00 ]
      - [ 2.70562816e+00, 3.49495709e-01, 3.94615674e+00 ]
      - [ 1.93768728e+00, 3.33093226e-01, 4.19210100e+00 ]
      - [ 1.59832215e+00, 4.28131998e-01, 3.37274861e+00 ]
      - [ 1.52199292e+00, 3.70764345e-01, 3.71420336e+00 ]
      - [ 2.44738841e+00, 3.68409991e-01, 3.85090399e+00 ]
      - [ 4.01210213e+00, 2.52163887e-01, 6.10872698e+00 ]
      - [ 1.90565610e+00, 4.75468934e-01, 3.10953522e+00 ]
      - [ 1.35820448e+00, 4.30843711e-01, 3.20520473e+00 ]
      - [ 1.82333159e+00, 3.05181980e-01, 5.00666952e+00 ]
      - [ 1.65903676e+00, 4.19624209e-01, 3.39928508e+00 ]
      - [ 1.68398011e+00, 3.92601758e-01, 3.51644635e+00 ]
      - [ 1.53302789e+00, 3.92973602e-01, 3.60622072e+00 ]
      - [ 1.44113863e+00, 3.25353533e-01, 4.31837702e+00 ]
      - [ 1.47487295e+00, 3.98299932e-01, 3.42724228e+00 ]
      - [ 2.21635795e+00, 5.79192281e-01, 2.67578626e+00 ]
      - [ 2.09131336e+00, 4.79840130e-01, 3.05820656e+00 ]
      - [ 1.40946674e+00, 4.05784011e-01, 3.56358290e+00 ]
      - [ 1.58383727e+00, 4.32505816e-01, 3.28757286e+00 ]
      - [ 2.09430027e+00, 4.94536459e-01, 2.99941635e+00 ]
      - [ 3.09970403e+00, 4.77732390e-01, 3.08852530e+00 ]
      - [ 4.25600338e+00, 7.61720419e-01, 2.04491401e+00 ]
      - [ 2.00444746e+00, 3.92176360e-01, 3.59323263e+00 ]
      - [ 1.96849120e+00, 4.47339505e-01, 3.24927282e+00 ]
      - [ 2.86731482e+00, 4.51368868e-01, 3.25172782e+00 ]
      - [ 1.95819843e+00, 4.05797005e-01, 3.48660946e+00 ]
      - [ 1.65880036e+00, 4.34167951e-01, 3.33927298e+00 ]
      - [ 1.87214398e+00, 4.09365892e-01, 3.42446566e+00 ]
      - [ 2.01727009e+00, 5.34143507e-01, 2.77534628e+00 ]
      - [ 1.64115489e+00, 4.08477068e-01, 3.48991776e+00 ]
      - [ 1.76678884e+00, 4.89570171e-01, 3.06146526e+00 ]
      - [ 1.61271977e+00, 3.45684469e-01, 4.01043177e+00 ]
      - [ 2.61820340e+00, 3.68008077e-01, 3.77983570e+00 ]
      - [ 1.96057737e+00, 3.45676899e-01, 4.00293350e+00 ]
      - [ 1.98470533e+00, 3.76920491e-01, 3.62784648e+00 ]
      - [ 2.29592609e+00, 3.45652699e-01, 3.93690228e+00 ]
      - [ 1.42446518e+00, 3.63476068e-01, 3.96692944e+00 ]
      - [ 2.21148348e+00, 1.89484179e-01, 8.75309277e+00 ]
      - [ 2.42594934e+00, 4.53188807e-01, 3.23754382e+00 ]
      - [ 1.66815591e+00, 4.56606001e-01, 3.19097090e+00 ]
      - [ 3.30364609e+00, 3.87721896e-01, 3.52139568e+00 ]
      - [ 1.52459526e+00, 5.85677385e-01, 2.68447757e+00 ]
      - [ 1.46550524e+00, 4.04151767e-01, 3.48642278e+00 ]
      - [ 1.52611530e+00, 3.88527125e-01, 3.71911025e+00 ]
      - [ 1.54938865e+00, 3.99952918e-01, 3.46274638e+00 ]
      - [ 1.79768884e+00, 3.72813016e-01, 3.74343204e+00 ]
      - [ 1.82121325e+00, 4.69285131e-01, 3.11783743e+00 ]
      - [ 1.59321034e+00, 3.79938543e-01, 3.61088467e+00 ]
      - [ 2.20811892e+00, 3.65428358e-01, 3.76572132e+00 ]
      - [ 1.62494087e+00, 4.13991153e-01, 3.34718752e+00 ]
      - [ 1.89547563e+00, 4.48028773e-01, 3.24348044e+00 ]
      - [ 1.26891792e+00, 2.41061300e-01, 6.24207067e+00 ]
      - [ 5.25546551e+00, 4.93012577e-01, 3.26207042e+00 ]
      - [ 2.62507463e+00, 3.45479935e-01, 4.06986332e+00 ]
      - [ 1.77654982e+00, 2.54702181e-01, 5.55651951e+00 ]
      - [ 2.04079366e+00, 3.87310296e-01, 3.63987494e+00 ]
      - [ 1.82963169e+00, 3.86099666e-01, 3.58075523e+00 ]
      - [ 4.54945803e+00, 3.20636213e-01, 4.34783220e+00 ]
      - [ 1.89625072e+00, 6.80310667e-01, 2.35312986e+00 ]
      - [ 1.82583714e+00, 3.44346583e-01, 3.96562481e+00 ]
      - [ 1.64878416e+00, 3.86707246e-01, 3.59475827e+00 ]
      - [ 1.65598452e+00, 3.78280282e-01, 3.72496128e+00 ]
      - [ 2.08167100e+00, 3.76833797e-01, 3.66880608e+00 ]
      - [ 1.62447333e+00, 3.99542689e-01, 3.50494385e+00 ]
      - [ 1.95854020e+00, 5.12002826e-01, 2.91953373e+00 ]
      - [ 2.51081324e+00, 3.82974088e-01, 3.64722919e+00 ]
      - [ 2.70482874e+00, 3.62317383e-01, 3.88155985e+00 ]
      - [ 1.61383760e+00, 4.13008839e-01, 3.45653033e+00 ]
      - [ 1.93442369e+00, 4.00023520e-01, 3.50961733e+00 ]
      - [ 1.59564698e+00, 3.61797988e-01, 3.77804375e+00 ]
      - [ 1.61946988e+00, 3.76791418e-01, 3.72107339e+00 ]
      - [ 1.54377460e+00, 5.94348848e-01, 2.72847915e+00 ]
      - [ 1.79646099e+00, 6.41772747e-01, 2.38379145e+00 ]
      - [ 2.69856310e+00, 3.39424849e-01, 4.09538794e+00 ]
      - [ 1.56399000e+00, 3.87483925e-01, 3.70936131e+00 ]
      - [ 1.71431386e+00, 4.23427671e-01, 3.32007051e+00 ]
      - [ 1.63975835e+00, 4.18531746e-01, 3.24534130e+00 ]
      - [ 1.75221133e+00, 4.30046052e-01, 3.30798769e+00 ]
      - [ 1.25534034e+00, 6.09569192e-01, 2.72124863e+00 ]
      - [ 1.52138388e+00, 3.95867199e-01, 3.62223697e+00 ]
      - [ 1.54226661e+00, 4.23611343e-01, 3.37389946e+00 ]
      - [ 1.86351800e+00, 3.44585210e-01, 4.03464365e+00 ]
      - [ 1.46234465e+00, 4.18517202e-01, 3.44953036e+00 ]
      - [ 4.73249149e+00, 4.36730862e-01, 3.36116910e+00 ]
      - [ 3.66016960e+00, 3.32617998e-01, 3.95138407e+00 ]
      - [ 1.74685395e+00, 3.67921531e-01, 3.81150198e+00 ]
      - [ 2.78387117e+00, 2.56060034e-01, 5.69031763e+00 ]
      - [ 1.74103928e+00, 3.67453635e-01, 3.77637577e+00 ]
      - [ 2.81422567e+00, 3.39529693e-01, 4.09748888e+00 ]
      - [ 1.97072947e+00, 4.82920110e-01, 3.04515171e+00 ]
      - [ 1.60913885e+00, 3.63207996e-01, 3.80770302e+00 ]
      - [ 1.76205003e+00, 3.76184911e-01, 3.65776849e+00 ]
      - [ 2.64589429e+00, 3.53136063e-01, 3.94242239e+00 ]
      - [ 1.75806618e+00, 4.00191098e-01, 3.37761831e+00 ]
      - [ 1.60946548e+00, 3.91813010e-01, 3.59103894e+00 ]
      - [ 1.58037531e+00, 3.91145766e-01, 3.64201617e+00 ]
      - [ 1.91743338e+00, 3.77296120e-01, 3.70179081e+00 ]
      - [ 2.22255373e+00, 3.88910532e-01, 3.44892502e+00 ]
      - [ 1.76207519e+00, 4.21301872e-01, 3.22142124e+00 ]
      - [ 2.01140761e+00, 3.70706111e-01, 3.69670606e+00 ]
      - [ 2.21447539e+00, 4.37871814e-01, 3.30255389e+00 ]
      - [ 1.53596723e+00, 4.20466691e-01, 3.49012709e+00 ]
      - [ 2.10124612e+00, 3.84080917e-01, 3.68270540e+00 ]
      - [ 1.85149729e+00, 3.46764833e-01, 4.01256609e+00 ]
      - [ 1.17747533e+00, 3.29275399e-01, 4.63995790e+00 ]
      - [ 2.40592003e+00, 3.30317140e-01, 4.15993738e+00 ]
      - [ 2.05607915e+00, 3.80115658e-01, 3.70965624e+00 ]
      - [ 1.87303245e+00, 3.68042707e-01, 3.74607992e+00 ]
      - [ 1.60253954e+00, 4.15656060e-01, 3.37511635e+00 ]
      - [ 1.86379004e+00, 3.64792377e-01, 3.82649755e+00 ]
      - [ 1.65449321e+00, 5.82402587e-01, 2.77826047e+00 ]
      - [ 4.73828936e+00, 8.13519895e-01, 1.93200564e+00 ]
      - [ 2.24197316e+00, 3.76524895e-01, 3.69388628e+00 ]
      - [ 2.20702648e+00, 3.85515898e-01, 3.69742799e+00 ]
      - [ 2.12660384e+00, 3.51490438e-01, 3.89726496e+00 ]
      - [ 1.83309293e+00, 3.58431190e-01, 3.90537453e+00 ]
      - [ 1.49260759e+00, 4.05750483e-01, 3.49417353e+00 ]
      - [ 4.92382336e+00, 5.64126432e-01, 2.66155386e+00 ]
      - [ 1.81172955e+00, 4.13754344e-01, 3.42469501e+00 ]
      - [ 1.87017441e+00, 4.88367945e-01, 3.04495096e+00 ]
      - [ 5.26577711e+00, 3.65350693e-01, 3.85424280e+00 ]
      - [ 1.59207428e+00, 4.63382274e-01, 3.19882321e+00 ]
      - [ 1.71038008e+00, 4.26742077e-01, 3.37551808e+00 ]
      - [ 2.77081490e+00, 3.32899541e-01, 4.10569811e+00 ]
      - [ 1.83988965e+00, 4.17407066e-01, 3.41129446e+00 ]
      - [ 1.80796039e+00, 4.47644681e-01, 3.25333190e+00 ]
      - [ 1.28493452e+00, 6.75288260e-01, 2.33384943e+00 ]
      - [ 1.66093910e+00, 4.94097233e-01, 3.00802398e+00 ]
      - [ 1.90342927e+00, 3.49907756e-01, 3.97436666e+00 ]
      - [ 1.85010076e+00, 4.24819559e-01, 3.37994266e+00 ]
      - [ 1.68568325e+00, 3.97231579e-01, 3.55949259e+00 ]
      - [ 2.08104992e+00, 3.07294667e-01, 4.61602497e+00 ]
      - [ 1.91049516e+00, 6.49371505e-01, 2.44059706e+00 ]
      - [ 2.08357286e+00, 3.13401639e-01, 4.42918205e+00 ]
      - [ 2.35498166e+00, 4.00512040e-01, 3.40207434e+00 ]
      - [ 2.10117316e+00, 3.80651206e-01, 3.67844725e+00 ]
      - [ 1.88890862e+00, 3.78500581e-01, 3.69295859e+00 ]
      - [ 1.92507458e+00, 6.16047978e-01, 2.53707671e+00 ]
      - [ 2.36139393e+00, 2.92024106e-01, 4.86959314e+00 ]
      - [ 1.85245311e+00, 3.74943584e-01, 3.70343876e+00 ]
      - [ 1.57158160e+00, 3.58107924e-01, 3.98617649e+00 ]
      - [ 1.48472238e+00, 4.21352386e-01, 3.38546896e+00 ]
      - [ 1.91983008e+00, 4.32897151e-01, 3.26366472e+00 ]
      - [ 1.95122349e+00, 5.05489647e-01, 2.92801142e+00 ]
      - [ 2.33643770e+00, 3.58212978e-01, 3.77634954e+00 ]
      - [ 1.41188312e+00, 3.54116648e-01, 3.96832108e+00 ]
      - [ 1.45956707e+00, 4.20679808e-01, 3.59096313e+00 ]
      - [ 1.47952795e+00, 3.44053537e-01, 4.09836817e+00 ]
      - [ 2.05848312e+00, 3.49154800e-01, 3.95530820e+00 ]
      - [ 1.50689471e+00, 4.32048202e-01, 3.35931683e+00 ]
      - [ 1.98154604e+00, 4.46119756e-01, 3.16443491e+00 ]
      - [ 1.46170390e+00, 3.60993981e-01, 3.86995316e+00 ]
      - [ 1.52426004e+00, 4.43281621e-01, 3.41532612e+00 ]
      - [ 2.17783403e+00, 3.38360965e-01, 4.12157345e+00 ]
      - [ 2.04792142e+00, 3.94161552e-01, 3.47635770e+00 ]
      - [ 2.98282218e+00, 3.61599147e-01, 3.91526794e+00 ]
      - [ 2.09016323e+00, 2.89405137e-01, 4.98690176e+00 ]
      - [ 2.76953077e+00, 2.63384610e-01, 5.60309792e+00 ]
      - [ 1.40495968e+00, 3.36295873e-01, 4.45203638e+00 ]
      - [ 1.59376574e+00, 5.80272555e-01, 2.69035721e+00 ]
      - [ 2.19612765e+00, 3.30630481e-01, 4.23774910e+00 ]
      - [ 2.84403896e+00, 3.48373532e-01, 4.01077843e+00 ]
      - [ 1.61404979e+00, 4.20085102e-01, 3.39615321e+00 ]
      - [ 2.40614462e+00, 4.02682126e-01, 3.44373059e+00 ]
      - [ 1.85919702e+00, 3.60786676e-01, 3.80932903e+00 ]
      - [ 1.50475025e+00, 3.50417703e-01, 4.10501337e+00 ]
      - [ 2.33184814e+00, 3.18149477e-01, 4.30234480e+00 ]
      - [ 5.90835047e+00, 3.86854470e-01, 3.74667192e+00 ]
      - [ 1.75953794e+00, 3.73169392e-01, 3.77038217e+00 ]
      - [ 1.58683884e+00, 3.89712214e-01, 3.66740823e+00 ]
      - [ 3.43313861e+00, 3.88243437e-01, 3.51076794e+00 ]
      - [ 4.24224997e+00, 4.08659160e-01, 3.60002089e+00 ]
      - [ 1.50573349e+00, 3.67025107e-01, 3.71249533e+00 ]
      - [ 3.52210975e+00, 3.64255160e-01, 3.97661066e+00 ]
      - [ 1.73953998e+00, 3.55796844e-01, 3.96003747e+00 ]
      - [ 1.51520121e+00, 4.08893794e-01, 3.57620144e+00 ]
      - [ 1.28608871e+00, 2.82761067e-01, 5.35400534e+00 ]
      - [ 1.76044047e+00, 3.66371840e-01, 3.83629632e+00 ]
      - [ 3.03567791e+00, 4.14137393e-01, 3.48664594e+00 ]
      - [ 1.88620055e+00, 4.11804795e-01, 3.38714361e+00 ]
      - [ 1.98213053e+00, 2.97951937e-01, 4.84619093e+00 ]
      - [ 1.81278598e+00, 3.74500245e-01, 3.71987486e+00 ]
      - [ 2.55770850e+00, 3.91103595e-01, 3.66704226e+00 ]
      - [ 2.03675652e+00, 3.91305953e-01, 3.43414617e+00 ]
      - [ 1.61854768e+00, 4.19778317e-01, 3.43078089e+00 ]
      - [ 2.31535363e+00, 3.26699287e-01, 4.18746042e+00 ]
      - [ 1.42212319e+00, 7.38918483e-01, 2.10677123e+00 ]
      - [ 4.81419039e+00, 4.11272556e-01, 3.48255777e+00 ]
      - [ 1.93236470e+00, 3.36577117e-01, 4.14507198e+00 ]
      - [ 2.47239280e+00, 3.60279202e-01, 3.79956126e+00 ]
      - [ 1.83195078e+00, 4.19545472e-01, 3.34780264e+00 ]
      - [ 1.69780660e+00, 4.10332471e-01, 3.44070411e+00 ]
      - [ 2.00025105e+00, 3.25233072e-01, 4.18243408e+00 ]
      - [ 1.65786910e+00, 4.10055101e-01, 3.41296053e+00 ]
      - [ 2.38315105e+00, 3.52181166e-01, 3.93175673e+00 ]
      - [ 1.43666422e+00, 3.68386209e-01, 3.70024705e+00 ]
      - [ 2.12930751e+00, 3.40439975e-01, 4.03194189e+00 ]
      - [ 2.28040934e+00, 3.71871114e-01, 3.80924559e+00 ]
      - [ 1.45758772e+00, 3.80768031e-01, 3.69912338e+00 ]
      - [ 1.78034711e+00, 3.90329927e-01, 3.61903620e+00 ]
      - [ 1.69389021e+00, 3.72133613e-01, 3.70187354e+00 ]
      - [ 2.01162910e+00, 4.39461797e-01, 3.33563614e+00 ]
      - [ 1.75340641e+00, 3.40344995e-01, 3.97302365e+00 ]
      - [ 2.12999749e+00, 4.08644348e-01, 3.70010614e+00 ]
      - [ 2.60409403e+00, 3.24679404e-01, 4.24808884e+00 ]
      - [ 2.07464147e+00, 4.29311007e-01, 3.42215800e+00 ]
      - [ 2.67906761e+00, 3.87062192e-01, 3.47457671e+00 ]
      - [ 1.74339652e+00, 2.51510382e-01, 5.83487082e+00 ]
      - [ 1.71232986e+00, 4.21946317e-01, 3.36077619e+00 ]
      - [ 5.02179384e+00, 2.44690165e-01, 6.57729912e+00 ]
      - [ 2.29152393e+00, 3.75765264e-01, 3.71826291e+00 ]
      - [ 2.11461830e+00, 3.21392655e-01, 4.31112671e+00 ]
      - [ 5.58624172e+00, 3.30951065e-01, 4.36305904e+00 ]
      - [ 2.12453651e+00, 3.94467860e-01, 3.58364725e+00 ]
      - [ 2.10815549e+00, 3.44485223e-01, 4.00819254e+00 ]
      - [ 1.80817580e+00, 3.75448853e-01, 3.80530357e+00 ]
      - [ 2.16414309e+00, 3.72238398e-01, 4.02010250e+00 ]
      - [ 2.00992775e+00, 4.52354848e-01, 3.43726754e+00 ]
      - [ 1.97977054e+00, 4.87629682e-01, 3.00550961e+00 ]
      - [ 2.13298154e+00, 4.42702055e-01, 3.08977818e+00 ]
      - [ 1.68009925e+00, 4.49283570e-01, 3.14630628e+00 ]
      - [ 1.89791131e+00, 4.84037817e-01, 3.02792525e+00 ]
      - [ 2.25882816e+00, 4.31868017e-01, 3.13369775e+00 ]
      - [ 2.21424747e+00, 4.13903654e-01, 3.37903118e+00 ]
      - [ 2.26022315e+00, 3.77890259e-01, 3.67756677e+00 ]
      - [ 1.49770093e+00, 4.09721911e-01, 3.39860582e+00 ]
      - [ 1.44766712e+00, 3.66131395e-01, 3.83283472e+00 ]
      - [ 1.74471116e+00, 4.06950682e-01, 3.55417967e+00 ]
      - [ 1.73913872e+00, 3.74281824e-01, 3.77080345e+00 ]
      - [ 2.03276300e+00, 5.91531157e-01, 2.71382427e+00 ]
      - [ 1.94902503e+00, 4.02947158e-01, 3.54609108e+00 ]
      - [ 1.57390952e+00, 3.48471552e-01, 3.90870214e+00 ]
      - [ 1.92445195e+00, 3.45896840e-01, 4.01445627e+00 ]
      - [ 1.67119825e+00, 2.72134393e-01, 5.30395412e+00 ]
      - [ 1.52572310e+00, 3.33248079e-01, 4.15356016e+00 ]
      - [ 1.66694164e+00, 3.94889921e-01, 3.58891678e+00 ]
      - [ 2.05611467e+00, 4.14457649e-01, 3.46547151e+00 ]
      - [ 2.46207118e+00, 4.48457301e-01, 3.18774557e+00 ]
      - [ 2.62649107e+00, 4.16551709e-01, 3.32501292e+00 ]
      - [ 2.39203000e+00, 3.68690073e-01, 3.75008321e+00 ]
      - [ 2.31849337e+00, 6.89474225e-01, 2.37540460e+00 ]
      - [ 2.01215363e+00, 4.02843982e-01, 3.55165696e+00 ]
      - [ 1.81648159e+00, 4.08790290e-01, 3.58907461e+00 ]
      - [ 2.14330721e+00, 3.96078616e-01, 3.56705737e+00 ]
      - [ 2.35264087e+00, 4.01846111e-01, 3.41107726e+00 ]
      - [ 2.15791631e+00, 4.22415465e-01, 3.61178589e+00 ]
      - [ 1.87924004e+00, 4.03539002e-01, 3.53239107e+00 ]
      - [ 1.70244420e+00, 3.85814279e-01, 3.71693325e+00 ]
      - [ 1.74004316e+00, 4.29312736e-01, 3.56801176e+00 ]
      - [ 2.06988001e+00, 4.40320015e-01, 3.31103849e+00 ]
      - [ 1.77326739e+00, 4.90056962e-01, 3.04789186e+00 ]
      - [ 2.31147003e+00, 3.61257792e-01, 3.82850623e+00 ]
      - [ 1.68704164e+00, 4.38621610e-01, 3.19896698e+00 ]
      - [ 2.17004585e+00, 3.93116057e-01, 3.67941928e+00 ]
      - [ 2.13596797e+00, 3.70738834e-01, 3.77519131e+00 ]
      - [ 2.14781237e+00, 2.81999856e-01, 5.13232708e+00 ]
      - [ 2.19308758e+00, 3.81460249e-01, 3.76301003e+00 ]
      - [ 2.10803390e+00, 4.56947446e-01, 3.19669580e+00 ]
      - [ 2.34481668e+00, 4.10926908e-01, 3.39088511e+00 ]
      - [ 1.80994415e+00, 3.45106095e-01, 3.96282053e+00 ]
      - [ 1.99619138e+00, 4.02412713e-01, 3.53023934e+00 ]
      - [ 1.99272013e+00, 3.36883962e-01, 4.10643864e+00 ]
      - [ 1.64028239e+00, 3.97987664e-01, 3.58401775e+00 ]
      - [ 2.47355247e+00, 3.61784428e-01, 3.77466321e+00 ]
      - [ 1.45669007e+00, 3.57982486e-01, 3.87130690e+00 ]
      - [ 2.40801859e+00, 4.10614222e-01, 3.44046903e+00 ]
      - [ 2.39315081e+00, 4.04329866e-01, 3.50313306e+00 ]
      - [ 1.90666544e+00, 3.66291732e-01, 3.83972645e+00 ]
      - [ 1.47284424e+00, 3.58429611e-01, 4.10017157e+00 ]
      - [ 1.72286451e+00, 3.45029026e-01, 3.94880438e+00 ]
      - [ 1.84964001e+00, 3.86366993e-01, 3.69775391e+00 ]
      - [ 1.71449137e+00, 3.27593386e-01, 4.13960171e+00 ]
      - [ 1.97565198e+00, 3.64026785e-01, 3.84803987e+00 ]
      - [ 2.38517451e+00, 4.42819208e-01, 3.40226841e+00 ]
      - [ 1.59514761e+00, 3.47489208e-01, 4.32882977e+00 ]
      - [ 2.16730738e+00, 3.48763704e-01, 4.15072489e+00 ]
      - [ 1.99662614e+00, 3.46490920e-01, 4.05312967e+00 ]
      - [ 2.01628375e+00, 3.78369480e-01, 3.78700590e+00 ]
      - [ 1.88096488e+00, 3.27683210e-01, 4.33419609e+00 ]
      - [ 2.07582283e+00, 4.72320110e-01, 3.11480427e+00 ]
      - [ 1.53281701e+00, 3.49924505e-01, 4.22127485e+00 ]
      - [ 2.10881686e+00, 4.85261530e-01, 3.10399795e+00 ]
      - [ 2.01454020e+00, 4.21467841e-01, 3.42650008e+00 ]
      - [ 1.84578574e+00, 3.44886452e-01, 3.97560215e+00 ]
      - [ 1.76325667e+00, 3.36959630e-01, 4.08406925e+00 ]
      - [ 1.79830372e+00, 3.26501220e-01, 4.14611340e+00 ]
      - [ 1.95229352e+00, 5.31722307e-01, 3.01873970e+00 ]
      - [ 1.93046737e+00, 3.57153714e-01, 3.92394376e+00 ]
      - [ 1.45489740e+00, 4.53255594e-01, 3.33083820e+00 ]
      - [ 1.43391490e+00, 4.07879531e-01, 3.45872545e+00 ]
      - [ 2.09513927e+00, 3.53072792e-01, 3.92360806e+00 ]
      - [ 2.03110909e+00, 3.79187226e-01, 3.79812956e+00 ]
      - [ 1.85583103e+00, 4.25322950e-01, 3.33965874e+00 ]
      - [ 2.04710603e+00, 3.87047410e-01, 3.68868375e+00 ]
      - [ 1.78475916e+00, 3.39203537e-01, 4.08752918e+00 ]
      - [ 2.09340858e+00, 4.21413869e-01, 3.39432502e+00 ]
      - [ 2.00227356e+00, 3.54062229e-01, 3.99196887e+00 ]
      - [ 1.81825602e+00, 3.61478895e-01, 3.97042060e+00 ]
      - [ 1.96480060e+00, 3.63518924e-01, 3.84517217e+00 ]
      - [ 2.37309790e+00, 3.68420154e-01, 3.78389072e+00 ]
      - [ 2.05015206e+00, 3.39600623e-01, 3.99267578e+00 ]
      - [ 2.81843114e+00, 3.58456463e-01, 3.81174374e+00 ]
      - [ 2.28582335e+00, 3.99850905e-01, 3.46130157e+00 ]
      - [ 2.71451688e+00, 3.49098355e-01, 3.98579049e+00 ]
      - [ 1.71375942e+00, 4.48976755e-01, 3.27782536e+00 ]
      - [ 1.97628498e+00, 3.55194896e-01, 3.91333199e+00 ]
      - [ 1.82803166e+00, 3.43110114e-01, 3.97217155e+00 ]
      - [ 2.39329863e+00, 3.84173989e-01, 3.59406018e+00 ]
      - [ 1.44352853e+00, 3.93577546e-01, 3.57541680e+00 ]
      - [ 2.20325923e+00, 3.93858850e-01, 3.61242223e+00 ]
      - [ 1.76696956e+00, 3.40490550e-01, 4.01249981e+00 ]
      - [ 1.53681159e+00, 4.13083315e-01, 3.40041924e+00 ]
      - [ 2.19371653e+00, 4.14303988e-01, 3.64733267e+00 ]
      - [ 2.20499134e+00, 4.72157598e-01, 3.16005301e+00 ]
      - [ 1.89337075e+00, 3.28857899e-01, 4.14228153e+00 ]
      - [ 1.54500699e+00, 3.44034821e-01, 3.99676633e+00 ]
      - [ 2.05238390e+00, 3.82185876e-01, 3.70466852e+00 ]
      - [ 2.12533212e+00, 4.50269550e-01, 3.11282468e+00 ]
      - [ 2.62558722e+00, 3.12968075e-01, 4.39609528e+00 ]
      - [ 1.63066292e+00, 4.40564692e-01, 3.28597093e+00 ]
      - [ 2.49451351e+00, 3.47026587e-01, 4.04091454e+00 ]
      - [ 1.84113789e+00, 4.57333118e-01, 3.35475612e+00 ]
      - [ 2.29762769e+00, 7.22348630e-01, 2.24253225e+00 ]
      - [ 1.57076168e+00, 3.64686102e-01, 3.82972598e+00 ]
      - [ 2.30259299e+00, 5.00149608e-01, 3.02793503e+00 ]
      - [ 1.78876996e+00, 3.60120773e-01, 4.04119301e+00 ]
      - [ 1.59561825e+00, 3.44083488e-01, 3.92372561e+00 ]
      - [ 2.19492412e+00, 3.72331768e-01, 3.85294557e+00 ]
      - [ 1.67318320e+00, 4.56182271e-01, 3.27843189e+00 ]
      - [ 1.87338257e+00, 3.21062535e-01, 4.43329716e+00 ]
      - [ 2.16051149e+00, 4.18266743e-01, 3.61558461e+00 ]
      - [ 1.56597698e+00, 3.41426671e-01, 4.09044933e+00 ]
      - [ 1.82156658e+00, 4.82341468e-01, 3.02219105e+00 ]
      - [ 2.26994658e+00, 3.60029131e-01, 3.87629151e+00 ]
      - [ 2.96969676e+00, 3.23908359e-01, 4.26873922e+00 ]
      - [ 2.41078329e+00, 3.66377234e-01, 3.62765861e+00 ]
      - [ 3.12117815e+00, 3.69038939e-01, 3.66354203e+00 ]
      - [ 2.09117341e+00, 3.65526766e-01, 3.84709096e+00 ]
      - [ 1.97377443e+00, 4.66936499e-01, 3.12782049e+00 ]
      - [ 3.25839210e+00, 2.83532679e-01, 5.01282787e+00 ]
      - [ 1.70332301e+00, 3.41185510e-01, 4.02092457e+00 ]
      - [ 4.56215334e+00, 1.59168839e-01, 1.01771793e+01 ]
      - [ 2.02810836e+00, 3.59716535e-01, 3.89213800e+00 ]
      - [ 1.96613610e+00, 4.26534086e-01, 3.29425120e+00 ]
      - [ 2.29252124e+00, 4.49909180e-01, 3.25475097e+00 ]
      - [ 2.03387737e+00, 3.44153404e-01, 3.99184513e+00 ]
      - [ 1.77940488e+00, 3.57815623e-01, 3.88516998e+00 ]
      - [ 1.66613710e+00, 3.46023172e-01, 4.05592108e+00 ]
      - [ 2.36982083e+00, 3.57918739e-01, 3.75498700e+00 ]
      - [ 5.26256037e+00, 7.32629836e-01, 2.13391256e+00 ]
      - [ 2.01027322e+00, 4.92635012e-01, 2.72518659e+00 ]
      - [ 1.88134336e+00, 3.64012897e-01, 3.84350920e+00 ]
      - [ 2.26226473e+00, 2.26665705e-01, 6.06886768e+00 ]
      - [ 1.68610084e+00, 4.06398147e-01, 3.67196584e+00 ]
      - [ 1.60952687e+00, 3.47355276e-01, 3.91759801e+00 ]
      - [ 1.95391619e+00, 4.65025604e-01, 3.11586404e+00 ]
      - [ 9.83628941e+00, 3.85814607e-01, 3.83538365e+00 ]
      - [ 1.82757699e+00, 3.75866205e-01, 3.86182022e+00 ]
      - [ 2.45263171e+00, 4.49782014e-01, 3.08288240e+00 ]
      - [ 1.94700921e+00, 3.74176830e-01, 3.83388019e+00 ]
      - [ 2.28951359e+00, 3.77722323e-01, 3.74045968e+00 ]
      - [ 2.54555106e+00, 3.56871694e-01, 3.80121994e+00 ]
      - [ 1.43346691e+00, 4.68989462e-01, 3.17948675e+00 ]
      - [ 1.99242365e+00, 3.51978302e-01, 3.90560961e+00 ]
      - [ 2.44700336e+00, 3.39294523e-01, 4.18682575e+00 ]
      - [ 3.30645895e+00, 2.51591355e-01, 5.48118830e+00 ]
      - [ 2.54107308e+00, 5.46544731e-01, 2.71739173e+00 ]
      - [ 2.32250500e+00, 5.29313087e-01, 2.86944747e+00 ]
      - [ 2.28016543e+00, 3.70488197e-01, 3.69306564e+00 ]
      - [ 1.64803946e+00, 4.81667221e-01, 2.85339332e+00 ]
      - [ 1.92543578e+00, 3.29264760e-01, 4.24961567e+00 ]
      - [ 1.71747363e+00, 3.24561328e-01, 4.24239397e+00 ]
      - [ 3.02850437e+00, 3.94746512e-01, 3.45593238e+00 ]
      - [ 1.77254879e+00, 4.95115459e-01, 3.30050850e+00 ]
      - [ 5.14608049e+00, 1.57289207e-01, 8.70654583e+00 ]
      - [ 2.35118151e+00, 3.80030692e-01, 3.55581498e+00 ]
      - [ 2.14801836e+00, 4.19298500e-01, 3.42505360e+00 ]
      - [ 1.76827133e+00, 2.67884552e-01, 5.32452917e+00 ]
      - [ 1.82410467e+00, 4.06237245e-01, 3.73084569e+00 ]
      - [ 1.54874456e+00, 3.71107191e-01, 3.83151126e+00 ]
      - [ 2.30706835e+00, 3.53575319e-01, 3.96219826e+00 ]
      - [ 2.15721202e+00, 4.95621800e-01, 2.88914967e+00 ]
      - [ 2.30470753e+00, 3.88519377e-01, 3.81493187e+00 ]
      - [ 1.61079562e+00, 4.54324365e-01, 3.25244975e+00 ]
      - [ 2.21290755e+00, 4.65853333e-01, 3.12803102e+00 ]
      - [ 1.76784945e+00, 3.94395739e-01, 3.71751714e+00 ]
      - [ 1.93779004e+00, 3.62429172e-01, 4.15842390e+00 ]
      - [ 7.19028616e+00, 6.56041205e-01, 2.33096170e+00 ]
      - [ 1.79306638e+00, 4.45815831e-01, 3.22185898e+00 ]
      - [ 1.83715975e+00, 3.55426937e-01, 3.94278932e+00 ]
      - [ 1.61891997e+00, 3.49952549e-01, 3.94914412e+00 ]
      - [ 1.94821489e+00, 4.41815943e-01, 3.25865793e+00 ]
      - [ 1.69655609e+00, 4.99976993e-01, 2.96109033e+00 ]
      - [ 2.33001995e+00, 4.22733486e-01, 3.41247177e+00 ]
      - [ 1.92048907e+00, 4.25351709e-01, 3.48375726e+00 ]
      - [ 2.30984092e+00, 3.51850837e-01, 3.94389868e+00 ]
      - [ 2.18102813e+00, 3.51617575e-01, 3.98422647e+00 ]
      - [ 2.34137249e+00, 4.81733203e-01, 3.56945062e+00 ]
      - [ 1.72746873e+00, 3.39595586e-01, 4.12470150e+00 ]
      - [ 1.98972988e+00, 3.30828518e-01, 4.17431736e+00 ]
      - [ 1.77336407e+00, 4.60614353e-01, 2.97482634e+00 ]
      - [ 2.01231337e+00, 3.81695449e-01, 3.78516436e+00 ]
      - [ 2.11340284e+00, 3.64449948e-01, 3.81416202e+00 ]
      - [ 2.08513021e+00, 3.03044796e-01, 4.85187578e+00 ]
      - [ 1.64168262e+00, 3.77608091e-01, 3.72424579e+00 ]
      - [ 2.09802842e+00, 4.03839469e-01, 3.61311030e+00 ]
      - [ 2.70802450e+00, 4.33860511e-01, 3.61642909e+00 ]
      - [ 2.24007392e+00, 3.68717790e-01, 3.75170994e+00 ]
      - [ 1.16086292e+00, 3.60135347e-01, 3.97403169e+00 ]
      - [ 2.31018543e+00, 3.73940706e-01, 3.71802735e+00 ]
      - [ 1.54189682e+00, 3.40792179e-01, 3.96715164e+00 ]
      - [ 2.20360351e+00, 4.08325195e-01, 3.48539996e+00 ]
      - [ 1.53076839e+00, 4.05376196e-01, 3.45761847e+00 ]
      - [ 1.72642446e+00, 3.77128273e-01, 3.75371265e+00 ]
      - [ 1.74626601e+00, 4.88791317e-01, 2.91093707e+00 ]
      - [ 1.77739608e+00, 3.51804078e-01, 3.96331263e+00 ]
      - [ 1.81721783e+00, 4.65631992e-01, 3.10685372e+00 ]
      - [ 2.01268983e+00, 4.35527682e-01, 3.58508158e+00 ]
      - [ 2.05501890e+00, 4.64780152e-01, 2.89015961e+00 ]
      - [ 3.24465585e+00, 3.16967875e-01, 4.55644655e+00 ]
      - [ 1.72509038e+00, 4.58346337e-01, 2.95454264e+00 ]
      - [ 1.74810708e+00, 3.76702875e-01, 3.77906704e+00 ]
      - [ 2.30632901e+00, 4.96273279e-01, 2.95840359e+00 ]
      - [ 1.62890112e+00, 3.39940459e-01, 4.21175671e+00 ]
      - [ 2.08579540e+00, 3.81089687e-01, 3.70919180e+00 ]
      - [ 2.24942255e+00, 3.53628248e-01, 3.92213440e+00 ]
      - [ 2.30459809e+00, 3.30286473e-01, 4.20917654e+00 ]
      - [ 1.99917698e+00, 4.23027933e-01, 3.32419467e+00 ]
      - [ 1.83669448e+00, 3.74033451e-01, 3.77374220e+00 ]
      - [ 1.47495282e+00, 4.35760021e-01, 3.41127634e+00 ]
      - [ 2.54483604e+00, 3.84625018e-01, 3.85299754e+00 ]
      - [ 1.62373090e+00, 4.83486444e-01, 3.04829550e+00 ]
      - [ 2.04418588e+00, 4.46260393e-01, 3.14461303e+00 ]
      - [ 2.01327133e+00, 4.19163793e-01, 3.37728262e+00 ]
      - [ 1.87307930e+00, 4.91796911e-01, 3.10953212e+00 ]
      - [ 1.72246420e+00, 4.32912707e-01, 3.31665874e+00 ]
      - [ 1.72144568e+00, 3.43003273e-01, 4.05080938e+00 ]
      - [ 1.84165728e+00, 5.08708477e-01, 2.96433663e+00 ]
      - [ 1.67693925e+00, 3.71716678e-01, 3.81535244e+00 ]
      - [ 1.88849807e+00, 3.50448549e-01, 3.92109680e+00 ]
      - [ 2.06492352e+00, 4.87365246e-01, 2.84889960e+00 ]
      - [ 1.58370435e+00, 3.47784162e-01, 3.89419532e+00 ]
      - [ 2.48731208e+00, 4.66301382e-01, 3.23262715e+00 ]
      - [ 2.51246858e+00, 3.46313953e-01, 3.94389820e+00 ]
      - [ 3.97751570e+00, 3.47544551e-01, 3.98693633e+00 ]
      - [ 2.21922231e+00, 3.52397323e-01, 4.04885244e+00 ]
      - [ 2.09068656e+00, 3.31017226e-01, 4.21107769e+00 ]
      - [ 1.68677187e+00, 4.45883244e-01, 3.29489589e+00 ]
      - [ 3.49951792e+00, 7.57671952e-01, 2.09058690e+00 ]
      - [ 1.86082244e+00, 3.72073680e-01, 3.85543013e+00 ]
      - [ 1.37394273e+00, 3.98430258e-01, 3.47275829e+00 ]
      - [ 2.15333271e+00, 3.58786732e-01, 3.83880830e+00 ]
      - [ 1.49952745e+00, 3.86710435e-01, 3.60794735e+00 ]
      - [ 2.38033748e+00, 3.73990357e-01, 3.59697461e+00 ]
      - [ 2.41026902e+00, 3.57832044e-01, 3.85252118e+00 ]
      - [ 2.00684929e+00, 3.48998338e-01, 4.07530975e+00 ]
      - [ 1.91275883e+00, 3.50808948e-01, 4.04758406e+00 ]
      - [ 1.59799540e+00, 3.74245673e-01, 3.72802281e+00 ]
      - [ 1.96198595e+00, 3.98700893e-01, 3.65570116e+00 ]
      - [ 2.16367412e+00, 4.66966897e-01, 3.29316211e+00 ]
      - [ 1.90230834e+00, 4.48009551e-01, 2.99785066e+00 ]
      - [ 2.13711357e+00, 2.99075991e-01, 4.82391596e+00 ]
      - [ 1.77046371e+00, 2.69957930e-01, 5.48581839e+00 ]
      - [ 1.96272910e+00, 3.36543143e-01, 4.07770491e+00 ]
      - [ 2.51923084e+00, 4.26309824e-01, 3.17474365e+00 ]
      - [ 1.54208863e+00, 4.24355954e-01, 3.30874729e+00 ]
      - [ 1.76846409e+00, 4.13993955e-01, 3.53732252e+00 ]
      - [ 2.08040118e+00, 3.85943621e-01, 3.76710200e+00 ]
      - [ 2.10289168e+00, 3.58130187e-01, 3.95976114e+00 ]
      - [ 1.79101384e+00, 4.30577010e-01, 3.39132500e+00 ]
      - [ 2.19519305e+00, 5.18340468e-01, 2.93298793e+00 ]
      - [ 1.68572497e+00, 3.62296343e-01, 3.85025454e+00 ]
      - [ 2.40652919e+00, 4.16089803e-01, 3.34688258e+00 ]
      - [ 2.25327396e+00, 3.55916828e-01, 3.81033444e+00 ]
      - [ 2.61069727e+00, 3.51784468e-01, 3.93558574e+00 ]
      - [ 2.42532110e+00, 3.06385577e-01, 4.98772240e+00 ]
      - [ 1.53094268e+00, 4.14936751e-01, 3.50226259e+00 ]
      - [ 1.90361762e+00, 3.58236521e-01, 4.09754753e+00 ]
      - [ 1.90272439e+00, 3.47046554e-01, 4.00471592e+00 ]
      - [ 5.32918644e+00, 9.35106277e-02, 1.71617298e+01 ]
      - [ 2.11743522e+00, 3.87284964e-01, 3.66572523e+00 ]
      - [ 3.74243236e+00, 3.63174826e-01, 3.86439824e+00 ]
      - [ 2.48531580e+00, 3.03587556e-01, 4.77097225e+00 ]
      - [ 2.70606303e+00, 4.51908767e-01, 2.94719863e+00 ]
      - [ 1.81177795e+00, 4.26761836e-01, 3.36431193e+00 ]
      - [ 2.12593102e+00, 4.42584753e-01, 3.13832378e+00 ]
      - [ 2.33314848e+00, 3.84250909e-01, 3.56709123e+00 ]
      - [ 2.06788445e+00, 3.93417001e-01, 3.60392261e+00 ]
      - [ 1.64714789e+00, 3.85117292e-01, 3.70203328e+00 ]
      - [ 2.72220945e+00, 5.71389794e-01, 2.69876003e+00 ]
      - [ 2.42010617e+00, 3.51029634e-01, 4.00478125e+00 ]
      - [ 2.27824903e+00, 3.84625554e-01, 3.59045291e+00 ]
      - [ 1.82553089e+00, 4.33375120e-01, 3.28892636e+00 ]
      - [ 5.37008190e+00, 4.38550889e-01, 3.31385255e+00 ]
      - [ 2.31968808e+00, 4.65607882e-01, 3.11841249e+00 ]
      - [ 1.71437037e+00, 4.34516042e-01, 3.26728511e+00 ]
      - [ 2.35538149e+00, 4.26782310e-01, 3.16583490e+00 ]
      - [ 1.70694554e+00, 3.36837649e-01, 4.13782644e+00 ]
      - [ 1.90434122e+00, 3.15730810e-01, 4.69066191e+00 ]
      - [ 1.73370552e+00, 3.42883050e-01, 4.38860083e+00 ]
      - [ 1.75752485e+00, 3.52332205e-01, 3.98055601e+00 ]
      - [ 1.73503530e+00, 3.53077143e-01, 3.95224762e+00 ]
      - [ 1.71609938e+00, 3.56996536e-01, 3.88210011e+00 ]
      - [ 3.21154976e+00, 4.62622762e-01, 3.18577862e+00 ]
      - [ 1.77219260e+00, 4.75821674e-01, 3.17223954e+00 ]
      - [ 1.55455792e+00, 3.61685038e-01, 3.84395719e+00 ]
      - [ 2.56984448e+00, 4.58857656e-01, 3.17363358e+00 ]
      - [ 2.40635061e+00, 4.78698283e-01, 3.05708385e+00 ]
      - [ 1.52495861e+00, 3.67387325e-01, 3.76124263e+00 ]
      - [ 2.22215986e+00, 4.35728788e-01, 3.21471715e+00 ]
      - [ 2.06857705e+00, 3.80341530e-01, 3.80496621e+00 ]
      - [ 2.22697282e+00, 3.44260067e-01, 3.98058105e+00 ]
      - [ 2.04403234e+00, 4.97091085e-01, 3.12391901e+00 ]
      - [ 1.61196792e+00, 4.40344125e-01, 3.17789078e+00 ]
      - [ 2.15551329e+00, 3.38069558e-01, 4.12029839e+00 ]
      - [ 1.91824532e+00, 4.61064279e-01, 2.87669730e+00 ]
      - [ 3.46823597e+00, 4.47877198e-01, 3.11549807e+00 ]
      - [ 1.82549453e+00, 3.95356059e-01, 3.62025356e+00 ]
      - [ 2.90473175e+00, 3.40697527e-01, 4.10071421e+00 ]
      - [ 1.72754765e+00, 3.84448826e-01, 3.67135191e+00 ]
      - [ 2.26433778e+00, 4.10419434e-01, 3.35947013e+00 ]
      - [ 2.16726828e+00, 3.84714425e-01, 3.74132800e+00 ]
      - [ 1.90708244e+00, 3.41486275e-01, 4.26579762e+00 ]
      - [ 1.48902011e+00, 3.60042602e-01, 3.78574324e+00 ]
      - [ 1.70425427e+00, 3.82816076e-01, 3.72379231e+00 ]
      - [ 2.25614929e+00, 4.99417752e-01, 3.05272722e+00 ]
      - [ 1.76515698e+00, 4.40040141e-01, 3.22344971e+00 ]
      - [ 2.53485537e+00, 4.76009578e-01, 3.10887909e+00 ]
      - [ 2.47797060e+00, 3.38175386e-01, 4.11015415e+00 ]
      - [ 1.69423413e+00, 3.71280819e-01, 3.79005337e+00 ]
      - [ 1.93720424e+00, 5.74221611e-01, 2.81181073e+00 ]
      - [ 3.24101925e+00, 5.33438385e-01, 3.01305461e+00 ]
      - [ 2.21700907e+00, 3.53166044e-01, 4.28937197e+00 ]
      - [ 1.73922348e+00, 3.53525877e-01, 4.00602293e+00 ]
      - [ 1.86736405e+00, 3.92937928e-01, 3.69547868e+00 ]
      - [ 1.83472085e+00, 3.45437318e-01, 3.99360490e+00 ]
      - [ 1.41665196e+00, 3.75887305e-01, 3.64994383e+00 ]
      - [ 1.94391465e+00, 3.54691714e-01, 3.97164655e+00 ]
      - [ 1.91760004e+00, 3.65101069e-01, 3.85041308e+00 ]
      - [ 1.95621097e+00, 4.16222513e-01, 3.48065019e+00 ]
      - [ 2.14837456e+00, 3.91479611e-01, 3.65750861e+00 ]
      - [ 2.37471056e+00, 3.59227329e-01, 3.83738518e+00 ]
      - [ 2.27071500e+00, 3.70569974e-01, 3.74467468e+00 ]
      - [ 2.00138021e+00, 3.37310374e-01, 4.01904488e+00 ]
      - [ 2.23798943e+00, 3.54697824e-01, 3.84796238e+00 ]
      - [ 1.76990235e+00, 3.38455886e-01, 4.14780998e+00 ]
      - [ 2.47448373e+00, 4.44452792e-01, 3.24367571e+00 ]
      - [ 2.04866362e+00, 3.13566267e-01, 4.38204622e+00 ]
      - [ 1.66894019e+00, 2.74575084e-01, 4.99658203e+00 ]
      - [ 2.03117704e+00, 3.95228207e-01, 3.60015011e+00 ]
      - [ 1.71001387e+00, 3.71323735e-01, 3.81000972e+00 ]
      - [ 1.68369830e+00, 4.34748530e-01, 3.23176336e+00 ]
      - [ 2.26240420e+00, 4.19982702e-01, 3.44654155e+00 ]
      - [ 2.13868856e+00, 3.64589214e-01, 3.90987492e+00 ]
      - [ 1.99392760e+00, 3.45024288e-01, 3.97428823e+00 ]
      - [ 1.80556464e+00, 4.44219440e-01, 3.16007590e+00 ]
      - [ 1.65268433e+00, 3.08735102e-01, 4.47889566e+00 ]
      - [ 1.87211347e+00, 4.31231260e-01, 3.33008742e+00 ]
      - [ 1.60083365e+00, 3.57991636e-01, 3.93483567e+00 ]
      - [ 2.07536197e+00, 2.95869887e-01, 4.67736244e+00 ]
      - [ 1.85745764e+00, 3.18946779e-01, 4.45365858e+00 ]
      - [ 2.67590523e+00, 3.61603618e-01, 3.80388808e+00 ]
      - [ 1.75950432e+00, 3.83861750e-01, 3.73692799e+00 ]
      - [ 2.35293293e+00, 4.43646640e-01, 3.18487239e+00 ]
      - [ 3.50226569e+00, 2.75770783e-01, 5.47312117e+00 ]
      - [ 2.20923281e+00, 2.77956635e-01, 5.40763950e+00 ]
      - [ 2.52340889e+00, 3.70821834e-01, 3.66252708e+00 ]
      - [ 1.99610353e+00, 4.79656518e-01, 3.16982508e+00 ]
      - [ 2.29532671e+00, 3.23781818e-01, 4.21216822e+00 ]
      - [ 2.39335537e+00, 4.14447665e-01, 3.59154487e+00 ]
      - [ 2.13618422e+00, 3.81077856e-01, 4.04412365e+00 ]
      - [ 4.96580839e+00, 3.78265619e-01, 3.70491719e+00 ]
      - [ 2.29430056e+00, 3.83704871e-01, 3.73310280e+00 ]
      - [ 1.80250549e+00, 4.47404534e-01, 3.10240293e+00 ]
      - [ 1.61024010e+00, 3.89364034e-01, 3.60470200e+00 ]
      - [ 1.68934000e+00, 3.33820045e-01, 4.26903105e+00 ]
      - [ 2.51956797e+00, 4.99862432e-01, 3.19248247e+00 ]
      - [ 2.51472783e+00, 6.66704059e-01, 2.41051364e+00 ]
      - [ 2.78674054e+00, 3.90666455e-01, 3.49932194e+00 ]
      - [ 2.05067444e+00, 4.39153045e-01, 3.07769847e+00 ]
      - [ 4.64716768e+00, 2.18243510e-01, 6.50230885e+00 ]
      - [ 1.95611989e+00, 3.54474932e-01, 3.90327621e+00 ]
      - [ 2.32657909e+00, 3.44136655e-01, 4.05195475e+00 ]
      - [ 2.81291652e+00, 3.59650165e-01, 3.85353327e+00 ]
      - [ 1.74059439e+00, 4.09018338e-01, 3.59746289e+00 ]
      - [ 1.72134006e+00, 3.46581846e-01, 3.92566371e+00 ]
      - [ 1.70564628e+00, 4.54839230e-01, 3.28316021e+00 ]
      - [ 2.20365119e+00, 3.62509102e-01, 4.03965092e+00 ]
      - [ 1.80249941e+00, 3.60504210e-01, 3.88431716e+00 ]
      - [ 1.61059320e+00, 3.60665619e-01, 3.99774981e+00 ]
      - [ 1.60260987e+00, 3.01316738e-01, 4.58049870e+00 ]
      - [ 5.44905996e+00, 6.53990149e-01, 2.31090450e+00 ]
      - [ 1.79072046e+00, 3.30847472e-01, 4.16024160e+00 ]
      - [ 1.62166584e+00, 3.45738113e-01, 3.93824482e+00 ]
      - [ 1.89935899e+00, 4.54550564e-01, 3.16799951e+00 ]
      - [ 1.91432929e+00, 4.43080217e-01, 3.24251890e+00 ]
      - [ 1.71305275e+00, 4.26030368e-01, 3.32633877e+00 ]
      - [ 1.80601132e+00, 4.30304438e-01, 3.40000248e+00 ]
      - [ 1.67473578e+00, 3.84529680e-01, 3.72236204e+00 ]
      - [ 1.97055447e+00, 4.38276768e-01, 3.73113465e+00 ]
      - [ 1.86284018e+00, 4.11078513e-01, 3.57165718e+00 ]
      - [ 2.36002064e+00, 3.44972223e-01, 3.97151709e+00 ]
      - [ 1.83454204e+00, 3.44283372e-01, 4.04276657e+00 ]
      - [ 1.64255977e+00, 4.28994536e-01, 3.29455590e+00 ]
      - [ 2.15757728e+00, 5.80455363e-01, 2.75571203e+00 ]
      - [ 1.64928150e+00, 3.66199225e-01, 3.80434489e+00 ]
      - [ 1.99484801e+00, 4.84005153e-01, 3.07838416e+00 ]
      - [ 1.68929517e+00, 4.71250772e-01, 2.94445634e+00 ]
      - [ 2.10032535e+00, 4.32029068e-01, 3.28575969e+00 ]
      - [ 2.04795122e+00, 4.48750317e-01, 3.08262682e+00 ]
      - [ 1.85619235e+00, 4.16791856e-01, 3.47481441e+00 ]
      - [ 2.02362370e+00, 3.49780977e-01, 3.93038940e+00 ]
      - [ 2.30973244e+00, 3.65993887e-01, 3.92488885e+00 ]
      - [ 1.95288873e+00, 3.53709012e-01, 3.90986061e+00 ]
      - [ 1.72125471e+00, 7.77943909e-01, 1.97486234e+00 ]
      - [ 1.56369293e+00, 4.22342688e-01, 3.42057562e+00 ]
      - [ 2.90356326e+00, 3.54233861e-01, 3.86517048e+00 ]
      - [ 2.02920794e+00, 4.37470526e-01, 3.21107912e+00 ]
      - [ 1.81613338e+00, 3.33133578e-01, 4.27595234e+00 ]
      - [ 2.43373609e+00, 3.43180835e-01, 4.03940964e+00 ]
      - [ 4.94574738e+00, 3.19850504e-01, 4.46173668e+00 ]
      - [ 1.66859066e+00, 3.58398259e-01, 3.88067412e+00 ]
      - [ 2.21834826e+00, 3.50441396e-01, 3.94346595e+00 ]
      - [ 2.19330907e+00, 4.41578448e-01, 3.30117774e+00 ]
      - [ 1.70016527e+00, 3.25662345e-01, 4.15117455e+00 ]
      - [ 1.78788280e+00, 4.75050598e-01, 2.94029975e+00 ]
      - [ 2.14021301e+00, 4.16537762e-01, 3.51648831e+00 ]
      - [ 1.47650468e+00, 3.74588490e-01, 3.91209626e+00 ]
      - [ 2.15885329e+00, 4.58547592e-01, 3.22227812e+00 ]
      - [ 1.93405938e+00, 3.50010127e-01, 3.98270631e+00 ]
      - [ 1.87071466e+00, 3.57642561e-01, 3.87842298e+00 ]
      - [ 2.26067162e+00, 5.12105525e-01, 2.88315272e+00 ]
      - [ 2.21492052e+00, 3.29196453e-01, 4.13509846e+00 ]
      - [ 4.59705591e+00, 3.96297812e-01, 3.49718857e+00 ]
      - [ 1.61229277e+00, 3.78815681e-01, 3.72161412e+00 ]
      - [ 2.48118758e+00, 3.70809764e-01, 3.89811015e+00 ]
      - [ 1.85531425e+00, 2.90162235e-01, 5.03097916e+00 ]
      - [ 1.60631108e+00, 3.50260794e-01, 3.98610616e+00 ]
      - [ 2.48277450e+00, 3.68188947e-01, 3.86287999e+00 ]
      - [ 1.52058244e+00, 3.47450078e-01, 3.96696043e+00 ]
      - [ 2.44179463e+00, 3.53705943e-01, 3.95828748e+00 ]
      - [ 2.14445758e+00, 5.05028665e-01, 2.89979839e+00 ]
      - [ 1.67322421e+00, 6.19605184e-01, 2.58080888e+00 ]
      - [ 2.30737686e+00, 3.80002171e-01, 3.66661859e+00 ]
      - [ 2.53816175e+00, 3.95865440e-01, 3.44618583e+00 ]
      - [ 2.57821178e+00, 3.69144946e-01, 3.72901320e+00 ]
      - [ 2.04094243e+00, 3.56317312e-01, 3.92364359e+00 ]
      - [ 1.71745920e+00, 4.09662306e-01, 3.47959113e+00 ]
      - [ 2.33397770e+00, 3.83448899e-01, 3.72088289e+00 ]
      - [ 2.03534985e+00, 3.36739063e-01, 4.01878548e+00 ]
      - [ 1.77630627e+00, 3.52695078e-01, 3.94303131e+00 ]
      - [ 1.81402886e+00, 3.67479026e-01, 3.82009792e+00 ]
      - [ 2.26684141e+00, 3.74070704e-01, 3.68235970e+00 ]
      - [ 1.85897505e+00, 4.96231169e-01, 2.96198964e+00 ]
      - [ 1.51761031e+00, 3.70911717e-01, 3.74707890e+00 ]
      - [ 2.40553522e+00, 3.71372163e-01, 3.77474666e+00 ]
      - [ 2.48711586e+00, 3.33796948e-01, 4.09968328e+00 ]
      - [ 2.32561159e+00, 3.64675581e-01, 3.76447153e+00 ]
      - [ 2.12792993e+00, 3.20002973e-01, 4.65125895e+00 ]
      - [ 2.06401873e+00, 4.46384937e-01, 3.06357980e+00 ]
      - [ 2.10949969e+00, 3.08499575e-01, 4.65529251e+00 ]
      - [ 2.05716181e+00, 3.59225392e-01, 4.14611816e+00 ]
      - [ 2.36304259e+00, 4.61966068e-01, 3.23882937e+00 ]
      - [ 2.47399831e+00, 4.40842152e-01, 3.22682285e+00 ]
      - [ 4.57152176e+00, 4.04447913e-01, 3.39755869e+00 ]
      - [ 1.78828871e+00, 4.44981903e-01, 3.23831081e+00 ]
      - [ 2.12027764e+00, 4.52610761e-01, 3.16421151e+00 ]
      - [ 2.32464075e+00, 3.69039744e-01, 3.69081497e+00 ]
      - [ 1.72525036e+00, 4.14661258e-01, 3.42181396e+00 ]
      - [ 2.24319458e+00, 3.49517971e-01, 3.92107344e+00 ]
      - [ 1.86165023e+00, 4.83716011e-01, 3.12091064e+00 ]
      - [ 1.75187755e+00, 3.59490216e-01, 3.92603064e+00 ]
      - [ 2.15180087e+00, 3.49712729e-01, 3.94609451e+00 ]
      - [ 2.14938498e+00, 4.30481315e-01, 3.15173268e+00 ]
      - [ 4.90459728e+00, 2.54324585e-01, 5.88127518e+00 ]
      - [ 2.35638547e+00, 3.93786639e-01, 3.44042802e+00 ]
      - [ 1.89621997e+00, 3.54560584e-01, 3.96393561e+00 ]
      - [ 1.90683830e+00, 2.89379150e-01, 5.35983133e+00 ]
      - [ 1.70535898e+00, 3.96896005e-01, 3.59904695e+00 ]
      - [ 1.97166741e+00, 4.89292890e-01, 3.03927994e+00 ]
      - [ 1.55480969e+00, 3.78467530e-01, 3.71642113e+00 ]
      - [ 1.47619855e+00, 2.84732610e-01, 4.84257364e+00 ]
      - [ 2.53556705e+00, 3.54111344e-01, 4.05472612e+00 ]
      - [ 1.72240353e+00, 3.16233099e-01, 4.34336376e+00 ]
      - [ 1.92322445e+00, 4.02007371e-01, 3.66955590e+00 ]
      - [ 2.34209943e+00, 3.53412122e-01, 3.98094392e+00 ]
      - [ 1.74345541e+00, 3.57643902e-01, 3.93318129e+00 ]
      - [ 5.57544899e+00, 3.39054763e-01, 4.34515619e+00 ]
      - [ 2.05669093e+00, 4.39585000e-01, 3.11041832e+00 ]
      - [ 2.28930759e+00, 3.74368578e-01, 3.70583510e+00 ]
      - [ 5.09109688e+00, 5.44448674e-01, 2.86822605e+00 ]
      - [ 1.54889953e+00, 4.38722670e-01, 3.23835087e+00 ]
      - [ 1.70230377e+00, 3.84371430e-01, 3.69177699e+00 ]
      - [ 2.29974914e+00, 3.48720312e-01, 3.89932823e+00 ]
      - [ 1.43480551e+00, 3.82938683e-01, 3.68238115e+00 ]
      - [ 2.30100703e+00, 4.64137316e-01, 3.15614533e+00 ]
      - [ 2.60332227e+00, 3.71579051e-01, 4.03471375e+00 ]
      - [ 1.95345974e+00, 3.47719222e-01, 3.94192672e+00 ]
      - [ 1.52012455e+00, 6.27487600e-01, 2.63555145e+00 ]
      - [ 2.16705394e+00, 4.75772172e-01, 3.41696310e+00 ]
      - [ 2.15342736e+00, 3.40072185e-01, 4.10739994e+00 ]
      - [ 2.63987923e+00, 4.77123469e-01, 2.93641257e+00 ]
      - [ 1.63307154e+00, 3.56017560e-01, 3.92403722e+00 ]
      - [ 1.79153168e+00, 3.65749031e-01, 3.84384346e+00 ]
      - [ 1.56921089e+00, 4.43014801e-01, 3.33090186e+00 ]
      - [ 1.68827033e+00, 3.19765717e-01, 4.62074852e+00 ]
      - [ 1.73447073e+00, 3.71181488e-01, 3.79083443e+00 ]
      - [ 1.56519938e+00, 3.43408674e-01, 3.98436785e+00 ]
      - [ 2.11491990e+00, 3.43898028e-01, 3.99558043e+00 ]
      - [ 2.24333024e+00, 3.80387187e-01, 3.69645333e+00 ]
      - [ 5.51917601e+00, 3.14899981e-01, 4.52514458e+00 ]
      - [ 1.40220034e+00, 3.63163829e-01, 4.02542448e+00 ]
      - [ 1.74943125e+00, 3.49763095e-01, 4.18563747e+00 ]
      - [ 2.04807043e+00, 4.49097782e-01, 3.31649756e+00 ]
      - [ 2.72839165e+00, 5.08542538e-01, 3.01346636e+00 ]
      - [ 2.37706709e+00, 6.25028372e-01, 2.52370644e+00 ]
      - [ 1.92885685e+00, 4.84018832e-01, 3.12913442e+00 ]
      - [ 2.05883956e+00, 3.70463103e-01, 3.79253435e+00 ]
      - [ 1.81369233e+00, 3.27389598e-01, 4.44217491e+00 ]
      - [ 2.11263180e+00, 5.70449948e-01, 2.76373100e+00 ]
      - [ 2.30621219e+00, 3.43242854e-01, 4.05894375e+00 ]
      - [ 1.89239120e+00, 4.71068323e-01, 3.16376233e+00 ]
      - [ 2.51310921e+00, 3.72904509e-01, 3.69079614e+00 ]
      - [ 2.31251574e+00, 3.97360802e-01, 3.46146417e+00 ]
      - [ 2.26695561e+00, 3.98450941e-01, 3.59736514e+00 ]
      - [ 1.95936525e+00, 4.38099355e-01, 3.48626971e+00 ]
      - [ 3.80004573e+00, 4.35088366e-01, 3.10689449e+00 ]
      - [ 1.91066778e+00, 4.64896083e-01, 3.08786964e+00 ]
      - [ 2.56673145e+00, 3.46166939e-01, 3.96254301e+00 ]
      - [ 2.32058001e+00, 4.07828480e-01, 3.26658559e+00 ]
      - [ 2.26779056e+00, 4.22600627e-01, 3.39242339e+00 ]
      - [ 1.76673985e+00, 3.21235090e-01, 4.48922443e+00 ]
      - [ 1.82971227e+00, 2.83965617e-01, 5.24063969e+00 ]
      - [ 2.14442825e+00, 4.50711817e-01, 3.20348787e+00 ]
      - [ 1.72588325e+00, 3.86284024e-01, 3.73372245e+00 ]
      - [ 1.84538472e+00, 4.75927144e-01, 3.05008316e+00 ]
      - [ 2.08558393e+00, 4.79336917e-01, 3.07151127e+00 ]
      - [ 1.94807601e+00, 3.56872767e-01, 3.95351076e+00 ]
      - [ 2.79044461e+00, 3.66902947e-01, 3.78401423e+00 ]
      - [ 2.42437363e+00, 3.58300954e-01, 3.79268622e+00 ]
      - [ 2.01732039e+00, 4.34489101e-01, 3.32582927e+00 ]
      - [ 1.74434221e+00, 4.25716668e-01, 3.31320071e+00 ]
      - [ 3.07305026e+00, 4.65521127e-01, 3.06696510e+00 ]
      - [ 1.82803595e+00, 3.38434994e-01, 4.13385057e+00 ]
      - [ 2.00225663e+00, 3.81859571e-01, 3.73143291e+00 ]
      - [ 2.95829439e+00, 6.42836213e-01, 2.45280743e+00 ]
      - [ 1.77234805e+00, 4.74800736e-01, 3.05195665e+00 ]
      - [ 1.90030766e+00, 4.63461578e-01, 3.04433656e+00 ]
      - [ 2.04041338e+00, 4.35573012e-01, 3.30951214e+00 ]
      - [ 2.23614979e+00, 4.67289209e-01, 3.09710002e+00 ]
      - [ 2.13728142e+00, 3.53128821e-01, 3.99022365e+00 ]
      - [ 2.55638146e+00, 5.58752358e-01, 2.57473397e+00 ]
      - [ 2.24980593e+00, 4.48431194e-01, 3.13693190e+00 ]
      - [ 1.67490017e+00, 3.32025439e-01, 4.02679873e+00 ]
      - [ 1.86450899e+00, 5.11454105e-01, 2.93169427e+00 ]
      - [ 1.89943910e+00, 4.80155855e-01, 3.09010720e+00 ]
      - [ 2.02565384e+00, 4.43063647e-01, 3.16939855e+00 ]
      - [ 4.90755463e+00, 1.99453875e-01, 7.12829494e+00 ]
      - [ 1.91067696e+00, 6.10745251e-01, 2.65819311e+00 ]
      - [ 2.15698338e+00, 4.70977753e-01, 3.26641488e+00 ]
      - [ 1.84760916e+00, 3.56525749e-01, 3.95392323e+00 ]
      - [ 1.51075649e+00, 3.85838002e-01, 3.67980957e+00 ]
      - [ 2.01873732e+00, 4.28548634e-01, 3.45750785e+00 ]
      - [ 1.82975471e+00, 3.84040833e-01, 3.79294491e+00 ]
      - [ 1.75867045e+00, 3.80067587e-01, 3.70993567e+00 ]
      - [ 1.60257483e+00, 2.94455320e-01, 5.02824259e+00 ]
      - [ 2.89197826e+00, 4.05354530e-01, 3.33523798e+00 ]
      - [ 1.56305361e+00, 3.94055277e-01, 3.59972167e+00 ]
      - [ 1.95363343e+00, 4.55898285e-01, 3.19691777e+00 ]
      - [ 1.94802344e+00, 3.50224227e-01, 4.03221846e+00 ]
      - [ 1.47192776e+00, 4.75484908e-01, 3.12905931e+00 ]
      - [ 2.07371330e+00, 1.15805328e+00, 1.46890628e+00 ]
      - [ 1.88019490e+00, 4.11197960e-01, 3.49154496e+00 ]
      - [ 1.88034749e+00, 3.54869723e-01, 3.91072011e+00 ]
      - [ 4.51734352e+00, 4.73387122e-01, 3.19962978e+00 ]
      - [ 2.09143019e+00, 3.39356661e-01, 3.99316788e+00 ]
      - [ 1.84378064e+00, 5.07428586e-01, 2.98757935e+00 ]
      - [ 2.21304321e+00, 3.82250339e-01, 3.77861667e+00 ]
      - [ 2.11068368e+00, 3.71039361e-01, 3.81151390e+00 ]
      - [ 2.05099273e+00, 4.40347731e-01, 3.40000987e+00 ]
      - [ 2.23053312e+00, 3.94823611e-01, 3.56911826e+00 ]
      - [ 1.79994297e+00, 3.29740375e-01, 4.27509689e+00 ]
      - [ 2.38239813e+00, 4.44995493e-01, 3.39946508e+00 ]
      - [ 1.56851780e+00, 4.61803198e-01, 3.25978303e+00 ]
      - [ 2.14478946e+00, 4.12402719e-01, 3.47605705e+00 ]
      - [ 1.89244556e+00, 4.44149464e-01, 3.32706881e+00 ]
      - [ 2.24725342e+00, 4.55585986e-01, 3.29797506e+00 ]
      - [ 1.87432361e+00, 4.72230405e-01, 2.96915555e+00 ]
      - [ 1.57395482e+00, 3.91564906e-01, 3.69912434e+00 ]
      - [ 2.02557063e+00, 3.91219199e-01, 3.70987582e+00 ]
      - [ 1.99410784e+00, 3.26619446e-01, 4.26421213e+00 ]
      - [ 3.26572871e+00, 3.71144235e-01, 3.68990612e+00 ]
      - [ 1.66669512e+00, 3.37028950e-01, 4.25949717e+00 ]
      - [ 2.70237494e+00, 4.56368834e-01, 3.23068213e+00 ]
      - [ 1.72704399e+00, 4.62982208e-01, 3.01931119e+00 ]
      - [ 1.97991157e+00, 4.30037290e-01, 3.25940776e+00 ]
      - [ 1.95147169e+00, 4.35676217e-01, 3.25574374e+00 ]
      - [ 5.86585283e+00, 3.52791935e-01, 4.23905993e+00 ]
      - [ 2.28728056e+00, 4.17765230e-01, 3.30644941e+00 ]
      - [ 2.17167425e+00, 4.22263920e-01, 3.28958535e+00 ]
      - [ 1.38743973e+00, 3.78774762e-01, 3.65094113e+00 ]
      - [ 1.85239434e+00, 4.46611553e-01, 3.25924110e+00 ]
      - [ 2.29247308e+00, 4.03614938e-01, 3.41710591e+00 ]
      - [ 1.68348420e+00, 4.48795795e-01, 3.14022732e+00 ]
      - [ 2.30285263e+00, 4.13260877e-01, 3.49283600e+00 ]
      - [ 1.89821112e+00, 3.18835676e-01, 4.20773649e+00 ]
      - [ 1.85270023e+00, 4.37606931e-01, 3.40396047e+00 ]
      - [ 2.03091741e+00, 5.08063376e-01, 2.97161865e+00 ]
      - [ 2.63889074e+00, 4.38588977e-01, 3.25727320e+00 ]
      - [ 2.96805024e+00, 4.60854977e-01, 3.21042824e+00 ]
      - [ 1.83557105e+00, 3.34853530e-01, 4.15026474e+00 ]
      - [ 2.28756571e+00, 1.68467119e-01, 8.48408031e+00 ]
      - [ 2.05336785e+00, 3.53933096e-01, 3.95378590e+00 ]
      - [ 2.02257586e+00, 3.85161400e-01, 3.68000889e+00 ]
      - [ 2.12739372e+00, 3.59124213e-01, 3.83910608e+00 ]
      - [ 1.88489377e+00, 4.60329890e-01, 3.23399425e+00 ]
      - [ 2.49704432e+00, 6.52421653e-01, 2.40335846e+00 ]
      - [ 2.18469501e+00, 3.30788881e-01, 4.13617468e+00 ]
      - [ 1.52399588e+00, 2.04468340e-01, 7.80533361e+00 ]
      - [ 1.98544025e+00, 3.30126941e-01, 4.12630987e+00 ]
      - [ 1.83275330e+00, 3.42747748e-01, 3.97131419e+00 ]
      - [ 1.57014370e+00, 4.18509007e-01, 3.33576560e+00 ]
      - [ 1.63419855e+00, 4.41051394e-01, 3.18824148e+00 ]
      - [ 1.73360550e+00, 4.45936978e-01, 3.30495930e+00 ]
      - [ 1.92865014e+00, 5.29818594e-01, 2.92577219e+00 ]
      - [ 1.59302306e+00, 3.30048293e-01, 4.12948084e+00 ]
      - [ 2.61572695e+00, 3.67850572e-01, 3.74901819e+00 ]
      - [ 2.13258862e+00, 3.72252762e-01, 3.77679157e+00 ]
      - [ 2.11228752e+00, 3.43829453e-01, 4.26055670e+00 ]
      - [ 1.77052701e+00, 3.54168057e-01, 4.26261091e+00 ]
      - [ 2.20862031e+00, 3.74033302e-01, 3.71820354e+00 ]
      - [ 2.12132859e+00, 3.35740477e-01, 4.04553986e+00 ]
      - [ 2.14675975e+00, 3.86961520e-01, 3.75782585e+00 ]
      - [ 2.36936808e+00, 3.44870061e-01, 4.05687475e+00 ]
      - [ 1.45576274e+00, 4.24738020e-01, 3.30435967e+00 ]
      - [ 2.11533594e+00, 4.19574350e-01, 3.37101412e+00 ]
      - [ 3.35729337e+00, 7.30953932e-01, 2.23167419e+00 ]
      - [ 2.56093526e+00, 3.71071190e-01, 3.65014887e+00 ]
      - [ 2.24282479e+00, 3.98794591e-01, 3.48088288e+00 ]
      - [ 1.88869762e+00, 3.51720214e-01, 3.96602058e+00 ]
      - [ 2.20862985e+00, 3.76533091e-01, 3.71442652e+00 ]
      - [ 1.96915841e+00, 4.69062805e-01, 3.20424747e+00 ]
      - [ 2.44490671e+00, 3.75750095e-01, 3.70966482e+00 ]
      - [ 3.27547479e+00, 3.58528018e-01, 3.90676689e+00 ]
      - [ 3.25966573e+00, 3.55517089e-01, 3.82520199e+00 ]
      - [ 3.41010618e+00, 7.44841099e-01, 2.04723358e+00 ]
      - [ 2.28059483e+00, 3.72995853e-01, 3.66681457e+00 ]
      - [ 1.87112212e+00, 4.47558224e-01, 3.32662010e+00 ]
      - [ 1.66945863e+00, 3.27147752e-01, 4.27223492e+00 ]
      - [ 1.92984688e+00, 4.79948461e-01, 3.13680625e+00 ]
      - [ 1.97403789e+00, 4.56783742e-01, 3.19471860e+00 ]
      - [ 1.98988533e+00, 4.55505341e-01, 3.20098448e+00 ]
      - [ 2.08152246e+00, 4.92112994e-01, 2.98660803e+00 ]
      - [ 1.71108043e+00, 3.53548795e-01, 3.92893720e+00 ]
      - [ 1.43744707e+00, 3.27786118e-01, 4.18071365e+00 ]
      - [ 1.63955176e+00, 4.40811366e-01, 3.13911080e+00 ]
      - [ 1.48270917e+00, 4.03736919e-01, 3.67558908e+00 ]
      - [ 2.05905676e+00, 3.92060012e-01, 3.61846066e+00 ]
      - [ 1.69892633e+00, 3.30116808e-01, 4.54738092e+00 ]
      - [ 1.77261031e+00, 3.82006258e-01, 4.06244183e+00 ]
      - [ 2.54969978e+00, 3.40861261e-01, 3.96095467e+00 ]
      - [ 1.90558088e+00, 6.01240098e-01, 2.70542598e+00 ]
      - [ 1.49055016e+00, 4.37232703e-01, 3.35420775e+00 ]
      - [ 2.24666977e+00, 4.03184116e-01, 3.72478390e+00 ]
      - [ 1.87047386e+00, 5.23801446e-01, 3.03264880e+00 ]
      - [ 1.67363143e+00, 3.46249938e-01, 3.94244313e+00 ]
      - [ 1.91410804e+00, 3.43139589e-01, 4.21777248e+00 ]
      - [ 1.79000151e+00, 5.51689208e-01, 2.81232715e+00 ]
      - [ 1.78639400e+00, 4.58058894e-01, 3.10749388e+00 ]
      - [ 1.76466656e+00, 3.46608251e-01, 3.94228673e+00 ]
      - [ 2.07194877e+00, 3.74582589e-01, 3.77091789e+00 ]
      - [ 1.69778419e+00, 3.44624937e-01, 3.94633484e+00 ]
      - [ 1.86957836e+00, 4.33233947e-01, 3.55375314e+00 ]
      - [ 1.49338067e+00, 4.01562840e-01, 3.54161072e+00 ]
      - [ 2.48204112e+00, 3.24208766e-01, 4.35073900e+00 ]
      - [ 4.10570526e+00, 3.80746812e-01, 3.56811190e+00 ]
      - [ 2.27719855e+00, 3.42248470e-01, 4.06796312e+00 ]
      - [ 2.01355863e+00, 4.98788655e-01, 3.06478190e+00 ]
      - [ 1.84476459e+00, 3.92335892e-01, 3.67295909e+00 ]
      - [ 2.23986959e+00, 3.49579453e-01, 3.96702313e+00 ]
      - [ 2.14240575e+00, 3.45977187e-01, 3.91262650e+00 ]
      - [ 3.72938824e+00, 3.99430990e-01, 3.39142489e+00 ]
      - [ 2.03751493e+00, 5.11510015e-01, 2.82643580e+00 ]
      - [ 2.43271732e+00, 3.62867892e-01, 3.81190228e+00 ]
      - [ 1.79657519e+00, 3.73151481e-01, 3.81800389e+00 ]
      - [ 8.53241730e+00, 5.72178006e-01, 2.63851261e+00 ]
      - [ 2.35326791e+00, 3.67229491e-01, 3.91012764e+00 ]
      - [ 2.48004246e+00, 4.30480450e-01, 3.25396967e+00 ]
