%YAML:1.0
mysvm: !!opencv-ml-svm
   svm_type: C_SVC
   kernel: { type:RBF, gamma:1.0000000000000001e-05 }
   C: 5.0000000000000000e-01
   term_criteria: { epsilon:9.9999999747524271e-07, iterations:1000 }
   var_all: 3
   var_count: 3
   class_count: 2
   class_labels: !!opencv-matrix
      rows: 1
      cols: 2
      dt: i
      data: [ 0, 1 ]
   sv_total: 2000
   support_vectors:
      - [ 2.01862359e+00, 4.40903038e-01, 3.44150043e+00 ]
      - [ 1.38924789e+00, 3.49141479e-01, 4.30073309e+00 ]
      - [ 1.50486183e+00, 4.24222380e-01, 3.28635693e+00 ]
      - [ 5.58970499e+00, 3.97493541e-01, 3.74121928e+00 ]
      - [ 4.19444275e+00, 4.62022007e-01, 3.21723604e+00 ]
      - [ 1.93985379e+00, 7.79252648e-01, 2.06215334e+00 ]
      - [ 1.41123486e+00, 3.42661172e-01, 4.18947697e+00 ]
      - [ 2.96122694e+00, 8.10521781e-01, 1.96820259e+00 ]
      - [ 3.36070776e+00, 2.77902544e-01, 5.41067839e+00 ]
      - [ 1.42099345e+00, 3.84949923e-01, 3.60010123e+00 ]
      - [ 3.22491884e+00, 6.47712827e-01, 2.42501807e+00 ]
      - [ 1.39129150e+00, 3.65985990e-01, 3.92621613e+00 ]
      - [ 3.04963446e+00, 4.19985324e-01, 3.18798661e+00 ]
      - [ 1.43513286e+00, 3.65064681e-01, 3.66576433e+00 ]
      - [ 1.93906379e+00, 6.89083159e-01, 2.29951215e+00 ]
      - [ 1.73335314e+00, 4.63762641e-01, 2.95221329e+00 ]
      - [ 9.04506207e-01, 3.95943582e-01, 3.57990384e+00 ]
      - [ 1.89398682e+00, 6.41178727e-01, 2.44168353e+00 ]
      - [ 1.66769171e+00, 7.74807334e-01, 2.11741543e+00 ]
      - [ 1.41984165e+00, 4.29124385e-01, 3.36743164e+00 ]
      - [ 5.14155388e+00, 2.62282133e-01, 5.62211943e+00 ]
      - [ 1.35008192e+00, 5.87055683e-01, 2.76261568e+00 ]
      - [ 6.17812872e+00, 7.95937657e-01, 2.00902081e+00 ]
      - [ 2.01042771e+00, 2.67940491e-01, 5.32868958e+00 ]
      - [ 3.64116740e+00, 3.36665630e-01, 4.13697100e+00 ]
      - [ 1.80571222e+00, 2.92437166e-01, 5.39599800e+00 ]
      - [ 2.84986138e+00, 4.82054800e-01, 3.09616160e+00 ]
      - [ 5.83352757e+00, 5.96414328e-01, 2.60579157e+00 ]
      - [ 2.18915772e+00, 3.41611505e-01, 4.10471869e+00 ]
      - [ 1.79913032e+00, 3.15773964e-01, 4.51866245e+00 ]
      - [ 1.53016150e+00, 5.46431303e-01, 2.88064170e+00 ]
      - [ 2.51468682e+00, 7.24937081e-01, 2.18809175e+00 ]
      - [ 1.26328206e+00, 2.61623979e-01, 6.22884178e+00 ]
      - [ 1.55519438e+00, 3.78948808e-01, 3.58390641e+00 ]
      - [ 1.45688856e+00, 3.64731133e-01, 3.85233927e+00 ]
      - [ 8.79447556e+00, 4.26422298e-01, 3.43124533e+00 ]
      - [ 1.79100585e+00, 3.91998321e-01, 3.41607881e+00 ]
      - [ 1.60386550e+00, 5.83529830e-01, 2.77209830e+00 ]
      - [ 5.01337290e+00, 6.12173438e-01, 2.47388649e+00 ]
      - [ 1.19504189e+00, 5.98312438e-01, 2.64995837e+00 ]
      - [ 2.89543533e+00, 6.24823689e-01, 2.44404864e+00 ]
      - [ 1.26104569e+00, 4.70705122e-01, 3.37746358e+00 ]
      - [ 1.71986330e+00, 4.10599977e-01, 3.43019891e+00 ]
      - [ 1.30191112e+00, 4.51615095e-01, 3.15148664e+00 ]
      - [ 1.73800766e+00, 6.66390717e-01, 2.40917325e+00 ]
      - [ 1.92216754e+00, 5.29913664e-01, 2.68736482e+00 ]
      - [ 4.02659655e+00, 6.00050330e-01, 2.60613561e+00 ]
      - [ 2.33578253e+00, 4.90265161e-01, 2.87097335e+00 ]
      - [ 3.54919100e+00, 4.04137433e-01, 3.38847637e+00 ]
      - [ 4.72044134e+00, 3.54132235e-01, 4.26742029e+00 ]
      - [ 1.62685740e+00, 2.91550308e-01, 5.27720118e+00 ]
      - [ 9.40435231e-01, 7.06700802e-01, 2.12796783e+00 ]
      - [ 3.66822171e+00, 4.21898484e-01, 3.43074465e+00 ]
      - [ 2.74389052e+00, 5.36164045e-01, 2.83428454e+00 ]
      - [ 3.46562147e+00, 7.61062562e-01, 2.00997877e+00 ]
      - [ 1.14225841e+00, 4.03721690e-01, 3.85795140e+00 ]
      - [ 3.18669438e+00, 7.95161843e-01, 2.04576731e+00 ]
      - [ 1.46963251e+00, 2.70474225e-01, 5.54907608e+00 ]
      - [ 1.25142694e+00, 3.93336207e-01, 3.59342575e+00 ]
      - [ 1.45650852e+00, 4.01553482e-01, 3.46905255e+00 ]
      - [ 1.35556138e+00, 4.62495744e-01, 3.34301400e+00 ]
      - [ 1.86924791e+00, 2.66645849e-01, 5.60259676e+00 ]
      - [ 1.21564209e+00, 5.56654334e-01, 2.68300891e+00 ]
      - [ 2.37693644e+00, 5.07416904e-01, 2.94263339e+00 ]
      - [ 1.48802686e+00, 3.18934172e-01, 4.64939022e+00 ]
      - [ 2.62718582e+00, 6.68210506e-01, 2.33128715e+00 ]
      - [ 5.24265385e+00, 6.56943321e-01, 2.30288219e+00 ]
      - [ 1.57546782e+00, 4.16255087e-01, 3.34339285e+00 ]
      - [ 1.52177250e+00, 3.87111902e-01, 3.55822825e+00 ]
      - [ 4.26512241e+00, 6.94846988e-01, 2.31921935e+00 ]
      - [ 1.66400146e+00, 4.57489699e-01, 3.21848059e+00 ]
      - [ 1.38000786e+00, 4.28006411e-01, 3.49003530e+00 ]
      - [ 2.11667180e+00, 8.12926710e-01, 1.94537568e+00 ]
      - [ 3.62320018e+00, 2.97365040e-01, 4.81283331e+00 ]
      - [ 1.44633102e+00, 3.23869973e-01, 4.84898138e+00 ]
      - [ 2.95150757e+00, 2.99832910e-01, 4.64414215e+00 ]
      - [ 1.74325013e+00, 3.86506498e-01, 3.57733607e+00 ]
      - [ 1.98018491e+00, 2.63871491e-01, 5.55186176e+00 ]
      - [ 1.44212043e+00, 9.82298791e-01, 1.70754755e+00 ]
      - [ 5.71564579e+00, 6.63189054e-01, 2.29472780e+00 ]
      - [ 3.28694868e+00, 9.63518858e-01, 1.65618563e+00 ]
      - [ 1.45004296e+00, 3.75694424e-01, 3.75058937e+00 ]
      - [ 1.88074398e+00, 4.15425837e-01, 3.35035443e+00 ]
      - [ 1.19908202e+00, 3.50159883e-01, 4.58378363e+00 ]
      - [ 3.96529269e+00, 5.42024732e-01, 2.90969157e+00 ]
      - [ 1.52859163e+00, 3.71713609e-01, 3.66666818e+00 ]
      - [ 1.15794218e+00, 3.35905701e-01, 4.59281397e+00 ]
      - [ 5.08437347e+00, 4.66281086e-01, 3.17598581e+00 ]
      - [ 1.45515347e+00, 4.01619703e-01, 3.54645467e+00 ]
      - [ 1.58431625e+00, 4.31170911e-01, 3.16439962e+00 ]
      - [ 1.47548735e+00, 4.00674075e-01, 3.48494267e+00 ]
      - [ 1.54907489e+00, 3.30838621e-01, 4.32701635e+00 ]
      - [ 2.96154189e+00, 4.50409979e-01, 3.14524126e+00 ]
      - [ 1.70894122e+00, 4.56147432e-01, 2.97333741e+00 ]
      - [ 1.53846824e+00, 3.82744074e-01, 3.65935206e+00 ]
      - [ 1.52697146e+00, 2.85156071e-01, 5.52402687e+00 ]
      - [ 1.05217421e+00, 3.35445732e-01, 4.95042419e+00 ]
      - [ 1.83166277e+00, 3.40753585e-01, 3.95215201e+00 ]
      - [ 1.02198958e+00, 3.67681563e-01, 3.87952423e+00 ]
      - [ 1.18484128e+00, 6.21786416e-01, 2.50381327e+00 ]
      - [ 3.07841468e+00, 2.72990435e-01, 5.27080727e+00 ]
      - [ 1.53206527e+00, 3.73632967e-01, 3.65321994e+00 ]
      - [ 3.20046854e+00, 3.08408022e-01, 4.76503611e+00 ]
      - [ 4.34386158e+00, 5.33806682e-01, 2.71776080e+00 ]
      - [ 1.46415842e+00, 3.41434509e-01, 4.33235312e+00 ]
      - [ 4.07581043e+00, 4.88276243e-01, 3.02063036e+00 ]
      - [ 2.92356706e+00, 7.07756579e-01, 2.20360661e+00 ]
      - [ 6.42358160e+00, 6.71731293e-01, 2.33565474e+00 ]
      - [ 1.19492972e+00, 1.09841645e+00, 1.55987549e+00 ]
      - [ 4.41525507e+00, 3.37137610e-01, 4.17960501e+00 ]
      - [ 1.65608382e+00, 3.36452633e-01, 4.22860432e+00 ]
      - [ 3.84182429e+00, 6.48302615e-01, 2.47560167e+00 ]
      - [ 1.66835177e+00, 3.53820205e-01, 3.96200681e+00 ]
      - [ 3.46687770e+00, 6.07523143e-01, 2.59618855e+00 ]
      - [ 2.44224858e+00, 2.16085598e-01, 6.68980742e+00 ]
      - [ 2.90282369e+00, 6.42704248e-01, 2.47654653e+00 ]
      - [ 3.59621453e+00, 4.45237845e-01, 3.45225167e+00 ]
      - [ 1.53845203e+00, 6.15300536e-01, 2.64433169e+00 ]
      - [ 3.24649286e+00, 5.33672035e-01, 2.88997436e+00 ]
      - [ 8.71317029e-01, 2.49633968e-01, 6.46013355e+00 ]
      - [ 1.44688213e+00, 5.67958474e-01, 2.75389075e+00 ]
      - [ 1.71342182e+00, 4.68985200e-01, 3.09236598e+00 ]
      - [ 1.45810485e+00, 3.77786607e-01, 3.62652159e+00 ]
      - [ 1.42650878e+00, 4.45027322e-01, 3.26330781e+00 ]
      - [ 1.49703705e+00, 4.28768843e-01, 3.25704908e+00 ]
      - [ 1.51798320e+00, 3.43787313e-01, 4.08304310e+00 ]
      - [ 3.04272485e+00, 5.30358374e-01, 2.67393494e+00 ]
      - [ 3.77268982e+00, 6.79988801e-01, 2.25630093e+00 ]
      - [ 1.98871374e+00, 4.24349040e-01, 3.24668622e+00 ]
      - [ 1.82702625e+00, 4.51737553e-01, 3.17302299e+00 ]
      - [ 1.84132719e+00, 5.25088131e-01, 2.86205316e+00 ]
      - [ 1.55100083e+00, 5.96362412e-01, 2.76027584e+00 ]
      - [ 1.99609649e+00, 2.49728456e-01, 5.75049829e+00 ]
      - [ 1.62173676e+00, 2.97999382e-01, 5.23022795e+00 ]
      - [ 2.19906163e+00, 8.70188892e-01, 1.82465649e+00 ]
      - [ 1.96912551e+00, 1.18848920e+00, 1.45266879e+00 ]
      - [ 1.72839546e+00, 7.04895437e-01, 2.24328780e+00 ]
      - [ 3.76313376e+00, 9.70463693e-01, 1.68685353e+00 ]
      - [ 1.36999965e+00, 6.25626922e-01, 2.59442568e+00 ]
      - [ 2.18382215e+00, 3.05537909e-01, 4.50342417e+00 ]
      - [ 1.37621307e+00, 3.96823704e-01, 3.56525517e+00 ]
      - [ 2.38353586e+00, 3.87787372e-01, 3.58013535e+00 ]
      - [ 4.35809040e+00, 3.66620153e-01, 3.97615838e+00 ]
      - [ 3.77753067e+00, 1.01311743e+00, 1.63145804e+00 ]
      - [ 1.92668772e+00, 1.32109320e+00, 1.31719506e+00 ]
      - [ 1.74799919e+00, 4.36650455e-01, 3.17429781e+00 ]
      - [ 3.35743880e+00, 7.40573227e-01, 2.07015157e+00 ]
      - [ 1.21029198e+00, 5.70248842e-01, 2.81608057e+00 ]
      - [ 1.90046060e+00, 5.15115142e-01, 2.91945815e+00 ]
      - [ 1.64430451e+00, 3.40378553e-01, 4.10960817e+00 ]
      - [ 1.58228612e+00, 5.45308113e-01, 2.82836413e+00 ]
      - [ 6.83634043e+00, 4.13485229e-01, 3.35316896e+00 ]
      - [ 1.14916110e+00, 4.12462860e-01, 3.78278208e+00 ]
      - [ 1.39104640e+00, 4.05433744e-01, 3.55115438e+00 ]
      - [ 6.54167891e+00, 2.88017005e-01, 5.07992554e+00 ]
      - [ 1.34504843e+00, 7.30158329e-01, 2.18650651e+00 ]
      - [ 2.71275854e+00, 5.05938232e-01, 2.91049671e+00 ]
      - [ 5.62815619e+00, 3.95609498e-01, 3.80481696e+00 ]
      - [ 2.53099990e+00, 2.73883909e-01, 5.33421659e+00 ]
      - [ 1.32673633e+00, 4.07730550e-01, 3.50531554e+00 ]
      - [ 5.36116838e+00, 2.44350582e-01, 6.38686132e+00 ]
      - [ 1.47882318e+00, 4.18028891e-01, 3.42889357e+00 ]
      - [ 1.46164262e+00, 3.50562751e-01, 4.15632248e+00 ]
      - [ 4.45428801e+00, 5.30378878e-01, 2.73661256e+00 ]
      - [ 5.62796307e+00, 5.31596422e-01, 2.81081581e+00 ]
      - [ 1.53416848e+00, 3.89711827e-01, 3.51292253e+00 ]
      - [ 1.18034530e+00, 4.36490297e-01, 3.65570426e+00 ]
      - [ 3.85008717e+00, 2.49386892e-01, 6.26645756e+00 ]
      - [ 1.46734667e+00, 3.49208146e-01, 4.15153742e+00 ]
      - [ 1.97703505e+00, 5.99791229e-01, 2.59891105e+00 ]
      - [ 1.41700673e+00, 4.25182611e-01, 3.39991641e+00 ]
      - [ 1.27368426e+00, 3.38972420e-01, 4.61897707e+00 ]
      - [ 3.64435720e+00, 7.08446622e-01, 2.24941278e+00 ]
      - [ 3.30775070e+00, 4.39759225e-01, 3.31628275e+00 ]
      - [ 1.43193877e+00, 3.59939575e-01, 3.93340683e+00 ]
      - [ 1.30790305e+00, 3.93294096e-01, 4.13975477e+00 ]
      - [ 1.40751958e+00, 3.88307780e-01, 3.66463256e+00 ]
      - [ 4.97127724e+00, 7.55008876e-01, 2.04301047e+00 ]
      - [ 2.01057887e+00, 2.97985107e-01, 4.77401876e+00 ]
      - [ 4.36262655e+00, 3.40163648e-01, 3.98861885e+00 ]
      - [ 2.49253798e+00, 5.60695112e-01, 2.72970271e+00 ]
      - [ 1.23182762e+00, 5.80457985e-01, 2.82151580e+00 ]
      - [ 1.58472562e+00, 4.34405148e-01, 3.31939816e+00 ]
      - [ 5.24070168e+00, 2.70614773e-01, 6.11334515e+00 ]
      - [ 1.90526772e+00, 2.72129476e-01, 5.20663071e+00 ]
      - [ 1.42060316e+00, 2.29299918e-01, 6.93585014e+00 ]
      - [ 3.68449807e+00, 3.69066387e-01, 3.87258005e+00 ]
      - [ 1.62301040e+00, 3.47206861e-01, 4.07756519e+00 ]
      - [ 5.89931583e+00, 6.51603997e-01, 2.34921217e+00 ]
      - [ 3.08788419e+00, 6.91413701e-01, 2.26427960e+00 ]
      - [ 1.26589715e+00, 5.12615383e-01, 2.88334990e+00 ]
      - [ 5.31277037e+00, 3.96869332e-01, 3.85120940e+00 ]
      - [ 1.42081678e+00, 2.70128846e-01, 5.37534285e+00 ]
      - [ 1.51545823e+00, 4.54839915e-01, 3.17566204e+00 ]
      - [ 6.97645903e+00, 4.04947221e-01, 3.46836329e+00 ]
      - [ 1.80897450e+00, 3.60255659e-01, 3.85879755e+00 ]
      - [ 1.53048897e+00, 3.58686805e-01, 3.93284440e+00 ]
      - [ 4.80009842e+00, 5.06448567e-01, 3.03944468e+00 ]
      - [ 1.61144602e+00, 3.14962089e-01, 4.42536974e+00 ]
      - [ 1.28831756e+00, 5.54527938e-01, 3.00564408e+00 ]
      - [ 1.47223938e+00, 3.16570371e-01, 4.82653761e+00 ]
      - [ 1.36619663e+00, 2.83053756e-01, 5.65038347e+00 ]
      - [ 1.64457369e+00, 3.87849718e-01, 3.68238044e+00 ]
      - [ 1.23732221e+00, 4.24398154e-01, 3.46029735e+00 ]
      - [ 1.37472284e+00, 4.26701248e-01, 3.40812206e+00 ]
      - [ 1.49759483e+00, 3.47249776e-01, 4.47032213e+00 ]
      - [ 1.68660748e+00, 4.11128014e-01, 3.41295791e+00 ]
      - [ 1.16966403e+00, 3.79181087e-01, 3.58241844e+00 ]
      - [ 1.97319257e+00, 2.58840650e-01, 5.60035896e+00 ]
      - [ 1.47300816e+00, 3.18295121e-01, 4.41680050e+00 ]
      - [ 3.22572303e+00, 4.47815806e-01, 3.04452872e+00 ]
      - [ 1.47111821e+00, 3.65934700e-01, 3.91752219e+00 ]
      - [ 1.49035513e+00, 4.50335562e-01, 3.24589896e+00 ]
      - [ 1.81352341e+00, 7.00265110e-01, 2.29694104e+00 ]
      - [ 4.13875389e+00, 7.56044209e-01, 2.15955043e+00 ]
      - [ 3.94519520e+00, 2.96117127e-01, 4.91456938e+00 ]
      - [ 2.02850723e+00, 4.05361861e-01, 3.41256762e+00 ]
      - [ 1.37040544e+00, 3.21985990e-01, 4.33488560e+00 ]
      - [ 1.63562500e+00, 1.17356980e+00, 1.44997287e+00 ]
      - [ 1.49728227e+00, 4.20512706e-01, 3.41364145e+00 ]
      - [ 4.96327162e+00, 4.56486464e-01, 3.26478481e+00 ]
      - [ 1.53239620e+00, 4.65022117e-01, 3.17801809e+00 ]
      - [ 9.04683948e-01, 3.84924859e-01, 4.19631290e+00 ]
      - [ 2.78526664e+00, 6.57218099e-01, 2.39949894e+00 ]
      - [ 1.69319105e+00, 6.08809888e-01, 2.62712359e+00 ]
      - [ 5.66588402e+00, 4.77180094e-01, 3.11892247e+00 ]
      - [ 1.54738081e+00, 3.84173304e-01, 3.67517424e+00 ]
      - [ 1.49609554e+00, 3.68519932e-01, 3.76607251e+00 ]
      - [ 1.87321436e+00, 2.94387043e-01, 5.57045460e+00 ]
      - [ 1.38794565e+00, 5.93490660e-01, 2.61005473e+00 ]
      - [ 2.54992867e+00, 3.62874925e-01, 3.86316466e+00 ]
      - [ 3.16276455e+00, 7.58089721e-01, 2.07996798e+00 ]
      - [ 1.71367931e+00, 2.65968949e-01, 5.21726179e+00 ]
      - [ 2.05013514e+00, 6.14852607e-01, 2.47315073e+00 ]
      - [ 4.48736620e+00, 3.51736605e-01, 4.09759617e+00 ]
      - [ 3.77624607e+00, 6.52561247e-01, 2.44030976e+00 ]
      - [ 1.80641711e+00, 8.21711063e-01, 1.98327017e+00 ]
      - [ 1.31331074e+00, 4.01817083e-01, 3.68681884e+00 ]
      - [ 1.40880179e+00, 4.73951101e-01, 3.09451890e+00 ]
      - [ 1.50908971e+00, 2.86161661e-01, 4.96801805e+00 ]
      - [ 2.86858726e+00, 1.84944779e-01, 8.23994637e+00 ]
      - [ 1.42995381e+00, 4.16742027e-01, 3.43307447e+00 ]
      - [ 4.30740213e+00, 5.87139666e-01, 2.73560166e+00 ]
      - [ 1.20140815e+00, 4.34421241e-01, 3.57913709e+00 ]
      - [ 3.76654553e+00, 7.66134858e-01, 2.10731578e+00 ]
      - [ 1.48174417e+00, 4.01212394e-01, 3.44393229e+00 ]
      - [ 2.00173068e+00, 4.93150681e-01, 3.00709105e+00 ]
      - [ 1.37786424e+00, 3.42140794e-01, 4.02464342e+00 ]
      - [ 4.13468266e+00, 4.88292307e-01, 3.15647912e+00 ]
      - [ 5.04323912e+00, 3.74341458e-01, 3.97013164e+00 ]
      - [ 1.83350027e+00, 8.73407423e-01, 1.83759999e+00 ]
      - [ 3.92669034e+00, 5.54085553e-01, 2.72773504e+00 ]
      - [ 1.58487976e+00, 3.94535333e-01, 3.53255105e+00 ]
      - [ 1.86137140e+00, 3.23917419e-01, 4.56897879e+00 ]
      - [ 6.29417992e+00, 6.56135142e-01, 2.29309678e+00 ]
      - [ 1.77636182e+00, 6.99407876e-01, 2.31615853e+00 ]
      - [ 3.36022496e+00, 4.11076605e-01, 3.41735268e+00 ]
      - [ 1.20893466e+00, 3.38050783e-01, 4.45213223e+00 ]
      - [ 1.30094457e+00, 5.01925230e-01, 3.25232196e+00 ]
      - [ 3.43135643e+00, 5.12021899e-01, 2.72690964e+00 ]
      - [ 1.44719267e+00, 4.16212469e-01, 3.43545270e+00 ]
      - [ 1.78993082e+00, 5.94664097e-01, 2.67969728e+00 ]
      - [ 1.79523158e+00, 7.04919577e-01, 2.29201460e+00 ]
      - [ 1.98440480e+00, 3.30711812e-01, 4.11793756e+00 ]
      - [ 1.12853308e+01, 2.96856523e-01, 5.09783554e+00 ]
      - [ 2.77525949e+00, 3.78810376e-01, 3.63182402e+00 ]
      - [ 1.65843749e+00, 4.43809301e-01, 3.23434377e+00 ]
      - [ 1.63901973e+00, 3.43809515e-01, 4.39337444e+00 ]
      - [ 1.93329608e+00, 8.27821791e-01, 1.99604642e+00 ]
      - [ 5.77548313e+00, 4.04026687e-01, 3.58547091e+00 ]
      - [ 4.32112169e+00, 4.44308162e-01, 3.24929643e+00 ]
      - [ 1.44280171e+00, 3.45084488e-01, 4.30498314e+00 ]
      - [ 1.52870154e+00, 4.15013701e-01, 3.32547760e+00 ]
      - [ 2.17981458e+00, 6.75311744e-01, 2.27532196e+00 ]
      - [ 3.93350577e+00, 7.33894169e-01, 2.15385509e+00 ]
      - [ 2.06198573e+00, 4.09297198e-01, 3.46879292e+00 ]
      - [ 1.46613765e+00, 3.48563731e-01, 4.32691383e+00 ]
      - [ 6.00768042e+00, 5.73956311e-01, 2.74337411e+00 ]
      - [ 1.38186967e+00, 3.95365536e-01, 3.69307017e+00 ]
      - [ 1.53257179e+00, 3.67172092e-01, 3.83292937e+00 ]
      - [ 1.39289415e+00, 4.47754622e-01, 3.14038134e+00 ]
      - [ 1.40978372e+00, 5.24354398e-01, 3.10528684e+00 ]
      - [ 1.91172397e+00, 4.06408012e-01, 3.31746078e+00 ]
      - [ 2.52109504e+00, 4.72782135e-01, 3.16519499e+00 ]
      - [ 1.31114376e+00, 4.45491880e-01, 3.20242286e+00 ]
      - [ 1.93134487e+00, 7.02658951e-01, 2.26016974e+00 ]
      - [ 4.49856663e+00, 3.53351593e-01, 4.05160427e+00 ]
      - [ 1.71108365e+00, 7.08529711e-01, 2.28438687e+00 ]
      - [ 5.51740885e+00, 5.75610936e-01, 2.73143291e+00 ]
      - [ 1.55058432e+00, 4.54188943e-01, 3.18747258e+00 ]
      - [ 1.47128010e+00, 5.89028478e-01, 2.63444710e+00 ]
      - [ 1.52159190e+00, 4.35051501e-01, 3.28243327e+00 ]
      - [ 1.18041539e+00, 5.26531219e-01, 3.10664034e+00 ]
      - [ 2.72810292e+00, 4.91987556e-01, 2.94378877e+00 ]
      - [ 3.49432707e+00, 3.37976605e-01, 4.13511562e+00 ]
      - [ 1.96054649e+00, 3.52480710e-01, 3.98334575e+00 ]
      - [ 1.58457792e+00, 4.52945530e-01, 3.13562655e+00 ]
      - [ 1.49188185e+00, 7.10857272e-01, 2.21000886e+00 ]
      - [ 1.99329007e+00, 3.58947754e-01, 3.85426950e+00 ]
      - [ 1.93268752e+00, 3.10616523e-01, 4.64735842e+00 ]
      - [ 1.45777202e+00, 4.32458520e-01, 3.19171715e+00 ]
      - [ 1.53241813e+00, 3.26257706e-01, 4.49790192e+00 ]
      - [ 1.50833809e+00, 3.53902698e-01, 4.00316811e+00 ]
      - [ 3.70441675e+00, 3.40403169e-01, 4.09786081e+00 ]
      - [ 2.13304901e+00, 3.48452896e-01, 3.84504461e+00 ]
      - [ 4.58343792e+00, 8.11195850e-01, 1.92769539e+00 ]
      - [ 4.76928377e+00, 2.31447205e-01, 6.56778002e+00 ]
      - [ 1.58303452e+00, 6.73538506e-01, 2.38584423e+00 ]
      - [ 1.41507375e+00, 3.94507557e-01, 3.53206849e+00 ]
      - [ 4.91841841e+00, 6.54206872e-01, 2.36443949e+00 ]
      - [ 1.86646712e+00, 4.02930707e-01, 3.44220638e+00 ]
      - [ 5.77148962e+00, 5.88970661e-01, 2.69403958e+00 ]
      - [ 1.39866483e+00, 3.87230664e-01, 3.62958074e+00 ]
      - [ 1.29349351e+00, 4.07214791e-01, 3.45605707e+00 ]
      - [ 1.31901705e+00, 3.95607710e-01, 3.70776176e+00 ]
      - [ 2.29168439e+00, 3.42968762e-01, 4.05361795e+00 ]
      - [ 5.24156618e+00, 3.94602299e-01, 3.89264250e+00 ]
      - [ 2.06102395e+00, 5.11483371e-01, 2.96068692e+00 ]
      - [ 9.05334091e+00, 6.05383158e-01, 2.43981838e+00 ]
      - [ 1.41283691e+00, 3.79908383e-01, 3.80318880e+00 ]
      - [ 1.59813237e+00, 3.04381192e-01, 5.03550100e+00 ]
      - [ 5.39948559e+00, 4.98965323e-01, 3.13796639e+00 ]
      - [ 4.01763153e+00, 3.42178702e-01, 4.07463694e+00 ]
      - [ 2.11593843e+00, 5.61470211e-01, 2.62823415e+00 ]
      - [ 1.78815603e+00, 3.98171753e-01, 3.49200010e+00 ]
      - [ 2.50053930e+00, 7.87274003e-01, 2.04122806e+00 ]
      - [ 1.66530001e+00, 4.15575504e-01, 3.39891934e+00 ]
      - [ 1.42650700e+00, 6.13575757e-01, 2.59371734e+00 ]
      - [ 5.37447977e+00, 3.26773435e-01, 4.70041466e+00 ]
      - [ 1.02678454e+00, 5.49285889e-01, 2.98414373e+00 ]
      - [ 1.64314318e+00, 8.79264116e-01, 1.82782698e+00 ]
      - [ 8.64852428e+00, 3.89180809e-01, 3.76348472e+00 ]
      - [ 2.05257463e+00, 6.65635407e-01, 2.39232016e+00 ]
      - [ 2.16214681e+00, 4.62695479e-01, 3.11726332e+00 ]
      - [ 1.33108795e+00, 3.57064962e-01, 3.89512658e+00 ]
      - [ 1.64663351e+00, 5.93215287e-01, 2.66169000e+00 ]
      - [ 1.86934006e+00, 3.46889913e-01, 4.02954912e+00 ]
      - [ 3.10737634e+00, 4.61950481e-01, 3.06904411e+00 ]
      - [ 1.50307679e+00, 3.48291129e-01, 4.02521896e+00 ]
      - [ 3.13733435e+00, 2.97271103e-01, 4.89630795e+00 ]
      - [ 1.95251453e+00, 6.49376214e-01, 2.42149997e+00 ]
      - [ 1.39456522e+00, 3.94115359e-01, 3.78796148e+00 ]
      - [ 1.54295707e+00, 4.09830958e-01, 3.42661095e+00 ]
      - [ 2.32594681e+00, 2.84545213e-01, 5.03352451e+00 ]
      - [ 1.89861298e+00, 4.82749164e-01, 3.06256437e+00 ]
      - [ 1.46581185e+00, 3.85199338e-01, 3.57824683e+00 ]
      - [ 4.62295008e+00, 6.63732290e-01, 2.38306570e+00 ]
      - [ 1.61847067e+00, 3.83962542e-01, 3.52921462e+00 ]
      - [ 1.63825917e+00, 4.38932925e-01, 3.20631981e+00 ]
      - [ 2.30086732e+00, 3.71873528e-01, 3.67705512e+00 ]
      - [ 1.67424190e+00, 4.25737232e-01, 3.20949173e+00 ]
      - [ 2.20896459e+00, 4.23316866e-01, 3.33246088e+00 ]
      - [ 1.13429880e+00, 4.05114114e-01, 4.00041294e+00 ]
      - [ 3.81150913e+00, 3.64049435e-01, 3.82266259e+00 ]
      - [ 3.40712333e+00, 5.16544819e-01, 2.97034383e+00 ]
      - [ 1.38438153e+00, 5.85647762e-01, 2.72935104e+00 ]
      - [ 4.27231789e+00, 3.30090731e-01, 4.28069162e+00 ]
      - [ 1.91478288e+00, 4.74185675e-01, 3.04459262e+00 ]
      - [ 3.96991873e+00, 4.64259118e-01, 3.15410399e+00 ]
      - [ 2.42774844e+00, 2.12197587e-01, 7.60931444e+00 ]
      - [ 1.53029299e+00, 4.25079137e-01, 3.26277614e+00 ]
      - [ 2.16633654e+00, 3.24762553e-01, 4.06337118e+00 ]
      - [ 2.02555752e+00, 4.82117742e-01, 3.07013583e+00 ]
      - [ 1.30930328e+00, 7.26227582e-01, 2.28306246e+00 ]
      - [ 1.62138391e+00, 7.98008680e-01, 1.99086142e+00 ]
      - [ 1.46333158e+00, 4.33968842e-01, 3.36376286e+00 ]
      - [ 1.98645008e+00, 6.60692930e-01, 2.39498115e+00 ]
      - [ 1.47221708e+00, 2.89206237e-01, 5.31685686e+00 ]
      - [ 6.01946878e+00, 2.67504275e-01, 5.75541306e+00 ]
      - [ 1.58529556e+00, 4.20409858e-01, 3.39367270e+00 ]
      - [ 1.94140816e+00, 4.33764547e-01, 3.20400596e+00 ]
      - [ 1.66655636e+00, 4.78907049e-01, 3.11558652e+00 ]
      - [ 2.23365664e+00, 4.25509065e-01, 3.28807378e+00 ]
      - [ 1.91511071e+00, 2.34307602e-01, 6.47052002e+00 ]
      - [ 1.15757632e+00, 5.62488794e-01, 2.89589262e+00 ]
      - [ 1.57631040e+00, 4.23200279e-01, 3.32412100e+00 ]
      - [ 2.35175562e+00, 4.80671167e-01, 3.11018205e+00 ]
      - [ 1.82578194e+00, 4.45908338e-01, 3.23719025e+00 ]
      - [ 1.42808402e+00, 2.80496240e-01, 5.73737764e+00 ]
      - [ 2.68604946e+00, 6.04160547e-01, 2.56596470e+00 ]
      - [ 1.33727276e+00, 2.55409062e-01, 5.89749718e+00 ]
      - [ 1.59425735e+00, 4.24917459e-01, 3.35656953e+00 ]
      - [ 3.19917440e+00, 6.75050020e-01, 2.35861349e+00 ]
      - [ 1.47785234e+00, 4.27328557e-01, 3.32869172e+00 ]
      - [ 2.69468999e+00, 2.89050698e-01, 4.81183195e+00 ]
      - [ 1.61573124e+00, 4.41728413e-01, 3.24773240e+00 ]
      - [ 1.27732646e+00, 2.97987014e-01, 5.04648542e+00 ]
      - [ 3.04939842e+00, 4.60734487e-01, 3.20859241e+00 ]
      - [ 3.60152531e+00, 4.67835963e-01, 3.20628905e+00 ]
      - [ 1.53096056e+00, 7.41449356e-01, 2.05069017e+00 ]
      - [ 2.00600696e+00, 9.35586154e-01, 1.76155531e+00 ]
      - [ 1.68280244e+00, 2.82313466e-01, 5.14842367e+00 ]
      - [ 3.89261842e+00, 6.28184497e-01, 2.52446246e+00 ]
      - [ 1.72700357e+00, 4.01251704e-01, 3.45525289e+00 ]
      - [ 4.09360886e+00, 4.28697705e-01, 3.43843651e+00 ]
      - [ 1.16259980e+00, 5.57706833e-01, 2.77808690e+00 ]
      - [ 4.21353960e+00, 5.32913864e-01, 2.97768521e+00 ]
      - [ 1.48877752e+00, 4.40615714e-01, 3.25017357e+00 ]
      - [ 4.10777617e+00, 4.38610703e-01, 3.41814804e+00 ]
      - [ 1.44973016e+00, 6.23318672e-01, 2.50366616e+00 ]
      - [ 5.32457256e+00, 5.64626276e-01, 2.92194605e+00 ]
      - [ 1.47484112e+00, 5.70932150e-01, 2.84635568e+00 ]
      - [ 1.26155996e+00, 4.16478902e-01, 3.67431116e+00 ]
      - [ 1.71459484e+00, 4.57448602e-01, 3.15650773e+00 ]
      - [ 1.71594226e+00, 3.51832360e-01, 3.97692132e+00 ]
      - [ 4.37082863e+00, 6.48809791e-01, 2.36538100e+00 ]
      - [ 2.91383076e+00, 3.35472524e-01, 4.16257954e+00 ]
      - [ 9.52660084e-01, 5.37591815e-01, 3.07483506e+00 ]
      - [ 2.29431415e+00, 2.67145991e-01, 5.11820841e+00 ]
      - [ 1.64545560e+00, 4.92749453e-01, 3.10285473e+00 ]
      - [ 2.95764589e+00, 4.98815238e-01, 2.95381641e+00 ]
      - [ 1.39997864e+00, 3.30454618e-01, 4.26543951e+00 ]
      - [ 6.00083160e+00, 5.75316608e-01, 2.72151065e+00 ]
      - [ 1.43172884e+00, 3.80545110e-01, 3.86957550e+00 ]
      - [ 3.61842227e+00, 9.26236868e-01, 1.72435832e+00 ]
      - [ 1.53786051e+00, 3.96390229e-01, 3.40867138e+00 ]
      - [ 3.67777109e+00, 4.31770325e-01, 3.36335993e+00 ]
      - [ 1.47191548e+00, 6.33083701e-01, 2.48734975e+00 ]
      - [ 2.14020157e+00, 6.70955300e-01, 2.42990470e+00 ]
      - [ 1.46105659e+00, 1.27118528e+00, 1.36107159e+00 ]
      - [ 1.48722982e+00, 5.67987502e-01, 2.67600203e+00 ]
      - [ 1.20535409e+00, 6.91219151e-01, 2.45334196e+00 ]
      - [ 1.77693892e+00, 3.90652686e-01, 3.49512339e+00 ]
      - [ 5.66188335e+00, 7.60373950e-01, 2.00934172e+00 ]
      - [ 1.62510729e+00, 3.64692241e-01, 3.79960418e+00 ]
      - [ 1.46501267e+00, 3.56462061e-01, 4.08122349e+00 ]
      - [ 5.45572996e+00, 3.54899257e-01, 4.03527498e+00 ]
      - [ 5.46551323e+00, 3.17673564e-01, 4.98252058e+00 ]
      - [ 1.53908801e+00, 4.45104420e-01, 3.18388963e+00 ]
      - [ 1.67256248e+00, 4.51790333e-01, 3.25500083e+00 ]
      - [ 1.45250654e+00, 4.33546484e-01, 3.31083870e+00 ]
      - [ 4.13077354e+00, 7.40840554e-01, 2.13805008e+00 ]
      - [ 4.07820702e+00, 3.23356181e-01, 4.27904654e+00 ]
      - [ 8.40456676e+00, 4.33634579e-01, 3.34188104e+00 ]
      - [ 1.69513345e+00, 4.44197804e-01, 3.31326461e+00 ]
      - [ 4.13211489e+00, 7.35727370e-01, 2.16578102e+00 ]
      - [ 4.48910332e+00, 6.03109479e-01, 2.57438135e+00 ]
      - [ 1.75987029e+00, 2.50083447e-01, 6.35667276e+00 ]
      - [ 4.66120291e+00, 5.90342104e-01, 2.69078493e+00 ]
      - [ 2.15565538e+00, 8.24928403e-01, 1.91131938e+00 ]
      - [ 1.47553837e+00, 3.89591992e-01, 3.55206347e+00 ]
      - [ 5.10443306e+00, 5.80293596e-01, 2.74683261e+00 ]
      - [ 2.48800993e+00, 5.33526003e-01, 2.76455212e+00 ]
      - [ 3.05422759e+00, 6.52786613e-01, 2.38934183e+00 ]
      - [ 1.59591866e+00, 6.34669185e-01, 2.51394486e+00 ]
      - [ 1.37191522e+00, 3.40158105e-01, 4.34395313e+00 ]
      - [ 3.66054058e+00, 7.22955406e-01, 2.09492826e+00 ]
      - [ 1.87591612e+00, 5.87379754e-01, 2.61252236e+00 ]
      - [ 2.05677938e+00, 6.25245988e-01, 2.44214368e+00 ]
      - [ 1.65270853e+00, 3.90475094e-01, 3.53717995e+00 ]
      - [ 1.52982664e+00, 4.01810884e-01, 3.46582103e+00 ]
      - [ 1.58252263e+00, 3.90200317e-01, 3.54050326e+00 ]
      - [ 3.85897064e+00, 5.00815809e-01, 3.19792867e+00 ]
      - [ 1.41352165e+00, 4.30593520e-01, 3.20730925e+00 ]
      - [ 1.52829850e+00, 4.44191515e-01, 3.27581143e+00 ]
      - [ 1.51421034e+00, 4.12130535e-01, 3.42568207e+00 ]
      - [ 3.62445283e+00, 7.76677787e-01, 2.07574487e+00 ]
      - [ 4.19649696e+00, 6.04341149e-01, 2.63815379e+00 ]
      - [ 2.07610488e+00, 7.54744709e-01, 2.11661625e+00 ]
      - [ 1.56513524e+00, 4.04499561e-01, 3.54271293e+00 ]
      - [ 1.75246203e+00, 3.54437649e-01, 3.82354426e+00 ]
      - [ 4.85557079e+00, 3.21771830e-01, 4.69505882e+00 ]
      - [ 2.57391119e+00, 6.44717038e-01, 2.46579051e+00 ]
      - [ 7.17517233e+00, 3.33262831e-01, 4.44034386e+00 ]
      - [ 2.44555664e+00, 4.13041353e-01, 3.45904708e+00 ]
      - [ 1.50636601e+00, 4.66045260e-01, 3.05555844e+00 ]
      - [ 5.41864300e+00, 4.86700356e-01, 2.99105239e+00 ]
      - [ 2.67889929e+00, 2.21175745e-01, 6.91614056e+00 ]
      - [ 1.67095399e+00, 3.06455910e-01, 4.41168165e+00 ]
      - [ 1.54271340e+00, 4.27401900e-01, 3.32179904e+00 ]
      - [ 1.35761178e+00, 3.55994612e-01, 4.12200975e+00 ]
      - [ 1.47795033e+00, 3.37140113e-01, 4.15015030e+00 ]
      - [ 1.51367545e+00, 6.13824785e-01, 2.60189772e+00 ]
      - [ 4.65075970e+00, 3.02838385e-01, 4.74189854e+00 ]
      - [ 1.35366356e+00, 3.51996034e-01, 4.01421499e+00 ]
      - [ 3.93664789e+00, 6.82675362e-01, 2.35802794e+00 ]
      - [ 1.69037974e+00, 3.71966571e-01, 3.64636016e+00 ]
      - [ 1.35746300e+00, 3.61268342e-01, 3.89626026e+00 ]
      - [ 2.59645343e+00, 1.75165102e-01, 8.89897156e+00 ]
      - [ 1.45015967e+00, 4.33465958e-01, 3.28236198e+00 ]
      - [ 1.71781492e+00, 6.59237623e-01, 2.42532420e+00 ]
      - [ 1.41178203e+00, 3.95926744e-01, 3.63030672e+00 ]
      - [ 3.93403506e+00, 3.15069497e-01, 4.34553480e+00 ]
      - [ 6.97702527e-01, 3.30068529e-01, 5.04615116e+00 ]
      - [ 1.27699029e+00, 3.64501476e-01, 4.03694868e+00 ]
      - [ 1.76326239e+00, 7.75990009e-01, 2.06582046e+00 ]
      - [ 1.45211637e+00, 4.42999482e-01, 3.35759664e+00 ]
      - [ 1.57196677e+00, 4.30482149e-01, 3.17858911e+00 ]
      - [ 2.26691723e+00, 2.59175390e-01, 5.53076172e+00 ]
      - [ 1.74275875e+00, 4.97329265e-01, 2.79913783e+00 ]
      - [ 1.38848150e+00, 2.29713485e-01, 6.59641075e+00 ]
      - [ 2.59053636e+00, 4.91764426e-01, 3.01198387e+00 ]
      - [ 1.92814302e+00, 3.14680368e-01, 4.37759924e+00 ]
      - [ 1.86269796e+00, 3.33180666e-01, 4.13710165e+00 ]
      - [ 5.51244783e+00, 2.83346027e-01, 5.29713535e+00 ]
      - [ 4.66427898e+00, 5.12832105e-01, 2.80417395e+00 ]
      - [ 1.44949269e+00, 3.78412932e-01, 3.70895028e+00 ]
      - [ 1.42774820e+00, 7.02215075e-01, 2.27899647e+00 ]
      - [ 1.69146955e+00, 3.88679296e-01, 3.50960088e+00 ]
      - [ 1.56729186e+00, 4.14400220e-01, 3.38415027e+00 ]
      - [ 1.94461560e+00, 7.28053808e-01, 2.04639077e+00 ]
      - [ 1.46970618e+00, 3.62821728e-01, 3.82935596e+00 ]
      - [ 1.23814583e+00, 4.26789433e-01, 3.31494212e+00 ]
      - [ 3.13408279e+00, 2.02403352e-01, 7.85631084e+00 ]
      - [ 5.45264864e+00, 4.73744005e-01, 3.02631664e+00 ]
      - [ 1.53040576e+00, 3.76426250e-01, 3.59420896e+00 ]
      - [ 1.66586328e+00, 3.25542390e-01, 4.26044083e+00 ]
      - [ 1.07288146e+00, 5.33318102e-01, 2.95209503e+00 ]
      - [ 1.46071076e+00, 3.89921188e-01, 3.59369111e+00 ]
      - [ 1.69769895e+00, 4.13284302e-01, 3.39605594e+00 ]
      - [ 6.80451965e+00, 4.10017520e-01, 3.87262678e+00 ]
      - [ 1.41042542e+00, 4.54659909e-01, 3.20833063e+00 ]
      - [ 6.23446798e+00, 6.07913673e-01, 2.41608071e+00 ]
      - [ 2.30056238e+00, 6.69340491e-01, 2.28657150e+00 ]
      - [ 1.61072075e+00, 3.46514106e-01, 3.94336939e+00 ]
      - [ 1.70316565e+00, 3.28351110e-01, 4.23369932e+00 ]
      - [ 1.60878873e+00, 2.86612034e-01, 5.52183533e+00 ]
      - [ 1.96316254e+00, 2.64552712e-01, 5.58511305e+00 ]
      - [ 6.20762062e+00, 3.65653723e-01, 3.69266391e+00 ]
      - [ 2.41264462e+00, 1.26762462e+00, 1.33592331e+00 ]
      - [ 1.72096944e+00, 8.09154332e-01, 2.00329185e+00 ]
      - [ 1.56598580e+00, 3.68905932e-01, 3.66168499e+00 ]
      - [ 2.63193560e+00, 1.38078690e+00, 1.26637292e+00 ]
      - [ 9.14647770e+00, 4.85151052e-01, 3.20758104e+00 ]
      - [ 2.28713369e+00, 3.53192747e-01, 3.95912194e+00 ]
      - [ 4.20516062e+00, 3.88507545e-01, 3.66022921e+00 ]
      - [ 4.70155430e+00, 5.16733825e-01, 3.07908702e+00 ]
      - [ 2.14258909e+00, 1.74511760e-01, 8.70425034e+00 ]
      - [ 1.45375586e+00, 3.98746103e-01, 3.51393676e+00 ]
      - [ 1.65419877e+00, 7.59092510e-01, 2.12309599e+00 ]
      - [ 4.30452681e+00, 6.18123889e-01, 2.41776156e+00 ]
      - [ 1.53071284e+00, 3.40989292e-01, 4.05187798e+00 ]
      - [ 1.39299905e+00, 4.21138465e-01, 3.35412049e+00 ]
      - [ 1.56912756e+00, 4.26377654e-01, 3.30254602e+00 ]
      - [ 1.44822693e+00, 4.06316757e-01, 3.59402370e+00 ]
      - [ 1.12347996e+00, 2.11419865e-01, 7.95198250e+00 ]
      - [ 2.35690308e+00, 5.93654454e-01, 2.54037309e+00 ]
      - [ 2.76681256e+00, 5.14920771e-01, 2.92710066e+00 ]
      - [ 1.42261350e+00, 3.64698678e-01, 4.16439772e+00 ]
      - [ 4.76957417e+00, 3.14900875e-01, 4.71864033e+00 ]
      - [ 1.47273719e+00, 4.14960325e-01, 3.50621152e+00 ]
      - [ 2.29535985e+00, 4.14977431e-01, 3.32389522e+00 ]
      - [ 3.15140843e+00, 3.76050681e-01, 3.64938617e+00 ]
      - [ 4.07062721e+00, 3.90535712e-01, 3.46936727e+00 ]
      - [ 1.66061568e+00, 3.79179627e-01, 3.63012648e+00 ]
      - [ 1.38577461e+00, 3.73645157e-01, 3.88344908e+00 ]
      - [ 1.77303064e+00, 4.75552440e-01, 3.04718828e+00 ]
      - [ 1.46113968e+00, 3.80735159e-01, 3.74347591e+00 ]
      - [ 3.79838157e+00, 5.19252896e-01, 2.87817478e+00 ]
      - [ 3.30940628e+00, 7.50057399e-01, 2.07185793e+00 ]
      - [ 5.46219254e+00, 3.40131700e-01, 4.28926563e+00 ]
      - [ 2.01202607e+00, 4.46568787e-01, 3.18506026e+00 ]
      - [ 1.92148507e+00, 7.93742239e-01, 2.04325128e+00 ]
      - [ 5.17691278e+00, 6.77227855e-01, 2.30704689e+00 ]
      - [ 2.11436200e+00, 4.10766184e-01, 3.29876876e+00 ]
      - [ 2.54516912e+00, 4.37820137e-01, 3.21891499e+00 ]
      - [ 2.46561313e+00, 8.20513844e-01, 1.95063770e+00 ]
      - [ 1.40860927e+00, 3.12996775e-01, 4.75477791e+00 ]
      - [ 2.78257322e+00, 4.23876584e-01, 3.33853674e+00 ]
      - [ 1.44322431e+00, 4.24294204e-01, 3.39490867e+00 ]
      - [ 2.81542587e+00, 5.80917239e-01, 2.42391419e+00 ]
      - [ 1.50315726e+00, 4.13080305e-01, 3.39318252e+00 ]
      - [ 8.88991833e+00, 4.20577914e-01, 3.35598326e+00 ]
      - [ 1.99843490e+00, 3.28332841e-01, 4.16982508e+00 ]
      - [ 1.14600551e+00, 3.54245424e-01, 3.95337033e+00 ]
      - [ 1.42295837e+00, 7.12620437e-01, 2.29875231e+00 ]
      - [ 1.86742187e+00, 9.52318192e-01, 1.71571028e+00 ]
      - [ 2.20195270e+00, 7.33950257e-01, 2.12125540e+00 ]
      - [ 1.05000532e+00, 6.25893593e-01, 2.48421669e+00 ]
      - [ 2.03088474e+00, 2.68448114e-01, 5.41429615e+00 ]
      - [ 2.17918015e+00, 4.12860721e-01, 3.37723422e+00 ]
      - [ 6.12472343e+00, 4.04839158e-01, 4.06997728e+00 ]
      - [ 4.40093565e+00, 5.73248506e-01, 2.80760050e+00 ]
      - [ 2.31912160e+00, 5.30532002e-01, 2.85628080e+00 ]
      - [ 1.32765269e+00, 6.25926793e-01, 2.61488557e+00 ]
      - [ 1.70197546e+00, 7.00101912e-01, 2.27780175e+00 ]
      - [ 2.40289116e+00, 3.49888951e-01, 3.91353869e+00 ]
      - [ 1.36994886e+00, 6.62294388e-01, 2.42056298e+00 ]
      - [ 2.56379938e+00, 2.30473444e-01, 6.72771931e+00 ]
      - [ 1.96946537e+00, 6.08460188e-01, 2.50937748e+00 ]
      - [ 1.65080643e+00, 4.19946879e-01, 3.41159129e+00 ]
      - [ 4.42929506e+00, 4.80028152e-01, 3.07068586e+00 ]
      - [ 2.51203489e+00, 5.17489135e-01, 2.87389398e+00 ]
      - [ 1.56451237e+00, 3.28431666e-01, 4.40891409e+00 ]
      - [ 2.82137442e+00, 5.03047705e-01, 3.00277591e+00 ]
      - [ 6.74964380e+00, 6.23866081e-01, 2.41331720e+00 ]
      - [ 2.16222310e+00, 7.29151428e-01, 2.16185188e+00 ]
      - [ 2.82975984e+00, 2.37763107e-01, 6.41551924e+00 ]
      - [ 4.22833157e+00, 6.87596440e-01, 2.25609255e+00 ]
      - [ 1.63762844e+00, 3.44825238e-01, 3.90322447e+00 ]
      - [ 1.49087501e+00, 3.93191516e-01, 3.66241884e+00 ]
      - [ 4.91015768e+00, 5.16468287e-01, 3.08477974e+00 ]
      - [ 2.81952119e+00, 3.55441630e-01, 3.85400462e+00 ]
      - [ 1.64388335e+00, 3.62550467e-01, 3.96148276e+00 ]
      - [ 1.72762287e+00, 2.69745559e-01, 5.45721483e+00 ]
      - [ 1.14718485e+00, 4.74764407e-01, 3.43638706e+00 ]
      - [ 1.29667735e+00, 3.37114930e-01, 4.21839571e+00 ]
      - [ 1.60729194e+00, 2.92383581e-01, 5.10108566e+00 ]
      - [ 4.38728046e+00, 6.45371437e-01, 2.55427694e+00 ]
      - [ 1.38893569e+00, 3.80672455e-01, 3.63190341e+00 ]
      - [ 2.23825073e+00, 7.16681600e-01, 2.19958115e+00 ]
      - [ 2.37416887e+00, 3.56395215e-01, 3.80534029e+00 ]
      - [ 2.28268266e+00, 2.68987715e-01, 5.23903275e+00 ]
      - [ 1.50327599e+00, 5.98030567e-01, 2.71103811e+00 ]
      - [ 2.06347609e+00, 6.47636414e-01, 2.46209931e+00 ]
      - [ 2.54041195e+00, 3.90326351e-01, 3.55789280e+00 ]
      - [ 1.56760514e+00, 3.59849095e-01, 3.87967157e+00 ]
      - [ 1.12179744e+00, 3.72918874e-01, 3.70664620e+00 ]
      - [ 3.01340842e+00, 3.73455167e-01, 3.68075681e+00 ]
      - [ 1.46906054e+00, 3.96628588e-01, 3.63053226e+00 ]
      - [ 1.73722541e+00, 8.47555637e-01, 1.91311193e+00 ]
      - [ 2.90518785e+00, 4.82267588e-01, 3.03955984e+00 ]
      - [ 1.54132605e+00, 4.04390067e-01, 3.43454695e+00 ]
      - [ 7.05070829e+00, 5.09121656e-01, 3.02186370e+00 ]
      - [ 7.88500643e+00, 4.97864813e-01, 3.02965689e+00 ]
      - [ 1.30855846e+00, 5.73409319e-01, 2.77952862e+00 ]
      - [ 1.63306916e+00, 4.06291276e-01, 3.45751333e+00 ]
      - [ 1.50907278e+00, 4.32661921e-01, 3.22283483e+00 ]
      - [ 1.84355927e+00, 6.83764100e-01, 2.26490688e+00 ]
      - [ 1.49134672e+00, 4.21607137e-01, 3.33359480e+00 ]
      - [ 1.90838122e+00, 7.18781352e-01, 2.22510362e+00 ]
      - [ 2.05451298e+00, 3.63002390e-01, 3.72623348e+00 ]
      - [ 2.64482903e+00, 4.75487888e-01, 3.10381699e+00 ]
      - [ 1.45393705e+00, 6.08423114e-01, 2.62679720e+00 ]
      - [ 5.35145330e+00, 6.57617211e-01, 2.30290484e+00 ]
      - [ 3.16471839e+00, 6.53473198e-01, 2.37207103e+00 ]
      - [ 4.74632215e+00, 5.20233274e-01, 2.89689159e+00 ]
      - [ 1.43139648e+00, 3.38428378e-01, 4.24322414e+00 ]
      - [ 1.42251837e+00, 3.73505920e-01, 3.68310595e+00 ]
      - [ 3.91023755e+00, 9.00102377e-01, 1.79337776e+00 ]
      - [ 1.43572772e+00, 3.50903541e-01, 4.08160210e+00 ]
      - [ 1.38991570e+00, 6.44478858e-01, 2.49012375e+00 ]
      - [ 1.69884014e+00, 4.31907356e-01, 3.23108387e+00 ]
      - [ 1.23985660e+00, 4.88131285e-01, 3.41412568e+00 ]
      - [ 6.98219001e-01, 3.59472126e-01, 4.45780325e+00 ]
      - [ 2.86319327e+00, 7.24502146e-01, 2.20322037e+00 ]
      - [ 1.54797852e+00, 6.30790532e-01, 2.52165103e+00 ]
      - [ 1.42634439e+00, 4.26854551e-01, 3.23294735e+00 ]
      - [ 1.85403824e+00, 3.16548914e-01, 4.35830736e+00 ]
      - [ 1.85306442e+00, 3.08688402e-01, 4.50671339e+00 ]
      - [ 1.71496236e+00, 3.82430911e-01, 3.60029268e+00 ]
      - [ 1.21661830e+00, 6.27398670e-01, 2.63634634e+00 ]
      - [ 1.82169449e+00, 3.44669640e-01, 4.05170393e+00 ]
      - [ 4.41310263e+00, 6.35110795e-01, 2.53454971e+00 ]
      - [ 4.36050510e+00, 3.36604357e-01, 4.19301558e+00 ]
      - [ 2.29573202e+00, 8.55698466e-01, 1.90447426e+00 ]
      - [ 1.52397799e+00, 3.87332886e-01, 3.60291362e+00 ]
      - [ 1.48862445e+00, 3.80752742e-01, 3.76626849e+00 ]
      - [ 2.07781696e+00, 4.40305561e-01, 3.09103155e+00 ]
      - [ 1.29580975e+00, 3.27949554e-01, 4.31834269e+00 ]
      - [ 1.42101824e+00, 3.67913008e-01, 3.80934048e+00 ]
      - [ 2.00918317e+00, 8.67354631e-01, 1.82672191e+00 ]
      - [ 4.25781631e+00, 7.60262430e-01, 2.01212597e+00 ]
      - [ 1.51674712e+00, 4.08680618e-01, 3.46839213e+00 ]
      - [ 1.31968582e+00, 3.59411061e-01, 3.92875791e+00 ]
      - [ 1.64479852e+00, 4.43361700e-01, 3.21966648e+00 ]
      - [ 1.44848490e+00, 4.49863195e-01, 3.11753631e+00 ]
      - [ 3.90007854e+00, 6.44692063e-01, 2.52062750e+00 ]
      - [ 1.81398833e+00, 3.05161327e-01, 4.72743416e+00 ]
      - [ 1.51382065e+00, 6.44396782e-01, 2.52728868e+00 ]
      - [ 1.35498405e+00, 6.49081945e-01, 2.47474623e+00 ]
      - [ 1.73098338e+00, 6.74491644e-01, 2.39248419e+00 ]
      - [ 2.13134742e+00, 3.32452327e-01, 4.07284641e+00 ]
      - [ 1.45426047e+00, 3.59659731e-01, 4.10926867e+00 ]
      - [ 2.25152612e+00, 5.71386993e-01, 2.57634592e+00 ]
      - [ 2.01948118e+00, 5.14653087e-01, 2.88674521e+00 ]
      - [ 5.26544809e+00, 3.68521243e-01, 3.89150572e+00 ]
      - [ 1.55289221e+00, 3.68080586e-01, 3.67847681e+00 ]
      - [ 1.27520037e+00, 4.65026021e-01, 3.46102500e+00 ]
      - [ 1.61308622e+00, 4.88275826e-01, 3.00100374e+00 ]
      - [ 1.53273165e+00, 3.68642807e-01, 3.81839371e+00 ]
      - [ 1.62506509e+00, 3.68369132e-01, 3.79570699e+00 ]
      - [ 1.61136377e+00, 3.64595860e-01, 3.75914836e+00 ]
      - [ 8.79687405e+00, 3.98946524e-01, 3.72710800e+00 ]
      - [ 1.38485432e+00, 3.60239893e-01, 3.97235394e+00 ]
      - [ 1.51247644e+00, 5.01401544e-01, 3.06874681e+00 ]
      - [ 1.46347082e+00, 3.28590035e-01, 4.43589926e+00 ]
      - [ 1.33829284e+00, 4.20370668e-01, 3.29401445e+00 ]
      - [ 1.68797350e+00, 3.19657713e-01, 4.98980379e+00 ]
      - [ 3.45142126e+00, 3.21719885e-01, 4.33847713e+00 ]
      - [ 1.54184639e+00, 7.02194333e-01, 2.26587152e+00 ]
      - [ 1.42394400e+00, 3.48448545e-01, 3.96392822e+00 ]
      - [ 2.80420709e+00, 4.48737353e-01, 3.28447843e+00 ]
      - [ 2.09194374e+00, 7.30747461e-01, 2.16909552e+00 ]
      - [ 1.68046534e+00, 2.76642859e-01, 5.27948236e+00 ]
      - [ 1.98604286e+00, 7.58639693e-01, 2.11189628e+00 ]
      - [ 1.68969500e+00, 7.23480582e-01, 2.23643875e+00 ]
      - [ 1.00551701e+00, 3.86314332e-01, 3.76628590e+00 ]
      - [ 2.61079645e+00, 4.66472894e-01, 3.07644606e+00 ]
      - [ 1.43520689e+00, 2.10385069e-01, 7.10149670e+00 ]
      - [ 4.70350409e+00, 3.42329502e-01, 4.22738028e+00 ]
      - [ 1.74853826e+00, 3.51875216e-01, 3.76661491e+00 ]
      - [ 1.76201141e+00, 5.12434304e-01, 2.86896873e+00 ]
      - [ 1.63369477e+00, 3.98202240e-01, 3.51208568e+00 ]
      - [ 1.40533948e+00, 3.91642690e-01, 3.58397245e+00 ]
      - [ 1.52176476e+00, 4.21677530e-01, 3.25286150e+00 ]
      - [ 1.79502130e+00, 3.78530711e-01, 3.70959663e+00 ]
      - [ 1.75052655e+00, 3.39597613e-01, 4.05911541e+00 ]
      - [ 1.42866337e+00, 3.84297848e-01, 3.62214136e+00 ]
      - [ 2.58186078e+00, 3.40312809e-01, 4.07055044e+00 ]
      - [ 3.73362017e+00, 3.23428750e-01, 4.27545786e+00 ]
      - [ 1.73186851e+00, 3.25777411e-01, 4.33541393e+00 ]
      - [ 4.02928400e+00, 3.47226590e-01, 4.08858395e+00 ]
      - [ 1.29281044e+00, 3.23725045e-01, 5.12906599e+00 ]
      - [ 1.87478137e+00, 4.33610201e-01, 3.18554282e+00 ]
      - [ 3.33363509e+00, 6.67083263e-01, 2.24013805e+00 ]
      - [ 1.63337874e+00, 4.14850235e-01, 3.40191245e+00 ]
      - [ 1.55349946e+00, 3.96002442e-01, 3.53460622e+00 ]
      - [ 1.45391405e+00, 4.46880788e-01, 3.14618993e+00 ]
      - [ 1.97526681e+00, 3.63813311e-01, 3.72231770e+00 ]
      - [ 1.52030337e+00, 3.48347813e-01, 4.09899998e+00 ]
      - [ 3.98623276e+00, 3.82166207e-01, 3.73321557e+00 ]
      - [ 1.95677602e+00, 1.31443834e+00, 1.33070719e+00 ]
      - [ 4.64175272e+00, 8.90373051e-01, 1.81963193e+00 ]
      - [ 2.70598316e+00, 5.03201723e-01, 2.84445000e+00 ]
      - [ 1.57530105e+00, 3.57163191e-01, 3.81205440e+00 ]
      - [ 3.68918753e+00, 4.33689535e-01, 3.39232302e+00 ]
      - [ 1.75460172e+00, 3.76665086e-01, 3.69269705e+00 ]
      - [ 2.35686922e+00, 7.13437974e-01, 2.22850347e+00 ]
      - [ 1.70026970e+00, 4.16296601e-01, 3.29334402e+00 ]
      - [ 1.56677568e+00, 3.63657534e-01, 3.75473452e+00 ]
      - [ 6.77667046e+00, 7.52244115e-01, 2.07431841e+00 ]
      - [ 5.29154968e+00, 4.05545861e-01, 3.99389362e+00 ]
      - [ 3.33599019e+00, 3.83053184e-01, 3.69636106e+00 ]
      - [ 1.47162032e+00, 4.22391802e-01, 3.30606771e+00 ]
      - [ 1.53971648e+00, 2.79421866e-01, 5.34525490e+00 ]
      - [ 4.97312260e+00, 3.52172822e-01, 4.41578627e+00 ]
      - [ 1.33682978e+00, 3.62734467e-01, 4.10758018e+00 ]
      - [ 2.13498402e+00, 4.94526178e-01, 3.05354977e+00 ]
      - [ 1.57041180e+00, 4.16516423e-01, 3.31421304e+00 ]
      - [ 1.43295097e+00, 3.94058436e-01, 3.57138848e+00 ]
      - [ 2.85738802e+00, 2.69150674e-01, 5.19891977e+00 ]
      - [ 1.52059948e+00, 4.44668740e-01, 3.09974408e+00 ]
      - [ 3.30366731e+00, 3.47211659e-01, 3.77823901e+00 ]
      - [ 3.70040131e+00, 5.66331148e-01, 2.73847294e+00 ]
      - [ 1.33165908e+00, 6.03085637e-01, 2.69704938e+00 ]
      - [ 2.06914306e+00, 3.27818096e-01, 4.18525314e+00 ]
      - [ 2.87284613e+00, 4.74912524e-01, 3.09148145e+00 ]
      - [ 3.24486923e+00, 3.23698997e-01, 4.25911951e+00 ]
      - [ 1.43607783e+00, 5.89235127e-01, 2.74528790e+00 ]
      - [ 1.51652527e+00, 3.71718019e-01, 3.69945312e+00 ]
      - [ 1.22566247e+00, 8.61895561e-01, 1.87314796e+00 ]
      - [ 4.76558876e+00, 4.88160759e-01, 3.05007434e+00 ]
      - [ 1.84263706e+00, 3.01598161e-01, 4.87989616e+00 ]
      - [ 1.55300081e+00, 6.43000126e-01, 2.51193094e+00 ]
      - [ 1.48641574e+00, 3.82926077e-01, 3.59560609e+00 ]
      - [ 1.58687544e+00, 5.49658656e-01, 2.84337378e+00 ]
      - [ 1.62178612e+00, 3.60549003e-01, 3.82077885e+00 ]
      - [ 1.43315816e+00, 6.11569345e-01, 2.65665984e+00 ]
      - [ 1.36656523e+00, 5.32211065e-01, 2.96552324e+00 ]
      - [ 2.54945135e+00, 3.68959516e-01, 3.62649059e+00 ]
      - [ 1.79068768e+00, 2.28092477e-01, 6.63362646e+00 ]
      - [ 1.38866353e+00, 3.51947039e-01, 4.19368887e+00 ]
      - [ 5.85444260e+00, 3.32522303e-01, 4.54893541e+00 ]
      - [ 1.54115343e+00, 3.64994228e-01, 3.81997371e+00 ]
      - [ 1.56837356e+00, 2.88981974e-01, 5.00336075e+00 ]
      - [ 2.51484299e+00, 2.78485656e-01, 4.85474443e+00 ]
      - [ 1.42989480e+00, 3.75414699e-01, 3.81408048e+00 ]
      - [ 1.63946843e+00, 4.00017649e-01, 3.51077867e+00 ]
      - [ 1.45740867e+00, 3.45682681e-01, 3.96894026e+00 ]
      - [ 1.37586606e+00, 5.66120148e-01, 2.62450910e+00 ]
      - [ 6.04325390e+00, 3.77643913e-01, 3.88814449e+00 ]
      - [ 1.89446473e+00, 3.84317696e-01, 3.63222790e+00 ]
      - [ 1.66328645e+00, 3.06216687e-01, 4.78131533e+00 ]
      - [ 4.26081133e+00, 1.86536327e-01, 8.39863491e+00 ]
      - [ 1.26024330e+00, 5.27893364e-01, 3.01745605e+00 ]
      - [ 1.18838131e+00, 4.08302695e-01, 3.70980287e+00 ]
      - [ 5.19794416e+00, 7.70841658e-01, 2.03654170e+00 ]
      - [ 5.36752510e+00, 4.03921247e-01, 3.75609064e+00 ]
      - [ 1.81271696e+00, 6.54710412e-01, 2.43591022e+00 ]
      - [ 1.43782961e+00, 3.95281792e-01, 3.65328526e+00 ]
      - [ 1.87535560e+00, 6.16149664e-01, 2.54437518e+00 ]
      - [ 3.98096251e+00, 3.59715164e-01, 4.03591919e+00 ]
      - [ 1.83000910e+00, 6.25523448e-01, 2.56821442e+00 ]
      - [ 3.83899403e+00, 3.14423054e-01, 4.40029764e+00 ]
      - [ 1.57203615e+00, 3.24584395e-01, 4.53793716e+00 ]
      - [ 1.87380660e+00, 4.79669809e-01, 3.02869248e+00 ]
      - [ 4.09645557e+00, 5.30907631e-01, 2.94806051e+00 ]
      - [ 1.88234818e+00, 6.16320670e-01, 2.54255128e+00 ]
      - [ 5.63110685e+00, 3.71141344e-01, 4.24532223e+00 ]
      - [ 5.83175373e+00, 3.84307086e-01, 3.68588924e+00 ]
      - [ 1.75569558e+00, 7.69631505e-01, 2.11845851e+00 ]
      - [ 1.39687359e+00, 3.52061093e-01, 4.31415987e+00 ]
      - [ 3.90808988e+00, 8.08278978e-01, 2.01224661e+00 ]
      - [ 1.56863618e+00, 3.32445115e-01, 4.28948736e+00 ]
      - [ 1.84647608e+00, 8.24791789e-01, 1.97458899e+00 ]
      - [ 2.14715624e+00, 4.43779439e-01, 3.17429614e+00 ]
      - [ 1.64080513e+00, 3.54564369e-01, 3.87459803e+00 ]
      - [ 5.93791151e+00, 3.50886196e-01, 4.25223494e+00 ]
      - [ 3.69508052e+00, 6.02034986e-01, 2.62552142e+00 ]
      - [ 3.43466759e+00, 3.72800648e-01, 3.89368033e+00 ]
      - [ 2.74395561e+00, 4.30383354e-01, 3.14155269e+00 ]
      - [ 1.86300933e+00, 3.35903645e-01, 4.19369268e+00 ]
      - [ 1.15338385e+00, 3.45568687e-01, 4.35647249e+00 ]
      - [ 1.69298637e+00, 4.58693624e-01, 3.15788555e+00 ]
      - [ 2.17614937e+00, 4.16979492e-01, 3.29403043e+00 ]
      - [ 1.44646895e+00, 5.92938483e-01, 2.67730021e+00 ]
      - [ 1.51820409e+00, 5.67926228e-01, 2.83207178e+00 ]
      - [ 2.16430020e+00, 4.40170407e-01, 3.09563828e+00 ]
      - [ 1.18180954e+00, 3.97974133e-01, 3.90010214e+00 ]
      - [ 1.19596314e+00, 9.47243124e-02, 1.62653522e+01 ]
      - [ 1.44958723e+00, 3.91033918e-01, 3.75295734e+00 ]
      - [ 4.28138304e+00, 4.36623961e-01, 3.40322208e+00 ]
      - [ 4.18881512e+00, 7.26553261e-01, 2.13805461e+00 ]
      - [ 5.69248629e+00, 5.10364771e-01, 3.03393579e+00 ]
      - [ 4.47991037e+00, 7.20042884e-01, 2.21647048e+00 ]
      - [ 5.15646791e+00, 5.31014502e-01, 2.85636592e+00 ]
      - [ 1.38374662e+00, 1.86013073e-01, 8.69647026e+00 ]
      - [ 4.20780039e+00, 5.03056407e-01, 3.24304962e+00 ]
      - [ 1.28269875e+00, 4.42745090e-01, 3.71360731e+00 ]
      - [ 1.59503722e+00, 3.19745243e-01, 4.50076389e+00 ]
      - [ 2.28846812e+00, 5.17284513e-01, 2.86413336e+00 ]
      - [ 1.49624574e+00, 4.55987185e-01, 3.02832580e+00 ]
      - [ 4.11224699e+00, 3.38124484e-01, 4.09188032e+00 ]
      - [ 1.87497234e+00, 6.95047319e-01, 2.28540659e+00 ]
      - [ 1.48103225e+00, 3.94427419e-01, 3.54203820e+00 ]
      - [ 2.85246611e+00, 6.48110211e-01, 2.40904331e+00 ]
      - [ 1.49155843e+00, 6.24264061e-01, 2.56481242e+00 ]
      - [ 1.47552490e+00, 3.74172330e-01, 3.81944489e+00 ]
      - [ 1.42317724e+00, 3.96498144e-01, 3.67514968e+00 ]
      - [ 1.56864583e+00, 4.39903289e-01, 3.27110004e+00 ]
      - [ 2.94344378e+00, 3.03582340e-01, 4.54696798e+00 ]
      - [ 1.83674347e+00, 6.04816079e-01, 2.63182902e+00 ]
      - [ 1.42850065e+00, 6.05043888e-01, 2.59307790e+00 ]
      - [ 1.38739455e+00, 3.51376414e-01, 4.23462486e+00 ]
      - [ 6.20162630e+00, 4.69269484e-01, 3.38499117e+00 ]
      - [ 4.68377304e+00, 3.33116531e-01, 4.48316431e+00 ]
      - [ 1.40792120e+00, 6.11920893e-01, 2.63847566e+00 ]
      - [ 1.56303561e+00, 3.92754823e-01, 3.61633110e+00 ]
      - [ 1.41618836e+00, 3.95258427e-01, 3.59392810e+00 ]
      - [ 1.40609503e+00, 4.00597215e-01, 3.50865841e+00 ]
      - [ 2.10576200e+00, 4.69013959e-01, 3.04500580e+00 ]
      - [ 3.96652341e+00, 7.48767436e-01, 2.12400746e+00 ]
      - [ 2.45605493e+00, 4.88248289e-01, 3.01655340e+00 ]
      - [ 1.81399655e+00, 2.74214745e-01, 5.73492670e+00 ]
      - [ 1.79247749e+00, 6.94487154e-01, 2.31026697e+00 ]
      - [ 4.06328821e+00, 9.16479468e-01, 1.80724549e+00 ]
      - [ 1.51529121e+00, 4.02052909e-01, 3.50847960e+00 ]
      - [ 1.65271902e+00, 3.38272214e-01, 4.36054468e+00 ]
      - [ 1.90643847e+00, 8.23596060e-01, 1.98935628e+00 ]
      - [ 1.36670589e+00, 3.87131244e-01, 3.54638362e+00 ]
      - [ 1.52993166e+00, 3.35600466e-01, 4.06573105e+00 ]
      - [ 1.58507621e+00, 7.30540931e-01, 2.18017006e+00 ]
      - [ 7.84518480e-01, 3.44512612e-01, 4.56007814e+00 ]
      - [ 1.69315100e+00, 4.41695660e-01, 3.12415481e+00 ]
      - [ 1.57551575e+00, 3.94771218e-01, 3.57612443e+00 ]
      - [ 1.38718569e+00, 4.25585777e-01, 3.54018426e+00 ]
      - [ 3.25419831e+00, 6.51048601e-01, 2.41855407e+00 ]
      - [ 1.44701564e+00, 4.38794881e-01, 3.37439513e+00 ]
      - [ 5.26804018e+00, 3.70987236e-01, 4.08671331e+00 ]
      - [ 1.46821010e+00, 4.49879557e-01, 3.24656963e+00 ]
      - [ 1.54019618e+00, 3.25653136e-01, 4.77471447e+00 ]
      - [ 1.71864319e+00, 4.71062154e-01, 3.09744430e+00 ]
      - [ 1.54269242e+00, 5.60409546e-01, 2.84040618e+00 ]
      - [ 1.54173970e+00, 3.11174542e-01, 4.64006090e+00 ]
      - [ 4.70631981e+00, 6.42022133e-01, 2.44413781e+00 ]
      - [ 5.95035696e+00, 5.23306131e-01, 2.89058518e+00 ]
      - [ 1.34283936e+00, 3.52363557e-01, 4.32005310e+00 ]
      - [ 6.03446627e+00, 3.21427107e-01, 4.57246542e+00 ]
      - [ 1.47164857e+00, 3.93793613e-01, 3.61936331e+00 ]
      - [ 5.01762676e+00, 4.13759083e-01, 3.88580847e+00 ]
      - [ 1.52206254e+00, 3.17463040e-01, 4.50564146e+00 ]
      - [ 1.14964628e+00, 5.07912934e-01, 3.20909715e+00 ]
      - [ 1.37048435e+00, 3.81349951e-01, 4.00181198e+00 ]
      - [ 2.02402234e+00, 3.50978285e-01, 3.88205457e+00 ]
      - [ 2.28751230e+00, 8.05714965e-01, 1.97289097e+00 ]
      - [ 2.21728325e+00, 3.76703501e-01, 3.65432310e+00 ]
      - [ 2.19750023e+00, 6.86155677e-01, 2.31159544e+00 ]
      - [ 1.22925794e+00, 5.36585450e-01, 3.01939988e+00 ]
      - [ 1.65085697e+00, 3.74336213e-01, 3.63546085e+00 ]
      - [ 1.36836362e+00, 3.93294394e-01, 3.47984958e+00 ]
      - [ 1.42970169e+00, 3.60857069e-01, 4.24414062e+00 ]
      - [ 1.94185185e+00, 8.39287400e-01, 1.95756996e+00 ]
      - [ 2.26040030e+00, 7.74462521e-01, 2.00532031e+00 ]
      - [ 3.81861329e+00, 7.44208455e-01, 2.19263554e+00 ]
      - [ 4.68361807e+00, 5.16298652e-01, 3.08398080e+00 ]
      - [ 1.47107744e+00, 5.64926744e-01, 2.86550021e+00 ]
      - [ 5.46779108e+00, 6.40627801e-01, 2.43400264e+00 ]
      - [ 3.81886005e+00, 4.13815528e-01, 3.59934878e+00 ]
      - [ 3.46698666e+00, 6.84861600e-01, 2.29296994e+00 ]
      - [ 1.45337760e+00, 3.89767796e-01, 3.59158564e+00 ]
      - [ 1.41529799e+00, 3.37655336e-01, 4.20530415e+00 ]
      - [ 1.03925765e+00, 3.43705118e-01, 4.63561106e+00 ]
      - [ 1.70200586e+00, 7.50954270e-01, 2.11786819e+00 ]
      - [ 1.33761501e+00, 3.99040699e-01, 3.80533886e+00 ]
      - [ 1.18059504e+00, 3.49299520e-01, 4.67947102e+00 ]
      - [ 2.77251601e+00, 2.74904013e-01, 5.14400005e+00 ]
      - [ 1.65935159e+00, 4.02496934e-01, 3.47304106e+00 ]
      - [ 4.02899265e+00, 2.87507802e-01, 4.86194515e+00 ]
      - [ 8.41199458e-01, 1.14179365e-01, 1.36592188e+01 ]
      - [ 1.44298553e+00, 6.81923747e-01, 2.45321703e+00 ]
      - [ 1.57117105e+00, 5.88146806e-01, 2.71194863e+00 ]
      - [ 4.10218477e+00, 2.27751434e-01, 7.13303614e+00 ]
      - [ 1.40001595e+00, 4.10366923e-01, 3.53016448e+00 ]
      - [ 3.99446559e+00, 4.76964384e-01, 3.20588970e+00 ]
      - [ 2.11293674e+00, 8.13400626e-01, 1.94439363e+00 ]
      - [ 3.85223818e+00, 3.12314898e-01, 4.51884747e+00 ]
      - [ 1.70151174e+00, 2.80177295e-01, 5.41911411e+00 ]
      - [ 1.38237906e+00, 7.61281252e-01, 2.11957979e+00 ]
      - [ 4.11509943e+00, 5.21870852e-01, 2.93310976e+00 ]
      - [ 1.44833922e+00, 4.01798606e-01, 3.53151035e+00 ]
      - [ 1.88744307e+00, 3.48962307e-01, 3.88533354e+00 ]
      - [ 1.27054811e+00, 3.82409245e-01, 3.96702623e+00 ]
      - [ 2.05433464e+00, 7.27230549e-01, 2.22919846e+00 ]
      - [ 1.43200052e+00, 4.09211993e-01, 3.40858507e+00 ]
      - [ 2.39106274e+00, 2.70252407e-01, 5.24259281e+00 ]
      - [ 3.48038864e+00, 4.10779566e-01, 3.39641571e+00 ]
      - [ 1.41448116e+00, 2.86100775e-01, 5.10833263e+00 ]
      - [ 1.50185275e+00, 5.69683254e-01, 2.75948000e+00 ]
      - [ 1.98273313e+00, 2.62950182e-01, 5.58581161e+00 ]
      - [ 2.37212348e+00, 2.39704356e-01, 6.51661253e+00 ]
      - [ 5.17224026e+00, 3.55838001e-01, 3.94531798e+00 ]
      - [ 3.70201063e+00, 4.06059474e-01, 3.53245711e+00 ]
      - [ 2.27270126e+00, 1.28154933e+00, 1.32906711e+00 ]
      - [ 5.03997850e+00, 3.75995815e-01, 3.92191672e+00 ]
      - [ 1.20931888e+00, 8.29092920e-01, 1.93758202e+00 ]
      - [ 8.25851154e+00, 3.28128785e-01, 4.60468054e+00 ]
      - [ 1.69334066e+00, 9.29104924e-01, 1.79924822e+00 ]
      - [ 1.51411593e+00, 3.94341648e-01, 3.54686785e+00 ]
      - [ 1.38786864e+00, 3.15143287e-01, 4.92689705e+00 ]
      - [ 2.07767701e+00, 4.86614078e-01, 2.99460602e+00 ]
      - [ 3.34618974e+00, 3.74363750e-01, 3.73601246e+00 ]
      - [ 1.42242193e+00, 5.12703717e-01, 3.06872725e+00 ]
      - [ 1.53546715e+00, 3.10008764e-01, 4.64315033e+00 ]
      - [ 1.39113200e+00, 3.92969400e-01, 3.66661358e+00 ]
      - [ 4.32233191e+00, 4.02882844e-01, 3.52772784e+00 ]
      - [ 2.42597961e+00, 7.20856786e-01, 2.20422220e+00 ]
      - [ 1.42700946e+00, 3.97492975e-01, 3.59543180e+00 ]
      - [ 1.41868973e+00, 6.52725339e-01, 2.49325943e+00 ]
      - [ 1.29647875e+00, 3.64643395e-01, 4.31990004e+00 ]
      - [ 3.52726603e+00, 5.52709162e-01, 2.80635643e+00 ]
      - [ 2.43389773e+00, 5.67373157e-01, 2.56018925e+00 ]
      - [ 1.86479068e+00, 3.06837469e-01, 4.78395224e+00 ]
      - [ 6.22220755e+00, 5.98561227e-01, 2.60051584e+00 ]
      - [ 1.95594871e+00, 4.98514861e-01, 2.92910981e+00 ]
      - [ 1.66118622e+00, 6.72987878e-01, 2.38950515e+00 ]
      - [ 1.46059668e+00, 5.19725323e-01, 3.11163139e+00 ]
      - [ 5.28385830e+00, 7.03178823e-01, 2.22284079e+00 ]
      - [ 6.69396877e-01, 3.97397995e-01, 3.60356951e+00 ]
      - [ 1.93365788e+00, 8.72974992e-01, 1.86553383e+00 ]
      - [ 1.59990191e+00, 7.01433837e-01, 2.32266784e+00 ]
      - [ 1.59095228e+00, 3.46510112e-01, 3.98169708e+00 ]
      - [ 1.55127275e+00, 3.90748948e-01, 3.50046706e+00 ]
      - [ 2.10207009e+00, 2.87821054e-01, 5.05930376e+00 ]
      - [ 1.73835838e+00, 6.80563331e-01, 2.36051464e+00 ]
      - [ 1.47182393e+00, 3.30762446e-01, 4.62073231e+00 ]
      - [ 3.11693645e+00, 9.66326356e-01, 1.69594181e+00 ]
      - [ 6.54297400e+00, 4.89525884e-01, 2.98299527e+00 ]
      - [ 1.80445504e+00, 2.58111745e-01, 5.64546442e+00 ]
      - [ 1.84976292e+00, 1.34859696e-01, 1.22100315e+01 ]
      - [ 2.33873105e+00, 3.70964319e-01, 3.65310645e+00 ]
      - [ 1.24371970e+00, 5.61371744e-01, 2.81339431e+00 ]
      - [ 1.26803112e+00, 3.04526895e-01, 4.84054232e+00 ]
      - [ 1.33154571e+00, 3.94986928e-01, 3.44613266e+00 ]
      - [ 1.93148410e+00, 2.81523526e-01, 5.29400396e+00 ]
      - [ 1.62812006e+00, 4.30069417e-01, 3.23821259e+00 ]
      - [ 2.64144874e+00, 6.78506315e-01, 2.39206028e+00 ]
      - [ 1.56517792e+00, 4.07670975e-01, 3.43182945e+00 ]
      - [ 1.92792201e+00, 7.80238211e-01, 2.04848647e+00 ]
      - [ 2.04312444e+00, 3.42467189e-01, 4.04953194e+00 ]
      - [ 1.06168783e+00, 3.93986762e-01, 3.83469629e+00 ]
      - [ 1.36282933e+00, 4.06591207e-01, 3.44265294e+00 ]
      - [ 2.47127867e+00, 5.69264293e-01, 2.64190006e+00 ]
      - [ 1.96835113e+00, 4.02181268e-01, 3.40461731e+00 ]
      - [ 1.03788376e+00, 4.64368224e-01, 3.00509119e+00 ]
      - [ 1.28030920e+00, 3.33403558e-01, 4.45131874e+00 ]
      - [ 3.54005408e+00, 6.22105181e-01, 2.57844448e+00 ]
      - [ 1.62656856e+00, 3.58761042e-01, 3.92160463e+00 ]
      - [ 1.68610823e+00, 6.39702380e-01, 2.50397968e+00 ]
      - [ 1.84633756e+00, 1.34854543e+00, 1.27723885e+00 ]
      - [ 1.47273898e+00, 4.24794793e-01, 3.24999905e+00 ]
      - [ 1.22381556e+00, 3.63591820e-01, 4.30170345e+00 ]
      - [ 5.71267271e+00, 3.55983496e-01, 4.20195675e+00 ]
      - [ 5.28865767e+00, 3.43451381e-01, 4.28560495e+00 ]
      - [ 4.43745661e+00, 6.09109223e-01, 2.66081715e+00 ]
      - [ 4.18209553e+00, 4.80833799e-01, 3.15852737e+00 ]
      - [ 1.26329505e+00, 5.15140593e-01, 2.80031824e+00 ]
      - [ 1.42207825e+00, 4.13386315e-01, 3.44275045e+00 ]
      - [ 1.47841394e+00, 4.02679622e-01, 3.59699273e+00 ]
      - [ 1.72138691e+00, 4.57703680e-01, 2.96721935e+00 ]
      - [ 2.26946783e+00, 7.67055333e-01, 1.99832261e+00 ]
      - [ 1.30551577e+00, 5.38149476e-01, 2.90809417e+00 ]
      - [ 1.87994742e+00, 3.30290139e-01, 4.08727407e+00 ]
      - [ 4.10704708e+00, 5.56321204e-01, 2.89767694e+00 ]
      - [ 1.56227279e+00, 4.56467807e-01, 3.18065214e+00 ]
      - [ 1.65713656e+00, 2.97347158e-01, 5.04921532e+00 ]
      - [ 1.51932192e+00, 3.62124801e-01, 3.93516660e+00 ]
      - [ 1.59534454e+00, 7.27992773e-01, 2.20117640e+00 ]
      - [ 3.57508016e+00, 7.96211958e-01, 2.04548407e+00 ]
      - [ 1.52770638e+00, 4.67733055e-01, 3.19646025e+00 ]
      - [ 5.00965452e+00, 4.79749501e-01, 3.17634773e+00 ]
      - [ 4.61694479e+00, 5.21558881e-01, 3.11459017e+00 ]
      - [ 4.23958540e+00, 3.47928494e-01, 3.87954140e+00 ]
      - [ 1.30883586e+00, 3.69630694e-01, 4.05971575e+00 ]
      - [ 1.96239209e+00, 3.50475252e-01, 3.90524387e+00 ]
      - [ 4.89042950e+00, 3.08532178e-01, 4.63445139e+00 ]
      - [ 2.50681257e+00, 7.54390895e-01, 2.12183070e+00 ]
      - [ 2.98873663e+00, 3.60564470e-01, 3.81720138e+00 ]
      - [ 1.38096285e+00, 3.57735187e-01, 3.87251782e+00 ]
      - [ 1.66593945e+00, 3.63878846e-01, 3.72707963e+00 ]
      - [ 1.79080367e+00, 3.92735571e-01, 3.42460203e+00 ]
      - [ 1.48051965e+00, 5.27801991e-01, 2.86810184e+00 ]
      - [ 2.35432172e+00, 4.72025633e-01, 3.43721700e+00 ]
      - [ 1.75959504e+00, 3.53694588e-01, 3.98799586e+00 ]
      - [ 1.64182794e+00, 3.34759444e-01, 4.19485140e+00 ]
      - [ 2.90777111e+00, 3.89908373e-01, 3.53626752e+00 ]
      - [ 1.11959982e+00, 6.69423997e-01, 2.28081179e+00 ]
      - [ 2.42926812e+00, 4.35439259e-01, 3.46681094e+00 ]
      - [ 1.56445312e+00, 3.38143647e-01, 4.60441780e+00 ]
      - [ 2.16201711e+00, 1.10075235e+00, 1.55327260e+00 ]
      - [ 2.62691283e+00, 6.55942202e-01, 2.40879679e+00 ]
      - [ 1.57851517e+00, 3.44632953e-01, 4.03341436e+00 ]
      - [ 1.86298263e+00, 5.55145085e-01, 2.85111141e+00 ]
      - [ 1.99101329e+00, 6.82466328e-01, 2.32361865e+00 ]
      - [ 2.84960580e+00, 7.26763189e-01, 2.22618032e+00 ]
      - [ 3.16703963e+00, 4.04900938e-01, 3.71664619e+00 ]
      - [ 2.21863461e+00, 6.72451735e-01, 2.38164973e+00 ]
      - [ 2.36705089e+00, 3.20893407e-01, 4.74174833e+00 ]
      - [ 1.65296984e+00, 5.91869771e-01, 2.70825958e+00 ]
      - [ 1.75467491e+00, 2.54441768e-01, 5.82940912e+00 ]
      - [ 2.54135633e+00, 7.57568538e-01, 2.12433457e+00 ]
      - [ 2.70164704e+00, 5.63553393e-01, 2.88696909e+00 ]
      - [ 2.69998527e+00, 3.69990438e-01, 3.80591249e+00 ]
      - [ 2.83669686e+00, 4.13235247e-01, 3.53482509e+00 ]
      - [ 1.93067801e+00, 3.33584070e-01, 4.28493977e+00 ]
      - [ 2.01597190e+00, 3.26955438e-01, 4.32171583e+00 ]
      - [ 1.73985779e+00, 5.27183235e-01, 3.04015112e+00 ]
      - [ 1.37823665e+00, 3.01807135e-01, 4.81273937e+00 ]
      - [ 3.28294396e+00, 3.89847904e-01, 3.50954151e+00 ]
      - [ 1.73596585e+00, 3.13979357e-01, 4.97253132e+00 ]
      - [ 1.78590333e+00, 3.24749410e-01, 4.33655596e+00 ]
      - [ 1.97690058e+00, 3.32531333e-01, 4.21852303e+00 ]
      - [ 3.08999515e+00, 7.10912108e-01, 2.25050473e+00 ]
      - [ 1.99086928e+00, 3.19746733e-01, 4.37547922e+00 ]
      - [ 4.01425314e+00, 6.63037062e-01, 2.40851450e+00 ]
      - [ 1.34237242e+00, 3.57891738e-01, 4.02378273e+00 ]
      - [ 3.10420203e+00, 6.17038786e-01, 2.62717128e+00 ]
      - [ 2.62635183e+00, 4.97427166e-01, 2.73688817e+00 ]
      - [ 2.38464069e+00, 4.10844386e-01, 3.81659889e+00 ]
      - [ 2.54627252e+00, 4.36796874e-01, 3.15729809e+00 ]
      - [ 1.95567608e+00, 3.13043386e-01, 4.32513142e+00 ]
      - [ 2.17712831e+00, 5.96253932e-01, 2.67939425e+00 ]
      - [ 2.12405562e+00, 4.42913741e-01, 3.62689924e+00 ]
      - [ 2.51674485e+00, 3.44995856e-01, 3.95732164e+00 ]
      - [ 2.28584838e+00, 6.17770135e-01, 2.63420939e+00 ]
      - [ 2.26238608e+00, 5.78090131e-01, 2.78797317e+00 ]
      - [ 1.60553527e+00, 5.97513735e-01, 2.63558936e+00 ]
      - [ 1.69640255e+00, 3.35145056e-01, 4.31260347e+00 ]
      - [ 2.44248152e+00, 5.56183159e-01, 2.92745519e+00 ]
      - [ 1.82286739e+00, 3.48865628e-01, 4.06556320e+00 ]
      - [ 3.35952902e+00, 6.42651558e-01, 2.48989415e+00 ]
      - [ 1.42141867e+00, 2.53968179e-01, 5.56042814e+00 ]
      - [ 1.79907835e+00, 3.37427557e-01, 4.17266893e+00 ]
      - [ 2.53597283e+00, 6.34512067e-01, 2.50259924e+00 ]
      - [ 6.08161831e+00, 5.27926922e-01, 2.74750757e+00 ]
      - [ 2.19336939e+00, 7.33491957e-01, 2.20320940e+00 ]
      - [ 1.75784957e+00, 3.34217459e-01, 4.19387245e+00 ]
      - [ 1.84191477e+00, 3.30009162e-01, 4.37087822e+00 ]
      - [ 2.58669019e+00, 6.89252615e-01, 2.31816220e+00 ]
      - [ 2.12239265e+00, 3.35162431e-01, 4.35780048e+00 ]
      - [ 1.79160678e+00, 3.72339457e-01, 3.87525654e+00 ]
      - [ 2.67439914e+00, 6.82315350e-01, 2.35540175e+00 ]
      - [ 2.31345701e+00, 5.69497526e-01, 2.77347779e+00 ]
      - [ 2.32025504e+00, 6.65012836e-01, 2.41274786e+00 ]
      - [ 2.39427137e+00, 1.09994817e+00, 1.54300427e+00 ]
      - [ 1.92775548e+00, 3.39719296e-01, 4.19119072e+00 ]
      - [ 4.29953623e+00, 2.22081989e-01, 6.58537292e+00 ]
      - [ 1.41133511e+00, 5.83657563e-01, 2.70630646e+00 ]
      - [ 1.54503310e+00, 3.06859016e-01, 4.56403923e+00 ]
      - [ 2.39214540e+00, 2.75589287e-01, 5.05167150e+00 ]
      - [ 3.49364758e+00, 4.50502843e-01, 3.32303953e+00 ]
      - [ 1.93360281e+00, 6.32449746e-01, 2.50270271e+00 ]
      - [ 1.82776284e+00, 2.98236549e-01, 4.79100847e+00 ]
      - [ 2.49763417e+00, 6.21477842e-01, 2.59195232e+00 ]
      - [ 2.15373063e+00, 3.01701158e-01, 4.68517303e+00 ]
      - [ 4.12314796e+00, 3.87719959e-01, 3.57743239e+00 ]
      - [ 2.44598222e+00, 6.95078671e-01, 2.33863735e+00 ]
      - [ 2.33340597e+00, 8.46092582e-01, 1.90528035e+00 ]
      - [ 1.40000844e+00, 3.90547603e-01, 4.09436512e+00 ]
      - [ 1.68941581e+00, 5.73546171e-01, 2.72412300e+00 ]
      - [ 2.77924633e+00, 3.73438865e-01, 3.68699145e+00 ]
      - [ 5.52248096e+00, 6.30005836e-01, 2.46029854e+00 ]
      - [ 2.33933473e+00, 3.33199352e-01, 4.35656834e+00 ]
      - [ 1.63073993e+00, 3.45764846e-01, 3.98944306e+00 ]
      - [ 2.69884896e+00, 3.62559468e-01, 3.72867060e+00 ]
      - [ 2.40612245e+00, 3.65812868e-01, 3.92750478e+00 ]
      - [ 3.99632263e+00, 3.98789316e-01, 3.70453119e+00 ]
      - [ 2.82884216e+00, 6.35477483e-01, 2.50530529e+00 ]
      - [ 2.67822647e+00, 6.10373676e-01, 2.57563710e+00 ]
      - [ 1.76946402e+00, 3.34425926e-01, 4.25977993e+00 ]
      - [ 2.47953248e+00, 5.07492661e-01, 2.93225145e+00 ]
      - [ 1.81003535e+00, 3.22637260e-01, 4.46933746e+00 ]
      - [ 1.77664876e+00, 3.55904609e-01, 4.03433514e+00 ]
      - [ 1.95367932e+00, 3.45277548e-01, 4.11908436e+00 ]
      - [ 2.05485964e+00, 3.05010736e-01, 4.63007689e+00 ]
      - [ 2.42466068e+00, 5.86273730e-01, 2.69003153e+00 ]
      - [ 2.69524622e+00, 4.60037947e-01, 2.95734286e+00 ]
      - [ 1.53391731e+00, 2.93228894e-01, 4.82199574e+00 ]
      - [ 3.83348989e+00, 5.59302568e-01, 2.83780193e+00 ]
      - [ 4.79217672e+00, 8.35510910e-01, 1.92400336e+00 ]
      - [ 2.05634785e+00, 3.42401981e-01, 4.03890991e+00 ]
      - [ 1.40940547e+00, 3.09109271e-01, 4.61664200e+00 ]
      - [ 3.29790568e+00, 3.82337809e-01, 3.63008857e+00 ]
      - [ 3.89499164e+00, 3.92340899e-01, 3.56804967e+00 ]
      - [ 2.01007771e+00, 5.73166728e-01, 2.81846046e+00 ]
      - [ 2.19314480e+00, 3.53668690e-01, 3.99091840e+00 ]
      - [ 3.03559828e+00, 5.88639200e-01, 2.73463893e+00 ]
      - [ 2.86110783e+00, 4.46651936e-01, 3.52593231e+00 ]
      - [ 2.91312575e+00, 4.14956689e-01, 3.38146329e+00 ]
      - [ 2.18557096e+00, 3.00775081e-01, 4.51388550e+00 ]
      - [ 8.65033627e-01, 3.94153595e-01, 3.52876353e+00 ]
      - [ 2.02563238e+00, 3.28785956e-01, 4.28125906e+00 ]
      - [ 2.23560667e+00, 7.68611908e-01, 2.13403773e+00 ]
      - [ 2.04810190e+00, 6.13453031e-01, 2.62103605e+00 ]
      - [ 2.70649529e+00, 4.71603274e-01, 3.22791982e+00 ]
      - [ 2.13216496e+00, 3.34449947e-01, 4.12272787e+00 ]
      - [ 2.61632824e+00, 3.63373995e-01, 3.94835615e+00 ]
      - [ 2.44870257e+00, 3.71481121e-01, 3.73423910e+00 ]
      - [ 2.08479428e+00, 3.19335133e-01, 4.37709808e+00 ]
      - [ 3.12762308e+00, 4.02538985e-01, 3.36541796e+00 ]
      - [ 1.95278382e+00, 6.28777444e-01, 2.52060747e+00 ]
      - [ 2.10075736e+00, 3.44617158e-01, 4.20445061e+00 ]
      - [ 1.37442839e+00, 7.42220402e-01, 2.03800225e+00 ]
      - [ 1.65586555e+00, 4.82922822e-01, 3.33225465e+00 ]
      - [ 2.08072233e+00, 6.00837290e-01, 2.66574979e+00 ]
      - [ 2.58779407e+00, 5.98882020e-01, 2.65802073e+00 ]
      - [ 2.47812462e+00, 3.40353608e-01, 4.01963520e+00 ]
      - [ 2.27470064e+00, 3.65064263e-01, 3.99345112e+00 ]
      - [ 3.60456276e+00, 4.82796133e-01, 3.34295869e+00 ]
      - [ 2.11863208e+00, 5.97516835e-01, 2.68260479e+00 ]
      - [ 3.33800578e+00, 6.68033659e-01, 2.42615032e+00 ]
      - [ 2.43078494e+00, 4.94416982e-01, 3.05714893e+00 ]
      - [ 2.29748011e+00, 3.23310733e-01, 4.22477007e+00 ]
      - [ 1.55709231e+00, 5.36605775e-01, 3.01403570e+00 ]
      - [ 1.75276315e+00, 3.62731308e-01, 4.06893110e+00 ]
      - [ 2.74732232e+00, 7.12236106e-01, 2.27634978e+00 ]
      - [ 1.80081856e+00, 2.95764357e-01, 4.63472271e+00 ]
      - [ 2.06082845e+00, 3.38838041e-01, 4.38057613e+00 ]
      - [ 1.59380257e+00, 3.95110697e-01, 3.73175931e+00 ]
      - [ 1.60390246e+00, 3.49546790e-01, 4.07006454e+00 ]
      - [ 2.27152586e+00, 3.17380846e-01, 4.48803425e+00 ]
      - [ 1.81438601e+00, 3.22717786e-01, 4.29710340e+00 ]
      - [ 2.37650061e+00, 3.30048472e-01, 4.20198536e+00 ]
      - [ 1.67387891e+00, 6.62047923e-01, 2.42664671e+00 ]
      - [ 1.76061463e+00, 3.39731574e-01, 4.12964058e+00 ]
      - [ 2.82714772e+00, 3.45606923e-01, 3.99464393e+00 ]
      - [ 2.48970342e+00, 3.07530046e-01, 4.39232445e+00 ]
      - [ 1.13405335e+00, 2.98072070e-01, 5.36236238e+00 ]
      - [ 1.57262158e+00, 3.66431504e-01, 3.84019876e+00 ]
      - [ 2.84706044e+00, 6.40465021e-01, 2.46753216e+00 ]
      - [ 2.72595024e+00, 4.75890338e-01, 3.07102609e+00 ]
      - [ 1.77337074e+00, 3.10091019e-01, 4.40033436e+00 ]
      - [ 2.54225612e+00, 4.71678585e-01, 3.34435701e+00 ]
      - [ 4.37690449e+00, 4.10618722e-01, 3.53753066e+00 ]
      - [ 1.72163522e+00, 3.47005993e-01, 4.05687237e+00 ]
      - [ 1.85863841e+00, 6.26864552e-01, 2.49344182e+00 ]
      - [ 3.71602440e+00, 6.24295652e-01, 2.63891840e+00 ]
      - [ 2.88095665e+00, 4.50540990e-01, 3.33010387e+00 ]
      - [ 2.67982030e+00, 7.09367156e-01, 2.25033402e+00 ]
      - [ 2.30483270e+00, 2.91888833e-01, 4.91957092e+00 ]
      - [ 1.71982419e+00, 3.17260295e-01, 4.54111099e+00 ]
      - [ 1.57623827e+00, 6.30469918e-01, 2.51804447e+00 ]
      - [ 2.46745539e+00, 5.04547417e-01, 2.84550905e+00 ]
      - [ 2.10513973e+00, 5.14120996e-01, 3.09340477e+00 ]
      - [ 2.63016558e+00, 4.38136578e-01, 3.16419625e+00 ]
      - [ 2.86598992e+00, 9.52278912e-01, 1.72492719e+00 ]
      - [ 3.10505891e+00, 7.32255816e-01, 2.15357280e+00 ]
      - [ 2.14955235e+00, 3.37605834e-01, 4.11107922e+00 ]
      - [ 1.73485243e+00, 3.52165043e-01, 4.11360550e+00 ]
      - [ 8.36382103e+00, 3.75107378e-01, 3.98923969e+00 ]
      - [ 2.25068712e+00, 5.39023638e-01, 2.78453827e+00 ]
      - [ 2.46471930e+00, 3.14832836e-01, 4.46809244e+00 ]
      - [ 1.62799823e+00, 6.73346817e-01, 2.36592722e+00 ]
      - [ 1.78881669e+00, 6.64610744e-01, 2.38444090e+00 ]
      - [ 1.56483483e+00, 3.06211025e-01, 4.58492851e+00 ]
      - [ 1.26364768e+00, 4.41433460e-01, 3.71631527e+00 ]
      - [ 1.99300027e+00, 3.23639870e-01, 4.44610548e+00 ]
      - [ 3.29791570e+00, 4.47202414e-01, 3.17332172e+00 ]
      - [ 4.05550671e+00, 7.94885457e-01, 2.06968141e+00 ]
      - [ 3.41708231e+00, 5.67381859e-01, 2.83027625e+00 ]
      - [ 2.98825264e+00, 6.29732430e-01, 2.58194828e+00 ]
      - [ 5.77048969e+00, 5.37203968e-01, 2.78042364e+00 ]
      - [ 3.23331380e+00, 3.21594715e-01, 4.28891420e+00 ]
      - [ 3.42628193e+00, 6.26528382e-01, 2.54261899e+00 ]
      - [ 2.01666236e+00, 5.72563112e-01, 2.69259024e+00 ]
      - [ 1.42417216e+00, 3.46541941e-01, 4.06334066e+00 ]
      - [ 1.44898272e+00, 3.36574078e-01, 4.06321335e+00 ]
      - [ 4.15315199e+00, 5.09954095e-01, 3.08209085e+00 ]
      - [ 6.20972252e+00, 5.01969337e-01, 2.97244859e+00 ]
      - [ 1.58547962e+00, 2.74813443e-01, 5.25289154e+00 ]
      - [ 3.30156207e+00, 6.80589318e-01, 2.40638185e+00 ]
      - [ 1.84982204e+00, 3.13328445e-01, 4.48089314e+00 ]
      - [ 1.74697196e+00, 3.39868218e-01, 4.08590078e+00 ]
      - [ 2.57407951e+00, 5.43402255e-01, 3.03084564e+00 ]
      - [ 1.80647802e+00, 3.75396103e-01, 3.93174076e+00 ]
      - [ 2.31600666e+00, 3.39042783e-01, 4.12619448e+00 ]
      - [ 1.00810051e+00, 7.63241172e-01, 2.12237692e+00 ]
      - [ 4.93690777e+00, 4.51600522e-01, 3.33681440e+00 ]
      - [ 2.69109011e+00, 3.86949658e-01, 3.59827876e+00 ]
      - [ 3.36179113e+00, 3.31423998e-01, 4.35642862e+00 ]
      - [ 4.71957016e+00, 8.62912416e-01, 1.89838934e+00 ]
      - [ 2.57849646e+00, 3.55240524e-01, 3.96062517e+00 ]
      - [ 1.97629535e+00, 3.32084686e-01, 4.41516590e+00 ]
      - [ 2.59501910e+00, 6.64159179e-01, 2.44843960e+00 ]
      - [ 2.21812701e+00, 5.32531977e-01, 2.85502934e+00 ]
      - [ 2.76866269e+00, 3.31912100e-01, 4.08864498e+00 ]
      - [ 1.40416586e+00, 7.26834595e-01, 2.23334861e+00 ]
      - [ 2.94553351e+00, 4.25649017e-01, 3.12721872e+00 ]
      - [ 1.85200667e+00, 4.03317451e-01, 3.81778169e+00 ]
      - [ 1.98421407e+00, 2.88007259e-01, 5.24472904e+00 ]
      - [ 1.75111377e+00, 5.76482117e-01, 2.78847122e+00 ]
      - [ 2.69280100e+00, 3.79427940e-01, 3.51568365e+00 ]
      - [ 3.02135324e+00, 7.51208186e-01, 2.14879203e+00 ]
      - [ 8.97951412e+00, 1.91975132e-01, 7.65511084e+00 ]
      - [ 2.51601195e+00, 6.35691166e-01, 2.53682327e+00 ]
      - [ 1.14355004e+00, 3.88631821e-01, 4.06755733e+00 ]
      - [ 2.62840080e+00, 3.40582699e-01, 4.07134533e+00 ]
      - [ 1.59319937e+00, 2.92757422e-01, 5.12419319e+00 ]
      - [ 2.15619135e+00, 5.92146635e-01, 2.73892951e+00 ]
      - [ 2.10979533e+00, 3.45124811e-01, 4.10240936e+00 ]
      - [ 1.91154313e+00, 6.51824892e-01, 2.39068794e+00 ]
      - [ 1.73734021e+00, 3.37457895e-01, 4.04722929e+00 ]
      - [ 1.37910223e+00, 7.07239449e-01, 2.21371698e+00 ]
      - [ 1.42684734e+00, 3.47130477e-01, 3.97082663e+00 ]
      - [ 3.22035050e+00, 5.69123030e-01, 2.80459714e+00 ]
      - [ 1.81191146e+00, 3.13253582e-01, 4.47960758e+00 ]
      - [ 1.10580289e+00, 3.88705373e-01, 4.24769354e+00 ]
      - [ 1.84915459e+00, 4.51988250e-01, 3.45425773e+00 ]
      - [ 2.49904037e+00, 5.53453803e-01, 2.76051784e+00 ]
      - [ 1.73479927e+00, 4.45799112e-01, 3.67830586e+00 ]
      - [ 1.78579819e+00, 5.73382437e-01, 2.81669712e+00 ]
      - [ 1.65371323e+00, 4.78376716e-01, 3.17666078e+00 ]
      - [ 2.84769440e+00, 6.45616591e-01, 2.46682596e+00 ]
      - [ 1.93171775e+00, 5.41752934e-01, 3.00173640e+00 ]
      - [ 2.64130902e+00, 5.94316483e-01, 2.76007867e+00 ]
      - [ 2.98281026e+00, 8.33675444e-01, 1.93571234e+00 ]
      - [ 1.38549352e+00, 2.95126170e-01, 4.84834528e+00 ]
      - [ 2.48907924e+00, 3.70586216e-01, 3.78323531e+00 ]
      - [ 1.92489374e+00, 3.18004400e-01, 4.43024492e+00 ]
      - [ 1.95409536e+00, 5.50914943e-01, 2.95329881e+00 ]
      - [ 2.62755251e+00, 5.11355937e-01, 2.88647532e+00 ]
      - [ 3.35891604e+00, 4.07345057e-01, 3.69796562e+00 ]
      - [ 1.37317932e+00, 5.85377395e-01, 2.81751394e+00 ]
      - [ 2.08243299e+00, 3.56417060e-01, 4.04020262e+00 ]
      - [ 2.62045550e+00, 7.52940297e-01, 2.16453123e+00 ]
      - [ 2.14065790e+00, 3.25431794e-01, 4.35597849e+00 ]
      - [ 3.98223758e+00, 8.30744267e-01, 1.90264404e+00 ]
      - [ 1.78718972e+00, 3.42641145e-01, 4.07815742e+00 ]
      - [ 2.94874406e+00, 2.94350803e-01, 4.93839073e+00 ]
      - [ 1.91959858e+00, 4.62317407e-01, 3.31558442e+00 ]
      - [ 2.36938357e+00, 2.93459564e-01, 5.14090919e+00 ]
      - [ 1.39077306e+00, 5.48885942e-01, 2.68577504e+00 ]
      - [ 2.70047569e+00, 4.29642290e-01, 3.36077762e+00 ]
      - [ 2.83002400e+00, 4.46325392e-01, 3.10067630e+00 ]
      - [ 1.34189355e+00, 3.32806855e-01, 4.38997841e+00 ]
      - [ 2.34327674e+00, 3.45285684e-01, 3.98183131e+00 ]
      - [ 2.22701979e+00, 3.37447673e-01, 4.00194168e+00 ]
      - [ 1.36034787e+00, 3.54288876e-01, 4.02889156e+00 ]
      - [ 1.70428765e+00, 3.32131118e-01, 4.19086838e+00 ]
      - [ 1.35640156e+00, 3.37340444e-01, 4.21734858e+00 ]
      - [ 2.61602116e+00, 4.54887301e-01, 3.34875774e+00 ]
      - [ 2.76887989e+00, 4.62713271e-01, 3.21560287e+00 ]
      - [ 1.50510943e+00, 3.81797671e-01, 3.82000065e+00 ]
      - [ 2.87324286e+00, 4.26567256e-01, 3.46842933e+00 ]
      - [ 4.56190300e+00, 8.54146421e-01, 1.91070867e+00 ]
      - [ 1.72558856e+00, 2.54426390e-01, 5.86983252e+00 ]
      - [ 5.52538872e+00, 3.05651933e-01, 4.66631651e+00 ]
      - [ 2.17926335e+00, 6.74233913e-01, 2.37771559e+00 ]
      - [ 1.80424035e+00, 6.16888106e-01, 2.58537817e+00 ]
      - [ 2.88959765e+00, 4.11760509e-01, 3.29979801e+00 ]
      - [ 2.21511269e+00, 3.47032607e-01, 4.06026363e+00 ]
      - [ 1.88381052e+00, 6.23173296e-01, 2.51750517e+00 ]
      - [ 2.11508226e+00, 5.87751985e-01, 2.65945745e+00 ]
      - [ 2.87670708e+00, 3.40752184e-01, 4.03195238e+00 ]
      - [ 2.15964913e+00, 2.93385357e-01, 4.97386408e+00 ]
      - [ 3.26932430e+00, 7.09471762e-01, 2.26883841e+00 ]
      - [ 1.60299397e+00, 3.50887865e-01, 3.99645209e+00 ]
      - [ 2.51627851e+00, 5.21163344e-01, 2.76018620e+00 ]
      - [ 1.99283469e+00, 3.38340372e-01, 4.13691998e+00 ]
      - [ 1.18932986e+00, 4.29857731e-01, 3.54582191e+00 ]
      - [ 1.67363358e+00, 3.32916796e-01, 4.23857594e+00 ]
      - [ 1.30112779e+00, 4.71413791e-01, 3.29801846e+00 ]
      - [ 1.96083319e+00, 5.22624850e-01, 3.05685711e+00 ]
      - [ 1.53913295e+00, 5.76627076e-01, 2.86261249e+00 ]
      - [ 2.18000579e+00, 6.93651021e-01, 2.34012651e+00 ]
      - [ 2.63827205e+00, 5.97440302e-01, 2.66389871e+00 ]
      - [ 2.49082446e+00, 4.46793377e-01, 3.31821966e+00 ]
      - [ 1.72163475e+00, 2.80060023e-01, 5.24992514e+00 ]
      - [ 1.74310362e+00, 5.72315395e-01, 2.77275586e+00 ]
      - [ 1.30453289e+00, 3.70135427e-01, 3.84213829e+00 ]
      - [ 1.43745458e+00, 5.17257810e-01, 3.10978889e+00 ]
      - [ 2.52815413e+00, 3.67213637e-01, 3.71256375e+00 ]
      - [ 1.40030074e+00, 3.09692591e-01, 4.67327452e+00 ]
      - [ 4.17108631e+00, 4.13530827e-01, 3.85988665e+00 ]
      - [ 1.80827308e+00, 6.17382765e-01, 2.66894746e+00 ]
      - [ 3.39513350e+00, 2.78867513e-01, 4.94251776e+00 ]
      - [ 3.62956023e+00, 3.69139284e-01, 3.59977531e+00 ]
      - [ 2.32833147e+00, 6.69868231e-01, 2.38476062e+00 ]
      - [ 1.54765499e+00, 3.10168475e-01, 4.74894810e+00 ]
      - [ 3.00574946e+00, 6.34800017e-01, 2.54231763e+00 ]
      - [ 2.74103379e+00, 4.48141724e-01, 3.21964765e+00 ]
      - [ 1.48508632e+00, 7.40458310e-01, 2.17039537e+00 ]
      - [ 3.56954074e+00, 5.49471259e-01, 2.77345490e+00 ]
      - [ 2.61273623e+00, 6.58980548e-01, 2.44187689e+00 ]
      - [ 2.06241322e+00, 3.08140993e-01, 4.60804033e+00 ]
      - [ 1.97713280e+00, 3.28448594e-01, 4.22572422e+00 ]
      - [ 2.49623084e+00, 4.53039497e-01, 3.29524946e+00 ]
      - [ 2.32734704e+00, 3.13074917e-01, 4.41755152e+00 ]
      - [ 2.10410666e+00, 3.34636986e-01, 4.29399252e+00 ]
      - [ 1.64354348e+00, 3.01183134e-01, 4.68888044e+00 ]
      - [ 1.63377297e+00, 3.06644469e-01, 4.56983519e+00 ]
      - [ 1.87684119e+00, 3.63994807e-01, 3.92351174e+00 ]
      - [ 2.49812770e+00, 3.75255793e-01, 3.69817090e+00 ]
      - [ 2.84164548e+00, 4.25430804e-01, 3.54272485e+00 ]
      - [ 5.11788464e+00, 3.51393819e-01, 4.48407507e+00 ]
      - [ 2.02928185e+00, 2.85016567e-01, 5.41809797e+00 ]
      - [ 2.20192003e+00, 6.00688577e-01, 2.68436337e+00 ]
      - [ 2.65746450e+00, 3.51014674e-01, 3.95091152e+00 ]
      - [ 1.72678876e+00, 3.32624227e-01, 4.31196022e+00 ]
      - [ 2.70702815e+00, 3.78671229e-01, 3.58574700e+00 ]
      - [ 1.75473452e+00, 3.73985976e-01, 3.90971398e+00 ]
      - [ 1.68905830e+00, 5.21327555e-01, 2.90448189e+00 ]
      - [ 2.37667179e+00, 5.93620718e-01, 2.72608805e+00 ]
      - [ 2.21022725e+00, 3.33364725e-01, 4.16159868e+00 ]
      - [ 3.50381255e+00, 5.68108916e-01, 2.71329141e+00 ]
      - [ 1.91075695e+00, 3.52195501e-01, 4.17772055e+00 ]
      - [ 2.99613857e+00, 5.11571467e-01, 3.21560287e+00 ]
      - [ 4.73155499e+00, 3.82279992e-01, 3.76764703e+00 ]
      - [ 2.79073477e+00, 5.52284837e-01, 2.87418532e+00 ]
      - [ 1.71983218e+00, 5.19190729e-01, 3.09325099e+00 ]
      - [ 3.19873333e+00, 3.62743735e-01, 4.10881662e+00 ]
      - [ 2.52210522e+00, 4.81811196e-01, 3.32572794e+00 ]
      - [ 2.48746443e+00, 5.66331029e-01, 2.86322975e+00 ]
      - [ 2.93817711e+00, 5.76739848e-01, 2.79859495e+00 ]
      - [ 3.57105732e+00, 4.15470332e-01, 3.32306123e+00 ]
      - [ 2.64224148e+00, 6.60875916e-01, 2.38806534e+00 ]
      - [ 3.00557041e+00, 5.62784016e-01, 2.82173204e+00 ]
      - [ 3.16239548e+00, 4.05301481e-01, 3.61799955e+00 ]
      - [ 2.72717118e+00, 8.88911664e-01, 1.82651329e+00 ]
      - [ 2.36503124e+00, 3.69841814e-01, 3.86179829e+00 ]
      - [ 1.11848593e+00, 5.08315861e-01, 3.26401877e+00 ]
      - [ 2.50787544e+00, 3.57862055e-01, 3.88326478e+00 ]
      - [ 3.05589914e+00, 8.73381078e-01, 2.00828290e+00 ]
      - [ 2.25118828e+00, 6.86278164e-01, 2.35967779e+00 ]
      - [ 3.50938368e+00, 6.49611056e-01, 2.47779870e+00 ]
      - [ 3.04927278e+00, 6.02320433e-01, 2.64846921e+00 ]
      - [ 2.61423850e+00, 3.88939917e-01, 3.61623216e+00 ]
      - [ 2.79798532e+00, 3.65234911e-01, 3.70457172e+00 ]
      - [ 2.86211252e+00, 5.26577055e-01, 2.89084673e+00 ]
      - [ 1.48658729e+00, 4.89474267e-01, 3.32741284e+00 ]
      - [ 2.87286305e+00, 3.73983204e-01, 3.74585152e+00 ]
      - [ 3.05664778e+00, 7.36113369e-01, 2.06258416e+00 ]
      - [ 2.41759562e+00, 5.02646923e-01, 3.18414688e+00 ]
      - [ 3.39497828e+00, 6.10235393e-01, 2.58254886e+00 ]
      - [ 1.56305647e+00, 3.32966983e-01, 4.08970499e+00 ]
      - [ 2.55941653e+00, 6.33353889e-01, 2.50586939e+00 ]
      - [ 1.67103446e+00, 3.35677207e-01, 4.27065134e+00 ]
      - [ 2.54814768e+00, 7.69054115e-01, 2.03449273e+00 ]
      - [ 3.96983981e+00, 7.95325041e-01, 1.98961711e+00 ]
      - [ 3.08640862e+00, 6.85551941e-01, 2.44274616e+00 ]
      - [ 2.25036597e+00, 4.98082787e-01, 2.95445681e+00 ]
      - [ 2.13792896e+00, 6.39892578e-01, 2.48807120e+00 ]
      - [ 1.66779423e+00, 3.72829348e-01, 3.92424536e+00 ]
      - [ 2.89247751e+00, 2.72212207e-01, 5.30451775e+00 ]
      - [ 2.49523163e+00, 3.45966309e-01, 3.96870351e+00 ]
      - [ 4.87993860e+00, 4.69470352e-01, 3.10730124e+00 ]
      - [ 2.01511717e+00, 3.11906606e-01, 4.51255369e+00 ]
      - [ 3.12429905e+00, 7.51720607e-01, 2.16313839e+00 ]
      - [ 2.45712781e+00, 7.61825025e-01, 2.15212178e+00 ]
      - [ 2.91960311e+00, 6.47828341e-01, 2.46536660e+00 ]
      - [ 2.54283381e+00, 5.29991627e-01, 3.04165244e+00 ]
      - [ 2.75455046e+00, 3.12952787e-01, 4.91327763e+00 ]
      - [ 2.74988627e+00, 3.35913807e-01, 4.06982088e+00 ]
      - [ 2.29440188e+00, 5.22648573e-01, 2.79772830e+00 ]
      - [ 1.89177859e+00, 5.86252153e-01, 2.73373795e+00 ]
      - [ 2.62937546e+00, 4.33142573e-01, 3.30522680e+00 ]
      - [ 2.18965602e+00, 6.02258146e-01, 2.60734272e+00 ]
      - [ 2.03955126e+00, 5.63126802e-01, 2.80934644e+00 ]
      - [ 2.39589238e+00, 3.54672074e-01, 3.98595214e+00 ]
      - [ 3.50822425e+00, 6.26742482e-01, 2.58143830e+00 ]
      - [ 1.66200554e+00, 3.40858549e-01, 4.13342667e+00 ]
      - [ 4.20292568e+00, 3.46235335e-01, 4.21561003e+00 ]
      - [ 2.79357529e+00, 3.71923029e-01, 3.61708117e+00 ]
      - [ 1.67869186e+00, 3.24206650e-01, 4.44558191e+00 ]
      - [ 1.67971897e+00, 3.89606416e-01, 3.92788792e+00 ]
      - [ 2.82961822e+00, 3.77448499e-01, 3.75597978e+00 ]
      - [ 6.43901539e+00, 5.02346575e-01, 2.79694462e+00 ]
      - [ 2.34385133e+00, 5.07574916e-01, 2.84399915e+00 ]
      - [ 2.60928392e+00, 4.50931132e-01, 3.11755729e+00 ]
      - [ 1.70760942e+00, 2.86167145e-01, 4.87975740e+00 ]
      - [ 2.57098699e+00, 4.65074420e-01, 3.20464754e+00 ]
      - [ 3.37609410e+00, 6.05064034e-01, 2.67795062e+00 ]
      - [ 2.46117187e+00, 6.59274757e-01, 2.29239798e+00 ]
      - [ 2.51909423e+00, 3.78397405e-01, 3.81581092e+00 ]
      - [ 2.13912678e+00, 3.25669497e-01, 4.48740768e+00 ]
      - [ 1.85765982e+00, 3.49820197e-01, 4.30575037e+00 ]
      - [ 4.61278534e+00, 2.69514859e-01, 5.72000027e+00 ]
      - [ 2.67618394e+00, 3.72756869e-01, 3.99026251e+00 ]
      - [ 3.95203614e+00, 3.25019449e-01, 4.56965780e+00 ]
      - [ 2.16227126e+00, 4.73502189e-01, 3.14645243e+00 ]
      - [ 1.51915395e+00, 3.34810525e-01, 4.11073494e+00 ]
      - [ 3.20214415e+00, 6.72591448e-01, 2.45892191e+00 ]
      - [ 2.54622078e+00, 4.31727916e-01, 3.42575359e+00 ]
      - [ 1.95823455e+00, 3.48647684e-01, 4.07309628e+00 ]
      - [ 2.62674212e+00, 7.15758801e-01, 2.24180651e+00 ]
      - [ 5.13582039e+00, 7.51112401e-01, 2.17494774e+00 ]
      - [ 1.33867741e+00, 3.43091518e-01, 4.16276264e+00 ]
      - [ 2.05366397e+00, 5.21441877e-01, 2.73413539e+00 ]
      - [ 1.92365527e+00, 3.41900676e-01, 4.19725323e+00 ]
      - [ 2.97881889e+00, 3.86715591e-01, 4.05048323e+00 ]
      - [ 2.32034159e+00, 3.19736838e-01, 4.44769764e+00 ]
      - [ 1.58900809e+00, 3.08225900e-01, 4.55113316e+00 ]
      - [ 2.32905102e+00, 3.37012410e-01, 4.09889221e+00 ]
      - [ 1.56781483e+00, 3.65055174e-01, 3.89855409e+00 ]
      - [ 1.55450404e+00, 5.28950393e-01, 3.03588414e+00 ]
      - [ 4.40418148e+00, 4.17344660e-01, 3.46414423e+00 ]
      - [ 2.90953636e+00, 5.50951183e-01, 3.00883198e+00 ]
      - [ 1.92565966e+00, 3.31910849e-01, 4.16224194e+00 ]
      - [ 3.04996610e+00, 3.47322166e-01, 3.86059952e+00 ]
      - [ 2.86578846e+00, 5.13772964e-01, 3.09604192e+00 ]
      - [ 2.22722960e+00, 6.35888040e-01, 2.51027441e+00 ]
      - [ 2.76610637e+00, 6.26286268e-01, 2.54037237e+00 ]
      - [ 2.63489556e+00, 4.37067121e-01, 3.37341309e+00 ]
      - [ 2.27358127e+00, 3.25695604e-01, 4.32666588e+00 ]
      - [ 1.87445652e+00, 3.01464468e-01, 4.82069159e+00 ]
      - [ 3.35122943e+00, 2.94535846e-01, 5.36572742e+00 ]
      - [ 2.53409743e+00, 3.33519638e-01, 4.16799212e+00 ]
      - [ 1.81097543e+00, 2.85204530e-01, 5.14871073e+00 ]
      - [ 3.10215688e+00, 3.20849478e-01, 4.54329300e+00 ]
      - [ 2.25416422e+00, 3.25111777e-01, 4.03883362e+00 ]
      - [ 2.49628806e+00, 6.48267269e-01, 2.48794460e+00 ]
      - [ 1.73362660e+00, 3.49970818e-01, 4.11623669e+00 ]
      - [ 2.51764464e+00, 3.83763403e-01, 3.62928128e+00 ]
      - [ 2.06529450e+00, 4.91861582e-01, 2.99579883e+00 ]
      - [ 3.99027085e+00, 9.62664425e-01, 1.71438575e+00 ]
      - [ 2.17692757e+00, 5.20552993e-01, 2.96265316e+00 ]
      - [ 1.54807043e+00, 6.46194279e-01, 2.53439975e+00 ]
      - [ 2.55274487e+00, 5.72295010e-01, 2.81656337e+00 ]
      - [ 4.84013939e+00, 4.62458700e-01, 3.03774524e+00 ]
      - [ 8.99727821e+00, 3.80654514e-01, 3.86392283e+00 ]
      - [ 1.54745913e+00, 3.61210555e-01, 4.09690046e+00 ]
      - [ 2.75219607e+00, 3.96797895e-01, 3.39065886e+00 ]
      - [ 2.66808391e+00, 3.43034238e-01, 4.18263483e+00 ]
      - [ 1.44152033e+00, 3.29156816e-01, 4.37466812e+00 ]
      - [ 2.22367334e+00, 5.25599539e-01, 2.84185123e+00 ]
      - [ 1.69329441e+00, 3.27543199e-01, 4.18367767e+00 ]
      - [ 1.32280946e+00, 6.45639360e-01, 2.29381227e+00 ]
      - [ 2.51022077e+00, 5.32919168e-01, 3.06327558e+00 ]
      - [ 2.07416701e+00, 7.27856696e-01, 2.24521542e+00 ]
      - [ 2.17540884e+00, 3.14417452e-01, 4.48841763e+00 ]
      - [ 2.43492484e+00, 3.30823302e-01, 4.36311817e+00 ]
      - [ 2.23707795e+00, 5.72446048e-01, 2.76144409e+00 ]
      - [ 1.97000158e+00, 6.07830048e-01, 2.56888270e+00 ]
      - [ 3.39135814e+00, 6.38289154e-01, 2.52661920e+00 ]
      - [ 1.65780604e+00, 3.30925941e-01, 4.16545820e+00 ]
      - [ 1.46409249e+00, 3.20091039e-01, 4.24064589e+00 ]
      - [ 2.41190386e+00, 7.91667283e-01, 1.98189962e+00 ]
      - [ 2.91197371e+00, 7.25060225e-01, 2.18699861e+00 ]
      - [ 5.51732016e+00, 7.41446733e-01, 2.04787970e+00 ]
      - [ 2.63034940e+00, 3.40213746e-01, 4.09753323e+00 ]
      - [ 3.15459466e+00, 6.05013847e-01, 2.67463970e+00 ]
      - [ 6.40537882e+00, 3.30227733e-01, 4.94845152e+00 ]
      - [ 2.41783905e+00, 3.53559583e-01, 4.16898584e+00 ]
      - [ 1.93452168e+00, 3.72911811e-01, 3.92611027e+00 ]
      - [ 1.82711375e+00, 2.87207246e-01, 5.14724445e+00 ]
      - [ 2.41945076e+00, 3.48693669e-01, 3.98991156e+00 ]
      - [ 1.94663823e+00, 2.83416331e-01, 4.99998856e+00 ]
      - [ 2.23890901e+00, 3.33865136e-01, 4.26165581e+00 ]
      - [ 4.73762274e+00, 3.48842084e-01, 4.12367773e+00 ]
      - [ 1.69776547e+00, 7.12426186e-01, 2.26241803e+00 ]
      - [ 2.54538941e+00, 6.48396134e-01, 2.52408171e+00 ]
      - [ 2.09351945e+00, 3.38204980e-01, 4.14061069e+00 ]
      - [ 1.43216109e+00, 4.26072717e-01, 3.74131036e+00 ]
      - [ 2.40127873e+00, 5.10458529e-01, 2.94544697e+00 ]
      - [ 2.54182529e+00, 3.71878773e-01, 3.91431451e+00 ]
      - [ 2.00178480e+00, 3.37316871e-01, 4.12757492e+00 ]
      - [ 2.16293073e+00, 6.34972036e-01, 2.45350409e+00 ]
      - [ 1.89723957e+00, 3.20211232e-01, 4.44564342e+00 ]
      - [ 3.13014102e+00, 3.75390261e-01, 4.12752438e+00 ]
      - [ 2.34824538e+00, 4.00629401e-01, 3.74944043e+00 ]
      - [ 2.14249611e+00, 5.55925786e-01, 2.87061501e+00 ]
      - [ 2.84878683e+00, 3.29223186e-01, 4.40753078e+00 ]
      - [ 2.46689510e+00, 4.66170549e-01, 3.29699063e+00 ]
      - [ 2.06023526e+00, 3.33001435e-01, 4.17488241e+00 ]
      - [ 1.79081988e+00, 3.49023134e-01, 4.07834530e+00 ]
      - [ 2.56098437e+00, 4.62169051e-01, 3.13609314e+00 ]
      - [ 1.95773959e+00, 3.42341721e-01, 4.08128738e+00 ]
      - [ 2.40006495e+00, 6.50046647e-01, 2.42347932e+00 ]
      - [ 1.78578091e+00, 3.30100596e-01, 4.33499432e+00 ]
      - [ 1.69409978e+00, 3.33692342e-01, 4.29573011e+00 ]
      - [ 2.50228167e+00, 3.87546510e-01, 3.61225176e+00 ]
      - [ 2.86771131e+00, 5.64309359e-01, 2.60702848e+00 ]
      - [ 1.89729309e+00, 3.12279135e-01, 4.43366385e+00 ]
      - [ 1.72942698e+00, 3.30581337e-01, 4.39085054e+00 ]
      - [ 2.68392897e+00, 6.55934155e-01, 2.41476583e+00 ]
      - [ 3.60788846e+00, 7.90666223e-01, 1.97084868e+00 ]
      - [ 2.23062444e+00, 4.87082899e-01, 3.11323071e+00 ]
      - [ 2.92253733e+00, 3.49515587e-01, 3.91904163e+00 ]
      - [ 2.40705466e+00, 3.74205291e-01, 3.75110674e+00 ]
      - [ 1.97479546e+00, 4.86049742e-01, 3.35571551e+00 ]
      - [ 2.22845745e+00, 3.15133601e-01, 4.40771818e+00 ]
      - [ 2.79483438e+00, 3.67310613e-01, 3.81192827e+00 ]
      - [ 1.94359112e+00, 4.72186893e-01, 3.38158584e+00 ]
      - [ 1.78261459e+00, 3.61959338e-01, 3.80132031e+00 ]
      - [ 1.70688522e+00, 3.09871703e-01, 4.43148184e+00 ]
      - [ 2.75469995e+00, 5.59402406e-01, 2.84975028e+00 ]
      - [ 1.52467394e+00, 3.44518691e-01, 4.00676727e+00 ]
      - [ 2.03469801e+00, 6.49361193e-01, 2.49610782e+00 ]
      - [ 2.41266203e+00, 3.47892940e-01, 4.09314013e+00 ]
      - [ 2.33864021e+00, 2.59363800e-01, 6.30065966e+00 ]
      - [ 2.59256411e+00, 3.52478713e-01, 3.83904600e+00 ]
      - [ 2.57330561e+00, 3.26232791e-01, 4.39034748e+00 ]
      - [ 2.14367986e+00, 3.86809886e-01, 4.05941296e+00 ]
      - [ 3.60068011e+00, 6.46521270e-01, 2.48971295e+00 ]
      - [ 2.53110123e+00, 6.16696417e-01, 2.54926777e+00 ]
      - [ 1.99258935e+00, 3.30775172e-01, 4.22964001e+00 ]
      - [ 1.32358253e+00, 6.25177264e-01, 2.63458347e+00 ]
      - [ 2.35204124e+00, 3.50760758e-01, 4.14159298e+00 ]
      - [ 2.34804559e+00, 3.27390403e-01, 4.27360296e+00 ]
      - [ 2.89166689e+00, 2.88269997e-01, 4.80085230e+00 ]
      - [ 2.70749784e+00, 3.38243902e-01, 4.03038168e+00 ]
      - [ 1.93149233e+00, 6.75724745e-01, 2.36022162e+00 ]
      - [ 1.68903756e+00, 3.12012494e-01, 4.81844759e+00 ]
      - [ 1.90503228e+00, 3.18962097e-01, 4.40174389e+00 ]
      - [ 2.84740162e+00, 4.50569183e-01, 3.17974615e+00 ]
      - [ 3.19102478e+00, 5.94005704e-01, 2.69251513e+00 ]
      - [ 2.49396753e+00, 3.14486861e-01, 4.38017750e+00 ]
      - [ 2.71349716e+00, 3.73089731e-01, 3.72066593e+00 ]
      - [ 3.30685163e+00, 4.58450139e-01, 3.17938590e+00 ]
      - [ 2.80312705e+00, 3.75009209e-01, 3.66455436e+00 ]
      - [ 1.21451867e+00, 5.40438652e-01, 3.03654194e+00 ]
      - [ 1.90715837e+00, 6.38864100e-01, 2.51239324e+00 ]
      - [ 1.95335233e+00, 5.72001874e-01, 2.80572701e+00 ]
      - [ 1.62020457e+00, 4.22145844e-01, 3.83531022e+00 ]
      - [ 1.76703763e+00, 3.51454020e-01, 4.10714674e+00 ]
      - [ 2.17889071e+00, 6.96062982e-01, 2.20765495e+00 ]
      - [ 3.31184316e+00, 6.14193082e-01, 2.60176921e+00 ]
      - [ 3.24460483e+00, 4.65881526e-01, 3.17487526e+00 ]
      - [ 1.96505797e+00, 2.73573011e-01, 5.16035175e+00 ]
      - [ 1.72014308e+00, 3.60455215e-01, 3.93118310e+00 ]
      - [ 1.85310102e+00, 3.37890923e-01, 4.12632561e+00 ]
      - [ 2.58598089e+00, 5.46713889e-01, 2.94799471e+00 ]
      - [ 2.06124616e+00, 3.55130583e-01, 3.93245125e+00 ]
      - [ 1.46412814e+00, 3.45057845e-01, 4.03572464e+00 ]
      - [ 2.40784144e+00, 3.35770220e-01, 4.10648060e+00 ]
      - [ 2.40413308e+00, 5.75407445e-01, 2.77589273e+00 ]
      - [ 5.56357336e+00, 5.83140850e-01, 2.79540062e+00 ]
      - [ 1.68202734e+00, 5.81692636e-01, 2.73756766e+00 ]
      - [ 1.87406147e+00, 3.25908065e-01, 4.14842987e+00 ]
      - [ 2.10477495e+00, 6.07261121e-01, 2.68581820e+00 ]
      - [ 2.82202673e+00, 7.00967848e-01, 2.27586532e+00 ]
      - [ 2.22497487e+00, 3.12508404e-01, 4.54330873e+00 ]
      - [ 2.75749540e+00, 5.00424027e-01, 2.94424415e+00 ]
      - [ 3.24514365e+00, 6.41437173e-01, 2.50951552e+00 ]
      - [ 2.06986475e+00, 3.45232725e-01, 4.18906164e+00 ]
      - [ 2.15986729e+00, 5.32006443e-01, 2.91451478e+00 ]
      - [ 2.21954608e+00, 6.25147283e-01, 2.53216648e+00 ]
      - [ 1.40028775e+00, 5.11056781e-01, 2.94058204e+00 ]
      - [ 1.54561055e+00, 3.28658760e-01, 4.43732166e+00 ]
      - [ 2.18650365e+00, 1.13732827e+00, 1.49274671e+00 ]
      - [ 2.22601867e+00, 5.52432477e-01, 2.87666655e+00 ]
      - [ 1.57270753e+00, 3.64403129e-01, 4.14751196e+00 ]
      - [ 2.64759779e+00, 3.53771806e-01, 3.93024731e+00 ]
      - [ 1.36178505e+00, 3.41009587e-01, 4.18130445e+00 ]
      - [ 2.74067283e+00, 3.64774019e-01, 3.67970085e+00 ]
      - [ 2.54995918e+00, 5.44940889e-01, 2.94147658e+00 ]
      - [ 1.06425505e+01, 5.63106716e-01, 2.56965423e+00 ]
      - [ 1.62493181e+00, 3.70940477e-01, 3.90881443e+00 ]
      - [ 2.27752066e+00, 6.55764878e-01, 2.48156381e+00 ]
      - [ 1.65400457e+00, 3.32861125e-01, 4.33226395e+00 ]
      - [ 1.56563210e+00, 5.62701166e-01, 2.75709343e+00 ]
      - [ 2.71854591e+00, 3.88681620e-01, 4.29317188e+00 ]
      - [ 1.71064556e+00, 2.78100222e-01, 5.26766300e+00 ]
      - [ 2.96634984e+00, 7.30334401e-01, 2.08721757e+00 ]
      - [ 2.73606682e+00, 3.70650828e-01, 3.68932009e+00 ]
      - [ 3.76738644e+00, 2.67418593e-01, 5.70886421e+00 ]
      - [ 2.15867496e+00, 3.29592019e-01, 4.26538277e+00 ]
      - [ 1.77172017e+00, 6.69325411e-01, 2.41069531e+00 ]
      - [ 4.38745594e+00, 5.32173872e-01, 2.86229444e+00 ]
      - [ 3.52246165e+00, 5.87330997e-01, 2.76038694e+00 ]
      - [ 1.41699219e+00, 3.37506711e-01, 4.09098768e+00 ]
      - [ 2.51291633e+00, 3.29598784e-01, 4.24130392e+00 ]
      - [ 2.57299495e+00, 4.41047579e-01, 3.30286789e+00 ]
      - [ 1.97467172e+00, 3.12397122e-01, 4.39017153e+00 ]
      - [ 2.17728996e+00, 3.32805693e-01, 4.09675455e+00 ]
      - [ 2.72762537e+00, 7.12178648e-01, 2.25863862e+00 ]
      - [ 2.51291919e+00, 5.02919436e-01, 2.86136127e+00 ]
      - [ 3.13295603e+00, 5.87855339e-01, 2.75854778e+00 ]
      - [ 2.84637761e+00, 4.96213049e-01, 3.26564741e+00 ]
      - [ 1.84038234e+00, 5.30191958e-01, 2.97019768e+00 ]
      - [ 1.79362440e+00, 3.63364279e-01, 4.02419901e+00 ]
      - [ 1.99811983e+00, 6.58088386e-01, 2.43299556e+00 ]
      - [ 1.82818079e+00, 3.45854342e-01, 4.04848051e+00 ]
      - [ 2.54878020e+00, 3.29718679e-01, 4.07284832e+00 ]
      - [ 3.18670797e+00, 3.70934904e-01, 3.72828460e+00 ]
      - [ 2.11366320e+00, 3.43658060e-01, 4.49582338e+00 ]
      - [ 7.67201996e+00, 3.85065198e-01, 4.06693172e+00 ]
      - [ 2.04160929e+00, 3.50069195e-01, 4.09239912e+00 ]
      - [ 2.69904613e+00, 6.99946761e-01, 2.29428458e+00 ]
      - [ 2.11701894e+00, 5.18846512e-01, 2.85071373e+00 ]
      - [ 1.69243765e+00, 3.37274075e-01, 4.11109781e+00 ]
      - [ 2.29914069e+00, 5.59852839e-01, 2.84100866e+00 ]
      - [ 1.59344900e+00, 6.43304646e-01, 2.44977403e+00 ]
      - [ 2.16538477e+00, 2.74400711e-01, 5.32358265e+00 ]
      - [ 4.28415155e+00, 4.66574103e-01, 3.15224528e+00 ]
      - [ 2.19929481e+00, 6.18060052e-01, 2.59736943e+00 ]
      - [ 1.44724154e+00, 2.95584768e-01, 4.93020868e+00 ]
      - [ 2.08849192e+00, 3.39256793e-01, 4.58860779e+00 ]
      - [ 2.84200430e+00, 3.77198160e-01, 3.63161278e+00 ]
      - [ 2.43526149e+00, 4.90630090e-01, 2.96057177e+00 ]
      - [ 2.85234761e+00, 4.11083996e-01, 3.31569791e+00 ]
      - [ 2.62543535e+00, 4.01624858e-01, 3.53460050e+00 ]
      - [ 2.41432071e+00, 4.94046122e-01, 3.05637336e+00 ]
      - [ 2.08997107e+00, 6.56083643e-01, 2.40306234e+00 ]
      - [ 2.39846802e+00, 7.07423568e-01, 2.26299810e+00 ]
      - [ 2.23116660e+00, 3.31040174e-01, 4.13742018e+00 ]
      - [ 2.54654741e+00, 3.60958517e-01, 3.81714487e+00 ]
      - [ 1.97599089e+00, 5.78689933e-01, 2.73798370e+00 ]
      - [ 2.23598051e+00, 5.22069454e-01, 2.94162893e+00 ]
      - [ 2.28204918e+00, 5.21831989e-01, 2.62035966e+00 ]
      - [ 2.51838398e+00, 5.06959975e-01, 3.06370759e+00 ]
      - [ 2.40251875e+00, 4.52856004e-01, 3.40287805e+00 ]
      - [ 2.77154493e+00, 5.10810614e-01, 3.10035443e+00 ]
      - [ 2.03516912e+00, 3.40394408e-01, 4.14281225e+00 ]
      - [ 1.29261601e+00, 6.10993803e-01, 2.41091990e+00 ]
      - [ 1.77422976e+00, 8.14103842e-01, 1.98206174e+00 ]
      - [ 1.62951493e+00, 5.76072991e-01, 2.81805634e+00 ]
      - [ 2.66596842e+00, 6.67557299e-01, 2.42662287e+00 ]
      - [ 1.89789259e+00, 3.47588599e-01, 4.42618322e+00 ]
      - [ 3.52613640e+00, 9.05456841e-01, 1.78845370e+00 ]
      - [ 2.66599989e+00, 3.79361868e-01, 3.50682497e+00 ]
      - [ 2.26662254e+00, 3.51418972e-01, 3.95720458e+00 ]
      - [ 2.57199550e+00, 3.97562325e-01, 3.74348497e+00 ]
      - [ 1.08002150e+00, 3.10133278e-01, 5.01711082e+00 ]
      - [ 2.89500332e+00, 6.48026049e-01, 2.47785926e+00 ]
      - [ 2.60382676e+00, 6.30112290e-01, 2.49984741e+00 ]
      - [ 1.42033398e+00, 3.87948394e-01, 3.88150001e+00 ]
      - [ 1.25911236e+00, 2.70175964e-01, 5.73825312e+00 ]
      - [ 1.93257308e+00, 3.25229228e-01, 4.23547602e+00 ]
      - [ 2.46030593e+00, 5.99075258e-01, 2.71257138e+00 ]
      - [ 1.50319862e+00, 3.38040501e-01, 4.12414646e+00 ]
      - [ 2.78387022e+00, 5.00277042e-01, 3.23353767e+00 ]
      - [ 1.97870290e+00, 3.48434180e-01, 4.00167179e+00 ]
      - [ 1.26141644e+00, 4.95788813e-01, 3.29339743e+00 ]
      - [ 1.90385902e+00, 3.70171815e-01, 3.81831622e+00 ]
      - [ 1.34762156e+00, 7.72442698e-01, 2.08107924e+00 ]
      - [ 2.40592575e+00, 3.48619670e-01, 3.87701178e+00 ]
      - [ 2.14422536e+00, 3.25143874e-01, 4.37189102e+00 ]
      - [ 1.81502867e+00, 3.06273222e-01, 4.55503225e+00 ]
      - [ 4.02542686e+00, 6.86028838e-01, 2.31236601e+00 ]
      - [ 1.70862627e+00, 3.13922137e-01, 4.38486624e+00 ]
      - [ 4.01849556e+00, 3.46436352e-01, 4.53897953e+00 ]
      - [ 1.94753730e+00, 1.66991934e-01, 8.60317802e+00 ]
      - [ 3.30407691e+00, 4.13178831e-01, 3.39587951e+00 ]
      - [ 2.09218359e+00, 3.49878252e-01, 4.11910486e+00 ]
      - [ 3.13110590e+00, 7.35584617e-01, 2.25723815e+00 ]
      - [ 1.81210983e+00, 2.62134790e-01, 5.71484852e+00 ]
      - [ 2.62437820e+00, 3.60567898e-01, 3.75642514e+00 ]
      - [ 1.22481930e+00, 5.07716656e-01, 3.06707072e+00 ]
      - [ 2.37357974e+00, 5.30078411e-01, 2.98147273e+00 ]
      - [ 2.71145058e+00, 3.07584345e-01, 4.71101952e+00 ]
      - [ 5.49826765e+00, 4.97368962e-01, 3.27288365e+00 ]
      - [ 8.58046651e-01, 3.67286354e-01, 3.81806397e+00 ]
      - [ 2.36179781e+00, 4.97368097e-01, 3.24732780e+00 ]
      - [ 4.19461012e+00, 4.26382720e-01, 3.84967017e+00 ]
      - [ 2.14553833e+00, 5.50571680e-01, 2.88526464e+00 ]
      - [ 2.09829164e+00, 3.68194282e-01, 3.78959775e+00 ]
      - [ 2.35051799e+00, 3.47752482e-01, 4.05540848e+00 ]
      - [ 2.98181224e+00, 4.99772459e-01, 3.06768751e+00 ]
      - [ 2.52845430e+00, 3.73643965e-01, 3.68037963e+00 ]
      - [ 1.57682371e+00, 3.26465279e-01, 4.23693275e+00 ]
      - [ 2.75732398e+00, 7.18809843e-01, 2.22013378e+00 ]
      - [ 3.14172959e+00, 3.37653667e-01, 3.99798799e+00 ]
      - [ 2.28049588e+00, 5.95504820e-01, 2.69992781e+00 ]
      - [ 2.40647340e+00, 3.62367660e-01, 3.90388179e+00 ]
      - [ 2.58272600e+00, 3.48171324e-01, 3.93747783e+00 ]
      - [ 2.03706765e+00, 2.91637331e-01, 4.72020626e+00 ]
      - [ 1.85982442e+00, 5.90601861e-01, 2.69422674e+00 ]
      - [ 1.95144224e+00, 3.12966257e-01, 4.49695206e+00 ]
      - [ 2.24150229e+00, 6.23543739e-01, 2.56008577e+00 ]
      - [ 3.53903818e+00, 7.10682690e-01, 2.25027180e+00 ]
      - [ 1.73603272e+00, 7.91593373e-01, 1.95082986e+00 ]
      - [ 2.16228557e+00, 5.27460575e-01, 2.78277755e+00 ]
      - [ 5.70477486e+00, 5.49881399e-01, 2.81985688e+00 ]
      - [ 2.63543940e+00, 3.70120198e-01, 3.80095363e+00 ]
      - [ 1.88110566e+00, 2.52258122e-01, 5.88757372e+00 ]
      - [ 2.57942319e+00, 3.30521405e-01, 4.33666801e+00 ]
      - [ 2.41347861e+00, 6.10698879e-01, 2.58752656e+00 ]
