%YAML:1.0
mysvm: !!opencv-ml-svm
   svm_type: C_SVC
   kernel: { type:RBF, gamma:1.5000000000000001e-04 }
   C: 1.0000000000000001e-01
   term_criteria: { epsilon:9.9999999747524271e-07, iterations:1000 }
   var_all: 3
   var_count: 3
   class_count: 2
   class_labels: !!opencv-matrix
      rows: 1
      cols: 2
      dt: i
      data: [ 0, 1 ]
   sv_total: 2000
   support_vectors:
      - [ 3.47140861e+00, 5.51987767e-01, 2.88393736e+00 ]
      - [ 1.82936394e+00, 4.25771952e-01, 3.26091552e+00 ]
      - [ 2.45034456e+00, 3.52733582e-01, 3.92488813e+00 ]
      - [ 4.68778276e+00, 5.54426014e-01, 2.72657394e+00 ]
      - [ 1.93645561e+00, 3.74463618e-01, 3.64233327e+00 ]
      - [ 4.46537828e+00, 3.85929555e-01, 3.66384196e+00 ]
      - [ 1.51375198e+00, 3.55745137e-01, 3.99586463e+00 ]
      - [ 1.56035876e+00, 3.91555756e-01, 3.47340679e+00 ]
      - [ 5.18363714e+00, 2.87376672e-01, 5.44395590e+00 ]
      - [ 2.41373181e+00, 4.20832664e-01, 3.37830138e+00 ]
      - [ 2.44544601e+00, 1.19750130e+00, 1.45215166e+00 ]
      - [ 4.25556278e+00, 1.85892493e-01, 7.61922598e+00 ]
      - [ 1.61959267e+00, 4.04262602e-01, 3.46454549e+00 ]
      - [ 1.70496488e+00, 3.33754867e-01, 4.47912312e+00 ]
      - [ 1.58798492e+00, 3.59552026e-01, 3.93447161e+00 ]
      - [ 6.06596136e+00, 6.92830980e-01, 2.17945266e+00 ]
      - [ 1.79872644e+00, 2.79441863e-01, 5.66960239e+00 ]
      - [ 1.59521389e+00, 4.41434979e-01, 3.27681255e+00 ]
      - [ 8.54274929e-01, 1.97242543e-01, 7.68422937e+00 ]
      - [ 1.44211686e+00, 3.14906716e-01, 4.67173767e+00 ]
      - [ 2.00939941e+00, 6.93856478e-01, 2.27295208e+00 ]
      - [ 1.54478145e+00, 3.61111701e-01, 3.85624599e+00 ]
      - [ 1.74062717e+00, 4.35080558e-01, 3.25442481e+00 ]
      - [ 1.66495562e+00, 4.57478911e-01, 3.19254351e+00 ]
      - [ 1.55071449e+00, 6.13990903e-01, 2.58865190e+00 ]
      - [ 1.51271057e+00, 3.56447190e-01, 4.02212524e+00 ]
      - [ 1.99027622e+00, 3.57610047e-01, 3.80152869e+00 ]
      - [ 1.53525412e+00, 3.58817577e-01, 3.87662005e+00 ]
      - [ 1.57486475e+00, 3.89386863e-01, 3.62994909e+00 ]
      - [ 1.64828634e+00, 3.62761825e-01, 3.79612279e+00 ]
      - [ 1.76077783e+00, 4.93889481e-01, 3.01376510e+00 ]
      - [ 1.38443446e+00, 2.82868296e-01, 5.40357113e+00 ]
      - [ 1.78182042e+00, 3.32865059e-01, 4.26522446e+00 ]
      - [ 1.49971354e+00, 3.67407322e-01, 3.82151151e+00 ]
      - [ 1.81150103e+00, 3.85836691e-01, 3.49687982e+00 ]
      - [ 1.58610690e+00, 3.93417120e-01, 3.55418706e+00 ]
      - [ 1.55241621e+00, 5.33474743e-01, 2.94191718e+00 ]
      - [ 2.95310783e+00, 5.31948745e-01, 2.79679060e+00 ]
      - [ 2.48345160e+00, 4.59765106e-01, 3.14731336e+00 ]
      - [ 2.14856505e+00, 2.91739643e-01, 5.00299215e+00 ]
      - [ 2.00048542e+00, 3.50117266e-01, 3.91914153e+00 ]
      - [ 2.37145710e+00, 3.98840576e-01, 3.52467632e+00 ]
      - [ 2.82914519e+00, 6.25134230e-01, 2.50084567e+00 ]
      - [ 1.74755466e+00, 3.43358189e-01, 4.01055622e+00 ]
      - [ 2.00560880e+00, 9.03003454e-01, 1.84045553e+00 ]
      - [ 1.69462717e+00, 6.84291124e-01, 2.37522292e+00 ]
      - [ 1.80329156e+00, 3.82541507e-01, 3.58865547e+00 ]
      - [ 1.51710176e+00, 7.24109769e-01, 2.22725463e+00 ]
      - [ 1.64836895e+00, 3.01319748e-01, 4.90035629e+00 ]
      - [ 1.34878910e+00, 5.65101206e-01, 2.83380842e+00 ]
      - [ 1.57971919e+00, 4.21924204e-01, 3.31236434e+00 ]
      - [ 2.06361747e+00, 4.04760540e-01, 3.47189999e+00 ]
      - [ 1.07288146e+00, 5.33318102e-01, 2.95209503e+00 ]
      - [ 2.33619857e+00, 6.78698182e-01, 2.32884312e+00 ]
      - [ 1.81398833e+00, 3.05161327e-01, 4.72743416e+00 ]
      - [ 1.56232369e+00, 5.63022912e-01, 2.87118268e+00 ]
      - [ 1.92068315e+00, 2.98644811e-01, 4.89417458e+00 ]
      - [ 1.58414507e+00, 7.32222199e-01, 2.16866899e+00 ]
      - [ 1.16957748e+00, 4.38869804e-01, 3.74130750e+00 ]
      - [ 2.10976458e+00, 7.01825261e-01, 2.27691579e+00 ]
      - [ 1.30107319e+00, 4.24947619e-01, 3.75388503e+00 ]
      - [ 2.40018821e+00, 4.67955172e-01, 2.97902656e+00 ]
      - [ 1.96517873e+00, 3.01849097e-01, 4.72057009e+00 ]
      - [ 1.41027880e+00, 4.74917591e-01, 3.25199032e+00 ]
      - [ 2.42733240e+00, 5.39440751e-01, 2.84068036e+00 ]
      - [ 1.45395994e+00, 4.38806951e-01, 3.23167062e+00 ]
      - [ 2.21985364e+00, 3.27700555e-01, 4.10500669e+00 ]
      - [ 4.68465757e+00, 5.48871636e-01, 2.67840004e+00 ]
      - [ 3.45350122e+00, 1.06248307e+00, 1.52866018e+00 ]
      - [ 1.29352641e+00, 5.78432798e-01, 2.68562365e+00 ]
      - [ 1.72868490e+00, 3.18196684e-01, 4.70436621e+00 ]
      - [ 2.77048635e+00, 1.11537576e+00, 1.50590062e+00 ]
      - [ 2.59728312e+00, 4.06265885e-01, 3.44117641e+00 ]
      - [ 1.67793441e+00, 3.96357805e-01, 3.46447563e+00 ]
      - [ 2.05218387e+00, 3.23429853e-01, 4.25272083e+00 ]
      - [ 2.55053520e+00, 3.16322267e-01, 4.31524944e+00 ]
      - [ 1.58959150e+00, 3.07048827e-01, 4.62491703e+00 ]
      - [ 1.98839843e+00, 7.18500376e-01, 2.24874926e+00 ]
      - [ 2.78262424e+00, 4.69922572e-01, 3.01362205e+00 ]
      - [ 2.89064622e+00, 6.19206369e-01, 2.54252982e+00 ]
      - [ 1.62419927e+00, 3.37923229e-01, 4.05665684e+00 ]
      - [ 3.13309884e+00, 6.35510206e-01, 2.48126316e+00 ]
      - [ 1.53019905e+00, 3.70385379e-01, 3.81969357e+00 ]
      - [ 1.73426127e+00, 3.67050290e-01, 3.76350689e+00 ]
      - [ 1.53380382e+00, 3.27222914e-01, 4.47980595e+00 ]
      - [ 1.62228286e+00, 3.78328681e-01, 3.67859960e+00 ]
      - [ 1.49298275e+00, 4.11846191e-01, 3.38371396e+00 ]
      - [ 8.79360616e-01, 2.97756881e-01, 5.31095076e+00 ]
      - [ 2.00229478e+00, 3.90220702e-01, 3.50969267e+00 ]
      - [ 1.65189648e+00, 2.49021351e-01, 5.95877838e+00 ]
      - [ 1.43744373e+00, 4.02661592e-01, 3.52700400e+00 ]
      - [ 2.82460976e+00, 9.79919970e-01, 1.68291163e+00 ]
      - [ 1.49252796e+00, 2.82846659e-01, 5.24193621e+00 ]
      - [ 1.86612761e+00, 8.54313016e-01, 1.93991351e+00 ]
      - [ 2.15263963e+00, 6.92017972e-01, 2.28345466e+00 ]
      - [ 1.90838122e+00, 7.18781352e-01, 2.22510362e+00 ]
      - [ 2.00638318e+00, 4.94751871e-01, 2.98718596e+00 ]
      - [ 1.47164857e+00, 3.93793613e-01, 3.61936331e+00 ]
      - [ 7.43261051e+00, 6.25601053e-01, 2.41590524e+00 ]
      - [ 1.74613619e+00, 4.06075537e-01, 3.42128491e+00 ]
      - [ 2.52306247e+00, 3.10039222e-01, 4.74997330e+00 ]
      - [ 1.82509983e+00, 3.51852417e-01, 3.97576857e+00 ]
      - [ 3.25378752e+00, 3.77592623e-01, 3.66607356e+00 ]
      - [ 3.37298894e+00, 7.14722693e-01, 2.21454358e+00 ]
      - [ 7.70305061e+00, 4.45581764e-01, 3.36876988e+00 ]
      - [ 4.54422712e+00, 5.01326025e-01, 2.92505527e+00 ]
      - [ 1.56040168e+00, 4.24422175e-01, 3.30306554e+00 ]
      - [ 2.25718641e+00, 3.75343412e-01, 3.63440228e+00 ]
      - [ 2.28984714e+00, 8.55324805e-01, 1.84417665e+00 ]
      - [ 1.51569855e+00, 3.66533965e-01, 3.90218329e+00 ]
      - [ 1.71067917e+00, 3.57290417e-01, 3.90501428e+00 ]
      - [ 1.49381447e+00, 3.75898004e-01, 3.67946076e+00 ]
      - [ 1.99685168e+00, 3.56049925e-01, 3.85512280e+00 ]
      - [ 2.38150406e+00, 5.34680307e-01, 2.83761907e+00 ]
      - [ 1.51022410e+00, 4.26570654e-01, 3.37775207e+00 ]
      - [ 1.88429332e+00, 5.01578391e-01, 2.97400451e+00 ]
      - [ 1.73155177e+00, 3.65389585e-01, 3.72583389e+00 ]
      - [ 1.32741976e+00, 4.37107682e-01, 3.44405532e+00 ]
      - [ 4.13403368e+00, 6.48604691e-01, 2.32290816e+00 ]
      - [ 1.49046648e+00, 4.13602680e-01, 3.51188254e+00 ]
      - [ 2.19346046e+00, 3.68544042e-01, 3.70329332e+00 ]
      - [ 1.35366213e+00, 6.14722729e-01, 2.66570425e+00 ]
      - [ 2.04799485e+00, 6.63452268e-01, 2.37713766e+00 ]
      - [ 1.57095528e+00, 4.84475881e-01, 3.01779914e+00 ]
      - [ 8.64852428e+00, 3.89180809e-01, 3.76348472e+00 ]
      - [ 1.88488948e+00, 3.05861622e-01, 4.70147896e+00 ]
      - [ 5.40481377e+00, 3.28163743e-01, 4.47396278e+00 ]
      - [ 1.89545250e+00, 3.21923196e-01, 4.42457438e+00 ]
      - [ 1.35189867e+00, 4.19063628e-01, 3.60333037e+00 ]
      - [ 1.88618958e+00, 4.26115990e-01, 3.28147244e+00 ]
      - [ 1.65085399e+00, 4.38233733e-01, 3.27056026e+00 ]
      - [ 2.69510555e+00, 3.05981964e-01, 4.61160898e+00 ]
      - [ 2.66556191e+00, 4.12555963e-01, 3.48416471e+00 ]
      - [ 2.52972889e+00, 3.58437806e-01, 3.82166910e+00 ]
      - [ 1.53011799e+00, 4.00478512e-01, 3.53267860e+00 ]
      - [ 2.33484364e+00, 3.49458605e-01, 3.97127986e+00 ]
      - [ 8.26277351e+00, 3.32006931e-01, 4.56808758e+00 ]
      - [ 2.75720930e+00, 3.40937287e-01, 3.98189950e+00 ]
      - [ 2.20064855e+00, 3.76048326e-01, 3.69404674e+00 ]
      - [ 2.20536542e+00, 2.80391753e-01, 4.82386923e+00 ]
      - [ 1.77476382e+00, 3.31712991e-01, 4.87955379e+00 ]
      - [ 1.42081678e+00, 2.70128846e-01, 5.37534285e+00 ]
      - [ 1.62636507e+00, 3.63659561e-01, 3.85104489e+00 ]
      - [ 3.30366731e+00, 3.47211659e-01, 3.77823901e+00 ]
      - [ 1.61462939e+00, 3.52188677e-01, 3.99538183e+00 ]
      - [ 2.23165631e+00, 5.40799499e-01, 2.78059435e+00 ]
      - [ 2.32279348e+00, 4.78092521e-01, 3.12439466e+00 ]
      - [ 1.47535861e+00, 3.65889907e-01, 3.96070743e+00 ]
      - [ 1.65103650e+00, 3.48399401e-01, 4.14648914e+00 ]
      - [ 1.57627296e+00, 4.34065342e-01, 3.29295826e+00 ]
      - [ 1.63516128e+00, 3.71063560e-01, 3.63233709e+00 ]
      - [ 1.64276254e+00, 4.30840373e-01, 3.13501382e+00 ]
      - [ 2.89278746e+00, 4.79369849e-01, 3.06703234e+00 ]
      - [ 1.62851155e+00, 3.61562222e-01, 3.87338567e+00 ]
      - [ 2.15522265e+00, 4.04429018e-01, 3.38387156e+00 ]
      - [ 1.90451443e+00, 6.20567918e-01, 2.55226588e+00 ]
      - [ 1.88048553e+00, 4.74143624e-01, 3.05895734e+00 ]
      - [ 2.02490735e+00, 7.92391837e-01, 2.00642562e+00 ]
      - [ 1.47565377e+00, 3.99009526e-01, 3.52701783e+00 ]
      - [ 1.56545150e+00, 4.69200164e-01, 3.08279157e+00 ]
      - [ 1.60137033e+00, 3.28003228e-01, 5.09758329e+00 ]
      - [ 3.21339488e+00, 4.76022631e-01, 3.11530924e+00 ]
      - [ 1.57663536e+00, 4.04087365e-01, 3.42108560e+00 ]
      - [ 1.56485736e+00, 3.90000463e-01, 3.60993147e+00 ]
      - [ 1.71496761e+00, 4.54770654e-01, 3.19002390e+00 ]
      - [ 1.74774086e+00, 3.49418998e-01, 4.05182886e+00 ]
      - [ 1.36520600e+00, 3.68020177e-01, 3.76205826e+00 ]
      - [ 1.86402476e+00, 3.30511332e-01, 4.29707575e+00 ]
      - [ 6.26712561e+00, 4.67192262e-01, 3.46057796e+00 ]
      - [ 3.70441675e+00, 3.40403169e-01, 4.09786081e+00 ]
      - [ 2.18802404e+00, 6.89089835e-01, 2.27319217e+00 ]
      - [ 1.48421144e+00, 3.70125771e-01, 3.84439754e+00 ]
      - [ 7.12086868e+00, 2.91182339e-01, 4.97232294e+00 ]
      - [ 1.37076640e+00, 3.96428168e-01, 3.52995586e+00 ]
      - [ 1.79507864e+00, 5.93105435e-01, 2.64270759e+00 ]
      - [ 2.06671333e+00, 2.78109133e-01, 5.86364460e+00 ]
      - [ 2.16548038e+00, 5.03783941e-01, 2.93278527e+00 ]
      - [ 4.84855127e+00, 3.73146653e-01, 3.71099424e+00 ]
      - [ 2.86004591e+00, 7.40422845e-01, 2.16767812e+00 ]
      - [ 1.41630220e+00, 4.06210601e-01, 3.51265097e+00 ]
      - [ 2.00103474e+00, 3.85599226e-01, 3.55303979e+00 ]
      - [ 2.33585238e+00, 2.69976854e-01, 5.30181646e+00 ]
      - [ 1.41389668e+00, 3.90989929e-01, 3.63569927e+00 ]
      - [ 2.55495048e+00, 4.53701854e-01, 3.25845718e+00 ]
      - [ 1.16259980e+00, 5.57706833e-01, 2.77808690e+00 ]
      - [ 2.15337086e+00, 3.65480632e-01, 3.76016688e+00 ]
      - [ 1.45542705e+00, 3.67252231e-01, 3.81959057e+00 ]
      - [ 1.80825591e+00, 4.37322438e-01, 3.20518470e+00 ]
      - [ 1.77120912e+00, 3.86863917e-01, 3.55227757e+00 ]
      - [ 2.70708680e+00, 3.78223032e-01, 3.68605900e+00 ]
      - [ 1.42953563e+00, 3.92925531e-01, 3.65718985e+00 ]
      - [ 1.44633102e+00, 3.23869973e-01, 4.84898138e+00 ]
      - [ 2.86498332e+00, 4.12726462e-01, 3.38808012e+00 ]
      - [ 1.80601394e+00, 4.23305094e-01, 3.25181770e+00 ]
      - [ 1.48591566e+00, 3.97471577e-01, 3.57046366e+00 ]
      - [ 2.01734066e+00, 3.63965869e-01, 3.75570798e+00 ]
      - [ 2.38384223e+00, 4.01731133e-01, 3.45222688e+00 ]
      - [ 1.45526135e+00, 3.93981665e-01, 3.61015558e+00 ]
      - [ 2.88979292e+00, 3.51742208e-01, 3.98883390e+00 ]
      - [ 1.84346724e+00, 4.34686720e-01, 3.22489786e+00 ]
      - [ 1.98429620e+00, 3.27154517e-01, 4.31399298e+00 ]
      - [ 2.30027461e+00, 3.47404867e-01, 4.01250458e+00 ]
      - [ 1.56426764e+00, 3.97626847e-01, 3.48728275e+00 ]
      - [ 1.84223354e+00, 4.18123513e-01, 3.36706114e+00 ]
      - [ 1.73971522e+00, 6.41155064e-01, 2.44877672e+00 ]
      - [ 2.08402276e+00, 3.34588319e-01, 4.20092010e+00 ]
      - [ 1.63230598e+00, 3.31614166e-01, 4.24204254e+00 ]
      - [ 1.36652267e+00, 6.11732543e-01, 2.54860020e+00 ]
      - [ 4.18209553e+00, 4.80833799e-01, 3.15852737e+00 ]
      - [ 1.77106965e+00, 5.23095071e-01, 2.84536123e+00 ]
      - [ 2.12846637e+00, 3.28616470e-01, 4.22324085e+00 ]
      - [ 2.26717758e+00, 6.97880268e-01, 2.26325798e+00 ]
      - [ 3.00713634e+00, 5.09994447e-01, 3.01660895e+00 ]
      - [ 1.46528852e+00, 4.35268790e-01, 3.38017154e+00 ]
      - [ 1.36257589e+00, 3.86373729e-01, 3.59335923e+00 ]
      - [ 1.71161294e+00, 7.39220321e-01, 2.22763324e+00 ]
      - [ 2.07797146e+00, 3.93111855e-01, 3.50037742e+00 ]
      - [ 3.91662502e+00, 3.95777524e-01, 3.55647779e+00 ]
      - [ 1.45995522e+00, 3.94446492e-01, 3.51271915e+00 ]
      - [ 1.37784278e+00, 3.81362379e-01, 3.76736212e+00 ]
      - [ 1.48103225e+00, 3.94427419e-01, 3.54203820e+00 ]
      - [ 1.69330716e+00, 2.67069668e-01, 6.11559010e+00 ]
      - [ 2.23852563e+00, 3.88323635e-01, 3.44361687e+00 ]
      - [ 3.15757322e+00, 3.01366806e-01, 4.92719269e+00 ]
      - [ 2.00397420e+00, 3.27190489e-01, 4.18659973e+00 ]
      - [ 1.07874548e+00, 2.92573452e-01, 5.08660936e+00 ]
      - [ 1.52059948e+00, 4.44668740e-01, 3.09974408e+00 ]
      - [ 1.65698159e+00, 3.41835439e-01, 4.14755678e+00 ]
      - [ 1.39954674e+00, 5.45806170e-01, 2.69198990e+00 ]
      - [ 3.33438373e+00, 4.20577615e-01, 3.40219522e+00 ]
      - [ 1.98142648e+00, 3.68205965e-01, 3.72347736e+00 ]
      - [ 1.59962773e+00, 5.80203474e-01, 2.75415850e+00 ]
      - [ 1.47578096e+00, 2.93021709e-01, 5.38056850e+00 ]
      - [ 1.54926527e+00, 3.87951314e-01, 3.59114170e+00 ]
      - [ 2.76994944e+00, 4.16342407e-01, 3.41189027e+00 ]
      - [ 1.59257615e+00, 5.44502735e-01, 2.90899825e+00 ]
      - [ 2.17580914e+00, 4.49685007e-01, 3.22221231e+00 ]
      - [ 1.65794837e+00, 3.99401426e-01, 3.47958279e+00 ]
      - [ 1.76893020e+00, 3.72698724e-01, 3.67498016e+00 ]
      - [ 1.70102131e+00, 3.50664049e-01, 3.95838022e+00 ]
      - [ 1.37960517e+00, 5.34532726e-01, 3.07621717e+00 ]
      - [ 1.56121194e+00, 3.83816034e-01, 3.65594125e+00 ]
      - [ 1.86646712e+00, 4.02930707e-01, 3.44220638e+00 ]
      - [ 3.18470740e+00, 1.21759760e+00, 1.40648901e+00 ]
      - [ 1.42229700e+00, 3.74881059e-01, 4.09164810e+00 ]
      - [ 1.38328969e+00, 5.80026507e-01, 2.87487864e+00 ]
      - [ 4.26081133e+00, 1.86536327e-01, 8.39863491e+00 ]
      - [ 1.45426047e+00, 3.59659731e-01, 4.10926867e+00 ]
      - [ 1.87598848e+00, 1.04563308e+00, 1.61820364e+00 ]
      - [ 1.28398347e+00, 2.49270082e-01, 6.11400700e+00 ]
      - [ 1.19175291e+00, 4.88914341e-01, 3.29817390e+00 ]
      - [ 1.86123586e+00, 6.09112024e-01, 2.59148526e+00 ]
      - [ 3.77105141e+00, 8.62936974e-01, 1.86890030e+00 ]
      - [ 3.40135026e+00, 3.34924757e-01, 4.20809412e+00 ]
      - [ 2.40850759e+00, 6.99878514e-01, 2.25055718e+00 ]
      - [ 2.22460508e+00, 3.68239105e-01, 3.75498295e+00 ]
      - [ 1.81733108e+00, 4.83273327e-01, 3.06328082e+00 ]
      - [ 1.59991992e+00, 3.87443304e-01, 3.60628939e+00 ]
      - [ 1.81168926e+00, 3.73305798e-01, 3.68987632e+00 ]
      - [ 2.18319917e+00, 4.70773250e-01, 3.12530208e+00 ]
      - [ 1.69017625e+00, 3.46834302e-01, 4.04017448e+00 ]
      - [ 2.89890146e+00, 3.60482424e-01, 3.83419442e+00 ]
      - [ 1.81126893e+00, 4.13347542e-01, 3.36222553e+00 ]
      - [ 1.95299804e+00, 6.50390148e-01, 2.32356715e+00 ]
      - [ 1.56763053e+00, 6.42691553e-01, 2.46820927e+00 ]
      - [ 1.72261381e+00, 9.16172564e-01, 1.72540212e+00 ]
      - [ 2.39222956e+00, 3.94817352e-01, 3.41790700e+00 ]
      - [ 2.56243825e+00, 3.45999658e-01, 3.93308043e+00 ]
      - [ 1.99724257e+00, 5.15685678e-01, 2.88915944e+00 ]
      - [ 2.14405227e+00, 2.99368650e-01, 4.65872478e+00 ]
      - [ 1.28106034e+00, 5.73628545e-01, 2.82873654e+00 ]
      - [ 1.43020570e+00, 3.84904057e-01, 3.69245839e+00 ]
      - [ 4.96122742e+00, 4.06391680e-01, 3.53152204e+00 ]
      - [ 1.37161052e+00, 4.01698887e-01, 3.50951123e+00 ]
      - [ 1.63807893e+00, 4.31658268e-01, 3.25204372e+00 ]
      - [ 1.46949673e+00, 3.35670561e-01, 4.28672171e+00 ]
      - [ 2.85680532e+00, 3.43141079e-01, 4.10335350e+00 ]
      - [ 2.35638380e+00, 3.20440978e-01, 4.37212324e+00 ]
      - [ 1.83579612e+00, 3.31996202e-01, 4.37503910e+00 ]
      - [ 1.27052283e+00, 7.27886975e-01, 2.10205913e+00 ]
      - [ 1.57931483e+00, 4.24222112e-01, 3.35389185e+00 ]
      - [ 3.25119567e+00, 4.07484978e-01, 3.58674502e+00 ]
      - [ 2.24256372e+00, 4.01911706e-01, 3.51115847e+00 ]
      - [ 1.52083981e+00, 6.45447850e-01, 2.47488570e+00 ]
      - [ 1.25330675e+00, 5.74214220e-01, 2.67825079e+00 ]
      - [ 1.60838246e+00, 5.82111061e-01, 2.75278640e+00 ]
      - [ 1.44302821e+00, 4.70013261e-01, 2.99089766e+00 ]
      - [ 1.42848253e+00, 4.45969045e-01, 3.20351028e+00 ]
      - [ 3.12388372e+00, 4.72583652e-01, 3.19413948e+00 ]
      - [ 1.91827714e+00, 4.65719134e-01, 3.11843371e+00 ]
      - [ 3.00488997e+00, 7.08648026e-01, 2.20678186e+00 ]
      - [ 6.56759548e+00, 2.78866231e-01, 5.48075151e+00 ]
      - [ 1.59425735e+00, 4.24917459e-01, 3.35656953e+00 ]
      - [ 1.58067238e+00, 4.10750359e-01, 3.38810539e+00 ]
      - [ 1.68596077e+00, 3.41438770e-01, 4.21371412e+00 ]
      - [ 1.94078958e+00, 3.78848553e-01, 3.55624390e+00 ]
      - [ 2.62455821e+00, 8.89782786e-01, 1.82849705e+00 ]
      - [ 1.85702980e+00, 7.25497246e-01, 2.18957877e+00 ]
      - [ 1.04980576e+00, 3.70365262e-01, 3.88959479e+00 ]
      - [ 1.45607698e+00, 3.65464479e-01, 4.29411554e+00 ]
      - [ 1.47227657e+00, 3.92678171e-01, 3.60234261e+00 ]
      - [ 1.63945138e+00, 6.46318734e-01, 2.48246169e+00 ]
      - [ 1.77734017e+00, 6.69357419e-01, 2.40944052e+00 ]
      - [ 2.04772758e+00, 4.58375603e-01, 3.17864799e+00 ]
      - [ 1.34282267e+00, 7.39907384e-01, 2.24439883e+00 ]
      - [ 1.45842612e+00, 4.15633887e-01, 3.44721842e+00 ]
      - [ 1.52371240e+00, 3.71135890e-01, 3.69872880e+00 ]
      - [ 3.31940556e+00, 2.74407983e-01, 5.49461555e+00 ]
      - [ 2.39832854e+00, 3.59507024e-01, 3.84772444e+00 ]
      - [ 1.36964059e+00, 3.91343623e-01, 3.46106529e+00 ]
      - [ 1.69188821e+00, 4.24264312e-01, 3.34098697e+00 ]
      - [ 1.94607341e+00, 3.43316406e-01, 4.01931858e+00 ]
      - [ 2.30321002e+00, 6.79413855e-01, 2.32794476e+00 ]
      - [ 2.41858196e+00, 3.71799082e-01, 3.70108032e+00 ]
      - [ 2.29862905e+00, 3.93354446e-01, 3.55251408e+00 ]
      - [ 2.34838271e+00, 3.63508016e-01, 3.78557944e+00 ]
      - [ 2.44924927e+00, 3.12606186e-01, 4.47862911e+00 ]
      - [ 1.53883302e+00, 3.61967742e-01, 3.92124796e+00 ]
      - [ 1.37426615e+00, 3.80885422e-01, 3.72174859e+00 ]
      - [ 4.21203995e+00, 6.91069603e-01, 2.30876327e+00 ]
      - [ 1.69280422e+00, 4.17574912e-01, 3.30558276e+00 ]
      - [ 1.31331074e+00, 4.01817083e-01, 3.68681884e+00 ]
      - [ 1.51617312e+00, 3.70991856e-01, 3.72903967e+00 ]
      - [ 2.06715488e+00, 3.84811372e-01, 3.60059476e+00 ]
      - [ 2.67077684e+00, 3.82888913e-01, 3.70461726e+00 ]
      - [ 1.18004775e+00, 3.98782313e-01, 4.06876469e+00 ]
      - [ 1.47777569e+00, 3.96745265e-01, 3.51950288e+00 ]
      - [ 2.90354919e+00, 7.48864710e-01, 2.07547975e+00 ]
      - [ 1.25483751e+00, 3.46475512e-01, 4.08527136e+00 ]
      - [ 1.39525652e+00, 3.89328897e-01, 3.63814592e+00 ]
      - [ 1.69700503e+00, 3.24141443e-01, 4.33383179e+00 ]
      - [ 1.87349558e+00, 3.75969201e-01, 3.58413100e+00 ]
      - [ 6.96647739e+00, 4.38902289e-01, 3.36516809e+00 ]
      - [ 2.51354909e+00, 8.10389042e-01, 1.99938595e+00 ]
      - [ 1.57919025e+00, 5.44835627e-01, 2.89345503e+00 ]
      - [ 1.54984975e+00, 4.19883490e-01, 3.39334917e+00 ]
      - [ 4.96193933e+00, 3.21069598e-01, 4.88000584e+00 ]
      - [ 5.33122015e+00, 6.81379437e-01, 2.23542190e+00 ]
      - [ 1.47069728e+00, 3.83134127e-01, 3.78774142e+00 ]
      - [ 3.46191168e+00, 4.95282948e-01, 2.97544670e+00 ]
      - [ 1.86825931e+00, 3.87945324e-01, 3.45120502e+00 ]
      - [ 3.47095323e+00, 3.11925024e-01, 4.51810408e+00 ]
      - [ 1.57380497e+00, 4.00891244e-01, 3.50467587e+00 ]
      - [ 1.52280116e+00, 3.72419477e-01, 3.82271743e+00 ]
      - [ 2.21551943e+00, 3.39829862e-01, 4.04754925e+00 ]
      - [ 3.20960116e+00, 3.93137932e-01, 3.63539267e+00 ]
      - [ 1.90205097e+00, 3.22783709e-01, 4.42778349e+00 ]
      - [ 2.30056238e+00, 6.69340491e-01, 2.28657150e+00 ]
      - [ 1.59417725e+00, 4.09896523e-01, 3.40947795e+00 ]
      - [ 2.61712408e+00, 3.29793543e-01, 4.26457262e+00 ]
      - [ 2.10718060e+00, 3.44931990e-01, 3.93592954e+00 ]
      - [ 2.15740061e+00, 4.93755966e-01, 2.97319221e+00 ]
      - [ 5.55477095e+00, 6.08439505e-01, 2.55948544e+00 ]
      - [ 2.25188208e+00, 3.67979318e-01, 3.71155000e+00 ]
      - [ 1.40288317e+00, 3.52809697e-01, 4.22468042e+00 ]
      - [ 2.00314188e+00, 4.11125600e-01, 3.36547112e+00 ]
      - [ 2.21555281e+00, 2.97599107e-01, 4.75828409e+00 ]
      - [ 1.94081008e+00, 8.90735328e-01, 1.80487072e+00 ]
      - [ 1.58284795e+00, 3.50886554e-01, 4.26395321e+00 ]
      - [ 4.34505701e+00, 6.62355721e-01, 2.41623211e+00 ]
      - [ 2.21778250e+00, 7.82701075e-01, 2.08075643e+00 ]
      - [ 1.69324255e+00, 3.34770739e-01, 4.19878483e+00 ]
      - [ 1.53456414e+00, 3.96388710e-01, 3.48207521e+00 ]
      - [ 2.89194894e+00, 6.43280268e-01, 2.41935992e+00 ]
      - [ 2.06412625e+00, 4.86509889e-01, 3.04221535e+00 ]
      - [ 4.33540583e+00, 7.43795514e-01, 2.06082392e+00 ]
      - [ 2.79884434e+00, 5.61603248e-01, 2.66227794e+00 ]
      - [ 1.72368503e+00, 4.40006673e-01, 3.23971581e+00 ]
      - [ 2.43920660e+00, 4.61765409e-01, 3.14003372e+00 ]
      - [ 2.23058701e+00, 2.95542836e-01, 5.03414679e+00 ]
      - [ 2.20867848e+00, 4.15873289e-01, 3.37292695e+00 ]
      - [ 1.70313668e+00, 3.77297372e-01, 3.59717441e+00 ]
      - [ 1.31818569e+00, 4.37645853e-01, 3.67741680e+00 ]
      - [ 1.46101201e+00, 3.94818693e-01, 3.60798430e+00 ]
      - [ 2.14213347e+00, 6.79608941e-01, 2.34069657e+00 ]
      - [ 1.09431839e+00, 4.04815853e-01, 3.63040757e+00 ]
      - [ 1.95129263e+00, 3.17106009e-01, 4.62718439e+00 ]
      - [ 1.88744307e+00, 3.48962307e-01, 3.88533354e+00 ]
      - [ 1.54618895e+00, 5.85238993e-01, 2.77215266e+00 ]
      - [ 1.66561854e+00, 4.51947868e-01, 3.13762379e+00 ]
      - [ 1.43119466e+00, 6.96361065e-01, 2.24887180e+00 ]
      - [ 1.55193913e+00, 3.95572215e-01, 3.57146716e+00 ]
      - [ 1.54761410e+00, 7.26471663e-01, 2.21667886e+00 ]
      - [ 2.38827062e+00, 3.86745960e-01, 3.58787870e+00 ]
      - [ 8.76108265e+00, 3.27522337e-01, 4.52698660e+00 ]
      - [ 1.47974205e+00, 3.39970231e-01, 4.14352608e+00 ]
      - [ 1.83861864e+00, 6.32385492e-01, 2.37233710e+00 ]
      - [ 4.43663979e+00, 7.12274015e-01, 2.17927146e+00 ]
      - [ 1.77708304e+00, 4.60329115e-01, 3.14666557e+00 ]
      - [ 1.62611079e+00, 3.99071068e-01, 3.49230242e+00 ]
      - [ 1.34592044e+00, 5.93989432e-01, 2.71831846e+00 ]
      - [ 1.69502413e+00, 8.02525163e-01, 2.01655650e+00 ]
      - [ 2.15807867e+00, 8.40183854e-01, 1.89104617e+00 ]
      - [ 6.56411219e+00, 4.16947275e-01, 3.70910788e+00 ]
      - [ 2.78821778e+00, 3.62322688e-01, 3.85217333e+00 ]
      - [ 1.75964987e+00, 3.82844955e-01, 3.50164866e+00 ]
      - [ 2.76843905e+00, 3.63057971e-01, 3.80004740e+00 ]
      - [ 2.38885522e+00, 3.77810448e-01, 3.57207298e+00 ]
      - [ 1.12263775e+00, 3.45655024e-01, 4.09589100e+00 ]
      - [ 2.41082716e+00, 3.88027251e-01, 3.50038218e+00 ]
      - [ 2.60937643e+00, 7.88830280e-01, 2.02835345e+00 ]
      - [ 1.85530078e+00, 3.56894106e-01, 3.83642364e+00 ]
      - [ 1.57210910e+00, 3.84651035e-01, 3.58870506e+00 ]
      - [ 2.41484165e+00, 5.62727511e-01, 2.73532462e+00 ]
      - [ 2.61158419e+00, 2.71882147e-01, 5.11892653e+00 ]
      - [ 1.37847459e+00, 4.51879680e-01, 3.09595037e+00 ]
      - [ 1.74947906e+00, 4.27688152e-01, 3.30372524e+00 ]
      - [ 4.53856087e+00, 6.62273645e-01, 2.40467286e+00 ]
      - [ 8.12678623e+00, 5.32940984e-01, 2.86303830e+00 ]
      - [ 1.58293021e+00, 3.50806803e-01, 4.28043699e+00 ]
      - [ 2.86819196e+00, 4.33181763e-01, 3.37648153e+00 ]
      - [ 1.50174105e+00, 3.65547091e-01, 3.79962277e+00 ]
      - [ 3.99188471e+00, 3.12849015e-01, 4.46020746e+00 ]
      - [ 2.55014873e+00, 3.05466682e-01, 4.98591423e+00 ]
      - [ 1.98645008e+00, 6.60692930e-01, 2.39498115e+00 ]
      - [ 3.60159349e+00, 3.55492026e-01, 3.88715935e+00 ]
      - [ 1.48099363e+00, 3.97972047e-01, 3.52805161e+00 ]
      - [ 1.81024480e+00, 3.30610633e-01, 4.31556797e+00 ]
      - [ 2.73542190e+00, 3.05803835e-01, 4.54586458e+00 ]
      - [ 1.84888172e+00, 6.12173676e-01, 2.57877445e+00 ]
      - [ 1.82086408e+00, 4.22332168e-01, 3.30201912e+00 ]
      - [ 1.84982717e+00, 3.36624086e-01, 4.19218111e+00 ]
      - [ 3.20288777e+00, 3.97522569e-01, 3.48693848e+00 ]
      - [ 1.45427430e+00, 3.67425174e-01, 3.91907406e+00 ]
      - [ 2.49446225e+00, 7.75590837e-01, 2.02949166e+00 ]
      - [ 2.40859365e+00, 3.17624480e-01, 4.41135502e+00 ]
      - [ 2.45684600e+00, 4.43034798e-01, 3.31387711e+00 ]
      - [ 2.91639495e+00, 4.06598866e-01, 3.43057418e+00 ]
      - [ 1.97241127e+00, 4.10754561e-01, 3.40530992e+00 ]
      - [ 1.54988682e+00, 6.29082024e-01, 2.63345361e+00 ]
      - [ 2.51496768e+00, 4.73598838e-01, 3.13256669e+00 ]
      - [ 2.14071751e+00, 5.40220618e-01, 2.75073647e+00 ]
      - [ 2.18766022e+00, 3.51786375e-01, 3.87458611e+00 ]
      - [ 1.93074751e+00, 3.37398767e-01, 4.06647635e+00 ]
      - [ 3.57883668e+00, 7.63717830e-01, 2.01306224e+00 ]
      - [ 3.35013509e+00, 6.79906428e-01, 2.22566438e+00 ]
      - [ 2.17100239e+00, 3.13684940e-01, 4.34673500e+00 ]
      - [ 1.93748879e+00, 7.94143617e-01, 2.05103207e+00 ]
      - [ 1.22990167e+00, 4.59487438e-01, 2.90035558e+00 ]
      - [ 1.54866946e+00, 2.76697189e-01, 5.26474333e+00 ]
      - [ 1.55614471e+00, 6.48070693e-01, 2.53577924e+00 ]
      - [ 1.43324018e+00, 4.19972658e-01, 3.32498574e+00 ]
      - [ 1.92206538e+00, 4.07071263e-01, 3.38776374e+00 ]
      - [ 1.72342169e+00, 3.35885942e-01, 4.18997717e+00 ]
      - [ 2.64197731e+00, 2.99613893e-01, 4.62926197e+00 ]
      - [ 2.13499093e+00, 3.66255790e-01, 3.74218225e+00 ]
      - [ 1.38893569e+00, 3.80672455e-01, 3.63190341e+00 ]
      - [ 1.77257359e+00, 3.73020649e-01, 3.63808727e+00 ]
      - [ 2.48662829e+00, 4.56174731e-01, 3.21501708e+00 ]
      - [ 1.66467524e+00, 3.83048207e-01, 3.51237893e+00 ]
      - [ 1.50284231e+00, 3.95451248e-01, 3.58674645e+00 ]
      - [ 9.86841583e+00, 5.09123862e-01, 2.84714389e+00 ]
      - [ 1.61325979e+00, 7.36959636e-01, 2.16966677e+00 ]
      - [ 1.65510452e+00, 3.78817290e-01, 3.67109752e+00 ]
      - [ 2.55333829e+00, 3.62087965e-01, 3.83671165e+00 ]
      - [ 1.87267137e+00, 3.40847731e-01, 4.00458145e+00 ]
      - [ 3.78619146e+00, 7.02829301e-01, 2.20714068e+00 ]
      - [ 1.78227329e+00, 1.05587935e+00, 1.58740366e+00 ]
      - [ 1.91583622e+00, 3.44985306e-01, 4.03765631e+00 ]
      - [ 1.48174417e+00, 4.01212394e-01, 3.44393229e+00 ]
      - [ 1.50378370e+00, 3.78623396e-01, 3.75170398e+00 ]
      - [ 2.73856664e+00, 3.13278526e-01, 4.51185036e+00 ]
      - [ 1.36822271e+00, 5.28221011e-01, 3.03996229e+00 ]
      - [ 2.70431089e+00, 4.57650959e-01, 3.11376309e+00 ]
      - [ 1.70867443e+00, 3.48782122e-01, 4.40329266e+00 ]
      - [ 2.96713972e+00, 2.32554033e-01, 6.11843061e+00 ]
      - [ 2.00832438e+00, 4.02817369e-01, 3.46165204e+00 ]
      - [ 1.73138607e+00, 3.03242266e-01, 4.59852648e+00 ]
      - [ 1.27644718e+00, 4.31674719e-01, 3.78506899e+00 ]
      - [ 1.59503877e+00, 4.85109031e-01, 2.97233677e+00 ]
      - [ 2.43676209e+00, 3.71554166e-01, 3.71078467e+00 ]
      - [ 2.00979853e+00, 7.00272441e-01, 2.29132676e+00 ]
      - [ 1.47694397e+00, 3.02242756e-01, 5.13128662e+00 ]
      - [ 3.03068352e+00, 4.30523038e-01, 3.44382691e+00 ]
      - [ 2.29934359e+00, 3.02343160e-01, 4.90144253e+00 ]
      - [ 1.68565559e+00, 3.92489493e-01, 3.51157761e+00 ]
      - [ 1.51803160e+00, 3.60473603e-01, 3.90834045e+00 ]
      - [ 3.41617417e+00, 2.95549333e-01, 4.74033117e+00 ]
      - [ 1.84938347e+00, 3.26389283e-01, 4.38315392e+00 ]
      - [ 1.95912123e+00, 6.59179270e-01, 2.42060471e+00 ]
      - [ 1.51200759e+00, 4.10266995e-01, 3.51307583e+00 ]
      - [ 1.43855989e+00, 3.76289666e-01, 3.80131793e+00 ]
      - [ 2.41684461e+00, 5.07088304e-01, 2.81215978e+00 ]
      - [ 1.70555878e+00, 8.92338037e-01, 1.91086388e+00 ]
      - [ 2.34392333e+00, 3.93913329e-01, 3.50583816e+00 ]
      - [ 2.01960731e+00, 3.55716825e-01, 3.79400897e+00 ]
      - [ 1.61924756e+00, 6.70092285e-01, 2.46561217e+00 ]
      - [ 5.32757998e+00, 2.69676566e-01, 5.71977377e+00 ]
      - [ 4.92505407e+00, 3.22108835e-01, 4.32334757e+00 ]
      - [ 1.29510283e+00, 3.59399498e-01, 4.05560541e+00 ]
      - [ 2.03175998e+00, 4.00327981e-01, 3.46902919e+00 ]
      - [ 1.46065712e+00, 3.52169484e-01, 4.02294111e+00 ]
      - [ 4.92407274e+00, 6.55503154e-01, 2.43903494e+00 ]
      - [ 2.19459867e+00, 3.70913923e-01, 3.68902135e+00 ]
      - [ 1.95142448e+00, 3.55649173e-01, 3.86409235e+00 ]
      - [ 2.56501460e+00, 9.18273211e-01, 1.77024508e+00 ]
      - [ 2.16414475e+00, 3.96879762e-01, 3.47926092e+00 ]
      - [ 2.57997012e+00, 2.83321947e-01, 5.08761501e+00 ]
      - [ 1.57347167e+00, 7.08217800e-01, 2.31502414e+00 ]
      - [ 1.98634052e+00, 4.57287759e-01, 3.14902520e+00 ]
      - [ 1.88536048e+00, 5.04956603e-01, 2.94645548e+00 ]
      - [ 2.16280484e+00, 3.78954411e-01, 3.63426805e+00 ]
      - [ 1.70464110e+00, 4.01777416e-01, 3.46095896e+00 ]
      - [ 1.40878618e+00, 3.25316906e-01, 4.51546907e+00 ]
      - [ 3.29044509e+00, 2.97391981e-01, 5.50697660e+00 ]
      - [ 2.83989477e+00, 7.50977457e-01, 2.13271117e+00 ]
      - [ 2.37110209e+00, 5.16767681e-01, 2.94459844e+00 ]
      - [ 1.51641762e+00, 3.77825379e-01, 3.60693550e+00 ]
      - [ 1.55147588e+00, 4.23987269e-01, 3.34622884e+00 ]
      - [ 3.38804579e+00, 3.03131491e-01, 5.15219593e+00 ]
      - [ 1.32455206e+00, 3.26884478e-01, 4.85394716e+00 ]
      - [ 1.84251666e+00, 7.43380845e-01, 2.18636346e+00 ]
      - [ 1.80350029e+00, 3.34346920e-01, 4.18309116e+00 ]
      - [ 1.73033249e+00, 3.35384607e-01, 4.48693848e+00 ]
      - [ 1.66921246e+00, 4.65616912e-01, 3.09344149e+00 ]
      - [ 1.65507126e+00, 3.91106129e-01, 3.51530719e+00 ]
      - [ 1.58108377e+00, 2.80802965e-01, 5.41524124e+00 ]
      - [ 1.57711291e+00, 3.18079233e-01, 4.40724850e+00 ]
      - [ 1.24911010e+00, 4.78578866e-01, 3.38491321e+00 ]
      - [ 2.85228133e+00, 3.38156164e-01, 4.18459368e+00 ]
      - [ 1.61972249e+00, 4.25344944e-01, 3.29190946e+00 ]
      - [ 1.59671044e+00, 3.64975572e-01, 3.81415868e+00 ]
      - [ 1.69967663e+00, 3.77795160e-01, 3.59309626e+00 ]
      - [ 1.81264806e+00, 4.01833087e-01, 3.44012117e+00 ]
      - [ 1.87753725e+00, 2.94205308e-01, 4.82038546e+00 ]
      - [ 2.01890564e+00, 4.39129710e-01, 3.24518752e+00 ]
      - [ 1.82842493e+00, 4.31427687e-01, 3.23808312e+00 ]
      - [ 2.22591949e+00, 4.20585304e-01, 3.38213229e+00 ]
      - [ 1.14420748e+00, 2.61225820e-01, 5.71157217e+00 ]
      - [ 2.18060064e+00, 4.37188983e-01, 3.31315041e+00 ]
      - [ 1.83930922e+00, 3.93144727e-01, 3.47914982e+00 ]
      - [ 3.04547620e+00, 3.34185749e-01, 4.00446558e+00 ]
      - [ 1.55919385e+00, 3.93462092e-01, 3.53474021e+00 ]
      - [ 1.51406205e+00, 4.05017763e-01, 3.41204977e+00 ]
      - [ 1.53858483e+00, 3.61376405e-01, 3.98711300e+00 ]
      - [ 1.72210145e+00, 3.89663994e-01, 3.53258920e+00 ]
      - [ 1.61540961e+00, 3.65047008e-01, 3.76936626e+00 ]
      - [ 1.67309344e+00, 3.53085101e-01, 3.87653613e+00 ]
      - [ 4.48357964e+00, 7.18289018e-01, 2.14038539e+00 ]
      - [ 1.51454782e+00, 3.99017692e-01, 3.50754857e+00 ]
      - [ 1.70713317e+00, 3.72887701e-01, 3.69489574e+00 ]
      - [ 2.33997583e+00, 3.95114005e-01, 3.49851060e+00 ]
      - [ 2.51746082e+00, 4.52483475e-01, 3.26829195e+00 ]
      - [ 1.35203731e+00, 3.82823676e-01, 3.82813621e+00 ]
      - [ 1.54359782e+00, 4.09214288e-01, 3.39132500e+00 ]
      - [ 2.32409549e+00, 3.25456589e-01, 4.23782539e+00 ]
      - [ 2.29250407e+00, 2.92012066e-01, 4.73684168e+00 ]
      - [ 1.59487844e+00, 6.43828750e-01, 2.43152833e+00 ]
      - [ 4.57717896e+00, 7.58687079e-01, 2.05842233e+00 ]
      - [ 1.57113302e+00, 4.51056063e-01, 3.12968183e+00 ]
      - [ 2.29913497e+00, 3.54715079e-01, 3.80834174e+00 ]
      - [ 1.59655261e+00, 3.47737640e-01, 4.17131472e+00 ]
      - [ 1.48894584e+00, 2.89863527e-01, 5.18479204e+00 ]
      - [ 1.47730291e+00, 6.00624681e-01, 2.67391133e+00 ]
      - [ 1.39184844e+00, 4.31283951e-01, 3.28095603e+00 ]
      - [ 1.80497980e+00, 3.95975858e-01, 3.49171352e+00 ]
      - [ 1.79154968e+00, 3.55505019e-01, 3.82589698e+00 ]
      - [ 1.54397643e+00, 3.52437228e-01, 4.05339575e+00 ]
      - [ 1.53648424e+00, 3.87716770e-01, 3.57301092e+00 ]
      - [ 5.02329350e+00, 2.84358412e-01, 5.14275980e+00 ]
      - [ 1.91851544e+00, 1.35220802e+00, 1.28658819e+00 ]
      - [ 1.54269242e+00, 5.60409546e-01, 2.84040618e+00 ]
      - [ 1.53591168e+00, 3.55486453e-01, 4.05342913e+00 ]
      - [ 1.47585690e+00, 4.51774448e-01, 3.30777287e+00 ]
      - [ 1.94672966e+00, 4.88760203e-01, 3.01578212e+00 ]
      - [ 1.38138902e+00, 4.01844949e-01, 3.49021506e+00 ]
      - [ 2.05268168e+00, 4.61080462e-01, 3.14600825e+00 ]
      - [ 2.19050431e+00, 6.83573961e-01, 2.30015755e+00 ]
      - [ 1.66761339e+00, 4.10737842e-01, 3.38034987e+00 ]
      - [ 3.20711327e+00, 7.75185764e-01, 2.07017827e+00 ]
      - [ 2.17673540e+00, 6.41857445e-01, 2.28770161e+00 ]
      - [ 1.93269503e+00, 3.08771908e-01, 4.82767868e+00 ]
      - [ 3.61340666e+00, 2.88803726e-01, 4.79655218e+00 ]
      - [ 2.32308650e+00, 3.79993498e-01, 3.68790817e+00 ]
      - [ 3.77268982e+00, 6.79988801e-01, 2.25630093e+00 ]
      - [ 2.49151897e+00, 6.25171483e-01, 2.44931173e+00 ]
      - [ 1.43487692e+00, 3.38625282e-01, 4.43109560e+00 ]
      - [ 1.48182726e+00, 7.40439177e-01, 2.15567112e+00 ]
      - [ 2.26037908e+00, 8.18347514e-01, 1.96903682e+00 ]
      - [ 1.65744078e+00, 4.05847967e-01, 3.42964602e+00 ]
      - [ 3.24486923e+00, 3.23698997e-01, 4.25911951e+00 ]
      - [ 1.75287104e+00, 4.96783763e-01, 2.98276353e+00 ]
      - [ 1.87770772e+00, 3.05190265e-01, 4.58385324e+00 ]
      - [ 1.56762886e+00, 3.30425173e-01, 4.35494328e+00 ]
      - [ 1.94304407e+00, 3.26652229e-01, 4.39529276e+00 ]
      - [ 7.30659962e+00, 2.13419378e-01, 7.40841579e+00 ]
      - [ 1.91740489e+00, 3.93644840e-01, 3.48445249e+00 ]
      - [ 1.64635694e+00, 7.96846271e-01, 1.95535922e+00 ]
      - [ 1.70547497e+00, 3.61882120e-01, 3.83356452e+00 ]
      - [ 1.43856621e+00, 3.66176724e-01, 3.73147678e+00 ]
      - [ 1.42730832e+00, 4.26201224e-01, 3.16248560e+00 ]
      - [ 1.31856644e+00, 4.17015731e-01, 3.75569725e+00 ]
      - [ 1.55258322e+00, 6.14384174e-01, 2.65052652e+00 ]
      - [ 1.38736105e+00, 3.85971040e-01, 3.73431993e+00 ]
      - [ 1.87259424e+00, 4.92824435e-01, 2.95247269e+00 ]
      - [ 1.76166499e+00, 3.14551950e-01, 4.70890331e+00 ]
      - [ 2.92423296e+00, 3.91186535e-01, 3.67005110e+00 ]
      - [ 1.62538481e+00, 4.90218580e-01, 3.00243521e+00 ]
      - [ 3.95492697e+00, 5.19851029e-01, 2.77140999e+00 ]
      - [ 1.64781642e+00, 3.45974356e-01, 4.34375381e+00 ]
      - [ 1.63930988e+00, 3.51325512e-01, 3.89106894e+00 ]
      - [ 1.83111989e+00, 4.74303097e-01, 3.06840253e+00 ]
      - [ 1.53893507e+00, 3.24813277e-01, 4.38339567e+00 ]
      - [ 4.12662220e+00, 7.29487300e-01, 2.08709145e+00 ]
      - [ 1.60810924e+00, 4.21402335e-01, 3.24851656e+00 ]
      - [ 5.99174595e+00, 3.45888197e-01, 4.16746044e+00 ]
      - [ 1.75388741e+00, 4.20795918e-01, 3.30853105e+00 ]
      - [ 5.03691912e+00, 5.85461855e-01, 2.59488678e+00 ]
      - [ 2.69223523e+00, 4.68903393e-01, 3.01710606e+00 ]
      - [ 5.09135532e+00, 4.70315188e-01, 3.16523838e+00 ]
      - [ 1.90169859e+00, 3.70895088e-01, 3.67815518e+00 ]
      - [ 2.33382654e+00, 2.77783096e-01, 5.43651915e+00 ]
      - [ 2.76270151e+00, 3.75368923e-01, 3.68285799e+00 ]
      - [ 1.80896533e+00, 3.49431187e-01, 3.93963981e+00 ]
      - [ 6.03934431e+00, 4.05763477e-01, 3.67804956e+00 ]
      - [ 1.48506093e+00, 3.58648837e-01, 3.87880063e+00 ]
      - [ 1.81212389e+00, 6.96948469e-01, 2.33394170e+00 ]
      - [ 6.83930588e+00, 6.14098072e-01, 2.66384935e+00 ]
      - [ 1.84250534e+00, 3.18999112e-01, 4.60133314e+00 ]
      - [ 2.48875451e+00, 7.92517066e-01, 2.03183079e+00 ]
      - [ 1.56663287e+00, 4.01694626e-01, 3.46747541e+00 ]
      - [ 1.40412986e+00, 3.92036736e-01, 3.72460651e+00 ]
      - [ 3.10400486e+00, 8.02479088e-01, 1.99140441e+00 ]
      - [ 2.14085555e+00, 6.78207874e-01, 2.32468557e+00 ]
      - [ 3.09855509e+00, 6.79690719e-01, 2.31652236e+00 ]
      - [ 1.52844763e+00, 7.43503153e-01, 2.17312980e+00 ]
      - [ 3.26073980e+00, 6.22727990e-01, 2.52871060e+00 ]
      - [ 1.41576576e+00, 2.95801669e-01, 5.56885338e+00 ]
      - [ 2.00674081e+00, 3.79206091e-01, 3.61809826e+00 ]
      - [ 2.12519193e+00, 4.11834747e-01, 3.39825773e+00 ]
      - [ 1.66910350e+00, 2.55495757e-01, 5.93325901e+00 ]
      - [ 3.53721118e+00, 7.19063580e-01, 2.20656180e+00 ]
      - [ 2.21861815e+00, 3.16487670e-01, 4.36093044e+00 ]
      - [ 1.26283765e+00, 3.85708421e-01, 3.79043365e+00 ]
      - [ 4.69513130e+00, 8.59832466e-01, 1.79773033e+00 ]
      - [ 1.87930822e+00, 3.31151873e-01, 4.15378666e+00 ]
      - [ 1.43235779e+00, 3.92685056e-01, 3.95107794e+00 ]
      - [ 1.74089742e+00, 8.04920077e-01, 2.01956463e+00 ]
      - [ 2.02799797e+00, 3.58914316e-01, 3.84987879e+00 ]
      - [ 1.34939790e+00, 3.52295339e-01, 4.32037115e+00 ]
      - [ 1.58307862e+00, 3.65325600e-01, 3.71538448e+00 ]
      - [ 2.34805107e+00, 4.72234756e-01, 3.07248974e+00 ]
      - [ 1.54959857e+00, 3.23658884e-01, 4.59873772e+00 ]
      - [ 1.91090882e+00, 3.31206113e-01, 4.23542023e+00 ]
      - [ 1.61286652e+00, 3.56232941e-01, 3.86231637e+00 ]
      - [ 2.27595496e+00, 3.84213537e-01, 3.61327505e+00 ]
      - [ 2.73211598e+00, 3.87534857e-01, 3.66334820e+00 ]
      - [ 5.59291363e+00, 3.62552345e-01, 4.02660418e+00 ]
      - [ 1.54769623e+00, 4.38912779e-01, 3.21148443e+00 ]
      - [ 1.86307681e+00, 7.83268332e-01, 2.04685521e+00 ]
      - [ 3.01344562e+00, 3.07963610e-01, 4.56461191e+00 ]
      - [ 1.53620458e+00, 4.04486537e-01, 3.44911885e+00 ]
      - [ 1.34609556e+00, 3.86859089e-01, 3.62976098e+00 ]
      - [ 1.65844679e+00, 4.03205574e-01, 3.45232272e+00 ]
      - [ 1.78031564e+00, 4.38738108e-01, 3.26541114e+00 ]
      - [ 1.91096139e+00, 3.27419996e-01, 4.35346699e+00 ]
      - [ 3.12528706e+00, 8.47863317e-01, 1.87969923e+00 ]
      - [ 1.50014555e+00, 4.05808508e-01, 3.53937864e+00 ]
      - [ 1.66754675e+00, 6.21413350e-01, 2.54449058e+00 ]
      - [ 2.05897546e+00, 3.32402498e-01, 4.22831774e+00 ]
      - [ 2.10505986e+00, 5.04649818e-01, 2.95709825e+00 ]
      - [ 1.90602469e+00, 3.43927890e-01, 4.00840282e+00 ]
      - [ 2.05706406e+00, 4.13099408e-01, 3.40964699e+00 ]
      - [ 1.59917712e+00, 4.30503994e-01, 3.13338137e+00 ]
      - [ 3.46687770e+00, 6.07523143e-01, 2.59618855e+00 ]
      - [ 2.01912212e+00, 1.72648445e-01, 9.26510715e+00 ]
      - [ 1.46286380e+00, 6.95886791e-01, 2.34085488e+00 ]
      - [ 5.05788231e+00, 4.05871481e-01, 3.39786625e+00 ]
      - [ 1.82754481e+00, 3.36192071e-01, 4.42574167e+00 ]
      - [ 2.09201241e+00, 3.67691487e-01, 3.74448442e+00 ]
      - [ 2.24159813e+00, 4.91901219e-01, 2.99954319e+00 ]
      - [ 1.53846824e+00, 3.82744074e-01, 3.65935206e+00 ]
      - [ 3.65031481e+00, 2.89842814e-01, 5.04073620e+00 ]
      - [ 1.52993166e+00, 3.90358895e-01, 3.59966040e+00 ]
      - [ 2.06064057e+00, 3.70974272e-01, 3.61785769e+00 ]
      - [ 1.72048473e+00, 3.23152572e-01, 4.45960331e+00 ]
      - [ 2.30369449e+00, 4.47816432e-01, 3.18617654e+00 ]
      - [ 2.28434563e+00, 7.43883014e-01, 2.14283490e+00 ]
      - [ 1.52332485e+00, 3.10443670e-01, 4.62999821e+00 ]
      - [ 2.22742391e+00, 3.55865955e-01, 3.90762043e+00 ]
      - [ 1.99830806e+00, 8.65150094e-01, 1.88343132e+00 ]
      - [ 2.89732552e+00, 6.94595575e-01, 2.26913834e+00 ]
      - [ 2.58214998e+00, 4.96970922e-01, 2.97978663e+00 ]
      - [ 2.81945157e+00, 3.18214953e-01, 4.40126991e+00 ]
      - [ 2.90538216e+00, 3.33412856e-01, 4.23414326e+00 ]
      - [ 1.92236733e+00, 3.23595405e-01, 4.76143074e+00 ]
      - [ 1.72499645e+00, 6.10801399e-01, 2.60851240e+00 ]
      - [ 1.59715962e+00, 6.25736356e-01, 2.58386517e+00 ]
      - [ 2.06109929e+00, 3.43587220e-01, 3.98274899e+00 ]
      - [ 2.30647182e+00, 3.61117482e-01, 3.81815052e+00 ]
      - [ 2.05320644e+00, 7.14201689e-01, 2.24175525e+00 ]
      - [ 4.33565378e+00, 3.58770490e-01, 3.83320689e+00 ]
      - [ 1.53527308e+00, 3.41220260e-01, 4.13120365e+00 ]
      - [ 1.85775304e+00, 4.16680843e-01, 3.36611867e+00 ]
      - [ 3.75553679e+00, 3.77278447e-01, 3.83261013e+00 ]
      - [ 3.78381610e+00, 6.81364954e-01, 2.32952118e+00 ]
      - [ 2.82180929e+00, 3.31970453e-01, 4.20311213e+00 ]
      - [ 2.48049212e+00, 3.86986881e-01, 3.64445877e+00 ]
      - [ 4.10882854e+00, 7.33029544e-01, 2.13867378e+00 ]
      - [ 1.52785242e+00, 3.63993645e-01, 3.92548013e+00 ]
      - [ 2.13068819e+00, 4.04937029e-01, 3.44215679e+00 ]
      - [ 1.65464377e+00, 6.52148068e-01, 2.51924825e+00 ]
      - [ 1.68399036e+00, 3.37296188e-01, 4.70034218e+00 ]
      - [ 3.21336555e+00, 2.92722493e-01, 4.64097166e+00 ]
      - [ 1.72013724e+00, 4.39902544e-01, 3.22916913e+00 ]
      - [ 1.46760488e+00, 3.64818126e-01, 3.92887378e+00 ]
      - [ 2.40976119e+00, 2.95008034e-01, 5.02596092e+00 ]
      - [ 1.79109001e+00, 4.19415236e-01, 3.35288048e+00 ]
      - [ 2.43454123e+00, 3.90194476e-01, 3.55433917e+00 ]
      - [ 1.76233482e+00, 3.58070523e-01, 3.79536629e+00 ]
      - [ 2.38145471e+00, 2.61173517e-01, 5.57264614e+00 ]
      - [ 2.14034271e+00, 3.90371442e-01, 3.53236532e+00 ]
      - [ 4.85473537e+00, 5.89277625e-01, 2.58463192e+00 ]
      - [ 1.68602479e+00, 3.46459687e-01, 4.01786852e+00 ]
      - [ 1.72057343e+00, 6.06555462e-01, 2.55512238e+00 ]
      - [ 1.59326982e+00, 3.74617904e-01, 3.58444381e+00 ]
      - [ 1.85211551e+00, 6.20938063e-01, 2.52950764e+00 ]
      - [ 1.99819553e+00, 4.99923795e-01, 2.98221326e+00 ]
      - [ 1.74805748e+00, 4.06834126e-01, 3.43081784e+00 ]
      - [ 1.83308852e+00, 7.83808351e-01, 2.02753305e+00 ]
      - [ 1.58329153e+00, 3.47154051e-01, 4.03271055e+00 ]
      - [ 1.95130897e+00, 4.77217078e-01, 3.06861567e+00 ]
      - [ 1.63601959e+00, 3.56772363e-01, 3.80414438e+00 ]
      - [ 1.48954415e+00, 3.92923206e-01, 3.49547195e+00 ]
      - [ 1.47773516e+00, 3.13765943e-01, 4.70483541e+00 ]
      - [ 3.20640326e+00, 2.83436388e-01, 5.80120230e+00 ]
      - [ 1.77198327e+00, 3.54161501e-01, 3.90986705e+00 ]
      - [ 2.85748887e+00, 3.97622585e-01, 3.56099153e+00 ]
      - [ 1.56039393e+00, 4.68788475e-01, 2.92364407e+00 ]
      - [ 1.38739455e+00, 3.51376414e-01, 4.23462486e+00 ]
      - [ 1.83513391e+00, 3.60970169e-01, 3.78590131e+00 ]
      - [ 2.27186251e+00, 2.84358084e-01, 5.19589090e+00 ]
      - [ 4.74933720e+00, 4.87685323e-01, 3.05419064e+00 ]
      - [ 1.41793537e+00, 3.13230515e-01, 4.69866657e+00 ]
      - [ 1.68462276e+00, 4.78794813e-01, 3.06940508e+00 ]
      - [ 1.62196112e+00, 3.48971039e-01, 3.96683764e+00 ]
      - [ 1.93044007e+00, 3.33523333e-01, 4.34674597e+00 ]
      - [ 2.38178611e+00, 4.51530486e-01, 3.12514448e+00 ]
      - [ 1.73422766e+00, 7.63043642e-01, 2.11985517e+00 ]
      - [ 1.86840200e+00, 6.82462931e-01, 2.29329872e+00 ]
      - [ 1.66367209e+00, 1.72613785e-01, 8.98006821e+00 ]
      - [ 2.42523742e+00, 3.74767482e-01, 3.75314355e+00 ]
      - [ 1.51192951e+00, 7.87041843e-01, 2.02139997e+00 ]
      - [ 1.90807068e+00, 3.64380687e-01, 3.71992254e+00 ]
      - [ 4.76118946e+00, 8.30813766e-01, 1.93243003e+00 ]
      - [ 2.02551818e+00, 3.97195488e-01, 3.48193812e+00 ]
      - [ 1.62599611e+00, 6.09985828e-01, 2.59283853e+00 ]
      - [ 1.60404503e+00, 3.44278634e-01, 4.19966030e+00 ]
      - [ 1.66982996e+00, 4.44929153e-01, 3.20765758e+00 ]
      - [ 2.14922976e+00, 4.86143261e-01, 2.97823334e+00 ]
      - [ 2.26403761e+00, 3.80650222e-01, 3.65782404e+00 ]
      - [ 1.98114049e+00, 2.90795892e-01, 5.30094767e+00 ]
      - [ 5.50489378e+00, 5.09247065e-01, 3.10286903e+00 ]
      - [ 1.42970836e+00, 3.64815444e-01, 3.84013653e+00 ]
      - [ 2.98148155e+00, 3.32173318e-01, 4.12174845e+00 ]
      - [ 1.94776654e+00, 3.32415700e-01, 4.21179104e+00 ]
      - [ 1.84145641e+00, 3.84724140e-01, 3.59069371e+00 ]
      - [ 1.68283963e+00, 3.94018620e-01, 3.52877760e+00 ]
      - [ 2.69836521e+00, 3.18658441e-01, 4.38861513e+00 ]
      - [ 1.99467444e+00, 2.61066139e-01, 5.77644062e+00 ]
      - [ 1.47805905e+00, 3.76573354e-01, 3.74561357e+00 ]
      - [ 3.29118872e+00, 8.33072901e-01, 1.91546953e+00 ]
      - [ 1.73392272e+00, 3.62588882e-01, 3.70916653e+00 ]
      - [ 1.97502673e+00, 3.40922773e-01, 3.95776176e+00 ]
      - [ 4.11589956e+00, 5.34695506e-01, 2.89993286e+00 ]
      - [ 1.97763264e+00, 3.34757537e-01, 4.23588133e+00 ]
      - [ 1.80675209e+00, 6.37065053e-01, 2.51392174e+00 ]
      - [ 1.78343523e+00, 4.57709640e-01, 3.06806231e+00 ]
      - [ 1.82668257e+00, 3.19653004e-01, 4.58548546e+00 ]
      - [ 1.47000802e+00, 3.99030656e-01, 3.49239230e+00 ]
      - [ 4.13124275e+00, 1.72759444e-01, 8.65488243e+00 ]
      - [ 2.19954371e+00, 4.52282727e-01, 3.14496899e+00 ]
      - [ 1.51932192e+00, 3.62124801e-01, 3.93516660e+00 ]
      - [ 1.65138102e+00, 3.97395015e-01, 3.49788380e+00 ]
      - [ 3.48862934e+00, 4.32509780e-01, 3.27080393e+00 ]
      - [ 1.83910728e+00, 3.15824717e-01, 4.63051605e+00 ]
      - [ 1.72839546e+00, 7.04895437e-01, 2.24328780e+00 ]
      - [ 2.26179314e+00, 4.32439804e-01, 3.23304558e+00 ]
      - [ 1.51450264e+00, 3.97463530e-01, 3.58985543e+00 ]
      - [ 2.37204838e+00, 1.07642019e+00, 1.56697285e+00 ]
      - [ 1.47711086e+00, 3.92391682e-01, 3.49670959e+00 ]
      - [ 1.56363642e+00, 4.30248648e-01, 3.22059798e+00 ]
      - [ 2.45016980e+00, 4.46789950e-01, 3.23425198e+00 ]
      - [ 1.83955860e+00, 3.96524519e-01, 3.48647761e+00 ]
      - [ 2.08950949e+00, 4.56858277e-01, 3.08705640e+00 ]
      - [ 1.54239702e+00, 4.62585419e-01, 3.16600037e+00 ]
      - [ 1.25496280e+00, 3.09433609e-01, 4.67213964e+00 ]
      - [ 1.40235364e+00, 4.69900101e-01, 3.26733637e+00 ]
      - [ 1.42668951e+00, 6.60906017e-01, 2.45526648e+00 ]
      - [ 2.56239557e+00, 8.44571888e-01, 1.93140233e+00 ]
      - [ 1.63780713e+00, 2.72473216e-01, 5.25965118e+00 ]
      - [ 2.13643408e+00, 3.42360765e-01, 4.08114481e+00 ]
      - [ 2.00015569e+00, 6.98260844e-01, 2.28832078e+00 ]
      - [ 4.73156786e+00, 2.87672251e-01, 5.07246733e+00 ]
      - [ 1.62942839e+00, 4.41840619e-01, 3.10858750e+00 ]
      - [ 1.30426955e+00, 3.89194608e-01, 3.87338972e+00 ]
      - [ 1.50502002e+00, 3.13573390e-01, 4.64744139e+00 ]
      - [ 1.61427951e+00, 3.45785797e-01, 4.00637627e+00 ]
      - [ 1.88528061e+00, 6.66920125e-01, 2.40575600e+00 ]
      - [ 1.55084372e+00, 3.61378998e-01, 3.96008968e+00 ]
      - [ 1.71998084e+00, 4.49674189e-01, 3.08327246e+00 ]
      - [ 2.30421805e+00, 2.72662371e-01, 5.31178522e+00 ]
      - [ 1.56948376e+00, 3.29289138e-01, 4.48361015e+00 ]
      - [ 3.42796254e+00, 5.75562477e-01, 2.71699953e+00 ]
      - [ 1.64579880e+00, 4.04427469e-01, 3.46202493e+00 ]
      - [ 1.59379375e+00, 6.45577669e-01, 2.47323179e+00 ]
      - [ 2.64775038e+00, 5.02537549e-01, 2.79574823e+00 ]
      - [ 1.39521515e+00, 3.97193283e-01, 3.47436762e+00 ]
      - [ 3.42576694e+00, 8.47514749e-01, 1.90671468e+00 ]
      - [ 2.22645807e+00, 4.80013847e-01, 3.07992744e+00 ]
      - [ 2.53754616e+00, 3.73930573e-01, 3.73219180e+00 ]
      - [ 8.88991833e+00, 4.20577914e-01, 3.35598326e+00 ]
      - [ 3.75761580e+00, 7.06685960e-01, 2.27820683e+00 ]
      - [ 1.53380728e+00, 4.52520132e-01, 3.25421691e+00 ]
      - [ 5.56767511e+00, 7.18084335e-01, 2.07185578e+00 ]
      - [ 2.64028335e+00, 6.10303164e-01, 2.51824331e+00 ]
      - [ 3.08838320e+00, 5.68016350e-01, 2.69975901e+00 ]
      - [ 2.68406582e+00, 3.77238095e-01, 3.67465544e+00 ]
      - [ 1.39839458e+00, 6.02424502e-01, 2.65826201e+00 ]
      - [ 2.15142035e+00, 4.90051240e-01, 3.03911185e+00 ]
      - [ 2.18076515e+00, 3.66774172e-01, 3.77333450e+00 ]
      - [ 1.75153387e+00, 4.29893553e-01, 3.25660944e+00 ]
      - [ 2.28716159e+00, 7.83519685e-01, 2.05408645e+00 ]
      - [ 1.65517354e+00, 3.40193123e-01, 4.40515757e+00 ]
      - [ 1.91061163e+00, 6.58556283e-01, 2.42570281e+00 ]
      - [ 1.41868973e+00, 6.52725339e-01, 2.49325943e+00 ]
      - [ 1.30541670e+00, 7.10584402e-01, 2.31834364e+00 ]
      - [ 2.05669093e+00, 3.00410807e-01, 4.72222090e+00 ]
      - [ 1.47304702e+00, 2.64916986e-01, 5.66072273e+00 ]
      - [ 1.45877421e+00, 3.85355711e-01, 3.63312984e+00 ]
      - [ 1.73682785e+00, 3.81960839e-01, 3.53808570e+00 ]
      - [ 1.96627653e+00, 4.40217108e-01, 3.15989518e+00 ]
      - [ 1.69608057e+00, 4.45766926e-01, 3.23029566e+00 ]
      - [ 5.06845140e+00, 2.93641120e-01, 4.83604145e+00 ]
      - [ 1.42207825e+00, 4.13386315e-01, 3.44275045e+00 ]
      - [ 1.63206363e+00, 4.24107134e-01, 3.34635544e+00 ]
      - [ 1.64118052e+00, 3.93483907e-01, 3.44157624e+00 ]
      - [ 1.67102015e+00, 3.04668278e-01, 4.94063520e+00 ]
      - [ 2.13765907e+00, 4.99385864e-01, 2.93990779e+00 ]
      - [ 5.18376255e+00, 7.08150268e-01, 2.29817939e+00 ]
      - [ 1.85720801e+00, 4.09041643e-01, 3.42274618e+00 ]
      - [ 1.80557132e+00, 3.58277768e-01, 3.87227941e+00 ]
      - [ 1.50582826e+00, 3.67977858e-01, 3.85397601e+00 ]
      - [ 1.37664616e+00, 4.30336595e-01, 3.34966350e+00 ]
      - [ 2.15484333e+00, 3.48722368e-01, 3.91587377e+00 ]
      - [ 1.58778727e+00, 7.98138320e-01, 2.04262805e+00 ]
      - [ 1.40011489e+00, 4.20228004e-01, 3.25651789e+00 ]
      - [ 2.53225613e+00, 2.73600161e-01, 5.28401756e+00 ]
      - [ 1.83660662e+00, 6.57043457e-01, 2.44736409e+00 ]
      - [ 1.57149613e+00, 3.34562451e-01, 4.53001118e+00 ]
      - [ 1.40284467e+00, 3.53812635e-01, 4.66147423e+00 ]
      - [ 1.88381684e+00, 3.75687063e-01, 3.66740704e+00 ]
      - [ 3.57750463e+00, 2.70557255e-01, 5.17548180e+00 ]
      - [ 1.86256230e+00, 6.59016728e-01, 2.36563587e+00 ]
      - [ 1.84448910e+00, 2.81067073e-01, 5.49052095e+00 ]
      - [ 1.94005132e+00, 3.09415072e-01, 4.91169786e+00 ]
      - [ 1.60301304e+00, 3.70653242e-01, 3.76181579e+00 ]
      - [ 5.52522802e+00, 4.86123353e-01, 3.23611879e+00 ]
      - [ 2.16606259e+00, 5.09408474e-01, 2.91906524e+00 ]
      - [ 4.71741104e+00, 3.08709532e-01, 5.00955200e+00 ]
      - [ 1.97171581e+00, 2.93534040e-01, 4.98774576e+00 ]
      - [ 8.48546565e-01, 3.30841511e-01, 4.53927517e+00 ]
      - [ 2.06405950e+00, 6.64208949e-01, 2.40241218e+00 ]
      - [ 1.33195770e+00, 4.05341953e-01, 3.70400929e+00 ]
      - [ 1.94610953e+00, 3.78665924e-01, 3.63944578e+00 ]
      - [ 1.88964355e+00, 3.82135391e-01, 3.57953811e+00 ]
      - [ 1.46596813e+00, 3.90080363e-01, 3.59939814e+00 ]
      - [ 1.91927803e+00, 2.96858519e-01, 4.91134691e+00 ]
      - [ 1.31268859e+00, 2.97189891e-01, 5.29579830e+00 ]
      - [ 2.39428735e+00, 6.79614723e-01, 2.24702406e+00 ]
      - [ 1.23693979e+00, 5.63565016e-01, 2.88565898e+00 ]
      - [ 2.33796716e+00, 5.95258832e-01, 2.62539816e+00 ]
      - [ 3.93112469e+00, 4.70361233e-01, 3.25566578e+00 ]
      - [ 1.98626494e+00, 3.44604880e-01, 3.96503448e+00 ]
      - [ 1.60710740e+00, 4.09633338e-01, 3.41280389e+00 ]
      - [ 1.85037780e+00, 4.91782814e-01, 2.98836899e+00 ]
      - [ 4.02928400e+00, 3.47226590e-01, 4.08858395e+00 ]
      - [ 2.79236889e+00, 2.96087712e-01, 4.76145983e+00 ]
      - [ 2.07906365e+00, 5.06854951e-01, 2.92991090e+00 ]
      - [ 1.31772065e+00, 4.03604686e-01, 3.29811859e+00 ]
      - [ 1.78932297e+00, 6.65959299e-01, 2.41029763e+00 ]
      - [ 1.75932133e+00, 4.78560388e-01, 3.05875444e+00 ]
      - [ 2.02103949e+00, 2.96542734e-01, 4.77139330e+00 ]
      - [ 1.56978106e+00, 3.49630803e-01, 4.14229918e+00 ]
      - [ 3.48873949e+00, 3.94950956e-01, 3.67611289e+00 ]
      - [ 1.02920616e+00, 5.17423511e-01, 3.12136912e+00 ]
      - [ 2.54275179e+00, 3.61112237e-01, 3.88488960e+00 ]
      - [ 1.66162193e+00, 3.48325998e-01, 4.10049868e+00 ]
      - [ 2.08925462e+00, 3.28672916e-01, 4.20267200e+00 ]
      - [ 1.68639207e+00, 3.16082060e-01, 4.70746756e+00 ]
      - [ 2.76225328e+00, 3.94247115e-01, 3.57138562e+00 ]
      - [ 3.49904656e+00, 3.69439214e-01, 3.79360557e+00 ]
      - [ 1.76861000e+00, 3.88724983e-01, 3.44827580e+00 ]
      - [ 1.84230435e+00, 5.09505570e-01, 2.92768002e+00 ]
      - [ 1.57655585e+00, 2.79964417e-01, 5.60676622e+00 ]
      - [ 2.53545356e+00, 2.48736769e-01, 6.07519722e+00 ]
      - [ 1.56418586e+00, 3.94000888e-01, 3.49222827e+00 ]
      - [ 1.85488439e+00, 4.73559856e-01, 3.10188317e+00 ]
      - [ 3.74759173e+00, 5.81267178e-01, 2.65784621e+00 ]
      - [ 1.27207899e+00, 5.23672342e-01, 2.91459775e+00 ]
      - [ 1.09836960e+00, 2.93327123e-01, 5.28363419e+00 ]
      - [ 2.03130531e+00, 3.41973513e-01, 4.05624723e+00 ]
      - [ 5.95031261e+00, 4.27609146e-01, 3.48914528e+00 ]
      - [ 3.36599064e+00, 3.46355140e-01, 4.07153797e+00 ]
      - [ 1.33003843e+00, 3.61073285e-01, 4.05888987e+00 ]
      - [ 1.62342250e+00, 3.49717826e-01, 3.97214627e+00 ]
      - [ 1.39545393e+00, 5.91336310e-01, 2.76771545e+00 ]
      - [ 1.54937077e+00, 3.73550385e-01, 3.77191877e+00 ]
      - [ 1.39129150e+00, 3.65985990e-01, 3.92621613e+00 ]
      - [ 6.74538660e+00, 5.58408737e-01, 2.63194895e+00 ]
      - [ 1.29292631e+00, 4.01548505e-01, 3.58769989e+00 ]
      - [ 1.23985660e+00, 4.88131285e-01, 3.41412568e+00 ]
      - [ 1.33641732e+00, 3.33669692e-01, 4.47098923e+00 ]
      - [ 1.79202509e+00, 3.34942698e-01, 4.39287806e+00 ]
      - [ 1.92535079e+00, 3.92882496e-01, 3.51471019e+00 ]
      - [ 1.62475908e+00, 4.45944458e-01, 3.22012091e+00 ]
      - [ 1.72698522e+00, 3.46099019e-01, 4.07730436e+00 ]
      - [ 1.79052639e+00, 4.35651362e-01, 3.28418207e+00 ]
      - [ 1.83645117e+00, 8.54016781e-01, 1.91771424e+00 ]
      - [ 1.54024434e+00, 3.85534346e-01, 3.67955565e+00 ]
      - [ 1.77806449e+00, 4.22863543e-01, 3.22881937e+00 ]
      - [ 5.64977026e+00, 4.18137282e-01, 3.58760738e+00 ]
      - [ 1.72501004e+00, 4.17102784e-01, 3.33643031e+00 ]
      - [ 1.60382402e+00, 3.97433668e-01, 3.45904136e+00 ]
      - [ 1.46742821e+00, 3.56442839e-01, 4.06293297e+00 ]
      - [ 4.28382301e+00, 3.85036975e-01, 3.70296264e+00 ]
      - [ 2.14711690e+00, 2.92764187e-01, 5.00502634e+00 ]
      - [ 1.55468452e+00, 4.14677233e-01, 3.37853861e+00 ]
      - [ 2.78855634e+00, 7.69739568e-01, 2.07696056e+00 ]
      - [ 1.43098128e+00, 3.36999267e-01, 4.17631388e+00 ]
      - [ 1.88361228e+00, 2.86493897e-01, 5.18531513e+00 ]
      - [ 1.65406978e+00, 3.77929300e-01, 3.66853070e+00 ]
      - [ 1.78226411e+00, 3.76213163e-01, 3.65005636e+00 ]
      - [ 1.35321438e+00, 4.02239352e-01, 3.93818545e+00 ]
      - [ 1.53941607e+00, 3.52061421e-01, 3.98049307e+00 ]
      - [ 3.41155314e+00, 2.37351388e-01, 6.24128389e+00 ]
      - [ 2.23973274e+00, 7.21028447e-01, 2.19096160e+00 ]
      - [ 1.84866834e+00, 4.97126132e-01, 2.98253775e+00 ]
      - [ 6.79554701e+00, 3.44516546e-01, 4.20123291e+00 ]
      - [ 3.48476052e+00, 5.04616618e-01, 2.94907951e+00 ]
      - [ 1.45987976e+00, 3.88258189e-01, 3.58692384e+00 ]
      - [ 4.50443220e+00, 4.58180040e-01, 3.19656610e+00 ]
      - [ 2.94680524e+00, 3.34750891e-01, 4.16817856e+00 ]
      - [ 2.40178967e+00, 8.12368393e-01, 1.97604597e+00 ]
      - [ 1.58440042e+00, 5.50661981e-01, 2.77020288e+00 ]
      - [ 1.61573124e+00, 4.41728413e-01, 3.24773240e+00 ]
      - [ 1.53744233e+00, 4.18246090e-01, 3.45435238e+00 ]
      - [ 2.17554188e+00, 3.45015079e-01, 3.99616480e+00 ]
      - [ 1.83041763e+00, 3.32910597e-01, 4.17991304e+00 ]
      - [ 2.31971979e+00, 4.08650756e-01, 3.46972871e+00 ]
      - [ 1.90266490e+00, 4.90410894e-01, 3.03776193e+00 ]
      - [ 2.61105633e+00, 9.71891761e-01, 1.73111212e+00 ]
      - [ 7.95341682e+00, 5.11666358e-01, 3.10817838e+00 ]
      - [ 2.23434305e+00, 3.72305155e-01, 3.67370176e+00 ]
      - [ 1.99288869e+00, 3.00707519e-01, 4.85591221e+00 ]
      - [ 1.88706088e+00, 6.96060181e-01, 2.32428336e+00 ]
      - [ 1.65618753e+00, 3.37133944e-01, 4.39495230e+00 ]
      - [ 1.61791289e+00, 3.90924633e-01, 3.49530220e+00 ]
      - [ 1.49237418e+00, 4.41212207e-01, 3.22195911e+00 ]
      - [ 1.65418470e+00, 3.03544462e-01, 4.85748291e+00 ]
      - [ 1.49948907e+00, 3.35501909e-01, 4.40840387e+00 ]
      - [ 2.26943898e+00, 3.25310260e-01, 4.31082058e+00 ]
      - [ 1.21546400e+00, 6.18532777e-01, 2.41309690e+00 ]
      - [ 2.44430590e+00, 4.99456435e-01, 2.98737979e+00 ]
      - [ 2.86908197e+00, 7.94528604e-01, 2.01897955e+00 ]
      - [ 2.15788174e+00, 4.49607283e-01, 3.16974401e+00 ]
      - [ 1.79726708e+00, 3.25573504e-01, 4.40694237e+00 ]
      - [ 6.48168230e+00, 5.31185389e-01, 2.90686083e+00 ]
      - [ 1.36230755e+00, 3.45671415e-01, 4.18532133e+00 ]
      - [ 2.33088183e+00, 4.28060263e-01, 3.33694625e+00 ]
      - [ 1.12017572e+00, 5.21954775e-01, 3.07595158e+00 ]
      - [ 2.07051611e+00, 3.29778314e-01, 4.21265030e+00 ]
      - [ 3.24359179e+00, 3.05098891e-01, 4.41755819e+00 ]
      - [ 2.17663026e+00, 3.92567217e-01, 3.54945946e+00 ]
      - [ 3.46438837e+00, 3.85741770e-01, 3.48239255e+00 ]
      - [ 1.62308073e+00, 3.30167711e-01, 4.68154383e+00 ]
      - [ 1.96399915e+00, 4.58048403e-01, 3.16670322e+00 ]
      - [ 1.84655368e+00, 4.18581307e-01, 3.32429361e+00 ]
      - [ 3.68984413e+00, 7.84645259e-01, 2.06515121e+00 ]
      - [ 1.65308595e+00, 4.93066400e-01, 2.93323326e+00 ]
      - [ 1.51537251e+00, 3.68597686e-01, 3.78164911e+00 ]
      - [ 2.25637698e+00, 3.12092930e-01, 4.58790112e+00 ]
      - [ 1.43741226e+00, 4.05012369e-01, 3.61258483e+00 ]
      - [ 1.49491763e+00, 4.00520802e-01, 3.50156760e+00 ]
      - [ 1.43818665e+00, 3.78046811e-01, 4.03333044e+00 ]
      - [ 1.38011980e+00, 3.65723670e-01, 3.99264669e+00 ]
      - [ 4.00431871e+00, 7.03158975e-01, 2.22523475e+00 ]
      - [ 1.74520504e+00, 3.93513083e-01, 3.53073215e+00 ]
      - [ 7.42615032e+00, 1.55719683e-01, 1.02274876e+01 ]
      - [ 1.47660398e+00, 4.50346351e-01, 3.23890376e+00 ]
      - [ 1.48326600e+00, 3.90302986e-01, 3.58526087e+00 ]
      - [ 1.46759164e+00, 3.84376317e-01, 3.60257697e+00 ]
      - [ 2.34344602e+00, 2.36910596e-01, 6.04981899e+00 ]
      - [ 2.93713212e+00, 7.26809442e-01, 2.16781449e+00 ]
      - [ 1.96555686e+00, 5.10457635e-01, 2.91623139e+00 ]
      - [ 1.53918064e+00, 3.53170961e-01, 4.31126976e+00 ]
      - [ 5.40654755e+00, 7.17475533e-01, 2.25821853e+00 ]
      - [ 2.77857709e+00, 8.23661506e-01, 1.94820476e+00 ]
      - [ 2.08856034e+00, 3.81139815e-01, 3.62473798e+00 ]
      - [ 2.98807073e+00, 3.47070009e-01, 4.01307249e+00 ]
      - [ 1.74161911e+00, 3.78846288e-01, 3.59691691e+00 ]
      - [ 2.23618484e+00, 4.68311787e-01, 3.05307961e+00 ]
      - [ 1.33258533e+00, 3.47812504e-01, 3.98030901e+00 ]
      - [ 1.72405887e+00, 4.84376997e-01, 2.97032332e+00 ]
      - [ 2.11142993e+00, 4.86587793e-01, 3.12081718e+00 ]
      - [ 1.86223865e+00, 4.57825541e-01, 3.26469851e+00 ]
      - [ 5.04894924e+00, 7.58862317e-01, 2.02421021e+00 ]
      - [ 1.70600331e+00, 3.08089942e-01, 4.50383806e+00 ]
      - [ 1.62020457e+00, 4.22145844e-01, 3.83531022e+00 ]
      - [ 2.27522707e+00, 3.54863554e-01, 3.94228482e+00 ]
      - [ 3.81121778e+00, 7.12762713e-01, 2.29197860e+00 ]
      - [ 2.21674943e+00, 6.05880916e-01, 2.67378592e+00 ]
      - [ 1.84766769e+00, 3.25110346e-01, 4.37229395e+00 ]
      - [ 1.91024005e+00, 3.27067614e-01, 4.12324333e+00 ]
      - [ 2.77373624e+00, 7.44871736e-01, 2.15584946e+00 ]
      - [ 2.63364697e+00, 4.23345059e-01, 3.18917370e+00 ]
      - [ 2.06124616e+00, 3.55130583e-01, 3.93245125e+00 ]
      - [ 1.73218846e+00, 7.30054498e-01, 2.12941217e+00 ]
      - [ 1.96267915e+00, 3.64466816e-01, 3.98622894e+00 ]
      - [ 2.29369521e+00, 3.55087370e-01, 3.86973429e+00 ]
      - [ 1.79659176e+00, 3.30515862e-01, 4.10681629e+00 ]
      - [ 1.86027193e+00, 3.69164586e-01, 3.87579060e+00 ]
      - [ 1.80827308e+00, 6.17382765e-01, 2.66894746e+00 ]
      - [ 1.68901014e+00, 6.11127436e-01, 2.75821590e+00 ]
      - [ 2.22483110e+00, 4.59190190e-01, 2.99433565e+00 ]
      - [ 2.49129820e+00, 3.72380733e-01, 3.62528944e+00 ]
      - [ 1.63607633e+00, 4.68519568e-01, 3.24957919e+00 ]
      - [ 2.29680705e+00, 4.84977692e-01, 2.98259997e+00 ]
      - [ 2.19369555e+00, 6.39003754e-01, 2.55041575e+00 ]
      - [ 3.74460196e+00, 7.77673483e-01, 2.04493713e+00 ]
      - [ 1.82150054e+00, 4.84386235e-01, 2.98864770e+00 ]
      - [ 2.25359654e+00, 4.46741760e-01, 3.03970671e+00 ]
      - [ 1.37203431e+00, 5.34582734e-01, 2.87791657e+00 ]
      - [ 1.62484002e+00, 3.13694507e-01, 4.50737762e+00 ]
      - [ 1.96496594e+00, 3.49046975e-01, 3.97988224e+00 ]
      - [ 1.73398077e+00, 3.43377769e-01, 4.01704741e+00 ]
      - [ 2.86210084e+00, 3.57817501e-01, 3.79351854e+00 ]
      - [ 2.00495410e+00, 4.79382157e-01, 2.93907905e+00 ]
      - [ 1.39391685e+00, 4.48512763e-01, 3.09377599e+00 ]
      - [ 2.12107277e+00, 2.50867397e-01, 5.73462820e+00 ]
      - [ 1.52149594e+00, 3.38206410e-01, 4.04456854e+00 ]
      - [ 1.45198762e+00, 3.43198895e-01, 4.10500193e+00 ]
      - [ 2.72986841e+00, 3.70708674e-01, 3.64579439e+00 ]
      - [ 2.25701618e+00, 3.60366136e-01, 3.86083245e+00 ]
      - [ 1.92593098e+00, 4.71269667e-01, 3.20514321e+00 ]
      - [ 1.89415741e+00, 4.39992219e-01, 3.45208549e+00 ]
      - [ 2.62437916e+00, 4.14768040e-01, 3.24529290e+00 ]
      - [ 2.74553800e+00, 3.45100701e-01, 4.46023273e+00 ]
      - [ 2.56538820e+00, 3.77839625e-01, 3.67970204e+00 ]
      - [ 3.12281251e+00, 3.59960616e-01, 3.80304670e+00 ]
      - [ 2.34199119e+00, 3.58403206e-01, 3.98620629e+00 ]
      - [ 2.18706679e+00, 6.04837596e-01, 2.69175315e+00 ]
      - [ 2.19511318e+00, 3.51191103e-01, 4.08146477e+00 ]
      - [ 1.70235074e+00, 3.45551252e-01, 3.99006009e+00 ]
      - [ 1.91024137e+00, 3.57178479e-01, 4.19048357e+00 ]
      - [ 2.12398529e+00, 3.45142394e-01, 3.99027133e+00 ]
      - [ 1.54505694e+00, 3.88387054e-01, 3.67348814e+00 ]
      - [ 2.13490129e+00, 8.08102787e-01, 2.04462218e+00 ]
      - [ 2.23563743e+00, 4.59885746e-01, 3.21839046e+00 ]
      - [ 1.67091727e+00, 4.58807200e-01, 3.49332333e+00 ]
      - [ 1.81619465e+00, 4.77113038e-01, 3.10122657e+00 ]
      - [ 3.08283019e+00, 7.40020454e-01, 2.19960403e+00 ]
      - [ 2.84499383e+00, 3.70059341e-01, 4.32416821e+00 ]
      - [ 2.89725304e+00, 3.51876676e-01, 4.08586025e+00 ]
      - [ 1.95866597e+00, 3.62801105e-01, 3.92232847e+00 ]
      - [ 2.10219646e+00, 5.11389732e-01, 3.09961486e+00 ]
      - [ 2.20835257e+00, 6.97399616e-01, 2.31220794e+00 ]
      - [ 2.72764969e+00, 3.34150821e-01, 4.06660271e+00 ]
      - [ 1.72012722e+00, 4.29449886e-01, 3.43596220e+00 ]
      - [ 1.85066843e+00, 3.15139353e-01, 4.48318195e+00 ]
      - [ 2.17346787e+00, 3.40181410e-01, 3.96831560e+00 ]
      - [ 2.27752280e+00, 3.62026513e-01, 3.84094453e+00 ]
      - [ 4.79124689e+00, 1.18397139e-01, 1.35077362e+01 ]
      - [ 2.82578063e+00, 3.71922582e-01, 3.69095230e+00 ]
      - [ 2.10652137e+00, 6.50226831e-01, 2.48580384e+00 ]
      - [ 2.09330249e+00, 4.62763846e-01, 3.15096354e+00 ]
      - [ 1.70474768e+00, 3.36455464e-01, 4.15217638e+00 ]
      - [ 3.23021245e+00, 3.30106378e-01, 4.48602390e+00 ]
      - [ 2.45829153e+00, 3.51391464e-01, 4.02220058e+00 ]
      - [ 1.83880842e+00, 3.35470587e-01, 4.05260181e+00 ]
      - [ 2.00672436e+00, 4.83304530e-01, 2.95336580e+00 ]
      - [ 1.77548873e+00, 4.60628748e-01, 3.02198434e+00 ]
      - [ 3.38606644e+00, 5.26919901e-01, 3.03852987e+00 ]
      - [ 2.08360887e+00, 4.54141945e-01, 3.24732256e+00 ]
      - [ 1.67453945e+00, 3.21867943e-01, 4.35475731e+00 ]
      - [ 2.59232426e+00, 6.76014543e-01, 2.43006539e+00 ]
      - [ 5.50038815e+00, 2.67908216e-01, 5.87817430e+00 ]
      - [ 2.53936577e+00, 4.35628265e-01, 3.40549541e+00 ]
      - [ 1.75276315e+00, 3.62731308e-01, 4.06893110e+00 ]
      - [ 2.86110783e+00, 4.46651936e-01, 3.52593231e+00 ]
      - [ 1.81460476e+00, 4.75910455e-01, 3.01458549e+00 ]
      - [ 2.56995463e+00, 4.14224684e-01, 3.26874924e+00 ]
      - [ 2.68769526e+00, 3.51685703e-01, 3.89040375e+00 ]
      - [ 1.85040164e+00, 5.19309342e-01, 2.86096191e+00 ]
      - [ 1.65242660e+00, 3.32631230e-01, 4.83927488e+00 ]
      - [ 2.21130919e+00, 5.06439984e-01, 2.89930010e+00 ]
      - [ 2.67284298e+00, 4.68588114e-01, 3.21407342e+00 ]
      - [ 1.92433012e+00, 4.68082130e-01, 3.19294143e+00 ]
      - [ 1.86968780e+00, 3.16376448e-01, 4.49874735e+00 ]
      - [ 3.09211683e+00, 5.39118767e-01, 2.99671030e+00 ]
      - [ 1.40331757e+00, 3.67515177e-01, 3.77663493e+00 ]
      - [ 1.45794988e+00, 4.50824171e-01, 3.04549098e+00 ]
      - [ 9.69449162e-01, 4.05146211e-01, 3.42229342e+00 ]
      - [ 2.89436102e+00, 3.77836734e-01, 3.64664006e+00 ]
      - [ 1.68755841e+00, 6.15962803e-01, 2.57728457e+00 ]
      - [ 2.65343904e+00, 4.30823952e-01, 3.62411070e+00 ]
      - [ 2.47350502e+00, 3.70412409e-01, 3.68921542e+00 ]
      - [ 1.81419146e+00, 3.58899295e-01, 3.94222379e+00 ]
      - [ 2.41319752e+00, 3.55897129e-01, 3.91686797e+00 ]
      - [ 2.01099253e+00, 3.50289941e-01, 4.00615883e+00 ]
      - [ 1.64350784e+00, 4.51109290e-01, 3.22832251e+00 ]
      - [ 2.21530175e+00, 4.10493851e-01, 3.53035474e+00 ]
      - [ 2.03319836e+00, 3.69941115e-01, 3.90135860e+00 ]
      - [ 1.77844429e+00, 3.30025434e-01, 4.59314203e+00 ]
      - [ 1.60222995e+00, 3.17907423e-01, 4.37377501e+00 ]
      - [ 1.92692006e+00, 3.45636517e-01, 4.24198055e+00 ]
      - [ 2.40082526e+00, 3.49800467e-01, 3.94186687e+00 ]
      - [ 1.84471142e+00, 5.65708518e-01, 2.56690764e+00 ]
      - [ 1.79629052e+00, 3.26629192e-01, 4.21240902e+00 ]
      - [ 1.22398174e+00, 2.98829496e-01, 5.28765678e+00 ]
      - [ 1.83371496e+00, 3.48286748e-01, 3.98084807e+00 ]
      - [ 1.93704963e+00, 4.99421239e-01, 2.71743083e+00 ]
      - [ 2.53837395e+00, 3.99831653e-01, 3.47309256e+00 ]
      - [ 2.26425934e+00, 3.53884190e-01, 3.98803473e+00 ]
      - [ 1.70861208e+00, 3.32007855e-01, 4.21152306e+00 ]
      - [ 4.28750515e+00, 3.62584442e-01, 3.75863576e+00 ]
      - [ 2.26248813e+00, 3.90916169e-01, 3.63660455e+00 ]
      - [ 1.40229166e+00, 3.88840407e-01, 3.60394382e+00 ]
      - [ 2.53791428e+00, 6.48682356e-01, 2.50425768e+00 ]
      - [ 8.46726322e+00, 2.10188255e-01, 7.95385122e+00 ]
      - [ 1.90333045e+00, 5.09078026e-01, 2.85616755e+00 ]
      - [ 1.84997737e+00, 3.25511903e-01, 4.22175264e+00 ]
      - [ 6.44472122e+00, 5.21550238e-01, 3.13609409e+00 ]
      - [ 1.95642889e+00, 3.65890533e-01, 3.90553331e+00 ]
      - [ 1.69852996e+00, 4.75934356e-01, 3.21094322e+00 ]
      - [ 2.50945115e+00, 3.80618513e-01, 3.64028525e+00 ]
      - [ 1.75694942e+00, 5.22420704e-01, 3.03279591e+00 ]
      - [ 1.66668606e+00, 2.78649688e-01, 5.64232969e+00 ]
      - [ 1.91780651e+00, 3.49404305e-01, 4.02798367e+00 ]
      - [ 2.20249438e+00, 5.21893501e-01, 2.99857950e+00 ]
      - [ 1.81191146e+00, 3.13253582e-01, 4.47960758e+00 ]
      - [ 1.71699035e+00, 4.77117211e-01, 3.29885697e+00 ]
      - [ 1.82983541e+00, 6.47713482e-01, 2.44941783e+00 ]
      - [ 1.73486781e+00, 3.40050727e-01, 4.08785057e+00 ]
      - [ 1.94673777e+00, 4.04110163e-01, 3.91374516e+00 ]
      - [ 1.52717090e+00, 3.21101815e-01, 4.40360260e+00 ]
      - [ 2.25327516e+00, 4.88053083e-01, 3.13075376e+00 ]
      - [ 4.62317657e+00, 7.35362768e-01, 2.17857814e+00 ]
      - [ 2.34512401e+00, 5.42552769e-01, 3.01118588e+00 ]
      - [ 1.43460941e+00, 3.55555296e-01, 3.91248322e+00 ]
      - [ 1.63950622e+00, 3.27588975e-01, 4.21022654e+00 ]
      - [ 1.94359112e+00, 4.72186893e-01, 3.38158584e+00 ]
      - [ 2.02051663e+00, 6.70052767e-01, 2.38367653e+00 ]
      - [ 2.03725243e+00, 2.37026513e-01, 6.49632931e+00 ]
      - [ 2.59449673e+00, 4.96274740e-01, 2.96700883e+00 ]
      - [ 1.74583578e+00, 3.42450231e-01, 4.14540100e+00 ]
      - [ 2.05398512e+00, 5.18032908e-01, 3.07951283e+00 ]
      - [ 2.39963627e+00, 4.80141401e-01, 2.88013959e+00 ]
      - [ 1.46188962e+00, 5.63365877e-01, 2.85860491e+00 ]
      - [ 1.95652568e+00, 4.78740990e-01, 2.83743095e+00 ]
      - [ 1.68995309e+00, 3.52240115e-01, 3.94726443e+00 ]
      - [ 1.51394558e+00, 6.53068542e-01, 2.49885297e+00 ]
      - [ 4.92103195e+00, 4.03383821e-01, 3.40151072e+00 ]
      - [ 2.07349849e+00, 2.96612442e-01, 4.77963257e+00 ]
      - [ 1.55864191e+00, 6.50798619e-01, 2.46832132e+00 ]
      - [ 2.18856859e+00, 4.50031430e-01, 3.32047105e+00 ]
      - [ 1.97912276e+00, 6.97461545e-01, 2.27429652e+00 ]
      - [ 1.47669721e+00, 3.67292434e-01, 3.95774937e+00 ]
      - [ 3.07433105e+00, 6.81075275e-01, 2.33879137e+00 ]
      - [ 2.24773526e+00, 3.98219079e-01, 3.71068621e+00 ]
      - [ 1.29890549e+00, 4.04243916e-01, 3.91358948e+00 ]
      - [ 2.43225241e+00, 4.45489943e-01, 3.39117217e+00 ]
      - [ 1.96126616e+00, 6.97052479e-01, 2.33557034e+00 ]
      - [ 1.84600031e+00, 4.24095392e-01, 3.56709528e+00 ]
      - [ 2.72716689e+00, 5.58021724e-01, 2.82745481e+00 ]
      - [ 2.02271795e+00, 3.97013307e-01, 3.75216746e+00 ]
      - [ 3.00418329e+00, 6.57402575e-01, 2.29220915e+00 ]
      - [ 1.74693537e+00, 5.96863627e-01, 2.68893504e+00 ]
      - [ 2.80562377e+00, 3.52093905e-01, 3.98890901e+00 ]
      - [ 2.54970407e+00, 4.19144332e-01, 3.45804381e+00 ]
      - [ 4.01849556e+00, 3.46436352e-01, 4.53897953e+00 ]
      - [ 1.50044453e+00, 4.45371985e-01, 3.21778536e+00 ]
      - [ 2.26293874e+00, 4.48478580e-01, 3.07252693e+00 ]
      - [ 2.70129776e+00, 3.12711924e-01, 4.64951277e+00 ]
      - [ 2.56361628e+00, 4.20562029e-01, 3.55984426e+00 ]
      - [ 1.50275993e+00, 3.73921901e-01, 3.80447102e+00 ]
      - [ 2.39495945e+00, 3.65293801e-01, 3.76560211e+00 ]
      - [ 2.08233929e+00, 8.79779637e-01, 1.87232947e+00 ]
      - [ 1.49423015e+00, 4.15812343e-01, 3.44518399e+00 ]
      - [ 3.57118416e+00, 7.18408465e-01, 2.20165157e+00 ]
      - [ 1.91981900e+00, 4.57766652e-01, 3.27500629e+00 ]
      - [ 1.95975292e+00, 4.62701887e-01, 3.19604945e+00 ]
      - [ 2.36473346e+00, 3.69358957e-01, 3.77336836e+00 ]
      - [ 2.01439071e+00, 2.95579225e-01, 4.65630722e+00 ]
      - [ 1.58855295e+00, 3.61273259e-01, 3.90052772e+00 ]
      - [ 2.15619135e+00, 5.92146635e-01, 2.73892951e+00 ]
      - [ 1.80737352e+00, 3.50290447e-01, 4.01445723e+00 ]
      - [ 1.79546368e+00, 3.59559476e-01, 3.96741796e+00 ]
      - [ 1.51952457e+00, 2.83740580e-01, 5.39210415e+00 ]
      - [ 7.86011219e+00, 4.34867978e-01, 3.30878496e+00 ]
      - [ 1.31517291e+00, 4.99540359e-01, 3.01582313e+00 ]
      - [ 1.87032092e+00, 2.95036227e-01, 4.98431206e+00 ]
      - [ 1.89392626e+00, 3.28112692e-01, 4.17589426e+00 ]
      - [ 1.72602355e+00, 3.53149325e-01, 3.98452759e+00 ]
      - [ 1.99481320e+00, 3.58702958e-01, 4.14953661e+00 ]
      - [ 1.12117183e+00, 1.92183062e-01, 8.12877560e+00 ]
      - [ 1.48353350e+00, 3.25780928e-01, 4.37982273e+00 ]
      - [ 2.01503491e+00, 4.80347008e-01, 3.12574792e+00 ]
      - [ 1.80537856e+00, 6.82792485e-01, 2.30700564e+00 ]
      - [ 2.90359640e+00, 5.27835488e-01, 2.74766874e+00 ]
      - [ 2.34425640e+00, 3.55518848e-01, 3.80440521e+00 ]
      - [ 2.16293073e+00, 6.34972036e-01, 2.45350409e+00 ]
      - [ 2.22326159e+00, 3.70849729e-01, 3.90256953e+00 ]
      - [ 1.99510062e+00, 4.64061946e-01, 3.24485803e+00 ]
      - [ 2.65160036e+00, 3.96206796e-01, 3.51606488e+00 ]
      - [ 2.34395933e+00, 7.22388327e-01, 2.31013823e+00 ]
      - [ 4.21308899e+00, 2.22167060e-01, 7.35200357e+00 ]
      - [ 2.28791142e+00, 3.23550850e-01, 4.26684999e+00 ]
      - [ 1.90369618e+00, 4.05953467e-01, 3.79573464e+00 ]
      - [ 2.01750088e+00, 3.27728212e-01, 4.32769680e+00 ]
      - [ 1.58609331e+00, 4.61373806e-01, 3.18956327e+00 ]
      - [ 1.83982992e+00, 3.31117213e-01, 4.22019291e+00 ]
      - [ 1.48085904e+00, 2.95922399e-01, 5.01406097e+00 ]
      - [ 3.48546195e+00, 4.86421436e-01, 3.27409101e+00 ]
      - [ 2.21755528e+00, 4.31258470e-01, 3.40985155e+00 ]
      - [ 1.44463897e+00, 4.38259333e-01, 3.25085688e+00 ]
      - [ 2.45152473e+00, 4.06726509e-01, 3.29126740e+00 ]
      - [ 2.87087202e+00, 3.48265797e-01, 3.97253156e+00 ]
      - [ 2.11215305e+00, 4.67598498e-01, 2.84162283e+00 ]
      - [ 1.67063379e+00, 3.02030116e-01, 4.74217272e+00 ]
      - [ 2.02374601e+00, 5.21881759e-01, 2.83212352e+00 ]
      - [ 2.59256411e+00, 3.52478713e-01, 3.83904600e+00 ]
      - [ 2.54225612e+00, 4.71678585e-01, 3.34435701e+00 ]
      - [ 1.44328153e+00, 3.44572753e-01, 3.94133091e+00 ]
      - [ 2.50846410e+00, 3.15279543e-01, 4.28681183e+00 ]
      - [ 1.86373532e+00, 5.64822733e-01, 2.81042171e+00 ]
      - [ 2.12625551e+00, 3.15522701e-01, 4.37855673e+00 ]
      - [ 1.34271622e+00, 5.90204120e-01, 2.78257513e+00 ]
      - [ 2.42350984e+00, 3.77241701e-01, 3.60339117e+00 ]
      - [ 1.23832369e+00, 7.44724989e-01, 2.16537786e+00 ]
      - [ 1.74693537e+00, 3.27704310e-01, 4.40033913e+00 ]
      - [ 2.57002258e+00, 5.54369748e-01, 2.91839933e+00 ]
      - [ 2.26205587e+00, 3.37756574e-01, 4.04515409e+00 ]
      - [ 1.91759312e+00, 3.13178718e-01, 4.47249031e+00 ]
      - [ 2.38965583e+00, 3.42713743e-01, 3.93501186e+00 ]
      - [ 2.27822304e+00, 4.52058464e-01, 3.10448146e+00 ]
      - [ 1.88771045e+00, 2.71434844e-01, 5.33522224e+00 ]
      - [ 2.33077192e+00, 8.85721385e-01, 1.87742269e+00 ]
      - [ 1.96356833e+00, 4.91982609e-01, 2.97254848e+00 ]
      - [ 2.09999061e+00, 5.76279104e-01, 2.64987087e+00 ]
      - [ 2.28245854e+00, 4.19976056e-01, 3.48173618e+00 ]
      - [ 2.47468948e+00, 4.48695719e-01, 3.01664639e+00 ]
      - [ 2.63967848e+00, 5.02958417e-01, 3.13470650e+00 ]
      - [ 1.81841052e+00, 3.37405294e-01, 4.13430357e+00 ]
      - [ 2.27937365e+00, 3.29438657e-01, 4.24002743e+00 ]
      - [ 2.05495286e+00, 4.77099180e-01, 3.04670310e+00 ]
      - [ 2.19948721e+00, 4.60802466e-01, 3.07302380e+00 ]
      - [ 1.17087674e+00, 6.55679882e-01, 2.49911737e+00 ]
      - [ 1.59185624e+00, 4.17571545e-01, 3.93525147e+00 ]
      - [ 1.80637991e+00, 3.69364530e-01, 4.23914623e+00 ]
      - [ 1.97113132e+00, 4.65271235e-01, 3.09903932e+00 ]
      - [ 2.24737120e+00, 3.46273065e-01, 3.97722554e+00 ]
      - [ 2.77424860e+00, 3.40526015e-01, 3.99025893e+00 ]
      - [ 1.91320086e+00, 3.37182730e-01, 4.30539560e+00 ]
      - [ 2.35608792e+00, 4.00796980e-01, 3.49449348e+00 ]
      - [ 3.90453053e+00, 6.05589032e-01, 2.62809587e+00 ]
      - [ 1.54900098e+00, 4.65742260e-01, 2.97939396e+00 ]
      - [ 2.45387053e+00, 3.88220310e-01, 3.57488489e+00 ]
      - [ 2.48832655e+00, 4.25905585e-01, 3.33450079e+00 ]
      - [ 2.21066189e+00, 4.66747075e-01, 3.07659388e+00 ]
      - [ 3.22750592e+00, 7.02885389e-01, 2.29721522e+00 ]
      - [ 1.67248416e+00, 4.47254390e-01, 3.54684949e+00 ]
      - [ 1.81666100e+00, 4.71357495e-01, 3.06634784e+00 ]
      - [ 2.01475954e+00, 6.77391529e-01, 2.34287310e+00 ]
      - [ 1.62508905e+00, 4.36315894e-01, 3.44994426e+00 ]
      - [ 1.61652410e+00, 4.52302396e-01, 3.51369143e+00 ]
      - [ 2.06045675e+00, 3.74935418e-01, 3.88268805e+00 ]
      - [ 1.82281852e+00, 3.29096347e-01, 4.17961311e+00 ]
      - [ 2.36491656e+00, 3.64622414e-01, 3.89027905e+00 ]
      - [ 1.59590971e+00, 3.41856062e-01, 4.04060555e+00 ]
      - [ 2.16102600e+00, 5.07000983e-01, 2.93121696e+00 ]
      - [ 3.85017347e+00, 5.46258271e-01, 2.94053268e+00 ]
      - [ 2.46544218e+00, 3.92304122e-01, 3.56813550e+00 ]
      - [ 2.33460522e+00, 3.57435852e-01, 3.79163408e+00 ]
      - [ 1.81996131e+00, 4.11303490e-01, 3.71937037e+00 ]
      - [ 2.31976604e+00, 3.42942178e-01, 3.89197826e+00 ]
      - [ 2.04123139e+00, 3.53195906e-01, 3.98652673e+00 ]
      - [ 2.42847633e+00, 6.75763547e-01, 2.39137673e+00 ]
      - [ 4.02366209e+00, 3.33385408e-01, 4.10206079e+00 ]
      - [ 4.23259926e+00, 5.92168689e-01, 2.71701789e+00 ]
      - [ 2.37245059e+00, 4.61508542e-01, 2.99570537e+00 ]
      - [ 1.80225456e+00, 4.62499797e-01, 3.11458611e+00 ]
      - [ 1.67780960e+00, 3.43700260e-01, 4.05277157e+00 ]
      - [ 2.65470600e+00, 7.39956617e-01, 2.14010787e+00 ]
      - [ 2.05634785e+00, 3.42401981e-01, 4.03890991e+00 ]
      - [ 1.75078106e+00, 3.46007645e-01, 4.07762194e+00 ]
      - [ 1.62913668e+00, 3.42656970e-01, 4.04037857e+00 ]
      - [ 2.69693780e+00, 4.03878510e-01, 3.34592128e+00 ]
      - [ 2.75701118e+00, 4.13399965e-01, 3.31998205e+00 ]
      - [ 1.82630825e+00, 3.45261157e-01, 4.10247374e+00 ]
      - [ 2.36655354e+00, 4.83744085e-01, 3.07369995e+00 ]
      - [ 1.89501202e+00, 2.67108589e-01, 5.37160254e+00 ]
      - [ 1.81522667e+00, 4.76666272e-01, 3.03031445e+00 ]
      - [ 2.26331997e+00, 3.66019249e-01, 3.93128657e+00 ]
      - [ 2.07987714e+00, 3.42603028e-01, 4.03488064e+00 ]
      - [ 2.50554109e+00, 8.21513534e-01, 2.02302194e+00 ]
      - [ 2.24892616e+00, 3.37081224e-01, 3.96871376e+00 ]
      - [ 2.07826900e+00, 3.33015531e-01, 4.11945057e+00 ]
      - [ 1.89843249e+00, 4.51941460e-01, 3.25582123e+00 ]
      - [ 2.36532903e+00, 3.24615955e-01, 4.17312002e+00 ]
      - [ 2.28654575e+00, 3.55575413e-01, 3.93812990e+00 ]
      - [ 2.51280618e+00, 1.03953850e+00, 1.59550846e+00 ]
      - [ 1.86163270e+00, 4.55406129e-01, 3.18717718e+00 ]
      - [ 2.28441834e+00, 4.57135350e-01, 3.27571654e+00 ]
      - [ 2.94280148e+00, 4.63913113e-01, 2.96821523e+00 ]
      - [ 2.43391705e+00, 4.44228113e-01, 3.25307918e+00 ]
      - [ 1.64957058e+00, 3.57672602e-01, 4.02464390e+00 ]
      - [ 1.81535351e+00, 4.64508623e-01, 3.33825684e+00 ]
      - [ 2.28724766e+00, 5.96418142e-01, 2.75067019e+00 ]
      - [ 2.48369694e+00, 3.98191273e-01, 3.41287565e+00 ]
      - [ 2.40552354e+00, 3.04897547e-01, 4.74021149e+00 ]
      - [ 2.56297398e+00, 4.66818810e-01, 3.43195724e+00 ]
      - [ 2.42885947e+00, 6.44631028e-01, 2.49030781e+00 ]
      - [ 2.23120570e+00, 4.80208516e-01, 3.05884814e+00 ]
      - [ 2.60457683e+00, 6.68515623e-01, 2.37079453e+00 ]
      - [ 1.68893528e+00, 4.31193262e-01, 3.44916272e+00 ]
      - [ 2.43345904e+00, 4.10814166e-01, 3.27498913e+00 ]
      - [ 1.61367464e+00, 3.33430469e-01, 4.08727312e+00 ]
      - [ 1.46849978e+00, 3.35829914e-01, 4.18342733e+00 ]
      - [ 3.47172499e+00, 5.46616614e-01, 2.95417929e+00 ]
      - [ 1.61488748e+00, 3.26876014e-01, 4.25821590e+00 ]
      - [ 2.19267654e+00, 3.52344871e-01, 3.91422629e+00 ]
      - [ 2.02051735e+00, 4.76292759e-01, 3.36597371e+00 ]
      - [ 2.10276651e+00, 3.43202025e-01, 4.07882977e+00 ]
      - [ 2.87286305e+00, 3.73983204e-01, 3.74585152e+00 ]
      - [ 2.16438174e+00, 4.77854371e-01, 3.07149506e+00 ]
      - [ 3.26027203e+00, 3.56790096e-01, 3.86205316e+00 ]
      - [ 1.90275705e+00, 3.45207125e-01, 4.09830713e+00 ]
      - [ 1.48373020e+00, 3.75122488e-01, 3.77584076e+00 ]
      - [ 2.84342742e+00, 4.97420818e-01, 3.16045928e+00 ]
      - [ 1.43969679e+00, 3.88176441e-01, 3.67323947e+00 ]
      - [ 1.86642599e+00, 3.28567266e-01, 4.12696505e+00 ]
      - [ 2.72595024e+00, 4.75890338e-01, 3.07102609e+00 ]
      - [ 2.40394616e+00, 6.04946196e-01, 2.65806174e+00 ]
      - [ 1.96201885e+00, 3.44263554e-01, 4.10036612e+00 ]
      - [ 1.87995267e+00, 3.20045769e-01, 4.20090628e+00 ]
      - [ 1.60287321e+00, 3.48764211e-01, 3.94035602e+00 ]
      - [ 2.26422191e+00, 4.39103842e-01, 3.23066211e+00 ]
      - [ 2.42562699e+00, 3.49154115e-01, 3.94139338e+00 ]
      - [ 3.53442740e+00, 3.49117517e-01, 3.90142417e+00 ]
      - [ 1.35555446e+00, 1.13545620e+00, 1.50928283e+00 ]
      - [ 2.16017652e+00, 4.47627664e-01, 3.30180287e+00 ]
      - [ 5.48688555e+00, 4.81907904e-01, 3.02488804e+00 ]
      - [ 1.44886160e+00, 4.97397572e-01, 3.04289651e+00 ]
      - [ 1.77235317e+00, 3.79576713e-01, 3.79633474e+00 ]
      - [ 1.72173393e+00, 3.36621851e-01, 4.03919077e+00 ]
      - [ 2.12391281e+00, 3.48145962e-01, 4.04343414e+00 ]
      - [ 3.12356043e+00, 3.23334277e-01, 4.39626360e+00 ]
      - [ 1.64712620e+00, 3.38366568e-01, 4.01685143e+00 ]
      - [ 2.17868853e+00, 6.59651875e-01, 2.52903676e+00 ]
      - [ 1.67129993e+00, 3.36376071e-01, 4.34571838e+00 ]
      - [ 1.87116551e+00, 3.24218392e-01, 4.22077942e+00 ]
      - [ 1.48109686e+00, 2.80495763e-01, 5.69171715e+00 ]
      - [ 2.09891939e+00, 4.73205090e-01, 2.86701751e+00 ]
      - [ 2.08639836e+00, 4.21938121e-01, 3.49027848e+00 ]
      - [ 3.11270547e+00, 6.08667016e-01, 2.60167980e+00 ]
      - [ 2.39728069e+00, 4.27833498e-01, 3.28111839e+00 ]
      - [ 1.94995868e+00, 3.36505681e-01, 4.07615662e+00 ]
      - [ 1.68790269e+00, 9.15707171e-01, 1.74849093e+00 ]
      - [ 1.78639162e+00, 3.60281020e-01, 3.91109300e+00 ]
      - [ 2.31600666e+00, 3.39042783e-01, 4.12619448e+00 ]
      - [ 1.38666189e+00, 6.52377665e-01, 2.49040699e+00 ]
      - [ 2.07697749e+00, 6.70083523e-01, 2.40371943e+00 ]
      - [ 1.99816680e+00, 4.62354690e-01, 3.17614675e+00 ]
      - [ 2.37246609e+00, 2.90057093e-01, 5.39042425e+00 ]
      - [ 2.35652256e+00, 2.82940835e-01, 4.98002481e+00 ]
      - [ 1.89404070e+00, 5.98255336e-01, 2.69024014e+00 ]
      - [ 1.88780165e+00, 3.43732923e-01, 4.02088070e+00 ]
      - [ 2.36321354e+00, 4.59611923e-01, 3.46258593e+00 ]
      - [ 1.58380890e+00, 3.33020389e-01, 4.26383829e+00 ]
      - [ 1.41295040e+00, 3.70306194e-01, 3.77410030e+00 ]
      - [ 2.23656034e+00, 3.45865816e-01, 4.09681320e+00 ]
      - [ 1.65371323e+00, 4.78376716e-01, 3.17666078e+00 ]
      - [ 1.94843519e+00, 4.26797092e-01, 3.52245712e+00 ]
      - [ 1.63976264e+00, 3.18174630e-01, 4.44832850e+00 ]
      - [ 1.95500720e+00, 3.35181475e-01, 4.04064226e+00 ]
      - [ 2.24792862e+00, 3.28391731e-01, 4.31875944e+00 ]
      - [ 2.27190447e+00, 3.37714821e-01, 4.15371799e+00 ]
      - [ 1.76701283e+00, 3.93173993e-01, 3.71765256e+00 ]
      - [ 1.70017791e+00, 3.75207782e-01, 3.85919070e+00 ]
      - [ 1.54596114e+00, 3.49558115e-01, 3.94193792e+00 ]
      - [ 2.10140467e+00, 3.41286153e-01, 4.19045591e+00 ]
      - [ 2.82314157e+00, 4.53663558e-01, 2.97915077e+00 ]
      - [ 1.79994309e+00, 3.37179869e-01, 4.07638693e+00 ]
      - [ 1.98698497e+00, 4.89882112e-01, 2.90888739e+00 ]
      - [ 2.18492889e+00, 4.85013306e-01, 2.94223118e+00 ]
      - [ 1.86131549e+00, 3.69746834e-01, 4.03832388e+00 ]
      - [ 2.26588082e+00, 4.55666423e-01, 2.90538359e+00 ]
      - [ 2.30382752e+00, 7.25325227e-01, 2.17300558e+00 ]
      - [ 2.03746033e+00, 5.05501032e-01, 3.17499137e+00 ]
      - [ 1.65065002e+00, 3.18271816e-01, 4.50216198e+00 ]
      - [ 2.26531911e+00, 5.38867414e-01, 2.74714470e+00 ]
      - [ 2.50724435e+00, 7.33848155e-01, 2.20799589e+00 ]
      - [ 2.05294442e+00, 6.36689842e-01, 2.50357556e+00 ]
      - [ 1.42141867e+00, 2.53968179e-01, 5.56042814e+00 ]
      - [ 1.72051334e+00, 3.28859568e-01, 4.10477686e+00 ]
      - [ 1.61692226e+00, 6.34375393e-01, 2.59870577e+00 ]
      - [ 1.56078434e+00, 3.86298835e-01, 3.69126034e+00 ]
      - [ 2.52559352e+00, 3.00080776e-01, 4.70614147e+00 ]
      - [ 2.14612460e+00, 4.62444723e-01, 3.20460296e+00 ]
      - [ 2.03380418e+00, 6.49257004e-01, 2.50086522e+00 ]
      - [ 2.62790036e+00, 6.23450279e-01, 2.57044172e+00 ]
      - [ 1.93119121e+00, 3.32170576e-01, 4.22342873e+00 ]
      - [ 2.17629862e+00, 4.03847426e-01, 3.71783590e+00 ]
      - [ 1.82631993e+00, 3.91566128e-01, 3.77115965e+00 ]
      - [ 2.23140574e+00, 5.96954107e-01, 2.72799730e+00 ]
      - [ 1.69649315e+00, 5.33736169e-01, 2.89294100e+00 ]
      - [ 2.58030343e+00, 4.73049492e-01, 3.06304073e+00 ]
      - [ 1.55311215e+00, 3.53112310e-01, 3.89187980e+00 ]
      - [ 1.83636379e+00, 4.43708420e-01, 3.28457808e+00 ]
      - [ 2.40614247e+00, 4.82614577e-01, 3.05814767e+00 ]
      - [ 1.84846926e+00, 4.73000616e-01, 3.09479213e+00 ]
      - [ 2.18738914e+00, 3.46198320e-01, 4.03535843e+00 ]
      - [ 3.92752576e+00, 7.99028575e-01, 1.97779441e+00 ]
      - [ 2.12737036e+00, 5.12245417e-01, 2.98697972e+00 ]
      - [ 2.44976473e+00, 3.63442987e-01, 3.70366907e+00 ]
      - [ 2.38008332e+00, 3.78995389e-01, 4.22342396e+00 ]
      - [ 2.12239265e+00, 3.35162431e-01, 4.35780048e+00 ]
      - [ 2.29675341e+00, 4.59162802e-01, 3.02948594e+00 ]
      - [ 2.54738736e+00, 6.51643574e-01, 2.45266986e+00 ]
      - [ 1.92670739e+00, 4.31735694e-01, 3.51718926e+00 ]
      - [ 2.36103296e+00, 5.03639221e-01, 2.99940562e+00 ]
      - [ 1.86387241e+00, 3.31828266e-01, 4.09242249e+00 ]
      - [ 2.24254370e+00, 3.25980276e-01, 4.24722338e+00 ]
      - [ 2.27152586e+00, 3.17380846e-01, 4.48803425e+00 ]
      - [ 2.41006756e+00, 4.21233058e-01, 3.25846338e+00 ]
      - [ 2.11415696e+00, 3.63047540e-01, 3.94238257e+00 ]
      - [ 1.49581218e+00, 3.20552498e-01, 4.30053902e+00 ]
      - [ 2.54767203e+00, 4.03686166e-01, 3.35551786e+00 ]
      - [ 1.59272230e+00, 4.03160036e-01, 3.59282804e+00 ]
      - [ 2.40092421e+00, 5.47069967e-01, 2.65200233e+00 ]
      - [ 2.05452323e+00, 3.61148804e-01, 3.93755579e+00 ]
      - [ 2.33131409e+00, 3.42429549e-01, 3.98058915e+00 ]
      - [ 2.87756729e+00, 3.53193730e-01, 3.87127066e+00 ]
      - [ 1.37823665e+00, 3.01807135e-01, 4.81273937e+00 ]
      - [ 2.30142570e+00, 3.74852657e-01, 3.72573972e+00 ]
      - [ 6.37124205e+00, 3.51700008e-01, 4.35285282e+00 ]
      - [ 2.04962730e+00, 4.96092945e-01, 2.95647860e+00 ]
      - [ 1.78431821e+00, 4.70727652e-01, 3.05294156e+00 ]
      - [ 1.55413818e+00, 3.83531302e-01, 3.73238468e+00 ]
      - [ 1.94245350e+00, 3.63750279e-01, 3.94012928e+00 ]
      - [ 4.93030071e+00, 6.55845284e-01, 2.43819642e+00 ]
      - [ 4.23890018e+00, 5.85019171e-01, 2.69339418e+00 ]
      - [ 1.60107780e+00, 3.44908655e-01, 4.04304123e+00 ]
      - [ 2.08332705e+00, 4.23677534e-01, 3.47166991e+00 ]
      - [ 9.54402208e-01, 3.93658906e-01, 3.86331987e+00 ]
      - [ 1.58904719e+00, 4.93181288e-01, 3.27806950e+00 ]
      - [ 2.32406640e+00, 3.55881393e-01, 3.88496828e+00 ]
      - [ 2.08890676e+00, 4.62754667e-01, 3.12536669e+00 ]
      - [ 2.80805373e+00, 4.02600050e-01, 3.69606757e+00 ]
      - [ 2.33215404e+00, 3.56426239e-01, 3.86281943e+00 ]
      - [ 2.72680950e+00, 3.63615125e-01, 3.88254428e+00 ]
      - [ 2.48226213e+00, 4.56057936e-01, 3.20546818e+00 ]
      - [ 2.23878551e+00, 4.68257844e-01, 3.09532976e+00 ]
      - [ 1.67188513e+00, 3.54954779e-01, 3.91309834e+00 ]
      - [ 4.65471888e+00, 6.21292949e-01, 2.44686651e+00 ]
      - [ 1.90417671e+00, 4.68266338e-01, 3.12598491e+00 ]
      - [ 1.97902203e+00, 4.50877905e-01, 3.31276202e+00 ]
      - [ 3.84613466e+00, 4.31709975e-01, 3.23039198e+00 ]
      - [ 6.17996025e+00, 6.51213169e-01, 2.36366725e+00 ]
      - [ 2.42234349e+00, 5.39388657e-01, 2.95703363e+00 ]
      - [ 2.23819852e+00, 3.45621556e-01, 3.98871660e+00 ]
      - [ 2.23960471e+00, 3.67117435e-01, 3.82217026e+00 ]
      - [ 2.07416701e+00, 7.27856696e-01, 2.24521542e+00 ]
      - [ 1.65257323e+00, 3.44977230e-01, 4.31670380e+00 ]
      - [ 2.25623870e+00, 6.66127086e-01, 2.41436338e+00 ]
      - [ 1.74283051e+00, 4.78523165e-01, 3.18765926e+00 ]
      - [ 1.51894057e+00, 3.38888496e-01, 4.18483305e+00 ]
      - [ 1.71547449e+00, 4.51212138e-01, 3.30994964e+00 ]
      - [ 1.83278584e+00, 2.48781011e-01, 6.23452997e+00 ]
      - [ 2.47270107e+00, 4.10271257e-01, 3.57706904e+00 ]
      - [ 2.27661419e+00, 3.22220832e-01, 4.40088844e+00 ]
      - [ 1.72719169e+00, 3.92601311e-01, 3.87382960e+00 ]
      - [ 1.66542161e+00, 3.52631807e-01, 3.98708367e+00 ]
      - [ 2.12167382e+00, 4.92998302e-01, 2.80182815e+00 ]
      - [ 1.51045561e+00, 3.68458062e-01, 3.80426025e+00 ]
      - [ 4.40739441e+00, 5.23754716e-01, 2.93248272e+00 ]
      - [ 1.98084879e+00, 3.05282772e-01, 4.76270723e+00 ]
      - [ 2.84085345e+00, 4.12968904e-01, 3.27817488e+00 ]
      - [ 2.02525806e+00, 4.53822583e-01, 3.53206134e+00 ]
      - [ 2.01288939e+00, 4.92763340e-01, 3.26553202e+00 ]
      - [ 1.89134216e+00, 4.45585877e-01, 3.37344599e+00 ]
      - [ 2.05575776e+00, 3.35935116e-01, 4.19057465e+00 ]
      - [ 2.01239777e+00, 4.21229511e-01, 3.63211012e+00 ]
      - [ 1.82559490e+00, 7.28567064e-01, 2.21993685e+00 ]
      - [ 4.43723679e+00, 6.66269183e-01, 2.49273109e+00 ]
      - [ 2.65653038e+00, 3.62247616e-01, 3.84956241e+00 ]
      - [ 1.61423969e+00, 3.77418637e-01, 3.85971069e+00 ]
      - [ 2.44550037e+00, 4.90387827e-01, 3.01155114e+00 ]
      - [ 3.00557041e+00, 5.62784016e-01, 2.82173204e+00 ]
      - [ 2.56914687e+00, 5.49293697e-01, 2.93578362e+00 ]
      - [ 2.33391714e+00, 3.70716453e-01, 3.87809134e+00 ]
      - [ 2.54103017e+00, 4.09207761e-01, 3.40978003e+00 ]
      - [ 6.84530449e+00, 4.48229253e-01, 3.34341145e+00 ]
      - [ 2.40190291e+00, 5.47585487e-01, 2.94902658e+00 ]
      - [ 2.30254698e+00, 4.46314812e-01, 3.19090819e+00 ]
      - [ 2.04423690e+00, 6.84503198e-01, 2.37185478e+00 ]
      - [ 1.16088772e+00, 3.95698905e-01, 4.09104967e+00 ]
      - [ 1.91993201e+00, 3.25935662e-01, 4.22892570e+00 ]
      - [ 1.43895590e+00, 2.71099627e-01, 5.31733036e+00 ]
      - [ 1.53979361e+00, 5.70693910e-01, 2.79682159e+00 ]
      - [ 2.10856271e+00, 3.41385961e-01, 3.99225712e+00 ]
      - [ 1.64162922e+00, 4.87040579e-01, 3.05406642e+00 ]
      - [ 1.72021711e+00, 6.52016163e-01, 2.46911407e+00 ]
      - [ 1.73255098e+00, 3.51942331e-01, 4.00727415e+00 ]
      - [ 1.58363247e+00, 3.70798349e-01, 3.85742140e+00 ]
      - [ 2.66063666e+00, 6.70558333e-01, 2.39677286e+00 ]
      - [ 1.69283903e+00, 6.04014814e-01, 2.59924912e+00 ]
      - [ 2.19509625e+00, 5.16399384e-01, 2.76232457e+00 ]
      - [ 1.90851867e+00, 4.74067926e-01, 3.06917143e+00 ]
      - [ 1.29312408e+00, 3.88290673e-01, 3.62028265e+00 ]
      - [ 2.73958039e+00, 6.70058906e-01, 2.40510130e+00 ]
      - [ 2.59876966e+00, 3.68210793e-01, 3.71770978e+00 ]
      - [ 1.66233599e+00, 5.04214346e-01, 2.94161344e+00 ]
      - [ 1.96086323e+00, 4.69659388e-01, 3.42875385e+00 ]
      - [ 1.65806448e+00, 3.21069211e-01, 4.30686331e+00 ]
      - [ 1.58469534e+00, 3.77418458e-01, 3.79031277e+00 ]
      - [ 1.55440724e+00, 3.64439756e-01, 3.81840158e+00 ]
      - [ 2.68081808e+00, 3.99719119e-01, 3.39719319e+00 ]
      - [ 2.04019904e+00, 2.63403118e-01, 5.74767923e+00 ]
      - [ 1.53666747e+00, 6.84935629e-01, 2.23056793e+00 ]
      - [ 2.38833213e+00, 7.45934725e-01, 2.25805473e+00 ]
      - [ 2.37716317e+00, 3.54206771e-01, 3.94960165e+00 ]
      - [ 2.28653502e+00, 3.18723649e-01, 4.41444302e+00 ]
      - [ 1.96409500e+00, 2.80929506e-01, 5.11154032e+00 ]
      - [ 1.41415823e+00, 4.16197687e-01, 3.36355400e+00 ]
      - [ 2.00769520e+00, 5.16760588e-01, 2.97150993e+00 ]
      - [ 2.16797805e+00, 4.62986261e-01, 3.11076045e+00 ]
      - [ 1.41178894e+00, 4.30796862e-01, 3.19064713e+00 ]
      - [ 2.28480506e+00, 3.52421552e-01, 4.08796358e+00 ]
      - [ 2.23193622e+00, 4.17335659e-01, 3.54432869e+00 ]
      - [ 1.51688945e+00, 3.31354141e-01, 4.55834341e+00 ]
      - [ 1.42421138e+00, 4.54543531e-01, 2.97592187e+00 ]
      - [ 2.08552670e+00, 6.53535366e-01, 2.40860844e+00 ]
      - [ 1.51699531e+00, 5.74733615e-01, 2.79077053e+00 ]
      - [ 2.89500332e+00, 6.48026049e-01, 2.47785926e+00 ]
      - [ 2.05949831e+00, 5.11842728e-01, 2.93764138e+00 ]
      - [ 1.44741833e+00, 5.63911736e-01, 2.85748744e+00 ]
      - [ 2.19127774e+00, 5.94116628e-01, 2.63837075e+00 ]
      - [ 1.52507889e+00, 3.64400893e-01, 3.82380319e+00 ]
      - [ 3.01914716e+00, 6.45166814e-01, 2.46956062e+00 ]
      - [ 1.82623565e+00, 3.25192869e-01, 4.25475454e+00 ]
      - [ 1.36539018e+00, 3.00985843e-01, 4.81305408e+00 ]
      - [ 2.04110456e+00, 3.35701853e-01, 4.05683184e+00 ]
      - [ 1.82806849e+00, 3.65218282e-01, 3.91386342e+00 ]
      - [ 2.43217540e+00, 3.56292933e-01, 3.90122962e+00 ]
      - [ 2.25632024e+00, 4.76768076e-01, 3.10513282e+00 ]
      - [ 1.59854639e+00, 3.40997875e-01, 4.13270473e+00 ]
      - [ 1.77464008e+00, 4.42640126e-01, 3.59990072e+00 ]
      - [ 1.85274923e+00, 3.62512857e-01, 3.90836930e+00 ]
      - [ 2.19691920e+00, 7.36789763e-01, 2.17241454e+00 ]
      - [ 2.21031141e+00, 6.91314161e-01, 2.34411216e+00 ]
      - [ 2.45841217e+00, 4.01671976e-01, 3.46127200e+00 ]
      - [ 2.89197302e+00, 4.61600125e-01, 3.28142071e+00 ]
      - [ 1.60396349e+00, 5.85755110e-01, 2.69088960e+00 ]
      - [ 2.44887519e+00, 7.20607162e-01, 2.23636532e+00 ]
      - [ 1.90377879e+00, 5.83586931e-01, 2.75869751e+00 ]
      - [ 3.02495193e+00, 4.56564426e-01, 3.42462707e+00 ]
      - [ 2.65810394e+00, 4.52625632e-01, 3.32122326e+00 ]
      - [ 2.53659391e+00, 3.62839371e-01, 3.77362680e+00 ]
      - [ 2.03405452e+00, 4.46055412e-01, 3.39445758e+00 ]
      - [ 1.60944796e+00, 4.03756350e-01, 3.65350747e+00 ]
      - [ 2.34307408e+00, 4.88257647e-01, 3.34436202e+00 ]
      - [ 2.31344104e+00, 4.15400803e-01, 3.41786289e+00 ]
      - [ 2.05987525e+00, 5.86123586e-01, 2.75965142e+00 ]
      - [ 4.51161337e+00, 5.77779531e-01, 2.78788257e+00 ]
      - [ 2.33556867e+00, 6.47738278e-01, 2.45038772e+00 ]
      - [ 2.66042638e+00, 5.08446813e-01, 3.10326958e+00 ]
      - [ 2.57238102e+00, 3.54230076e-01, 3.84439993e+00 ]
      - [ 1.11876070e+00, 1.94062561e-01, 8.01997375e+00 ]
      - [ 2.03392744e+00, 4.85709846e-01, 3.13371062e+00 ]
      - [ 8.84478748e-01, 2.41177827e-01, 6.38950396e+00 ]
      - [ 2.47047329e+00, 4.78483975e-01, 3.18548131e+00 ]
      - [ 1.83671522e+00, 4.69197214e-01, 3.49866509e+00 ]
      - [ 1.92734051e+00, 4.86545563e-01, 3.02193260e+00 ]
      - [ 2.99065828e+00, 6.50736749e-01, 2.44287038e+00 ]
      - [ 3.15236259e+00, 6.04550242e-01, 2.58030581e+00 ]
      - [ 1.64802814e+00, 5.80608368e-01, 2.86015177e+00 ]
      - [ 1.76354682e+00, 7.41594076e-01, 2.07051539e+00 ]
      - [ 2.31205249e+00, 4.12294596e-01, 3.41828775e+00 ]
      - [ 2.30722904e+00, 3.77278686e-01, 3.73746967e+00 ]
      - [ 1.80912161e+00, 3.52216810e-01, 3.98155332e+00 ]
      - [ 1.39443648e+00, 3.69013965e-01, 3.77266908e+00 ]
      - [ 2.37593436e+00, 4.67432797e-01, 3.25899839e+00 ]
      - [ 2.07594895e+00, 4.52832550e-01, 3.27204943e+00 ]
      - [ 2.52059722e+00, 3.98175359e-01, 3.65064764e+00 ]
      - [ 2.48372173e+00, 3.48627031e-01, 3.93249321e+00 ]
      - [ 3.59961176e+00, 6.79015398e-01, 2.29904151e+00 ]
      - [ 3.64627337e+00, 5.83520174e-01, 2.63580227e+00 ]
      - [ 4.27428150e+00, 2.37145677e-01, 6.07606792e+00 ]
      - [ 1.89043283e+00, 4.63756770e-01, 3.11479115e+00 ]
      - [ 2.17285848e+00, 4.68306571e-01, 3.22897768e+00 ]
      - [ 1.64665103e+00, 3.35648358e-01, 4.38415146e+00 ]
      - [ 2.53958225e+00, 3.92797828e-01, 3.46186090e+00 ]
      - [ 1.66975868e+00, 7.03621864e-01, 2.29077053e+00 ]
      - [ 1.91385579e+00, 3.52278739e-01, 4.06473255e+00 ]
      - [ 1.75298774e+00, 3.44285905e-01, 4.01122284e+00 ]
      - [ 1.59277463e+00, 3.31235439e-01, 4.11630297e+00 ]
      - [ 7.80819130e+00, 4.23664004e-01, 3.45143867e+00 ]
      - [ 2.72517920e+00, 3.37048352e-01, 3.99571157e+00 ]
      - [ 1.98178065e+00, 3.56445849e-01, 4.17892361e+00 ]
      - [ 2.50660443e+00, 4.09474969e-01, 3.53594279e+00 ]
      - [ 1.39488959e+00, 4.07513350e-01, 3.44589114e+00 ]
      - [ 1.89073420e+00, 3.56671780e-01, 4.06108046e+00 ]
      - [ 1.92532802e+00, 3.51496220e-01, 4.02688360e+00 ]
      - [ 1.62521815e+00, 3.29200596e-01, 4.35819101e+00 ]
      - [ 2.30074644e+00, 6.49262369e-01, 2.45302773e+00 ]
      - [ 2.64923048e+00, 6.93277836e-01, 2.37221122e+00 ]
      - [ 1.23320460e+00, 5.88520229e-01, 2.81395459e+00 ]
      - [ 1.91016734e+00, 3.43518019e-01, 4.05426741e+00 ]
      - [ 1.82560623e+00, 3.82075757e-01, 3.93096375e+00 ]
      - [ 1.72550261e+00, 6.62038147e-01, 2.44858170e+00 ]
      - [ 1.84225321e+00, 3.47020477e-01, 4.07549763e+00 ]
      - [ 1.80320215e+00, 3.38095486e-01, 4.11707115e+00 ]
      - [ 2.22500467e+00, 4.96138304e-01, 2.89388633e+00 ]
      - [ 1.73516035e+00, 3.58308524e-01, 3.94456387e+00 ]
      - [ 1.90963423e+00, 5.89905858e-01, 2.76083970e+00 ]
      - [ 1.59545290e+00, 3.13510358e-01, 4.24223375e+00 ]
      - [ 2.35647345e+00, 4.01890218e-01, 3.54987741e+00 ]
      - [ 2.10067272e+00, 7.15499520e-01, 2.25571108e+00 ]
      - [ 2.04857564e+00, 4.71025705e-01, 3.12968540e+00 ]
      - [ 2.93600416e+00, 4.83697087e-01, 3.04379630e+00 ]
      - [ 2.25217915e+00, 4.38951135e-01, 3.39619851e+00 ]
      - [ 2.40867686e+00, 3.07680696e-01, 4.50575304e+00 ]
      - [ 2.40265775e+00, 3.85179967e-01, 3.53938961e+00 ]
      - [ 2.00733972e+00, 3.22415173e-01, 4.64038658e+00 ]
      - [ 2.55077839e+00, 3.83532256e-01, 3.59273386e+00 ]
      - [ 1.19631433e+00, 3.32498282e-01, 4.14639711e+00 ]
      - [ 2.48665071e+00, 4.43854034e-01, 3.37694097e+00 ]
      - [ 1.57882166e+00, 3.24253857e-01, 4.18426800e+00 ]
      - [ 1.86015821e+00, 4.44981426e-01, 3.31234717e+00 ]
      - [ 1.37378013e+00, 3.48779827e-01, 4.29602718e+00 ]
      - [ 2.07182002e+00, 5.55979729e-01, 2.90531087e+00 ]
      - [ 1.41133511e+00, 5.83657563e-01, 2.70630646e+00 ]
      - [ 2.37585330e+00, 3.84106487e-01, 3.59744883e+00 ]
      - [ 1.61948693e+00, 2.88769752e-01, 5.22244692e+00 ]
      - [ 5.00586796e+00, 5.64795732e-01, 2.69819283e+00 ]
      - [ 2.56189203e+00, 3.66736263e-01, 3.67675471e+00 ]
      - [ 2.56183934e+00, 3.46524239e-01, 4.02439976e+00 ]
      - [ 1.53993070e+00, 3.34385902e-01, 4.03675222e+00 ]
      - [ 2.17281556e+00, 4.44820136e-01, 3.25700736e+00 ]
      - [ 2.53142476e+00, 3.61773849e-01, 3.73534489e+00 ]
      - [ 1.88105881e+00, 4.98686850e-01, 2.94030380e+00 ]
      - [ 2.86922717e+00, 6.36946678e-01, 2.47216606e+00 ]
      - [ 1.67291927e+00, 3.23874265e-01, 4.18628550e+00 ]
      - [ 1.83041215e+00, 4.63762254e-01, 3.27903652e+00 ]
      - [ 1.70181704e+00, 4.83428121e-01, 3.12628651e+00 ]
      - [ 2.26299763e+00, 3.51947665e-01, 3.88112760e+00 ]
      - [ 1.78627765e+00, 4.38984960e-01, 3.52680492e+00 ]
      - [ 2.82099223e+00, 7.04616249e-01, 2.27796006e+00 ]
      - [ 1.64896274e+00, 3.49024296e-01, 3.97481775e+00 ]
      - [ 2.04853797e+00, 3.05227935e-01, 4.98449755e+00 ]
      - [ 5.73358679e+00, 5.04747212e-01, 3.05814123e+00 ]
      - [ 2.49313045e+00, 4.47469383e-01, 3.21949387e+00 ]
      - [ 1.56551254e+00, 2.99966633e-01, 4.93398237e+00 ]
      - [ 2.03915000e+00, 3.43942255e-01, 4.08817339e+00 ]
      - [ 2.85922170e+00, 3.58961999e-01, 3.66314888e+00 ]
      - [ 2.51902556e+00, 3.22080970e-01, 4.23901320e+00 ]
      - [ 3.16827965e+00, 1.75938606e-01, 8.67205429e+00 ]
      - [ 2.08678198e+00, 3.31113517e-01, 4.24006367e+00 ]
      - [ 3.62283278e+00, 7.39531875e-01, 2.15164256e+00 ]
      - [ 2.58671522e+00, 3.76991034e-01, 3.71137094e+00 ]
      - [ 3.05554032e+00, 3.65480214e-01, 3.74985504e+00 ]
      - [ 1.63095772e+00, 3.57726663e-01, 4.18624544e+00 ]
      - [ 1.92868984e+00, 6.51492357e-01, 2.45586061e+00 ]
      - [ 2.23903108e+00, 6.60511911e-01, 2.40193081e+00 ]
      - [ 1.28597546e+00, 3.82845104e-01, 3.73155880e+00 ]
      - [ 1.87690294e+00, 3.31610203e-01, 4.10582876e+00 ]
      - [ 2.60382676e+00, 6.30112290e-01, 2.49984741e+00 ]
      - [ 2.42204738e+00, 6.58685327e-01, 2.43953776e+00 ]
      - [ 3.92824697e+00, 4.29399312e-01, 3.73917007e+00 ]
      - [ 1.54557812e+00, 3.82668793e-01, 3.71239614e+00 ]
      - [ 2.36470556e+00, 4.26140100e-01, 3.56036592e+00 ]
      - [ 3.11732817e+00, 5.58065534e-01, 2.82472634e+00 ]
      - [ 1.55535674e+00, 9.82084632e-01, 1.73851359e+00 ]
      - [ 2.14141655e+00, 6.05083287e-01, 2.60974717e+00 ]
      - [ 2.13742566e+00, 4.77791697e-01, 3.07475281e+00 ]
      - [ 2.32246733e+00, 4.92914736e-01, 2.91529846e+00 ]
