%YAML:1.0
mysvm: !!opencv-ml-svm
   svm_type: C_SVC
   kernel: { type:RBF, gamma:1.5000000000000001e-04 }
   C: 5.0000000000000000e-01
   term_criteria: { epsilon:9.9999999747524271e-07, iterations:1000 }
   var_all: 3
   var_count: 3
   class_count: 2
   class_labels: !!opencv-matrix
      rows: 1
      cols: 2
      dt: i
      data: [ 0, 1 ]
   sv_total: 2000
   support_vectors:
      - [ 2.18812013e+00, 4.33302283e-01, 3.44869328e+00 ]
      - [ 4.62370157e+00, 6.74061775e-01, 2.37535501e+00 ]
      - [ 2.28716183e+00, 3.75390947e-01, 3.73186398e+00 ]
      - [ 2.04321432e+00, 4.75770891e-01, 3.12061691e+00 ]
      - [ 1.63861251e+00, 3.70445073e-01, 3.83415985e+00 ]
      - [ 1.63866282e+00, 4.26030576e-01, 3.39041734e+00 ]
      - [ 2.48626804e+00, 4.85384077e-01, 2.99828434e+00 ]
      - [ 3.55681610e+00, 5.75665474e-01, 2.63290644e+00 ]
      - [ 5.38802433e+00, 3.52180421e-01, 4.32887459e+00 ]
      - [ 2.08339214e+00, 3.86240453e-01, 3.64206600e+00 ]
      - [ 3.13469744e+00, 4.05199885e-01, 3.53449726e+00 ]
      - [ 1.48758650e+00, 6.01679564e-01, 2.71361923e+00 ]
      - [ 2.09727502e+00, 4.01445776e-01, 3.54751182e+00 ]
      - [ 2.54474878e+00, 3.48170012e-01, 3.98939943e+00 ]
      - [ 2.43108749e+00, 4.17387754e-01, 3.38778782e+00 ]
      - [ 1.57703245e+00, 4.22607332e-01, 3.28241825e+00 ]
      - [ 2.03548074e+00, 3.63732547e-01, 3.81680632e+00 ]
      - [ 2.13771391e+00, 3.64841551e-01, 3.84229136e+00 ]
      - [ 1.66072464e+00, 4.27692056e-01, 3.25750947e+00 ]
      - [ 2.08890390e+00, 5.28989911e-01, 2.83838558e+00 ]
      - [ 1.93627834e+00, 4.34322596e-01, 3.29552436e+00 ]
      - [ 2.18797994e+00, 4.59086001e-01, 3.23247695e+00 ]
      - [ 3.89226961e+00, 7.03060687e-01, 2.21602821e+00 ]
      - [ 1.51211369e+00, 7.20710635e-01, 2.04843569e+00 ]
      - [ 1.65551114e+00, 3.84248912e-01, 3.65660834e+00 ]
      - [ 1.53447926e+00, 4.23220754e-01, 3.46794367e+00 ]
      - [ 2.11816263e+00, 3.24935317e-01, 4.17532539e+00 ]
      - [ 1.55609322e+00, 3.49880964e-01, 4.04607153e+00 ]
      - [ 1.58562040e+00, 3.40351075e-01, 4.02994299e+00 ]
      - [ 2.80645132e+00, 5.38108289e-01, 2.79466605e+00 ]
      - [ 2.16931844e+00, 4.13194686e-01, 3.48305106e+00 ]
      - [ 1.75653648e+00, 4.74384487e-01, 3.09891510e+00 ]
      - [ 1.66228354e+00, 4.24208641e-01, 3.40238047e+00 ]
      - [ 2.89774966e+00, 3.54532599e-01, 4.02318478e+00 ]
      - [ 2.12324119e+00, 4.24437225e-01, 3.22887039e+00 ]
      - [ 1.73321784e+00, 4.20048267e-01, 3.36349559e+00 ]
      - [ 2.32613325e+00, 5.90378702e-01, 2.55150962e+00 ]
      - [ 2.92819047e+00, 3.61780584e-01, 3.86422205e+00 ]
      - [ 1.48977804e+00, 3.77592772e-01, 3.79034805e+00 ]
      - [ 4.67531109e+00, 5.28601050e-01, 2.78069949e+00 ]
      - [ 1.39205635e+00, 3.56727481e-01, 4.18970442e+00 ]
      - [ 1.08413410e+00, 5.90345502e-01, 2.69101191e+00 ]
      - [ 1.43938851e+00, 3.90203178e-01, 3.61295795e+00 ]
      - [ 1.49537313e+00, 4.24756408e-01, 3.30676436e+00 ]
      - [ 1.29779506e+00, 5.59188962e-01, 2.80630970e+00 ]
      - [ 1.51793849e+00, 4.32660162e-01, 3.31959033e+00 ]
      - [ 2.58140349e+00, 3.68470907e-01, 3.81372499e+00 ]
      - [ 2.77008748e+00, 3.52401912e-01, 3.90114856e+00 ]
      - [ 2.28261614e+00, 4.02184308e-01, 3.51058054e+00 ]
      - [ 5.16230011e+00, 7.29426265e-01, 2.15819621e+00 ]
      - [ 1.83793283e+00, 4.05767709e-01, 3.50497746e+00 ]
      - [ 1.86837602e+00, 4.19726402e-01, 3.26200938e+00 ]
      - [ 2.24364495e+00, 4.25855190e-01, 3.28749371e+00 ]
      - [ 1.67976737e+00, 4.24020141e-01, 3.30682492e+00 ]
      - [ 3.20467353e+00, 4.24005002e-01, 3.50324559e+00 ]
      - [ 1.74434984e+00, 4.55849409e-01, 3.14647746e+00 ]
      - [ 1.91407812e+00, 3.83969754e-01, 3.59488845e+00 ]
      - [ 2.21053267e+00, 4.60632712e-01, 3.21452141e+00 ]
      - [ 1.52682948e+00, 3.13066632e-01, 4.83996487e+00 ]
      - [ 5.44674444e+00, 5.31050980e-01, 2.77431989e+00 ]
      - [ 2.08186650e+00, 4.57718104e-01, 3.18073153e+00 ]
      - [ 1.73474574e+00, 4.24295455e-01, 3.39128995e+00 ]
      - [ 1.63828111e+00, 3.89015824e-01, 3.65031910e+00 ]
      - [ 1.98793268e+00, 6.21730626e-01, 2.53919482e+00 ]
      - [ 1.90593815e+00, 4.03861821e-01, 3.42151856e+00 ]
      - [ 1.51619554e+00, 3.76172543e-01, 3.89124012e+00 ]
      - [ 2.07046962e+00, 3.82965535e-01, 3.67473459e+00 ]
      - [ 1.33712101e+00, 4.02321488e-01, 3.58813572e+00 ]
      - [ 2.62187743e+00, 5.22268355e-01, 2.70564246e+00 ]
      - [ 1.63043439e+00, 3.65446180e-01, 3.79244947e+00 ]
      - [ 1.72812438e+00, 3.79809082e-01, 3.70406461e+00 ]
      - [ 1.96374297e+00, 3.83206785e-01, 3.66943908e+00 ]
      - [ 1.88461697e+00, 3.93424898e-01, 3.48819494e+00 ]
      - [ 3.12649179e+00, 3.52278292e-01, 3.98013663e+00 ]
      - [ 1.63441682e+00, 3.25314611e-01, 4.70266247e+00 ]
      - [ 3.65406680e+00, 2.65668720e-01, 5.58223486e+00 ]
      - [ 1.76907527e+00, 4.80212986e-01, 2.94417286e+00 ]
      - [ 1.67335081e+00, 3.94912779e-01, 3.46798182e+00 ]
      - [ 1.80115545e+00, 3.88345182e-01, 3.59889293e+00 ]
      - [ 1.40804625e+00, 3.56633604e-01, 3.89889216e+00 ]
      - [ 2.66846013e+00, 4.62234974e-01, 3.26096845e+00 ]
      - [ 3.11591172e+00, 3.39972168e-01, 3.93723989e+00 ]
      - [ 2.05277944e+00, 9.81142640e-01, 1.69401526e+00 ]
      - [ 1.52056599e+00, 3.78195822e-01, 3.77529645e+00 ]
      - [ 1.92951918e+00, 5.16394079e-01, 2.89108825e+00 ]
      - [ 2.31011367e+00, 1.92470297e-01, 8.46020603e+00 ]
      - [ 1.66308641e+00, 3.99064124e-01, 3.51657653e+00 ]
      - [ 1.62696421e+00, 3.64330977e-01, 3.82287550e+00 ]
      - [ 1.92242622e+00, 4.81833696e-01, 3.01246834e+00 ]
      - [ 2.24907255e+00, 3.59366477e-01, 3.90246487e+00 ]
      - [ 1.54901242e+00, 7.77924895e-01, 2.10688567e+00 ]
      - [ 1.94396007e+00, 3.55096549e-01, 3.90525031e+00 ]
      - [ 2.08626008e+00, 4.15915221e-01, 3.39428306e+00 ]
      - [ 2.51482749e+00, 6.99616730e-01, 2.24291372e+00 ]
      - [ 2.36166048e+00, 3.60237747e-01, 3.80231857e+00 ]
      - [ 1.26900661e+00, 4.03710812e-01, 3.66781187e+00 ]
      - [ 1.37058091e+00, 5.69710672e-01, 2.85628629e+00 ]
      - [ 2.52364373e+00, 3.68468642e-01, 3.66662288e+00 ]
      - [ 2.14341068e+00, 4.31165099e-01, 3.31991529e+00 ]
      - [ 1.05569839e+00, 6.35023236e-01, 2.64297700e+00 ]
      - [ 1.61282742e+00, 4.18826669e-01, 3.33449626e+00 ]
      - [ 1.51158154e+00, 4.65875089e-01, 3.08717084e+00 ]
      - [ 1.66894138e+00, 3.88607353e-01, 3.62529969e+00 ]
      - [ 1.78778684e+00, 4.21027213e-01, 3.31800842e+00 ]
      - [ 1.59351373e+00, 3.48471701e-01, 4.14662409e+00 ]
      - [ 1.84597123e+00, 3.65021259e-01, 3.78486252e+00 ]
      - [ 1.81457424e+00, 4.16897297e-01, 3.35453677e+00 ]
      - [ 1.18849790e+00, 5.39200544e-01, 3.01227164e+00 ]
      - [ 1.75753343e+00, 4.13709521e-01, 3.28411579e+00 ]
      - [ 1.77783608e+00, 3.73314708e-01, 3.73358274e+00 ]
      - [ 1.53946388e+00, 3.69056642e-01, 3.87473941e+00 ]
      - [ 1.60869825e+00, 4.22015846e-01, 3.35726905e+00 ]
      - [ 1.91000831e+00, 4.86251682e-01, 3.05906963e+00 ]
      - [ 1.97098553e+00, 4.25753385e-01, 3.37614012e+00 ]
      - [ 2.26224065e+00, 3.19285780e-01, 4.30594301e+00 ]
      - [ 1.52264547e+00, 4.51490343e-01, 3.15846777e+00 ]
      - [ 1.77561343e+00, 4.08143431e-01, 3.40482569e+00 ]
      - [ 1.92326128e+00, 3.64628226e-01, 3.83180523e+00 ]
      - [ 1.19482207e+00, 4.26496059e-01, 3.65311861e+00 ]
      - [ 1.86072826e+00, 3.27441603e-01, 4.22417831e+00 ]
      - [ 4.66538000e+00, 5.45164049e-01, 2.79214525e+00 ]
      - [ 1.85865211e+00, 3.62958461e-01, 3.85385895e+00 ]
      - [ 2.09510541e+00, 3.87099117e-01, 3.55176830e+00 ]
      - [ 1.53086579e+00, 5.18256724e-01, 2.98508954e+00 ]
      - [ 1.49715054e+00, 4.11282837e-01, 3.42595792e+00 ]
      - [ 2.71341038e+00, 3.93552065e-01, 3.63680124e+00 ]
      - [ 1.60178196e+00, 4.22826141e-01, 3.45081520e+00 ]
      - [ 1.62685144e+00, 3.75644714e-01, 3.71243525e+00 ]
      - [ 1.31085467e+00, 4.50211197e-01, 3.30198574e+00 ]
      - [ 2.40826130e+00, 4.51122910e-01, 3.17749572e+00 ]
      - [ 1.74752557e+00, 3.75507981e-01, 3.75019050e+00 ]
      - [ 1.58319569e+00, 4.54961985e-01, 3.22454190e+00 ]
      - [ 1.85045421e+00, 3.93896341e-01, 3.60105920e+00 ]
      - [ 2.27309275e+00, 3.59875739e-01, 3.76225162e+00 ]
      - [ 1.58622134e+00, 4.58204776e-01, 3.27366447e+00 ]
      - [ 9.74217594e-01, 1.71319306e-01, 8.95604610e+00 ]
      - [ 1.72899854e+00, 4.30171967e-01, 3.31229806e+00 ]
      - [ 1.41653287e+00, 3.83452147e-01, 3.63525176e+00 ]
      - [ 1.68950367e+00, 4.38626885e-01, 3.21055436e+00 ]
      - [ 1.53552198e+00, 3.56664062e-01, 3.96824265e+00 ]
      - [ 1.73688221e+00, 4.62401032e-01, 3.08489251e+00 ]
      - [ 2.33694363e+00, 3.56083572e-01, 3.88462591e+00 ]
      - [ 1.60778368e+00, 4.17973816e-01, 3.37761211e+00 ]
      - [ 1.83853304e+00, 3.60354573e-01, 3.71712470e+00 ]
      - [ 1.42428851e+00, 2.88479060e-01, 5.19116163e+00 ]
      - [ 1.51567292e+00, 4.25911307e-01, 3.49132943e+00 ]
      - [ 1.49600363e+00, 5.78645170e-01, 2.74931002e+00 ]
      - [ 1.85987639e+00, 4.20905948e-01, 3.39585996e+00 ]
      - [ 2.49454570e+00, 8.20297897e-01, 1.91229248e+00 ]
      - [ 1.56454837e+00, 4.03906703e-01, 3.44748616e+00 ]
      - [ 1.87421024e+00, 3.75471771e-01, 3.69567657e+00 ]
      - [ 1.54887605e+00, 3.52140963e-01, 4.02894402e+00 ]
      - [ 1.40059638e+00, 3.79794329e-01, 3.95077372e+00 ]
      - [ 2.17092967e+00, 3.57108384e-01, 3.87510896e+00 ]
      - [ 4.11529922e+00, 4.16100383e-01, 3.34817529e+00 ]
      - [ 2.44511461e+00, 3.69613081e-01, 3.76855469e+00 ]
      - [ 1.51861989e+00, 3.19602758e-01, 4.57897425e+00 ]
      - [ 2.00016403e+00, 6.27421439e-01, 2.46531010e+00 ]
      - [ 1.41465974e+00, 3.62734854e-01, 4.12609911e+00 ]
      - [ 1.76215303e+00, 4.91620094e-01, 2.94154406e+00 ]
      - [ 1.97605407e+00, 4.10796851e-01, 3.48749518e+00 ]
      - [ 1.46054935e+00, 4.00599599e-01, 3.64211011e+00 ]
      - [ 2.04664254e+00, 4.91389602e-01, 3.05406713e+00 ]
      - [ 1.84837854e+00, 4.63288456e-01, 3.19052434e+00 ]
      - [ 2.13209963e+00, 3.65883619e-01, 3.79559827e+00 ]
      - [ 1.81275880e+00, 3.63356054e-01, 3.82599878e+00 ]
      - [ 1.88259029e+00, 3.24683845e-01, 4.35558844e+00 ]
      - [ 2.40632224e+00, 3.78339350e-01, 3.66843200e+00 ]
      - [ 1.88480830e+00, 3.13510984e-01, 4.40848589e+00 ]
      - [ 3.06725192e+00, 4.90573943e-01, 3.05513501e+00 ]
      - [ 3.83230400e+00, 3.00951302e-01, 4.66199541e+00 ]
      - [ 1.37401617e+00, 3.72068167e-01, 3.80049205e+00 ]
      - [ 1.74321604e+00, 4.71832007e-01, 3.04706502e+00 ]
      - [ 1.94595873e+00, 4.42354649e-01, 3.27728772e+00 ]
      - [ 1.80180156e+00, 4.27234083e-01, 3.31471705e+00 ]
      - [ 3.37319064e+00, 4.87811416e-01, 3.07113957e+00 ]
      - [ 2.80673313e+00, 5.03472090e-01, 2.96309257e+00 ]
      - [ 2.05631495e+00, 4.55856144e-01, 3.21988559e+00 ]
      - [ 2.41654062e+00, 3.62311035e-01, 3.83508348e+00 ]
      - [ 2.71369791e+00, 4.17972773e-01, 3.44320297e+00 ]
      - [ 3.43231225e+00, 3.59894842e-01, 3.87431383e+00 ]
      - [ 1.59950578e+00, 2.90799528e-01, 4.84870815e+00 ]
      - [ 2.49310231e+00, 3.89884591e-01, 3.61799049e+00 ]
      - [ 1.49015117e+00, 3.48628134e-01, 4.25062656e+00 ]
      - [ 1.74993324e+00, 6.09685659e-01, 2.59067941e+00 ]
      - [ 1.59996676e+00, 3.60993415e-01, 3.89504766e+00 ]
      - [ 6.07914782e+00, 7.18586922e-01, 2.09998560e+00 ]
      - [ 5.26563692e+00, 3.99767339e-01, 3.50980282e+00 ]
      - [ 2.07975864e+00, 2.62617618e-01, 5.45236206e+00 ]
      - [ 1.59126806e+00, 3.42065066e-01, 4.04109049e+00 ]
      - [ 1.14746225e+00, 5.15213072e-01, 2.90305233e+00 ]
      - [ 1.42163229e+00, 4.28286880e-01, 3.25647449e+00 ]
      - [ 1.70958674e+00, 4.06551003e-01, 3.40512681e+00 ]
      - [ 1.93056417e+00, 2.94747025e-01, 4.67984867e+00 ]
      - [ 1.97543108e+00, 3.55099380e-01, 3.84904170e+00 ]
      - [ 1.70747364e+00, 3.89384717e-01, 3.59708285e+00 ]
      - [ 1.98201334e+00, 6.56126261e-01, 2.37483597e+00 ]
      - [ 3.65139771e+00, 3.71492356e-01, 3.84217143e+00 ]
      - [ 3.29262686e+00, 5.88760972e-01, 2.61245418e+00 ]
      - [ 2.02678633e+00, 4.40086782e-01, 3.31217289e+00 ]
      - [ 2.13753247e+00, 4.07880932e-01, 3.46175909e+00 ]
      - [ 1.87436497e+00, 3.31084520e-01, 4.21198702e+00 ]
      - [ 2.28835726e+00, 3.70303214e-01, 3.75195384e+00 ]
      - [ 1.59265816e+00, 2.89854079e-01, 5.12163544e+00 ]
      - [ 1.49486446e+00, 4.07549441e-01, 3.43632054e+00 ]
      - [ 2.09744048e+00, 2.59887576e-01, 5.50134039e+00 ]
      - [ 8.98406124e+00, 7.26705119e-02, 2.11569004e+01 ]
      - [ 1.63418269e+00, 3.91840935e-01, 3.59251380e+00 ]
      - [ 2.09415841e+00, 3.77092212e-01, 3.65285945e+00 ]
      - [ 1.64538944e+00, 3.52724344e-01, 3.91785359e+00 ]
      - [ 1.41518974e+00, 3.91868740e-01, 3.65754724e+00 ]
      - [ 2.03904033e+00, 7.29624748e-01, 2.20228958e+00 ]
      - [ 1.94348300e+00, 4.79912996e-01, 3.06995964e+00 ]
      - [ 2.54070449e+00, 3.76500249e-01, 3.75340843e+00 ]
      - [ 2.86302137e+00, 4.42373425e-01, 3.28556347e+00 ]
      - [ 2.04110742e+00, 3.34481239e-01, 4.11951208e+00 ]
      - [ 1.62495649e+00, 3.41124773e-01, 4.23883724e+00 ]
      - [ 1.71958494e+00, 4.01039332e-01, 3.53446865e+00 ]
      - [ 1.34803832e+00, 4.33283389e-01, 3.46125221e+00 ]
      - [ 1.66805780e+00, 4.17008966e-01, 3.38839626e+00 ]
      - [ 1.44077182e+00, 3.85871470e-01, 3.70713305e+00 ]
      - [ 2.12534928e+00, 3.93874943e-01, 3.54877043e+00 ]
      - [ 2.26365495e+00, 3.52091491e-01, 3.93787217e+00 ]
      - [ 2.00562930e+00, 3.49860519e-01, 3.92531753e+00 ]
      - [ 1.85522711e+00, 3.81841391e-01, 3.61350274e+00 ]
      - [ 7.89493656e+00, 3.90322179e-01, 3.76462030e+00 ]
      - [ 1.77044845e+00, 3.51816952e-01, 3.79897404e+00 ]
      - [ 1.63397610e+00, 4.34230119e-01, 3.24520755e+00 ]
      - [ 1.93318260e+00, 4.70613837e-01, 3.07318306e+00 ]
      - [ 1.50412643e+00, 3.87741715e-01, 3.69983959e+00 ]
      - [ 1.72755384e+00, 3.47068310e-01, 3.93736982e+00 ]
      - [ 1.96511650e+00, 3.45910966e-01, 3.94581819e+00 ]
      - [ 2.05917954e+00, 1.22440875e+00, 1.39386582e+00 ]
      - [ 2.14277458e+00, 3.63114357e-01, 3.86079955e+00 ]
      - [ 1.51142621e+00, 5.93504906e-01, 2.74284577e+00 ]
      - [ 1.89463377e+00, 7.53189206e-01, 2.16117644e+00 ]
      - [ 2.28817964e+00, 3.64169776e-01, 3.78303003e+00 ]
      - [ 3.21536970e+00, 2.85190701e-01, 4.94818497e+00 ]
      - [ 1.47660685e+00, 3.73949140e-01, 3.62734723e+00 ]
      - [ 2.08794522e+00, 4.19892311e-01, 3.42336011e+00 ]
      - [ 2.01776981e+00, 3.89451593e-01, 3.55575967e+00 ]
      - [ 1.62873054e+00, 4.10004556e-01, 3.40839648e+00 ]
      - [ 1.61162329e+00, 3.58303517e-01, 3.75370765e+00 ]
      - [ 1.36718225e+00, 4.17124748e-01, 3.45169735e+00 ]
      - [ 1.48658705e+00, 3.99814904e-01, 3.46903896e+00 ]
      - [ 1.52484202e+00, 3.83452237e-01, 3.61797786e+00 ]
      - [ 2.52029467e+00, 2.25213021e-01, 6.68936539e+00 ]
      - [ 2.61838388e+00, 3.65659565e-01, 3.84310126e+00 ]
      - [ 1.46809173e+00, 5.28389931e-01, 3.07069659e+00 ]
      - [ 1.16137826e+00, 3.89972895e-01, 4.08052254e+00 ]
      - [ 1.72257233e+00, 4.22462761e-01, 3.40851855e+00 ]
      - [ 2.21009874e+00, 1.33150828e+00, 1.29383647e+00 ]
      - [ 1.85876143e+00, 3.73238206e-01, 3.63332295e+00 ]
      - [ 3.02318144e+00, 7.16571629e-01, 2.14358830e+00 ]
      - [ 1.61439681e+00, 3.78399789e-01, 3.63529062e+00 ]
      - [ 1.84754157e+00, 3.61558825e-01, 3.86274433e+00 ]
      - [ 2.24893355e+00, 3.73906195e-01, 3.71658063e+00 ]
      - [ 1.76723754e+00, 3.65179867e-01, 3.72112560e+00 ]
      - [ 1.92472863e+00, 4.78640765e-01, 3.08587456e+00 ]
      - [ 1.57920408e+00, 4.74044502e-01, 3.20965672e+00 ]
      - [ 1.48888230e+00, 3.96768957e-01, 3.67267704e+00 ]
      - [ 1.78634965e+00, 4.42429602e-01, 3.13460708e+00 ]
      - [ 2.33671951e+00, 4.90562826e-01, 3.03267121e+00 ]
      - [ 1.67427063e+00, 4.10216421e-01, 3.48485255e+00 ]
      - [ 6.98401928e+00, 4.76443887e-01, 3.12828875e+00 ]
      - [ 1.52083623e+00, 3.47997189e-01, 4.17069149e+00 ]
      - [ 2.93489289e+00, 3.78809065e-01, 3.75677347e+00 ]
      - [ 1.98694932e+00, 4.24292833e-01, 3.25238156e+00 ]
      - [ 1.63506591e+00, 4.08891320e-01, 3.42539167e+00 ]
      - [ 3.41183352e+00, 3.68549526e-01, 3.73486137e+00 ]
      - [ 1.89425206e+00, 3.86832625e-01, 3.53644848e+00 ]
      - [ 1.63629365e+00, 3.70322078e-01, 3.83576369e+00 ]
      - [ 2.06023550e+00, 3.10487956e-01, 4.53511095e+00 ]
      - [ 1.83484745e+00, 4.81577724e-01, 3.08056998e+00 ]
      - [ 3.67952347e+00, 8.63482952e-01, 1.84288335e+00 ]
      - [ 1.56846619e+00, 4.21327859e-01, 3.39999127e+00 ]
      - [ 1.64160049e+00, 4.26086605e-01, 3.31385422e+00 ]
      - [ 1.89482093e+00, 3.60176414e-01, 3.86717844e+00 ]
      - [ 3.06545639e+00, 3.13410699e-01, 4.45691347e+00 ]
      - [ 1.48894072e+00, 5.31042218e-01, 2.97815061e+00 ]
      - [ 1.72880340e+00, 3.79691571e-01, 3.66973639e+00 ]
      - [ 1.66962540e+00, 3.97739261e-01, 3.56361413e+00 ]
      - [ 2.04517841e+00, 3.57489109e-01, 3.86697483e+00 ]
      - [ 2.08745217e+00, 6.22966826e-01, 2.42818403e+00 ]
      - [ 1.58481312e+00, 3.87268901e-01, 3.47653556e+00 ]
      - [ 1.49280250e+00, 4.59857315e-01, 3.22662115e+00 ]
      - [ 2.79880738e+00, 3.93790394e-01, 3.44809532e+00 ]
      - [ 3.68200612e+00, 4.35105771e-01, 3.38311267e+00 ]
      - [ 7.42794657e+00, 3.09541792e-01, 4.97871590e+00 ]
      - [ 1.86635911e+00, 7.70792186e-01, 2.05448723e+00 ]
      - [ 1.60114884e+00, 3.43275845e-01, 4.21668768e+00 ]
      - [ 1.67956519e+00, 3.27552408e-01, 4.65060854e+00 ]
      - [ 3.24781895e+00, 4.20404762e-01, 3.54193544e+00 ]
      - [ 1.60585976e+00, 3.07766527e-01, 4.97850180e+00 ]
      - [ 4.65206242e+00, 7.07882881e-01, 2.27509975e+00 ]
      - [ 1.31328380e+00, 3.87796044e-01, 3.52950549e+00 ]
      - [ 2.35030150e+00, 4.86377120e-01, 3.09148955e+00 ]
      - [ 2.28656530e+00, 4.05790925e-01, 3.49408746e+00 ]
      - [ 1.99364829e+00, 3.71040553e-01, 3.74421024e+00 ]
      - [ 1.92317712e+00, 3.39235574e-01, 4.05726528e+00 ]
      - [ 2.58067989e+00, 4.34478790e-01, 3.24199748e+00 ]
      - [ 1.53693008e+00, 3.74997407e-01, 3.78851295e+00 ]
      - [ 1.49285793e+00, 4.10369366e-01, 3.54794574e+00 ]
      - [ 1.62226474e+00, 4.53946680e-01, 3.08999515e+00 ]
      - [ 2.70980191e+00, 3.28426868e-01, 4.17226458e+00 ]
      - [ 4.63178253e+00, 3.98548305e-01, 3.61381269e+00 ]
      - [ 1.69903541e+00, 6.01940930e-01, 2.64545584e+00 ]
      - [ 1.81814420e+00, 4.07727003e-01, 3.41467500e+00 ]
      - [ 2.56160617e+00, 4.82879758e-01, 3.06775284e+00 ]
      - [ 1.69718826e+00, 6.30193472e-01, 2.50843763e+00 ]
      - [ 1.79137218e+00, 4.01186973e-01, 3.50922322e+00 ]
      - [ 3.61062288e+00, 6.45503700e-01, 2.48933959e+00 ]
      - [ 1.95819783e+00, 4.32773411e-01, 3.30219030e+00 ]
      - [ 3.90867448e+00, 4.36817169e-01, 3.32301903e+00 ]
      - [ 1.67728472e+00, 4.02829289e-01, 3.47784257e+00 ]
      - [ 2.04661775e+00, 3.82207543e-01, 3.65091777e+00 ]
      - [ 1.84589517e+00, 3.73750210e-01, 3.68440151e+00 ]
      - [ 1.68577671e+00, 3.30636799e-01, 4.26013374e+00 ]
      - [ 1.37106812e+00, 2.66345620e-01, 5.94890070e+00 ]
      - [ 1.51110315e+00, 3.57000351e-01, 3.95822525e+00 ]
      - [ 1.65114629e+00, 9.10413921e-01, 1.82400382e+00 ]
      - [ 1.59539378e+00, 4.17975962e-01, 3.41115618e+00 ]
      - [ 1.37283039e+00, 3.82979333e-01, 3.82146120e+00 ]
      - [ 1.60484290e+00, 3.99562955e-01, 3.57175016e+00 ]
      - [ 1.55393898e+00, 3.77812713e-01, 3.60825300e+00 ]
      - [ 1.00367200e+00, 1.93386897e-01, 7.46636772e+00 ]
      - [ 2.62007666e+00, 3.83165270e-01, 3.73752356e+00 ]
      - [ 2.30734634e+00, 3.61873060e-01, 3.71768975e+00 ]
      - [ 1.68142533e+00, 3.97073328e-01, 3.49453902e+00 ]
      - [ 2.84262729e+00, 6.24643743e-01, 2.51774645e+00 ]
      - [ 1.67973506e+00, 4.13093418e-01, 3.40893435e+00 ]
      - [ 5.18103075e+00, 6.95538878e-01, 2.23604774e+00 ]
      - [ 1.50952470e+00, 3.35518777e-01, 4.52383327e+00 ]
      - [ 1.81635189e+00, 3.84831160e-01, 3.51408362e+00 ]
      - [ 1.44719136e+00, 3.96108717e-01, 3.70070100e+00 ]
      - [ 1.75841486e+00, 3.61535162e-01, 3.75848246e+00 ]
      - [ 1.66799688e+00, 4.21555996e-01, 3.42999744e+00 ]
      - [ 1.65877235e+00, 4.29539919e-01, 3.25494432e+00 ]
      - [ 1.46929955e+00, 3.41254592e-01, 4.32144213e+00 ]
      - [ 2.65724850e+00, 7.21794486e-01, 2.14217663e+00 ]
      - [ 1.41428399e+00, 3.46966565e-01, 3.97552752e+00 ]
      - [ 2.01972008e+00, 4.35732305e-01, 3.32635975e+00 ]
      - [ 1.56315458e+00, 3.43763888e-01, 4.19277000e+00 ]
      - [ 5.08399820e+00, 5.34836888e-01, 2.83761644e+00 ]
      - [ 2.04381418e+00, 5.13542831e-01, 2.89187884e+00 ]
      - [ 1.52410400e+00, 5.46576142e-01, 2.79279542e+00 ]
      - [ 2.14156914e+00, 3.67334813e-01, 3.72804332e+00 ]
      - [ 1.82814872e+00, 3.97884667e-01, 3.56049562e+00 ]
      - [ 2.04766726e+00, 3.28291327e-01, 4.18965054e+00 ]
      - [ 2.01326537e+00, 6.25563443e-01, 2.50651073e+00 ]
      - [ 1.69510353e+00, 4.20006096e-01, 3.26318216e+00 ]
      - [ 1.59840536e+00, 4.21982199e-01, 3.37871456e+00 ]
      - [ 1.82356489e+00, 8.72486115e-01, 1.81836128e+00 ]
      - [ 1.83429253e+00, 4.16600227e-01, 3.36311746e+00 ]
      - [ 2.34955668e+00, 4.28825498e-01, 3.41028786e+00 ]
      - [ 4.14874220e+00, 3.53077799e-01, 4.10380793e+00 ]
      - [ 1.66606760e+00, 3.78741711e-01, 3.63268852e+00 ]
      - [ 1.47975361e+00, 2.47218817e-01, 6.33085537e+00 ]
      - [ 2.95355892e+00, 3.65611434e-01, 3.77367616e+00 ]
      - [ 1.82815564e+00, 4.52546000e-01, 3.21982074e+00 ]
      - [ 1.59685254e+00, 3.78663301e-01, 3.60037088e+00 ]
      - [ 2.04561639e+00, 4.12447691e-01, 3.45308971e+00 ]
      - [ 1.58454871e+00, 3.09403300e-01, 5.18603134e+00 ]
      - [ 5.41688585e+00, 5.06952167e-01, 3.02834821e+00 ]
      - [ 2.17617631e+00, 5.52113116e-01, 2.72249269e+00 ]
      - [ 1.54332364e+00, 3.90926123e-01, 3.68752718e+00 ]
      - [ 1.92750359e+00, 3.60112131e-01, 3.84926081e+00 ]
      - [ 2.87034678e+00, 6.56026065e-01, 2.39790106e+00 ]
      - [ 1.78388453e+00, 3.72258991e-01, 3.69633698e+00 ]
      - [ 1.54624701e+00, 3.92478257e-01, 3.64254618e+00 ]
      - [ 3.50590277e+00, 6.85432792e-01, 2.26731157e+00 ]
      - [ 1.39089894e+00, 3.64906877e-01, 3.96879125e+00 ]
      - [ 2.08389115e+00, 7.55677164e-01, 2.10931468e+00 ]
      - [ 1.72041237e+00, 4.45198655e-01, 3.20899844e+00 ]
      - [ 2.01427650e+00, 4.22647923e-01, 3.36077523e+00 ]
      - [ 1.51117253e+00, 4.18135732e-01, 3.34922934e+00 ]
      - [ 1.76652777e+00, 7.84666896e-01, 2.03116941e+00 ]
      - [ 1.85531378e+00, 7.60771692e-01, 2.12105322e+00 ]
      - [ 1.71915984e+00, 6.48106873e-01, 2.49845815e+00 ]
      - [ 1.62733006e+00, 6.07830107e-01, 2.64372730e+00 ]
      - [ 1.37555575e+00, 3.50541532e-01, 3.95606875e+00 ]
      - [ 1.91488039e+00, 5.95462620e-01, 2.60976744e+00 ]
      - [ 2.28407574e+00, 3.64471763e-01, 3.81527805e+00 ]
      - [ 1.59032595e+00, 4.25926626e-01, 3.40113235e+00 ]
      - [ 1.65954769e+00, 3.21871072e-01, 4.82290173e+00 ]
      - [ 1.70235729e+00, 6.54193580e-01, 2.44738531e+00 ]
      - [ 2.05280852e+00, 3.73976380e-01, 3.61868525e+00 ]
      - [ 2.14392900e+00, 4.83847797e-01, 3.04735804e+00 ]
      - [ 1.60123587e+00, 3.51226956e-01, 4.02690506e+00 ]
      - [ 1.60525036e+00, 4.13896263e-01, 3.44436479e+00 ]
      - [ 2.64528131e+00, 5.14919579e-01, 2.81549454e+00 ]
      - [ 2.18836236e+00, 3.94586056e-01, 3.52659035e+00 ]
      - [ 6.94156694e+00, 4.00952965e-01, 3.68120956e+00 ]
      - [ 2.36051226e+00, 3.28590631e-01, 4.10411501e+00 ]
      - [ 3.15062022e+00, 1.89497039e-01, 7.98403883e+00 ]
      - [ 1.54366565e+00, 3.67467225e-01, 3.80987334e+00 ]
      - [ 1.45598257e+00, 3.95632207e-01, 3.59303188e+00 ]
      - [ 1.87700009e+00, 6.96060300e-01, 2.28951836e+00 ]
      - [ 2.02673006e+00, 2.44944468e-01, 5.81463385e+00 ]
      - [ 3.09352112e+00, 6.68614507e-01, 2.36509228e+00 ]
      - [ 1.64564550e+00, 4.07236546e-01, 3.44980597e+00 ]
      - [ 1.64344907e+00, 4.19935286e-01, 3.44160843e+00 ]
      - [ 2.24201655e+00, 4.73485529e-01, 3.00184274e+00 ]
      - [ 1.69933283e+00, 4.12305981e-01, 3.48406959e+00 ]
      - [ 2.24288249e+00, 5.02927840e-01, 2.93530750e+00 ]
      - [ 1.83936560e+00, 4.25883979e-01, 3.29432702e+00 ]
      - [ 1.47695947e+00, 4.08734739e-01, 3.46163082e+00 ]
      - [ 1.57712269e+00, 3.72004390e-01, 3.83571267e+00 ]
      - [ 1.73751783e+00, 4.54557836e-01, 3.21747923e+00 ]
      - [ 2.06107020e+00, 4.92951065e-01, 3.02917838e+00 ]
      - [ 3.03090954e+00, 3.14846784e-01, 4.31350470e+00 ]
      - [ 1.54385495e+00, 4.01456088e-01, 3.58228707e+00 ]
      - [ 1.50051045e+00, 4.15249139e-01, 3.52430964e+00 ]
      - [ 2.38643837e+00, 3.82244140e-01, 3.64113355e+00 ]
      - [ 1.61117816e+00, 4.19812858e-01, 3.42782521e+00 ]
      - [ 1.43637800e+00, 3.94758016e-01, 3.44625783e+00 ]
      - [ 2.04618740e+00, 3.73988360e-01, 3.62278080e+00 ]
      - [ 1.69479132e+00, 4.10578161e-01, 3.47273755e+00 ]
      - [ 1.33006585e+00, 4.31875229e-01, 3.59512448e+00 ]
      - [ 1.93482018e+00, 4.56460834e-01, 3.13498616e+00 ]
      - [ 6.42610168e+00, 2.38110572e-01, 6.67475939e+00 ]
      - [ 2.23671079e+00, 3.21038932e-01, 4.21367121e+00 ]
      - [ 2.25997972e+00, 1.36955273e+00, 1.26787186e+00 ]
      - [ 1.59604418e+00, 4.09889638e-01, 3.45537448e+00 ]
      - [ 1.53678334e+00, 3.80000323e-01, 3.71425152e+00 ]
      - [ 1.71337020e+00, 3.68925899e-01, 3.73086953e+00 ]
      - [ 1.74968302e+00, 4.55964476e-01, 3.14107490e+00 ]
      - [ 1.60293484e+00, 4.07802790e-01, 3.36909842e+00 ]
      - [ 2.09688497e+00, 3.61401618e-01, 3.83353448e+00 ]
      - [ 1.25302529e+00, 3.81171674e-01, 4.27243280e+00 ]
      - [ 1.84032321e+00, 5.36924541e-01, 2.81410599e+00 ]
      - [ 1.54445267e+00, 3.91674101e-01, 3.50400305e+00 ]
      - [ 4.22451687e+00, 3.24282169e-01, 4.28985214e+00 ]
      - [ 1.66591752e+00, 4.24940199e-01, 3.32296729e+00 ]
      - [ 2.49283552e+00, 4.43767399e-01, 3.20432210e+00 ]
      - [ 8.75509381e-01, 3.09112936e-01, 5.37257433e+00 ]
      - [ 1.71691406e+00, 3.87730390e-01, 3.64611888e+00 ]
      - [ 1.20659184e+00, 5.43677807e-01, 2.92033744e+00 ]
      - [ 1.90261281e+00, 4.48435664e-01, 3.21540713e+00 ]
      - [ 1.74222732e+00, 3.53718281e-01, 3.96798801e+00 ]
      - [ 1.58151972e+00, 4.08530980e-01, 3.55115461e+00 ]
      - [ 1.71712339e+00, 3.97268474e-01, 3.53187537e+00 ]
      - [ 1.96341324e+00, 3.42355371e-01, 4.02308226e+00 ]
      - [ 1.53815639e+00, 3.66493285e-01, 3.86039186e+00 ]
      - [ 2.18412614e+00, 6.14999533e-01, 2.50581908e+00 ]
      - [ 1.60935056e+00, 3.41257155e-01, 4.05778217e+00 ]
      - [ 2.41036749e+00, 3.78058463e-01, 3.76625824e+00 ]
      - [ 1.91098952e+00, 7.03165054e-01, 2.25974512e+00 ]
      - [ 3.95581937e+00, 4.40995693e-01, 3.39960194e+00 ]
      - [ 1.60604811e+00, 3.99296284e-01, 3.59570146e+00 ]
      - [ 1.96079147e+00, 4.89917129e-01, 2.97300649e+00 ]
      - [ 2.63285327e+00, 4.75508630e-01, 3.15712500e+00 ]
      - [ 1.16385162e+00, 3.84222418e-01, 3.87566400e+00 ]
      - [ 1.48728621e+00, 3.63884181e-01, 3.92516756e+00 ]
      - [ 1.69251013e+00, 6.91815913e-01, 2.33938718e+00 ]
      - [ 2.16622663e+00, 4.80169207e-01, 3.02390361e+00 ]
      - [ 1.63874412e+00, 3.72195035e-01, 3.76335931e+00 ]
      - [ 1.74548662e+00, 4.29524332e-01, 3.36518955e+00 ]
      - [ 1.54931688e+00, 3.92482251e-01, 3.63961601e+00 ]
      - [ 1.72604072e+00, 3.97053748e-01, 3.53313541e+00 ]
      - [ 1.95267689e+00, 3.82850319e-01, 3.65905070e+00 ]
      - [ 1.69376707e+00, 3.33635122e-01, 4.16464758e+00 ]
      - [ 1.62543118e+00, 4.18144286e-01, 3.41687298e+00 ]
      - [ 1.69123638e+00, 4.06216115e-01, 3.50614190e+00 ]
      - [ 2.36784983e+00, 4.33681965e-01, 3.27944565e+00 ]
      - [ 3.69347048e+00, 7.20723331e-01, 2.09387565e+00 ]
      - [ 1.78097105e+00, 4.18478638e-01, 3.42169809e+00 ]
      - [ 1.39573348e+00, 4.14769471e-01, 3.40631843e+00 ]
      - [ 1.49584389e+00, 4.18785602e-01, 3.41221642e+00 ]
      - [ 2.78475928e+00, 4.53339636e-01, 3.06689596e+00 ]
      - [ 1.30100930e+00, 3.20786297e-01, 4.60580778e+00 ]
      - [ 1.33114123e+00, 3.44020128e-01, 4.43003654e+00 ]
      - [ 1.66125023e+00, 3.14602375e-01, 4.53001595e+00 ]
      - [ 1.73742700e+00, 3.72020483e-01, 3.74312282e+00 ]
      - [ 1.73382425e+00, 4.13991809e-01, 3.39445662e+00 ]
      - [ 1.88499534e+00, 4.15140271e-01, 3.44662738e+00 ]
      - [ 2.13010764e+00, 4.33706224e-01, 3.35777879e+00 ]
      - [ 1.94062948e+00, 4.90695268e-01, 3.01670575e+00 ]
      - [ 1.75411499e+00, 4.28045630e-01, 3.35240006e+00 ]
      - [ 1.65841818e+00, 3.87500346e-01, 3.64248347e+00 ]
      - [ 1.54163480e+00, 3.87247235e-01, 3.64941835e+00 ]
      - [ 1.50278187e+00, 3.97961527e-01, 3.61136985e+00 ]
      - [ 2.16401529e+00, 4.37056154e-01, 3.22255635e+00 ]
      - [ 2.06752825e+00, 4.91014302e-01, 3.04568481e+00 ]
      - [ 1.63741243e+00, 3.34339827e-01, 4.41600657e+00 ]
      - [ 2.11886549e+00, 3.63015532e-01, 3.85836315e+00 ]
      - [ 4.13648081e+00, 5.09258687e-01, 2.97701788e+00 ]
      - [ 1.50299382e+00, 3.66501004e-01, 3.78564835e+00 ]
      - [ 1.82298601e+00, 6.35265470e-01, 2.43696904e+00 ]
      - [ 1.36216760e+00, 4.12091851e-01, 3.62727451e+00 ]
      - [ 1.58402193e+00, 3.53965104e-01, 3.87846422e+00 ]
      - [ 1.74438953e+00, 3.96832407e-01, 3.55044651e+00 ]
      - [ 1.76985776e+00, 4.49294597e-01, 3.25782895e+00 ]
      - [ 1.57057440e+00, 3.72155875e-01, 3.75870609e+00 ]
      - [ 1.61842787e+00, 4.09018278e-01, 3.45370913e+00 ]
      - [ 2.17691731e+00, 3.78118187e-01, 3.63997006e+00 ]
      - [ 1.54011834e+00, 3.52758437e-01, 3.86815953e+00 ]
      - [ 2.54855371e+00, 4.62206006e-01, 3.20398736e+00 ]
      - [ 1.58336115e+00, 4.17173207e-01, 3.48040557e+00 ]
      - [ 1.54405224e+00, 8.30923557e-01, 2.01043272e+00 ]
      - [ 1.67011905e+00, 4.02293831e-01, 3.43538833e+00 ]
      - [ 3.54812455e+00, 1.86660513e-01, 7.57852507e+00 ]
      - [ 4.87260675e+00, 5.73040485e-01, 2.76327062e+00 ]
      - [ 2.01671100e+00, 3.56181413e-01, 3.85513043e+00 ]
      - [ 1.38668048e+00, 3.80376369e-01, 3.66698956e+00 ]
      - [ 1.89730000e+00, 8.51770639e-01, 1.91419971e+00 ]
      - [ 1.26050603e+00, 4.82628107e-01, 3.32283568e+00 ]
      - [ 1.44912350e+00, 3.84585917e-01, 3.60107684e+00 ]
      - [ 3.30471802e+00, 4.49234545e-01, 3.29777265e+00 ]
      - [ 1.70473790e+00, 2.00520709e-01, 7.80517864e+00 ]
      - [ 2.06548500e+00, 4.44573194e-01, 3.19712400e+00 ]
      - [ 1.68780506e+00, 3.74375135e-01, 3.74118590e+00 ]
      - [ 1.78451276e+00, 3.63083065e-01, 3.83676791e+00 ]
      - [ 2.45998454e+00, 3.07200730e-01, 4.49291706e+00 ]
      - [ 2.42280889e+00, 5.66805840e-01, 2.64059162e+00 ]
      - [ 5.70105314e+00, 3.47865403e-01, 4.09102964e+00 ]
      - [ 2.11120105e+00, 1.33976173e+00, 1.32110679e+00 ]
      - [ 2.65136790e+00, 3.93623054e-01, 3.47462678e+00 ]
      - [ 1.66193664e+00, 3.79944652e-01, 3.66582584e+00 ]
      - [ 1.62551844e+00, 4.80129659e-01, 3.09921002e+00 ]
      - [ 2.03296924e+00, 4.01797146e-01, 3.50863409e+00 ]
      - [ 3.00711179e+00, 4.81822908e-01, 3.06163239e+00 ]
      - [ 2.42119336e+00, 4.52343106e-01, 3.06743073e+00 ]
      - [ 2.98517418e+00, 3.71485740e-01, 3.66104007e+00 ]
      - [ 1.64558864e+00, 3.42531681e-01, 4.04407358e+00 ]
      - [ 2.88354802e+00, 5.26911974e-01, 2.96252608e+00 ]
      - [ 2.44774413e+00, 3.89333874e-01, 3.66670656e+00 ]
      - [ 1.94458675e+00, 3.54355812e-01, 3.78019738e+00 ]
      - [ 1.74054492e+00, 4.35179353e-01, 3.29373860e+00 ]
      - [ 1.90029156e+00, 3.14708263e-01, 4.38890314e+00 ]
      - [ 1.88806796e+00, 3.88694525e-01, 3.56889772e+00 ]
      - [ 1.55152071e+00, 3.88081521e-01, 3.55896974e+00 ]
      - [ 3.52860498e+00, 3.67345631e-01, 3.86728144e+00 ]
      - [ 1.83398700e+00, 3.86846691e-01, 3.52980518e+00 ]
      - [ 2.09432149e+00, 3.64265412e-01, 3.83275151e+00 ]
      - [ 1.94086599e+00, 4.29506183e-01, 3.22494125e+00 ]
      - [ 2.90749454e+00, 3.28713566e-01, 4.28774261e+00 ]
      - [ 1.38618934e+00, 4.24541205e-01, 3.21104765e+00 ]
      - [ 1.51367879e+00, 7.04689741e-01, 2.32798719e+00 ]
      - [ 1.32801282e+00, 4.09877777e-01, 3.46206570e+00 ]
      - [ 2.84518433e+00, 3.42266887e-01, 4.02570534e+00 ]
      - [ 1.89820707e+00, 3.62975895e-01, 3.70583868e+00 ]
      - [ 6.09245491e+00, 5.99930227e-01, 2.59942198e+00 ]
      - [ 1.62096524e+00, 6.81187928e-01, 2.25974536e+00 ]
      - [ 1.71464264e+00, 3.22810799e-01, 4.36971426e+00 ]
      - [ 1.99543762e+00, 3.90345305e-01, 3.60321832e+00 ]
      - [ 1.84956586e+00, 3.50771397e-01, 3.97244120e+00 ]
      - [ 1.91170967e+00, 3.70602429e-01, 3.69783473e+00 ]
      - [ 1.65004873e+00, 3.73140603e-01, 3.79121709e+00 ]
      - [ 1.66155434e+00, 3.54059219e-01, 3.98196936e+00 ]
      - [ 1.49090791e+00, 3.64726603e-01, 3.98693538e+00 ]
      - [ 1.72549546e+00, 3.80012125e-01, 3.57443261e+00 ]
      - [ 1.63171875e+00, 3.83531332e-01, 3.54516339e+00 ]
      - [ 1.75615907e+00, 4.71163511e-01, 3.13396621e+00 ]
      - [ 2.36701989e+00, 3.81067693e-01, 3.71660781e+00 ]
      - [ 1.55351317e+00, 4.27078277e-01, 3.26503730e+00 ]
      - [ 2.19931912e+00, 3.28892708e-01, 4.07516718e+00 ]
      - [ 1.43492889e+00, 5.55272639e-01, 2.88279462e+00 ]
      - [ 1.57589161e+00, 3.89256895e-01, 3.68280816e+00 ]
      - [ 1.76102865e+00, 3.87533516e-01, 3.57915831e+00 ]
      - [ 2.38588619e+00, 2.85814613e-01, 4.95543575e+00 ]
      - [ 3.05542302e+00, 3.30537200e-01, 4.23379755e+00 ]
      - [ 1.65128982e+00, 3.49147916e-01, 3.96866250e+00 ]
      - [ 1.86809754e+00, 3.83326858e-01, 3.65367055e+00 ]
      - [ 1.98826993e+00, 4.20030564e-01, 3.33555770e+00 ]
      - [ 4.08716393e+00, 3.88167471e-01, 3.66669035e+00 ]
      - [ 1.71029949e+00, 3.80982131e-01, 3.57792020e+00 ]
      - [ 2.17281699e+00, 3.94838035e-01, 3.58927536e+00 ]
      - [ 2.06169271e+00, 4.08349633e-01, 3.47565937e+00 ]
      - [ 1.62273550e+00, 3.63354027e-01, 3.86198807e+00 ]
      - [ 6.03115797e+00, 5.13562381e-01, 2.87502217e+00 ]
      - [ 1.61844337e+00, 4.33772981e-01, 3.26472425e+00 ]
      - [ 1.78424740e+00, 3.20351660e-01, 4.41656113e+00 ]
      - [ 1.78005445e+00, 3.93009126e-01, 3.52693725e+00 ]
      - [ 5.66441631e+00, 3.86737913e-01, 3.70796275e+00 ]
      - [ 1.37731612e+00, 7.56677687e-01, 2.11412287e+00 ]
      - [ 1.64181077e+00, 3.94123703e-01, 3.60488272e+00 ]
      - [ 4.00602961e+00, 3.36882383e-01, 4.24140310e+00 ]
      - [ 2.32031846e+00, 2.41333991e-01, 6.39412880e+00 ]
      - [ 1.78562677e+00, 3.74647528e-01, 3.74584937e+00 ]
      - [ 1.23270082e+00, 4.16817367e-01, 3.92893934e+00 ]
      - [ 1.56931806e+00, 3.76726508e-01, 3.75650740e+00 ]
      - [ 1.31959784e+00, 3.56268197e-01, 4.35746908e+00 ]
      - [ 3.10608006e+00, 2.68118948e-01, 5.23280668e+00 ]
      - [ 1.81874669e+00, 4.30790752e-01, 3.33952713e+00 ]
      - [ 1.56500399e+00, 4.14281189e-01, 3.40815210e+00 ]
      - [ 2.15762711e+00, 4.18463647e-01, 3.33338475e+00 ]
      - [ 2.04752612e+00, 3.86312157e-01, 3.61863303e+00 ]
      - [ 1.78236091e+00, 4.41769063e-01, 3.19494224e+00 ]
      - [ 1.99951279e+00, 4.19943750e-01, 3.39251542e+00 ]
      - [ 4.59719467e+00, 7.64813304e-01, 2.03033996e+00 ]
      - [ 1.67131352e+00, 3.85935605e-01, 3.50783181e+00 ]
      - [ 2.18520665e+00, 3.67800474e-01, 3.81816912e+00 ]
      - [ 1.47323382e+00, 2.83772349e-01, 5.10693264e+00 ]
      - [ 1.84381902e+00, 3.60964090e-01, 3.83734131e+00 ]
      - [ 1.86837411e+00, 4.04126137e-01, 3.36431742e+00 ]
      - [ 1.65540588e+00, 4.14188623e-01, 3.42024207e+00 ]
      - [ 2.29033709e+00, 6.05098724e-01, 2.57006645e+00 ]
      - [ 1.40863335e+00, 4.01423663e-01, 3.40685678e+00 ]
      - [ 3.30797434e+00, 3.71207952e-01, 3.69105482e+00 ]
      - [ 2.58084750e+00, 3.62443894e-01, 3.83186364e+00 ]
      - [ 3.15027905e+00, 9.08983350e-01, 1.80271363e+00 ]
      - [ 1.65475810e+00, 3.82932246e-01, 3.56751490e+00 ]
      - [ 1.47378838e+00, 4.30043429e-01, 3.35393977e+00 ]
      - [ 1.58993769e+00, 4.12985772e-01, 3.50040126e+00 ]
      - [ 2.28555298e+00, 3.46603930e-01, 3.92072392e+00 ]
      - [ 1.88943195e+00, 3.68159205e-01, 3.72028852e+00 ]
      - [ 1.62301636e+00, 3.80694687e-01, 3.71161938e+00 ]
      - [ 1.82565999e+00, 4.46212888e-01, 3.25623131e+00 ]
      - [ 2.30616403e+00, 4.10864890e-01, 3.34140563e+00 ]
      - [ 2.79633045e+00, 4.92755920e-01, 2.85850120e+00 ]
      - [ 1.91433477e+00, 3.77742231e-01, 3.67461991e+00 ]
      - [ 2.51673269e+00, 3.43449712e-01, 3.94031072e+00 ]
      - [ 1.32707357e+00, 3.92997891e-01, 4.06326914e+00 ]
      - [ 2.46042037e+00, 3.51618737e-01, 3.97267985e+00 ]
      - [ 2.05812597e+00, 4.00509298e-01, 3.52344871e+00 ]
      - [ 2.21097708e+00, 3.62607181e-01, 3.78175926e+00 ]
      - [ 1.49482906e+00, 4.09533292e-01, 3.44183731e+00 ]
      - [ 1.71038353e+00, 4.57108289e-01, 3.09662080e+00 ]
      - [ 2.28860378e+00, 2.53527135e-01, 5.96392918e+00 ]
      - [ 1.83608294e+00, 3.74787331e-01, 3.66079473e+00 ]
      - [ 1.57210529e+00, 3.95514280e-01, 3.61234832e+00 ]
      - [ 1.72059321e+00, 4.26740885e-01, 3.30677509e+00 ]
      - [ 1.96006513e+00, 3.65368813e-01, 3.76074243e+00 ]
      - [ 1.91135824e+00, 3.92166406e-01, 3.55840611e+00 ]
      - [ 1.78448009e+00, 4.69878614e-01, 3.16176677e+00 ]
      - [ 2.30039215e+00, 3.90724391e-01, 3.64863682e+00 ]
      - [ 2.24572277e+00, 3.90673965e-01, 3.62838364e+00 ]
      - [ 1.36466277e+00, 3.99958670e-01, 3.79527116e+00 ]
      - [ 1.60168970e+00, 4.20466363e-01, 3.32968020e+00 ]
      - [ 1.59918618e+00, 3.71001959e-01, 3.75032640e+00 ]
      - [ 2.06639719e+00, 3.15903485e-01, 4.36323690e+00 ]
      - [ 1.06428158e+00, 1.93423316e-01, 7.77463722e+00 ]
      - [ 1.56387663e+00, 4.12742645e-01, 3.40274167e+00 ]
      - [ 1.82203138e+00, 4.44933027e-01, 3.21350026e+00 ]
      - [ 1.98607457e+00, 4.44228500e-01, 3.26419306e+00 ]
      - [ 1.08793199e+00, 2.66850024e-01, 6.14039707e+00 ]
      - [ 1.81785178e+00, 3.73808891e-01, 3.75365138e+00 ]
      - [ 1.97761524e+00, 3.91855925e-01, 3.59326863e+00 ]
      - [ 1.55480444e+00, 3.50401103e-01, 3.90498257e+00 ]
      - [ 2.04007435e+00, 3.88012052e-01, 3.55374122e+00 ]
      - [ 2.23541236e+00, 4.04582739e-01, 3.52711344e+00 ]
      - [ 2.03760552e+00, 3.91396046e-01, 3.58576632e+00 ]
      - [ 1.67239881e+00, 4.17732894e-01, 3.38143754e+00 ]
      - [ 1.98568130e+00, 4.41310257e-01, 3.19714093e+00 ]
      - [ 2.47562385e+00, 3.79822671e-01, 3.70451164e+00 ]
      - [ 1.93978238e+00, 4.73500550e-01, 3.11348462e+00 ]
      - [ 2.27235579e+00, 2.83715010e-01, 4.81605291e+00 ]
      - [ 1.72496116e+00, 4.02047396e-01, 3.49425936e+00 ]
      - [ 2.20929265e+00, 3.78918916e-01, 3.69321680e+00 ]
      - [ 2.24567580e+00, 3.59466255e-01, 3.83184099e+00 ]
      - [ 1.77046752e+00, 3.80809456e-01, 3.68174481e+00 ]
      - [ 1.22658181e+00, 4.09770221e-01, 3.93759775e+00 ]
      - [ 3.58765769e+00, 4.31902528e-01, 3.34341598e+00 ]
      - [ 1.78154314e+00, 3.57657194e-01, 3.82297277e+00 ]
      - [ 2.28699493e+00, 4.36294883e-01, 3.30681705e+00 ]
      - [ 1.65930653e+00, 4.19740945e-01, 3.32667613e+00 ]
      - [ 2.19939256e+00, 7.87869990e-01, 2.01484442e+00 ]
      - [ 1.73777735e+00, 3.81166548e-01, 3.59779525e+00 ]
      - [ 1.40299571e+00, 4.45709378e-01, 3.16726398e+00 ]
      - [ 1.67524934e+00, 4.53471959e-01, 3.24272060e+00 ]
      - [ 1.70205641e+00, 3.93201619e-01, 3.58550572e+00 ]
      - [ 1.72612429e+00, 3.92034948e-01, 3.56780481e+00 ]
      - [ 1.76673985e+00, 3.76892984e-01, 3.69715142e+00 ]
      - [ 2.35015202e+00, 4.50620443e-01, 3.20303631e+00 ]
      - [ 3.00229001e+00, 4.15342391e-01, 3.47463012e+00 ]
      - [ 3.97443175e+00, 1.30217910e-01, 1.21294832e+01 ]
      - [ 1.60734141e+00, 4.48626935e-01, 3.09404111e+00 ]
      - [ 2.03609920e+00, 3.76503706e-01, 3.72523570e+00 ]
      - [ 4.02294970e+00, 3.31137627e-01, 4.25111198e+00 ]
      - [ 2.03265834e+00, 4.10438299e-01, 3.40835238e+00 ]
      - [ 1.44524968e+00, 3.99358720e-01, 3.51573753e+00 ]
      - [ 1.70213008e+00, 5.30529797e-01, 2.89314437e+00 ]
      - [ 2.82963872e+00, 3.44994754e-01, 3.96935868e+00 ]
      - [ 2.46252179e+00, 4.32576329e-01, 3.27957630e+00 ]
      - [ 3.64171243e+00, 3.79040003e-01, 3.69648075e+00 ]
      - [ 2.62327385e+00, 4.41113025e-01, 3.28750753e+00 ]
      - [ 1.53746283e+00, 4.57026333e-01, 3.30809212e+00 ]
      - [ 1.76452637e+00, 4.40730512e-01, 3.22668338e+00 ]
      - [ 2.24268818e+00, 3.81528467e-01, 3.66371179e+00 ]
      - [ 1.83766508e+00, 3.90419900e-01, 3.56914139e+00 ]
      - [ 1.41262496e+00, 3.85230482e-01, 3.62898803e+00 ]
      - [ 1.50749052e+00, 4.12537515e-01, 3.46988630e+00 ]
      - [ 1.90311515e+00, 3.65613550e-01, 3.75574112e+00 ]
      - [ 2.24018168e+00, 4.18591738e-01, 3.42039013e+00 ]
      - [ 1.29708457e+00, 2.92229503e-01, 4.86762285e+00 ]
      - [ 1.95987403e+00, 7.43393421e-01, 2.16206098e+00 ]
      - [ 2.05300641e+00, 3.96970809e-01, 3.52719879e+00 ]
      - [ 1.77266908e+00, 3.93374085e-01, 3.59656310e+00 ]
      - [ 1.66952991e+00, 3.72768015e-01, 3.76723838e+00 ]
      - [ 1.42209160e+00, 3.92390162e-01, 3.55633521e+00 ]
      - [ 2.46770740e+00, 1.01737571e+00, 1.66729832e+00 ]
      - [ 2.58415937e+00, 6.33451402e-01, 2.43382287e+00 ]
      - [ 1.69632745e+00, 4.15008157e-01, 3.36162734e+00 ]
      - [ 1.87447619e+00, 3.71937931e-01, 3.72476578e+00 ]
      - [ 1.33222520e+00, 3.86560500e-01, 3.65732336e+00 ]
      - [ 3.39841747e+00, 6.91376567e-01, 2.31440043e+00 ]
      - [ 2.30909157e+00, 3.69447380e-01, 3.79279900e+00 ]
      - [ 1.41342652e+00, 3.83470863e-01, 3.68945193e+00 ]
      - [ 3.17797112e+00, 5.16814470e-01, 2.87420535e+00 ]
      - [ 1.90939796e+00, 3.64035666e-01, 3.81109309e+00 ]
      - [ 1.53032196e+00, 4.01104867e-01, 3.56407762e+00 ]
      - [ 1.52237058e+00, 4.50197995e-01, 3.15013695e+00 ]
      - [ 1.53099632e+00, 4.00646240e-01, 3.58673406e+00 ]
      - [ 5.75856733e+00, 3.87918055e-01, 3.57375002e+00 ]
      - [ 1.66454279e+00, 3.81115258e-01, 3.67387080e+00 ]
      - [ 1.41554892e+00, 3.76935124e-01, 3.82794929e+00 ]
      - [ 1.81128085e+00, 3.94319445e-01, 3.55433989e+00 ]
      - [ 4.75622463e+00, 4.91448373e-01, 2.84643292e+00 ]
      - [ 2.37544584e+00, 6.73801363e-01, 2.30933762e+00 ]
      - [ 2.67699766e+00, 1.64305478e-01, 1.01856022e+01 ]
      - [ 1.98054051e+00, 3.95957083e-01, 3.49265599e+00 ]
      - [ 1.44792891e+00, 2.17970237e-01, 7.34345150e+00 ]
      - [ 1.53461945e+00, 3.99682641e-01, 3.50151014e+00 ]
      - [ 1.60338068e+00, 4.12142098e-01, 3.35333991e+00 ]
      - [ 2.32417178e+00, 3.68190050e-01, 3.67939854e+00 ]
      - [ 2.34077525e+00, 5.19662678e-01, 2.91312599e+00 ]
      - [ 7.89096546e+00, 4.68304187e-01, 3.05158091e+00 ]
      - [ 2.29972100e+00, 3.39396954e-01, 4.05180454e+00 ]
      - [ 1.24697435e+00, 3.42492580e-01, 4.49642515e+00 ]
      - [ 2.22370696e+00, 3.65154386e-01, 3.72910523e+00 ]
      - [ 1.78212965e+00, 4.06826973e-01, 3.47076392e+00 ]
      - [ 1.52403641e+00, 3.93788844e-01, 3.67910790e+00 ]
      - [ 2.45157385e+00, 4.18096572e-01, 3.43005824e+00 ]
      - [ 3.03668785e+00, 3.99651855e-01, 3.62937665e+00 ]
      - [ 2.51660204e+00, 3.81662548e-01, 3.66836238e+00 ]
      - [ 2.77391481e+00, 3.83188635e-01, 3.73870635e+00 ]
      - [ 2.04503536e+00, 3.42371732e-01, 4.02633524e+00 ]
      - [ 2.28694272e+00, 3.34577352e-01, 4.07083941e+00 ]
      - [ 1.10427523e+00, 5.13141692e-01, 2.83191371e+00 ]
      - [ 1.84997845e+00, 4.29507881e-01, 3.33994675e+00 ]
      - [ 2.75233650e+00, 5.68786800e-01, 2.65216327e+00 ]
      - [ 1.85162735e+00, 3.87289673e-01, 3.61481047e+00 ]
      - [ 1.98188698e+00, 4.24735785e-01, 3.30030966e+00 ]
      - [ 1.66584790e+00, 4.26212430e-01, 3.33872294e+00 ]
      - [ 1.60295534e+00, 3.49436253e-01, 3.99483228e+00 ]
      - [ 5.47640705e+00, 8.72055948e-01, 1.84422529e+00 ]
      - [ 2.95872402e+00, 3.57256621e-01, 3.95063138e+00 ]
      - [ 1.17487109e+00, 3.81696433e-01, 3.57707453e+00 ]
      - [ 1.78902733e+00, 3.42399150e-01, 3.93812776e+00 ]
      - [ 2.22810221e+00, 3.81687164e-01, 3.66760135e+00 ]
      - [ 1.65866649e+00, 4.04468685e-01, 3.49231219e+00 ]
      - [ 1.19227958e+00, 3.06564748e-01, 4.95450497e+00 ]
      - [ 1.98826766e+00, 3.93887490e-01, 3.57433152e+00 ]
      - [ 1.56839740e+00, 3.95746231e-01, 3.59145546e+00 ]
      - [ 9.80048180e+00, 5.86627066e-01, 2.50703359e+00 ]
      - [ 2.00338411e+00, 3.75696301e-01, 3.67499042e+00 ]
      - [ 1.63708448e+00, 3.80871236e-01, 3.62465954e+00 ]
      - [ 1.54359484e+00, 3.74457151e-01, 3.71168017e+00 ]
      - [ 1.02726948e+00, 3.65772903e-01, 3.88859630e+00 ]
      - [ 2.03715777e+00, 4.70034748e-01, 3.14373994e+00 ]
      - [ 1.53604782e+00, 3.99451494e-01, 3.49490118e+00 ]
      - [ 1.75817502e+00, 4.29644436e-01, 3.30029106e+00 ]
      - [ 1.79733860e+00, 3.39384198e-01, 4.15181398e+00 ]
      - [ 2.31764889e+00, 4.60103691e-01, 3.23780060e+00 ]
      - [ 1.46720672e+00, 3.65016252e-01, 3.78267741e+00 ]
      - [ 1.92597055e+00, 4.08115387e-01, 3.45648241e+00 ]
      - [ 2.81856728e+00, 4.77396518e-01, 3.06453729e+00 ]
      - [ 1.41027546e+00, 5.42158663e-01, 2.90210485e+00 ]
      - [ 2.58878303e+00, 3.78376812e-01, 3.76780653e+00 ]
      - [ 1.84847414e+00, 4.07400578e-01, 3.41654634e+00 ]
      - [ 2.78293705e+00, 4.96091515e-01, 3.12020946e+00 ]
      - [ 1.67895365e+00, 4.01076734e-01, 3.48843813e+00 ]
      - [ 4.87903118e+00, 5.13749719e-01, 3.00751090e+00 ]
      - [ 2.15326738e+00, 3.41832072e-01, 4.09715128e+00 ]
      - [ 1.67014301e+00, 4.41375822e-01, 3.21270752e+00 ]
      - [ 1.59796691e+00, 4.49856371e-01, 3.16137385e+00 ]
      - [ 6.87626553e+00, 3.43493342e-01, 4.34099340e+00 ]
      - [ 2.16341972e+00, 5.89266598e-01, 2.60269642e+00 ]
      - [ 1.62772024e+00, 4.10687715e-01, 3.50946569e+00 ]
      - [ 1.56174242e+00, 3.37724864e-01, 4.16930389e+00 ]
      - [ 1.68424368e+00, 3.70815784e-01, 3.77178478e+00 ]
      - [ 1.59456706e+00, 3.88051629e-01, 3.56048465e+00 ]
      - [ 1.92646587e+00, 4.77158219e-01, 3.06381512e+00 ]
      - [ 2.03605199e+00, 4.23382550e-01, 3.38757157e+00 ]
      - [ 2.56556892e+00, 1.98594555e-01, 7.79823065e+00 ]
      - [ 2.07987046e+00, 6.20856524e-01, 2.52126098e+00 ]
      - [ 4.89518833e+00, 3.53030175e-01, 4.02298641e+00 ]
      - [ 2.84473848e+00, 4.52278584e-01, 3.15785789e+00 ]
      - [ 1.57625210e+00, 3.76565546e-01, 3.80385566e+00 ]
      - [ 2.16710258e+00, 3.94474983e-01, 3.40571237e+00 ]
      - [ 1.91009092e+00, 4.15716797e-01, 3.43344021e+00 ]
      - [ 1.95401371e+00, 3.82010549e-01, 3.67053390e+00 ]
      - [ 2.32862449e+00, 2.95166075e-01, 4.73487759e+00 ]
      - [ 3.72788453e+00, 3.54442149e-01, 3.82413483e+00 ]
      - [ 2.18698883e+00, 4.35243726e-01, 3.36297965e+00 ]
      - [ 1.95748246e+00, 4.03446853e-01, 3.53816247e+00 ]
      - [ 1.98873067e+00, 3.73377979e-01, 3.69986439e+00 ]
      - [ 1.88292670e+00, 3.70579928e-01, 3.78603768e+00 ]
      - [ 2.25866413e+00, 3.61510992e-01, 3.81285334e+00 ]
      - [ 2.03624606e+00, 3.98850769e-01, 3.57786345e+00 ]
      - [ 2.28006244e+00, 4.19841498e-01, 3.41226745e+00 ]
      - [ 2.12221622e+00, 3.58793795e-01, 3.71141982e+00 ]
      - [ 2.39020944e+00, 3.67072612e-01, 3.82577896e+00 ]
      - [ 4.90827799e+00, 7.78979719e-01, 2.03176045e+00 ]
      - [ 2.01025772e+00, 4.18451041e-01, 3.37627649e+00 ]
      - [ 2.25376749e+00, 4.30664390e-01, 3.35627174e+00 ]
      - [ 2.50685596e+00, 5.70283175e-01, 2.62350512e+00 ]
      - [ 1.86860025e+00, 3.95233691e-01, 3.51044750e+00 ]
      - [ 4.95703840e+00, 8.80993128e-01, 1.82846129e+00 ]
      - [ 1.45121527e+00, 3.97202462e-01, 3.45403719e+00 ]
      - [ 1.68923140e+00, 3.88124913e-01, 3.63748813e+00 ]
      - [ 2.16035557e+00, 3.74689668e-01, 3.75613880e+00 ]
      - [ 1.19684339e+00, 4.10034239e-01, 3.32876754e+00 ]
      - [ 2.12066603e+00, 3.54968607e-01, 3.93930173e+00 ]
      - [ 2.06244731e+00, 3.60642284e-01, 3.84384298e+00 ]
      - [ 3.03035855e+00, 7.88060427e-01, 2.04256248e+00 ]
      - [ 1.54663527e+00, 4.10604328e-01, 3.36665440e+00 ]
      - [ 2.91445422e+00, 2.97612339e-01, 4.60858727e+00 ]
      - [ 1.76051950e+00, 3.70349407e-01, 3.77739549e+00 ]
      - [ 1.34983099e+00, 4.05765414e-01, 3.61455035e+00 ]
      - [ 1.47362602e+00, 4.10896808e-01, 3.30768251e+00 ]
      - [ 1.44542944e+00, 4.08603519e-01, 3.47022820e+00 ]
      - [ 1.99727273e+00, 8.50420833e-01, 1.83585811e+00 ]
      - [ 1.53431201e+00, 3.82783026e-01, 3.73555708e+00 ]
      - [ 1.17246819e+00, 7.33039677e-01, 2.04883552e+00 ]
      - [ 2.56272697e+00, 3.66139978e-01, 3.83788395e+00 ]
      - [ 1.76603699e+00, 3.64250243e-01, 3.73338509e+00 ]
      - [ 1.73075676e+00, 3.39050621e-01, 4.07526922e+00 ]
      - [ 1.86712003e+00, 4.04749602e-01, 3.45773411e+00 ]
      - [ 2.36878753e+00, 4.33961242e-01, 3.37447596e+00 ]
      - [ 3.54733348e+00, 6.67511582e-01, 2.28718090e+00 ]
      - [ 6.29188776e+00, 4.80272293e-01, 3.16320300e+00 ]
      - [ 1.91764915e+00, 3.85996461e-01, 3.58575296e+00 ]
      - [ 1.77054965e+00, 3.73188972e-01, 3.70126462e+00 ]
      - [ 1.64365137e+00, 4.16335642e-01, 3.46927643e+00 ]
      - [ 2.26043701e+00, 3.68137687e-01, 3.76393223e+00 ]
      - [ 2.78591609e+00, 3.65850210e-01, 3.78928065e+00 ]
      - [ 3.76676130e+00, 4.89243984e-01, 2.90184093e+00 ]
      - [ 1.44847381e+00, 4.22126323e-01, 3.53291035e+00 ]
      - [ 2.40379906e+00, 3.61255944e-01, 3.89676189e+00 ]
      - [ 1.59352291e+00, 6.62888706e-01, 2.44011617e+00 ]
      - [ 1.58719409e+00, 6.34641886e-01, 2.44701052e+00 ]
      - [ 1.66113913e+00, 3.84127855e-01, 3.68650389e+00 ]
      - [ 2.48826075e+00, 3.59701723e-01, 3.92319417e+00 ]
      - [ 1.83428586e+00, 4.86584514e-01, 3.06996155e+00 ]
      - [ 1.74145353e+00, 3.59865338e-01, 3.84235024e+00 ]
      - [ 1.53605974e+00, 3.50905538e-01, 4.07652378e+00 ]
      - [ 2.32031274e+00, 3.76474530e-01, 3.66465735e+00 ]
      - [ 3.04172540e+00, 3.85450572e-01, 3.76646233e+00 ]
      - [ 5.15224981e+00, 4.44421977e-01, 3.32530189e+00 ]
      - [ 1.69182050e+00, 4.30076838e-01, 3.26893163e+00 ]
      - [ 2.67418432e+00, 7.69278288e-01, 2.04481316e+00 ]
      - [ 2.00388169e+00, 3.48147184e-01, 3.96235609e+00 ]
      - [ 2.07467270e+00, 2.83768654e-01, 5.31894827e+00 ]
      - [ 1.40921438e+00, 3.78656030e-01, 3.84535003e+00 ]
      - [ 2.27403069e+00, 4.11304593e-01, 3.51835155e+00 ]
      - [ 1.94614756e+00, 3.59072983e-01, 3.81277776e+00 ]
      - [ 1.77124119e+00, 4.17236626e-01, 3.40449739e+00 ]
      - [ 2.21902394e+00, 3.86814415e-01, 3.67505980e+00 ]
      - [ 2.33113098e+00, 4.82573658e-01, 3.09878159e+00 ]
      - [ 2.63045812e+00, 4.29988354e-01, 3.30418205e+00 ]
      - [ 1.61595523e+00, 3.56771827e-01, 3.85932922e+00 ]
      - [ 2.85185552e+00, 8.57324958e-01, 1.88207209e+00 ]
      - [ 1.48123837e+00, 4.13691819e-01, 3.51730847e+00 ]
      - [ 2.42157578e+00, 6.30261123e-01, 2.51385164e+00 ]
      - [ 1.84565187e+00, 4.35440302e-01, 3.30853701e+00 ]
      - [ 1.89659262e+00, 4.52211559e-01, 3.11051011e+00 ]
      - [ 1.53961885e+00, 3.46125305e-01, 4.33379793e+00 ]
      - [ 3.24658155e+00, 4.03172135e-01, 3.50214982e+00 ]
      - [ 1.42327952e+00, 3.84107798e-01, 3.75024557e+00 ]
      - [ 1.79648507e+00, 8.49062860e-01, 1.87949920e+00 ]
      - [ 1.26246750e+00, 2.20371336e-01, 6.42030478e+00 ]
      - [ 1.49411356e+00, 3.40779483e-01, 4.34825993e+00 ]
      - [ 1.73926675e+00, 4.39958304e-01, 3.27484369e+00 ]
      - [ 1.89578104e+00, 4.05553997e-01, 3.45545125e+00 ]
      - [ 2.37733102e+00, 3.59848112e-01, 3.81148863e+00 ]
      - [ 2.44565630e+00, 3.51966947e-01, 3.93994379e+00 ]
      - [ 1.32605577e+00, 3.69172037e-01, 3.88750958e+00 ]
      - [ 1.42968857e+00, 4.37039107e-01, 3.23508644e+00 ]
      - [ 1.44618678e+00, 3.91586810e-01, 3.66584873e+00 ]
      - [ 1.63674831e+00, 4.47817981e-01, 3.16186333e+00 ]
      - [ 1.32390475e+00, 4.26996171e-01, 3.55802107e+00 ]
      - [ 1.86046922e+00, 4.24134225e-01, 3.37673831e+00 ]
      - [ 1.80137384e+00, 3.78157049e-01, 3.68464828e+00 ]
      - [ 1.73275030e+00, 3.84901375e-01, 3.61084557e+00 ]
      - [ 2.03803706e+00, 3.72100413e-01, 3.68050718e+00 ]
      - [ 1.93524086e+00, 3.97577047e-01, 3.53927302e+00 ]
      - [ 1.50569904e+00, 3.03096443e-01, 4.83468580e+00 ]
      - [ 1.71292090e+00, 3.67618769e-01, 3.78327036e+00 ]
      - [ 1.86635482e+00, 3.84214997e-01, 3.64305544e+00 ]
      - [ 1.59976435e+00, 3.95652771e-01, 3.55119038e+00 ]
      - [ 7.52556133e+00, 3.74645948e-01, 4.03949165e+00 ]
      - [ 1.77217126e+00, 3.36598933e-01, 3.99422693e+00 ]
      - [ 1.63631928e+00, 4.06992942e-01, 3.36942720e+00 ]
      - [ 1.35973358e+00, 4.21234608e-01, 3.35269213e+00 ]
      - [ 2.82678056e+00, 7.05174148e-01, 2.25249553e+00 ]
      - [ 1.83612323e+00, 3.69370311e-01, 3.74278259e+00 ]
      - [ 1.26802301e+00, 5.60972154e-01, 2.94488001e+00 ]
      - [ 1.91550100e+00, 4.58457261e-01, 3.18298936e+00 ]
      - [ 7.36043549e+00, 5.35292089e-01, 2.87025571e+00 ]
      - [ 1.69838369e+00, 3.62720549e-01, 3.88817215e+00 ]
      - [ 1.69627905e+00, 4.10328507e-01, 3.49063611e+00 ]
      - [ 2.80299568e+00, 3.71134073e-01, 3.77541757e+00 ]
      - [ 7.86143208e+00, 5.67738950e-01, 2.64427590e+00 ]
      - [ 2.25450015e+00, 5.23409128e-01, 2.90730786e+00 ]
      - [ 2.42540717e+00, 7.96217799e-01, 2.00833464e+00 ]
      - [ 2.02443624e+00, 3.82219374e-01, 3.69195151e+00 ]
      - [ 1.40938759e+00, 3.73603493e-01, 4.16455889e+00 ]
      - [ 3.43126249e+00, 6.85297489e-01, 2.33800769e+00 ]
      - [ 2.27196050e+00, 4.04523462e-01, 3.48447061e+00 ]
      - [ 1.57386458e+00, 3.85143250e-01, 3.72195292e+00 ]
      - [ 1.41692984e+00, 3.99398953e-01, 3.59684014e+00 ]
      - [ 1.19001937e+00, 5.07700980e-01, 3.18918896e+00 ]
      - [ 4.93680096e+00, 6.85137749e-01, 2.19825315e+00 ]
      - [ 3.29449821e+00, 4.17732298e-01, 3.45800948e+00 ]
      - [ 1.94353569e+00, 3.99987310e-01, 3.52876949e+00 ]
      - [ 2.05007076e+00, 4.20663059e-01, 3.30463576e+00 ]
      - [ 1.90397775e+00, 3.31716806e-01, 4.12951899e+00 ]
      - [ 2.09497309e+00, 3.83575171e-01, 3.65069366e+00 ]
      - [ 1.52943385e+00, 3.73581320e-01, 3.68010020e+00 ]
      - [ 1.61594522e+00, 3.74484628e-01, 3.72180510e+00 ]
      - [ 1.32540858e+00, 4.64077890e-01, 3.46991467e+00 ]
      - [ 1.51256251e+00, 3.64106208e-01, 3.98847413e+00 ]
      - [ 1.55104625e+00, 3.82459074e-01, 3.67574668e+00 ]
      - [ 2.09582901e+00, 4.84373242e-01, 3.00407481e+00 ]
      - [ 1.58071351e+00, 2.65794575e-01, 5.60450983e+00 ]
      - [ 3.84272289e+00, 7.11225867e-01, 2.25162339e+00 ]
      - [ 1.88512254e+00, 3.48262370e-01, 3.90793371e+00 ]
      - [ 1.47864413e+00, 4.09785002e-01, 3.42198086e+00 ]
      - [ 1.77926350e+00, 4.06440735e-01, 3.29464865e+00 ]
      - [ 1.66492689e+00, 3.61789376e-01, 3.85136914e+00 ]
      - [ 1.88925970e+00, 3.01138073e-01, 4.70076561e+00 ]
      - [ 4.77192736e+00, 5.87903380e-01, 2.49910498e+00 ]
      - [ 2.14150143e+00, 4.76079613e-01, 3.11921811e+00 ]
      - [ 1.67770803e+00, 4.07920927e-01, 3.44534445e+00 ]
      - [ 1.85183072e+00, 4.82678741e-01, 3.09188008e+00 ]
      - [ 1.84391761e+00, 3.89457703e-01, 3.61661649e+00 ]
      - [ 1.38202894e+00, 3.88206542e-01, 3.53957915e+00 ]
      - [ 1.38345265e+00, 2.80266970e-01, 5.15646267e+00 ]
      - [ 1.90505564e+00, 6.04630470e-01, 2.58843756e+00 ]
      - [ 2.74802351e+00, 3.85411471e-01, 3.72769284e+00 ]
      - [ 1.38823247e+00, 4.31262463e-01, 3.27841282e+00 ]
      - [ 1.50437307e+00, 1.88837558e-01, 7.50151396e+00 ]
      - [ 1.80340397e+00, 4.05788571e-01, 3.39438915e+00 ]
      - [ 1.94385433e+00, 3.36944014e-01, 4.08726740e+00 ]
      - [ 3.39728880e+00, 7.73505032e-01, 2.09949088e+00 ]
      - [ 2.07653642e+00, 3.79663020e-01, 3.61808372e+00 ]
      - [ 1.79959440e+00, 4.35983211e-01, 3.28474259e+00 ]
      - [ 1.53666961e+00, 4.07505035e-01, 3.50945592e+00 ]
      - [ 2.39893508e+00, 4.37618822e-01, 3.37715530e+00 ]
      - [ 2.09135056e+00, 5.19427955e-01, 2.93766379e+00 ]
      - [ 1.30559349e+00, 4.18056399e-01, 3.77997589e+00 ]
      - [ 1.76646006e+00, 4.40926492e-01, 3.26609039e+00 ]
      - [ 1.79161227e+00, 7.92610228e-01, 1.99590158e+00 ]
      - [ 1.36066604e+00, 4.21484351e-01, 3.36464691e+00 ]
      - [ 3.28378725e+00, 4.01332110e-01, 3.65311766e+00 ]
      - [ 2.14386630e+00, 4.56720591e-01, 3.21493053e+00 ]
      - [ 4.14860725e+00, 4.12042379e-01, 3.34266710e+00 ]
      - [ 2.47446060e+00, 5.77047169e-01, 2.70675206e+00 ]
      - [ 2.94126582e+00, 4.50576305e-01, 3.14598155e+00 ]
      - [ 1.94939852e+00, 5.24843633e-01, 2.90749526e+00 ]
      - [ 1.80730081e+00, 3.91001195e-01, 3.58530235e+00 ]
      - [ 1.41624808e+00, 3.69389981e-01, 3.68162441e+00 ]
      - [ 6.07276201e+00, 6.90242648e-01, 2.34262252e+00 ]
      - [ 1.67476332e+00, 3.84488940e-01, 3.57101631e+00 ]
      - [ 1.17661524e+00, 2.44061545e-01, 6.42035866e+00 ]
      - [ 1.47634351e+00, 3.88288468e-01, 3.80002618e+00 ]
      - [ 2.22733974e+00, 6.11205995e-01, 2.56296349e+00 ]
      - [ 2.31447029e+00, 4.16395724e-01, 3.47873712e+00 ]
      - [ 1.92306912e+00, 4.04950202e-01, 3.42438459e+00 ]
      - [ 2.66273785e+00, 3.78374785e-01, 3.72851896e+00 ]
      - [ 1.50549424e+00, 3.87057811e-01, 3.70251989e+00 ]
      - [ 1.95564055e+00, 3.94397676e-01, 3.59673691e+00 ]
      - [ 1.53821290e+00, 4.09214258e-01, 3.53037405e+00 ]
      - [ 2.33774424e+00, 4.19388980e-01, 3.40071821e+00 ]
      - [ 1.61315358e+00, 4.00266200e-01, 3.47036791e+00 ]
      - [ 1.67564213e+00, 6.74252093e-01, 2.32805395e+00 ]
      - [ 2.83802152e+00, 5.24455011e-01, 2.86146545e+00 ]
      - [ 1.73008204e+00, 4.39222813e-01, 3.29940343e+00 ]
      - [ 2.40590906e+00, 3.95086080e-01, 3.51615310e+00 ]
      - [ 2.11561179e+00, 3.67458791e-01, 3.81972241e+00 ]
      - [ 2.02970958e+00, 3.79747272e-01, 3.57748055e+00 ]
      - [ 2.01512790e+00, 3.79469752e-01, 3.70652509e+00 ]
      - [ 1.93789709e+00, 8.15111458e-01, 2.01801896e+00 ]
      - [ 1.37566733e+00, 4.19212073e-01, 3.39723086e+00 ]
      - [ 1.60935521e+00, 3.59064281e-01, 3.94067860e+00 ]
      - [ 1.72729075e+00, 4.16118801e-01, 3.32757187e+00 ]
      - [ 1.76377416e+00, 3.34138006e-01, 4.12190914e+00 ]
      - [ 2.58306193e+00, 4.31938022e-01, 3.37130523e+00 ]
      - [ 1.79026294e+00, 3.51008713e-01, 3.96500945e+00 ]
      - [ 1.47504365e+00, 4.00289893e-01, 3.46373081e+00 ]
      - [ 1.53094578e+00, 4.14592534e-01, 3.42409730e+00 ]
      - [ 1.62015903e+00, 3.66176844e-01, 3.80505991e+00 ]
      - [ 1.70107245e+00, 4.24525172e-01, 3.25153470e+00 ]
      - [ 1.48089838e+00, 6.06954455e-01, 2.64471769e+00 ]
      - [ 1.86214507e+00, 4.28796083e-01, 3.35860014e+00 ]
      - [ 1.59713161e+00, 3.14300448e-01, 4.56214952e+00 ]
      - [ 2.11582708e+00, 3.79978657e-01, 3.62174582e+00 ]
      - [ 2.52559948e+00, 3.51470739e-01, 3.99950886e+00 ]
      - [ 1.74140072e+00, 6.14492595e-01, 2.55290556e+00 ]
      - [ 1.70128596e+00, 3.86013418e-01, 3.58759594e+00 ]
      - [ 1.85493219e+00, 2.88136393e-01, 5.01614141e+00 ]
      - [ 1.56743848e+00, 7.03521848e-01, 2.27777505e+00 ]
      - [ 4.84551573e+00, 5.89279056e-01, 2.64938498e+00 ]
      - [ 2.27468586e+00, 5.09253025e-01, 2.94444489e+00 ]
      - [ 2.11456919e+00, 3.77494812e-01, 3.69901776e+00 ]
      - [ 1.59128892e+00, 3.50428075e-01, 4.05390739e+00 ]
      - [ 2.08345199e+00, 3.36668193e-01, 4.04889584e+00 ]
      - [ 1.72057652e+00, 3.97463799e-01, 3.54561734e+00 ]
      - [ 1.64640629e+00, 3.79646808e-01, 3.74286914e+00 ]
      - [ 3.72582436e+00, 7.00833440e-01, 2.30186915e+00 ]
      - [ 1.80545843e+00, 5.08521020e-01, 2.99781728e+00 ]
      - [ 2.38817930e+00, 4.25909042e-01, 3.18663239e+00 ]
      - [ 1.92155635e+00, 3.83435339e-01, 3.70342565e+00 ]
      - [ 1.60911608e+00, 2.87246436e-01, 5.09126377e+00 ]
      - [ 1.84376848e+00, 3.35251093e-01, 4.16784573e+00 ]
      - [ 2.46078157e+00, 3.70886892e-01, 3.71377993e+00 ]
      - [ 1.82383335e+00, 3.25174063e-01, 4.27351093e+00 ]
      - [ 9.33224380e-01, 1.34457886e+00, 1.31096697e+00 ]
      - [ 2.13584566e+00, 3.44830215e-01, 4.09196711e+00 ]
      - [ 2.48685050e+00, 3.88999730e-01, 3.60445952e+00 ]
      - [ 2.12125397e+00, 4.66453046e-01, 2.96831727e+00 ]
      - [ 2.07322979e+00, 4.66377944e-01, 3.20591760e+00 ]
      - [ 1.98427641e+00, 3.97312790e-01, 3.64092255e+00 ]
      - [ 1.20083487e+00, 6.30809367e-01, 2.61794686e+00 ]
      - [ 2.49095297e+00, 6.11564875e-01, 2.60358262e+00 ]
      - [ 3.84565043e+00, 3.72613430e-01, 3.67816758e+00 ]
      - [ 2.38046980e+00, 6.88856781e-01, 2.31930637e+00 ]
      - [ 2.29543257e+00, 4.03702825e-01, 3.45542121e+00 ]
      - [ 1.88614321e+00, 4.93077099e-01, 3.31385493e+00 ]
      - [ 1.66231823e+00, 3.64609838e-01, 3.80604124e+00 ]
      - [ 2.08276725e+00, 3.52950275e-01, 3.88730669e+00 ]
      - [ 1.87410748e+00, 3.76010418e-01, 3.85349679e+00 ]
      - [ 1.58558667e+00, 3.87647241e-01, 3.73214841e+00 ]
      - [ 1.59767532e+00, 3.66441578e-01, 3.76140261e+00 ]
      - [ 1.73922527e+00, 3.98688823e-01, 3.65316558e+00 ]
      - [ 2.37832260e+00, 4.06340003e-01, 3.44873762e+00 ]
      - [ 2.31156707e+00, 3.66723925e-01, 3.72151423e+00 ]
      - [ 1.91318011e+00, 3.23514968e-01, 4.20780611e+00 ]
      - [ 1.84660983e+00, 3.41076672e-01, 4.00219965e+00 ]
      - [ 1.89660668e+00, 3.56531322e-01, 3.90595436e+00 ]
      - [ 1.94116783e+00, 3.95767480e-01, 3.61586809e+00 ]
      - [ 1.51980793e+00, 4.75566804e-01, 3.18843985e+00 ]
      - [ 1.91696441e+00, 4.59690124e-01, 3.48300409e+00 ]
      - [ 1.92198527e+00, 3.96683156e-01, 3.61450553e+00 ]
      - [ 2.03655314e+00, 4.42878693e-01, 3.23362064e+00 ]
      - [ 2.27713919e+00, 4.86232430e-01, 3.00656581e+00 ]
      - [ 2.19510412e+00, 4.38003004e-01, 3.31912017e+00 ]
      - [ 2.04130149e+00, 4.77563411e-01, 2.91110826e+00 ]
      - [ 2.17612123e+00, 7.04281569e-01, 2.28415489e+00 ]
      - [ 2.55661130e+00, 6.65752947e-01, 2.40805483e+00 ]
      - [ 2.32798743e+00, 3.38125288e-01, 4.19602203e+00 ]
      - [ 1.59034121e+00, 4.28578228e-01, 3.32718849e+00 ]
      - [ 2.09415770e+00, 3.58766884e-01, 3.89021325e+00 ]
      - [ 1.90891981e+00, 5.04011035e-01, 2.87354994e+00 ]
      - [ 1.79398930e+00, 3.50563347e-01, 3.90642548e+00 ]
      - [ 2.48657036e+00, 5.26854277e-01, 3.05411601e+00 ]
      - [ 1.85120606e+00, 4.75123256e-01, 3.19426274e+00 ]
      - [ 1.76889002e+00, 4.46239084e-01, 3.21217823e+00 ]
      - [ 1.84187925e+00, 5.11270583e-01, 2.89552784e+00 ]
      - [ 2.32767773e+00, 3.82975549e-01, 3.59380436e+00 ]
      - [ 2.51084948e+00, 3.70952249e-01, 3.69017601e+00 ]
      - [ 2.85108709e+00, 3.64319801e-01, 3.80319691e+00 ]
      - [ 1.92529821e+00, 3.67504537e-01, 3.82460237e+00 ]
      - [ 2.02539229e+00, 3.71293962e-01, 3.88202381e+00 ]
      - [ 2.00029063e+00, 3.92179072e-01, 3.64789581e+00 ]
      - [ 3.85202074e+00, 2.07143769e-01, 6.81883430e+00 ]
      - [ 2.49433017e+00, 4.85902995e-01, 3.14330745e+00 ]
      - [ 1.66989601e+00, 6.10486865e-01, 2.66038346e+00 ]
      - [ 2.50102949e+00, 5.99439859e-01, 2.58355093e+00 ]
      - [ 2.08747077e+00, 3.69309664e-01, 3.76751542e+00 ]
      - [ 1.99610054e+00, 4.76524204e-01, 3.07518053e+00 ]
      - [ 1.88073874e+00, 2.68166751e-01, 5.35059118e+00 ]
      - [ 1.97760546e+00, 3.29156160e-01, 4.36655617e+00 ]
      - [ 2.84142399e+00, 4.37831938e-01, 3.38541341e+00 ]
      - [ 2.33397746e+00, 6.96476400e-01, 2.28885055e+00 ]
      - [ 2.51329756e+00, 3.66234481e-01, 3.78360057e+00 ]
      - [ 1.90726388e+00, 3.53144526e-01, 4.05410910e+00 ]
      - [ 1.71471572e+00, 3.37509215e-01, 4.02712107e+00 ]
      - [ 1.98764408e+00, 3.33851874e-01, 4.22682476e+00 ]
      - [ 1.77552080e+00, 4.33161825e-01, 3.29351091e+00 ]
      - [ 1.70933640e+00, 3.47351015e-01, 3.98289514e+00 ]
      - [ 2.56944466e+00, 4.07374650e-01, 3.32827210e+00 ]
      - [ 2.23083019e+00, 3.35422099e-01, 4.27032280e+00 ]
      - [ 1.78819084e+00, 5.19436359e-01, 3.08523774e+00 ]
      - [ 1.56344247e+00, 4.34588611e-01, 3.21758389e+00 ]
      - [ 1.94803381e+00, 4.14987803e-01, 3.61942410e+00 ]
      - [ 1.78424263e+00, 4.49799538e-01, 3.15476108e+00 ]
      - [ 2.47639871e+00, 4.78405327e-01, 3.08270240e+00 ]
      - [ 1.33627439e+00, 6.38987541e-01, 2.36566639e+00 ]
      - [ 2.62249231e+00, 5.11102438e-01, 2.81601930e+00 ]
      - [ 1.80007219e+00, 3.71733636e-01, 3.85332656e+00 ]
      - [ 3.04909372e+00, 4.24316078e-01, 3.71575069e+00 ]
      - [ 2.07853961e+00, 4.26121175e-01, 3.35748100e+00 ]
      - [ 2.35170484e+00, 3.26579481e-01, 4.32886982e+00 ]
      - [ 2.17177701e+00, 2.63303936e-01, 5.73792601e+00 ]
      - [ 1.95800400e+00, 3.19081903e-01, 4.31713915e+00 ]
      - [ 1.67630744e+00, 3.77677411e-01, 3.71736908e+00 ]
      - [ 1.74819744e+00, 5.82853258e-01, 2.80805969e+00 ]
      - [ 2.51381373e+00, 3.98547679e-01, 3.55186343e+00 ]
      - [ 1.57813728e+00, 4.67283279e-01, 3.05792356e+00 ]
      - [ 2.16581321e+00, 4.51780438e-01, 3.21549630e+00 ]
      - [ 1.46441424e+00, 3.26262504e-01, 4.43193865e+00 ]
      - [ 1.92805505e+00, 4.17074949e-01, 3.61605954e+00 ]
      - [ 1.77649903e+00, 3.37368011e-01, 4.03427887e+00 ]
      - [ 1.47790277e+00, 3.53555173e-01, 3.99771690e+00 ]
      - [ 2.00442338e+00, 3.66507083e-01, 3.89957595e+00 ]
      - [ 2.10221100e+00, 4.39704537e-01, 3.17871332e+00 ]
      - [ 1.90238321e+00, 4.31553304e-01, 3.31604528e+00 ]
      - [ 1.58572233e+00, 4.27727818e-01, 3.57672882e+00 ]
      - [ 1.41774166e+00, 4.59518284e-01, 2.97440910e+00 ]
      - [ 1.88283932e+00, 3.37006956e-01, 4.09200621e+00 ]
      - [ 1.92986548e+00, 6.54741108e-01, 2.48168659e+00 ]
      - [ 1.48986483e+00, 3.50270122e-01, 3.94442010e+00 ]
      - [ 2.33768654e+00, 4.30775523e-01, 3.27729464e+00 ]
      - [ 1.06843472e+00, 4.01383370e-01, 3.43754196e+00 ]
      - [ 1.86590958e+00, 3.30878943e-01, 4.28901291e+00 ]
      - [ 1.79039729e+00, 4.31641459e-01, 3.38162470e+00 ]
      - [ 1.72396767e+00, 3.51289243e-01, 3.91923118e+00 ]
      - [ 2.47256517e+00, 3.20140958e-01, 4.58809710e+00 ]
      - [ 2.59360909e+00, 8.40981901e-01, 1.87272060e+00 ]
      - [ 2.48713517e+00, 6.82943106e-01, 2.37361145e+00 ]
      - [ 1.59068120e+00, 3.43417197e-01, 4.63898277e+00 ]
      - [ 2.24817228e+00, 4.35836941e-01, 3.32015467e+00 ]
      - [ 1.43166220e+00, 4.47886676e-01, 3.14038181e+00 ]
      - [ 1.95791101e+00, 3.32960397e-01, 4.11181688e+00 ]
      - [ 1.86292887e+00, 4.65564221e-01, 3.08206654e+00 ]
      - [ 3.37955260e+00, 3.58951658e-01, 3.81021738e+00 ]
      - [ 7.54330635e+00, 2.83768266e-01, 4.81966114e+00 ]
      - [ 2.08714104e+00, 3.68256986e-01, 3.78073549e+00 ]
      - [ 1.69712114e+00, 3.66211146e-01, 3.79702353e+00 ]
      - [ 3.17181492e+00, 6.36104882e-01, 2.55076289e+00 ]
      - [ 2.05364227e+00, 4.28290725e-01, 3.37143946e+00 ]
      - [ 1.66687584e+00, 3.41889262e-01, 4.00240993e+00 ]
      - [ 2.21719551e+00, 3.44744623e-01, 3.94648910e+00 ]
      - [ 2.08498621e+00, 4.42234516e-01, 3.29368162e+00 ]
      - [ 2.15313768e+00, 4.35193181e-01, 3.22768164e+00 ]
      - [ 2.00233269e+00, 4.70925689e-01, 3.18140244e+00 ]
      - [ 2.14438891e+00, 5.14086187e-01, 2.90886998e+00 ]
      - [ 2.30058503e+00, 4.01513606e-01, 3.57742620e+00 ]
      - [ 1.73119438e+00, 3.47920060e-01, 3.90787387e+00 ]
      - [ 5.51581383e+00, 3.88823718e-01, 3.75067687e+00 ]
      - [ 1.82365954e+00, 3.87881130e-01, 3.77445793e+00 ]
      - [ 2.38214922e+00, 3.79059643e-01, 3.59087896e+00 ]
      - [ 3.66062140e+00, 6.92355394e-01, 2.23791552e+00 ]
      - [ 1.82619429e+00, 3.65692973e-01, 3.83243823e+00 ]
      - [ 1.51233864e+00, 4.36093628e-01, 3.25503373e+00 ]
      - [ 1.82575965e+00, 4.56710607e-01, 3.07444382e+00 ]
      - [ 1.90536964e+00, 4.68389302e-01, 3.16409445e+00 ]
      - [ 2.54160523e+00, 5.06754816e-01, 2.90335608e+00 ]
      - [ 2.64709878e+00, 3.54674995e-01, 3.84696937e+00 ]
      - [ 2.17786360e+00, 4.86956060e-01, 3.12654495e+00 ]
      - [ 3.26369786e+00, 7.20873773e-01, 2.19569230e+00 ]
      - [ 1.68389297e+00, 4.50756043e-01, 3.19549870e+00 ]
      - [ 5.93594074e+00, 4.33663160e-01, 3.31732988e+00 ]
      - [ 1.63862979e+00, 3.96661848e-01, 3.58165288e+00 ]
      - [ 1.79700577e+00, 3.53447646e-01, 3.96093035e+00 ]
      - [ 2.53535199e+00, 6.85515463e-01, 2.30455685e+00 ]
      - [ 1.85920358e+00, 3.62625003e-01, 3.86871910e+00 ]
      - [ 1.92491353e+00, 3.44369829e-01, 3.92527342e+00 ]
      - [ 2.35582638e+00, 3.92948061e-01, 3.41066456e+00 ]
      - [ 1.91732430e+00, 4.74744946e-01, 3.00921488e+00 ]
      - [ 1.48725128e+00, 3.66033167e-01, 3.76525164e+00 ]
      - [ 2.24159622e+00, 3.40997666e-01, 3.95445371e+00 ]
      - [ 1.95022988e+00, 4.81775254e-01, 3.01257467e+00 ]
      - [ 2.10977411e+00, 3.63409579e-01, 3.84374619e+00 ]
      - [ 2.11285043e+00, 4.65413511e-01, 2.93514395e+00 ]
      - [ 4.54698372e+00, 5.57289064e-01, 2.64856029e+00 ]
      - [ 1.58566189e+00, 3.27491194e-01, 4.30484533e+00 ]
      - [ 1.88283491e+00, 3.67162764e-01, 3.81063414e+00 ]
      - [ 3.41572642e+00, 4.23890561e-01, 3.47692394e+00 ]
      - [ 1.62221074e+00, 3.81551236e-01, 3.69190407e+00 ]
      - [ 2.12018323e+00, 4.73508418e-01, 3.07079887e+00 ]
      - [ 2.05009651e+00, 4.58268881e-01, 3.11568570e+00 ]
      - [ 2.04152369e+00, 4.58234310e-01, 3.19389033e+00 ]
      - [ 2.06576347e+00, 3.64611536e-01, 3.84278417e+00 ]
      - [ 1.79571080e+00, 3.66155237e-01, 3.83493257e+00 ]
      - [ 1.94658756e+00, 3.53451550e-01, 3.99337196e+00 ]
      - [ 2.71994448e+00, 3.54085565e-01, 3.85018682e+00 ]
      - [ 1.82659757e+00, 4.35671329e-01, 3.30538487e+00 ]
      - [ 2.74312544e+00, 4.50187206e-01, 3.31218839e+00 ]
      - [ 1.93594337e+00, 3.07749182e-01, 4.60409546e+00 ]
      - [ 2.12677598e+00, 4.52087194e-01, 3.07525516e+00 ]
      - [ 1.74051869e+00, 3.54474843e-01, 3.84987807e+00 ]
      - [ 2.20461679e+00, 8.79260600e-01, 1.78878295e+00 ]
      - [ 2.27203631e+00, 4.47584748e-01, 3.06003070e+00 ]
      - [ 1.96989715e+00, 5.23707211e-01, 2.89970994e+00 ]
      - [ 2.27032161e+00, 3.79536837e-01, 3.70832562e+00 ]
      - [ 3.22852206e+00, 7.72829235e-01, 2.09517574e+00 ]
      - [ 1.44819427e+00, 3.89017314e-01, 3.57569385e+00 ]
      - [ 1.58585894e+00, 3.52762669e-01, 3.92288017e+00 ]
      - [ 1.52110326e+00, 3.39309871e-01, 4.00376987e+00 ]
      - [ 2.00107932e+00, 4.39205974e-01, 3.16142344e+00 ]
      - [ 4.46218920e+00, 8.63008261e-01, 1.89202237e+00 ]
      - [ 1.94053030e+00, 4.69023168e-01, 3.17637682e+00 ]
      - [ 1.66778064e+00, 3.47120732e-01, 3.99431181e+00 ]
      - [ 1.51297057e+00, 3.56181771e-01, 4.02284193e+00 ]
      - [ 1.59788609e+00, 3.40753764e-01, 4.11848211e+00 ]
      - [ 1.67895901e+00, 5.73796749e-01, 2.81986380e+00 ]
      - [ 2.77508569e+00, 4.50252622e-01, 3.18710971e+00 ]
      - [ 1.68221366e+00, 5.72839379e-01, 2.72639942e+00 ]
      - [ 1.63496077e+00, 3.35458636e-01, 4.29288483e+00 ]
      - [ 1.85428905e+00, 3.51970464e-01, 3.88913560e+00 ]
      - [ 2.06509829e+00, 3.90134007e-01, 3.66474104e+00 ]
      - [ 1.70205617e+00, 4.19643313e-01, 3.38353515e+00 ]
      - [ 2.20237899e+00, 5.11210084e-01, 2.88578081e+00 ]
      - [ 2.32067609e+00, 6.21481955e-01, 2.56158400e+00 ]
      - [ 2.55683708e+00, 6.71272933e-01, 2.36398602e+00 ]
      - [ 2.58048511e+00, 6.21923745e-01, 2.53328204e+00 ]
      - [ 1.78135073e+00, 3.69703263e-01, 3.82531810e+00 ]
      - [ 2.05760098e+00, 3.26227158e-01, 4.34766626e+00 ]
      - [ 2.59004354e+00, 3.44666302e-01, 4.02078962e+00 ]
      - [ 1.76508713e+00, 3.59751910e-01, 3.85319519e+00 ]
      - [ 1.59971440e+00, 4.66900527e-01, 3.23032188e+00 ]
      - [ 2.09960055e+00, 4.01753843e-01, 3.57596254e+00 ]
      - [ 2.21059465e+00, 7.67267168e-01, 2.10547400e+00 ]
      - [ 1.91679311e+00, 4.39248234e-01, 3.20813370e+00 ]
      - [ 1.91300404e+00, 3.40773612e-01, 4.17065954e+00 ]
      - [ 2.47221828e+00, 6.57913744e-01, 2.39113426e+00 ]
      - [ 1.54465246e+00, 3.71614456e-01, 3.74671698e+00 ]
      - [ 2.31006122e+00, 3.53482634e-01, 3.80404401e+00 ]
      - [ 1.74537647e+00, 3.39070231e-01, 3.98282290e+00 ]
      - [ 1.40565050e+00, 4.46761489e-01, 3.11157346e+00 ]
      - [ 1.78187370e+00, 4.40398932e-01, 3.34322119e+00 ]
      - [ 2.60044789e+00, 4.19948906e-01, 3.36583495e+00 ]
      - [ 2.21235585e+00, 4.21087325e-01, 3.29928422e+00 ]
      - [ 1.89052653e+00, 4.90870893e-01, 2.87936544e+00 ]
      - [ 1.54792559e+00, 3.52863163e-01, 3.84117436e+00 ]
      - [ 1.64538693e+00, 4.10788924e-01, 3.60089993e+00 ]
      - [ 2.12269378e+00, 3.41761082e-01, 4.11894608e+00 ]
      - [ 2.23297858e+00, 3.34775835e-01, 4.14442444e+00 ]
      - [ 2.18628263e+00, 4.73311543e-01, 3.25237846e+00 ]
      - [ 1.39818513e+00, 3.76061320e-01, 3.63254976e+00 ]
      - [ 2.16240311e+00, 4.00161564e-01, 3.64266491e+00 ]
      - [ 1.42918456e+00, 4.12013441e-01, 3.34194112e+00 ]
      - [ 1.78949261e+00, 3.94762933e-01, 3.64633560e+00 ]
      - [ 1.96300268e+00, 4.53197896e-01, 3.19403839e+00 ]
      - [ 2.93169475e+00, 4.63875383e-01, 2.98274422e+00 ]
      - [ 2.01691842e+00, 3.69558245e-01, 3.80940557e+00 ]
      - [ 1.73505616e+00, 3.43950182e-01, 4.02406025e+00 ]
      - [ 2.11830020e+00, 3.44910920e-01, 3.93165255e+00 ]
      - [ 2.26051688e+00, 4.04812604e-01, 3.52807426e+00 ]
      - [ 2.27242756e+00, 4.72967565e-01, 3.08479166e+00 ]
      - [ 2.15953326e+00, 4.06337202e-01, 3.48191738e+00 ]
      - [ 1.66805887e+00, 4.17807221e-01, 3.50098872e+00 ]
      - [ 1.55868793e+00, 2.39401549e-01, 6.76804781e+00 ]
      - [ 1.59662676e+00, 4.86329496e-01, 3.05702353e+00 ]
      - [ 2.56445718e+00, 3.83088738e-01, 3.46842694e+00 ]
      - [ 1.83099043e+00, 3.54001135e-01, 3.94264531e+00 ]
      - [ 1.75272298e+00, 4.63432401e-01, 2.93580484e+00 ]
      - [ 2.85561323e+00, 4.11772102e-01, 3.91984439e+00 ]
      - [ 1.65755332e+00, 4.11799878e-01, 3.50901341e+00 ]
      - [ 1.69589794e+00, 3.57056290e-01, 3.87349081e+00 ]
      - [ 1.88571060e+00, 3.93819243e-01, 3.63461566e+00 ]
      - [ 2.36419225e+00, 3.74507159e-01, 3.55324388e+00 ]
      - [ 3.39689422e+00, 9.04679596e-01, 1.82964015e+00 ]
      - [ 2.16780329e+00, 3.47431093e-01, 3.94246936e+00 ]
      - [ 2.21333694e+00, 6.21420741e-01, 2.59025121e+00 ]
      - [ 2.26577687e+00, 4.06750083e-01, 3.55164766e+00 ]
      - [ 4.92372179e+00, 3.78207445e-01, 4.00553989e+00 ]
      - [ 1.62115800e+00, 5.04714072e-01, 3.02645373e+00 ]
      - [ 1.74211645e+00, 4.39722389e-01, 3.18258142e+00 ]
      - [ 1.78174031e+00, 3.64075780e-01, 3.83557916e+00 ]
      - [ 2.02014065e+00, 4.50527638e-01, 3.13716030e+00 ]
      - [ 2.03659916e+00, 3.65639359e-01, 3.90773749e+00 ]
      - [ 2.00587177e+00, 4.10859615e-01, 3.76777291e+00 ]
      - [ 3.75744009e+00, 8.66805732e-01, 1.90195942e+00 ]
      - [ 1.88993859e+00, 4.55936611e-01, 3.13807106e+00 ]
      - [ 2.18034744e+00, 4.13846046e-01, 3.50373983e+00 ]
      - [ 1.82298470e+00, 4.61110383e-01, 3.15302253e+00 ]
      - [ 2.39045572e+00, 3.59000206e-01, 4.16297817e+00 ]
      - [ 2.63770723e+00, 3.03915024e-01, 4.71041870e+00 ]
      - [ 1.85234976e+00, 4.91582632e-01, 2.93685770e+00 ]
      - [ 2.00398707e+00, 3.62303853e-01, 4.00878239e+00 ]
      - [ 1.82656014e+00, 3.58295768e-01, 3.84656620e+00 ]
      - [ 1.37100160e+00, 4.52160388e-01, 3.08385921e+00 ]
      - [ 2.34032893e+00, 3.33757699e-01, 4.20981121e+00 ]
      - [ 2.73827124e+00, 3.62843335e-01, 3.89868093e+00 ]
      - [ 1.95510328e+00, 3.51871073e-01, 3.90412235e+00 ]
      - [ 2.17618680e+00, 4.42633033e-01, 3.10119057e+00 ]
      - [ 1.97678232e+00, 3.15241277e-01, 4.38393354e+00 ]
      - [ 2.51199555e+00, 3.58815163e-01, 3.94836974e+00 ]
      - [ 1.73976862e+00, 3.10836464e-01, 4.76496935e+00 ]
      - [ 2.33418274e+00, 3.66369545e-01, 3.68642282e+00 ]
      - [ 1.34907734e+00, 3.80928218e-01, 3.63736463e+00 ]
      - [ 1.77486444e+00, 3.73849809e-01, 3.75228620e+00 ]
      - [ 2.04922438e+00, 2.88240790e-01, 5.02034616e+00 ]
      - [ 2.29586005e+00, 3.81774426e-01, 3.69909716e+00 ]
      - [ 2.45461583e+00, 3.60864073e-01, 3.92902899e+00 ]
      - [ 1.81034708e+00, 3.67929786e-01, 3.88167644e+00 ]
      - [ 1.58082271e+00, 3.48477066e-01, 3.90228534e+00 ]
      - [ 2.56516171e+00, 3.45026195e-01, 4.07272911e+00 ]
      - [ 2.60644817e+00, 4.71192509e-01, 3.07681942e+00 ]
      - [ 2.54649258e+00, 5.11893928e-01, 2.83796310e+00 ]
      - [ 1.85647178e+00, 3.31990927e-01, 4.31493711e+00 ]
      - [ 1.47417986e+00, 4.57885206e-01, 3.27584887e+00 ]
      - [ 1.88530946e+00, 4.49503273e-01, 3.26548100e+00 ]
      - [ 1.88067997e+00, 3.42245460e-01, 3.99975443e+00 ]
      - [ 1.67316234e+00, 3.55415821e-01, 3.94178247e+00 ]
      - [ 1.94862533e+00, 4.35244352e-01, 3.26295543e+00 ]
      - [ 1.99745393e+00, 5.00081480e-01, 2.85805321e+00 ]
      - [ 1.67691600e+00, 3.49839032e-01, 3.96335220e+00 ]
      - [ 1.58208585e+00, 2.96400100e-01, 4.91232014e+00 ]
      - [ 1.64760125e+00, 3.43565136e-01, 3.99559522e+00 ]
      - [ 2.16837859e+00, 3.77442777e-01, 3.69112468e+00 ]
      - [ 1.98262680e+00, 4.53121990e-01, 3.39859653e+00 ]
      - [ 1.28288364e+00, 6.79351151e-01, 2.23742342e+00 ]
      - [ 1.91118848e+00, 4.42376822e-01, 3.13925314e+00 ]
      - [ 2.36118770e+00, 4.45308983e-01, 3.23568106e+00 ]
      - [ 2.41230893e+00, 4.65493530e-01, 3.16315579e+00 ]
      - [ 3.99020672e+00, 1.34351760e-01, 1.15482273e+01 ]
      - [ 2.07917047e+00, 9.59380865e-01, 1.72938514e+00 ]
      - [ 1.39474642e+00, 3.89679819e-01, 3.64869881e+00 ]
      - [ 1.38651848e+00, 2.28618190e-01, 7.12668276e+00 ]
      - [ 2.12122703e+00, 3.67763966e-01, 3.85552716e+00 ]
      - [ 2.44019198e+00, 3.66471827e-01, 3.79231358e+00 ]
      - [ 3.02491975e+00, 5.59847891e-01, 2.78288507e+00 ]
      - [ 2.47620940e+00, 5.23525238e-01, 3.09913349e+00 ]
      - [ 1.84684741e+00, 3.49315822e-01, 3.97207665e+00 ]
      - [ 2.05796790e+00, 3.45432699e-01, 3.93521714e+00 ]
      - [ 2.14545989e+00, 3.58034939e-01, 3.81163645e+00 ]
      - [ 2.05695033e+00, 3.85283679e-01, 3.69185638e+00 ]
      - [ 1.90409458e+00, 4.45393384e-01, 3.35370493e+00 ]
      - [ 1.59304905e+00, 3.63327533e-01, 3.83616281e+00 ]
      - [ 1.44662917e+00, 3.44083428e-01, 4.22059822e+00 ]
      - [ 2.36330771e+00, 3.89846236e-01, 3.56364703e+00 ]
      - [ 2.16309524e+00, 4.45763826e-01, 3.51975107e+00 ]
      - [ 2.29348564e+00, 6.54953420e-01, 2.48849392e+00 ]
      - [ 1.72527742e+00, 3.29685897e-01, 4.11670160e+00 ]
      - [ 2.07094884e+00, 4.67689902e-01, 3.10370684e+00 ]
      - [ 2.77946639e+00, 4.35716659e-01, 3.29542232e+00 ]
      - [ 1.63479137e+00, 4.59489435e-01, 3.18682623e+00 ]
      - [ 2.02476883e+00, 4.14318621e-01, 3.47125363e+00 ]
      - [ 2.10341620e+00, 3.64751309e-01, 3.80910826e+00 ]
      - [ 2.61911130e+00, 4.71564204e-01, 3.15472913e+00 ]
      - [ 2.54470825e+00, 3.75024289e-01, 3.56566167e+00 ]
      - [ 1.30682909e+00, 3.66213948e-01, 3.78660321e+00 ]
      - [ 1.65846753e+00, 4.98806328e-01, 2.96235967e+00 ]
      - [ 1.70701659e+00, 4.24613297e-01, 3.41413784e+00 ]
      - [ 2.01631308e+00, 2.63093263e-01, 5.38541794e+00 ]
      - [ 1.79844952e+00, 5.66332817e-01, 2.81000495e+00 ]
      - [ 1.76494741e+00, 3.55985969e-01, 4.01755428e+00 ]
      - [ 2.73594093e+00, 9.26383555e-01, 1.80091381e+00 ]
      - [ 2.76938558e+00, 4.74194020e-01, 3.06428838e+00 ]
      - [ 2.08226156e+00, 3.47725540e-01, 3.93391991e+00 ]
      - [ 1.85493028e+00, 3.63612831e-01, 3.92515755e+00 ]
      - [ 2.31238103e+00, 4.86931205e-01, 2.99801731e+00 ]
      - [ 2.07522535e+00, 4.38866973e-01, 3.24931264e+00 ]
      - [ 1.99948621e+00, 3.65120918e-01, 3.84745574e+00 ]
      - [ 2.98472595e+00, 6.49494350e-01, 2.46457529e+00 ]
      - [ 1.84150410e+00, 3.54097903e-01, 4.13717985e+00 ]
      - [ 1.79176974e+00, 4.94163156e-01, 2.97249603e+00 ]
      - [ 2.40092659e+00, 6.23060882e-01, 2.50223660e+00 ]
      - [ 1.99477410e+00, 3.44733059e-01, 3.96749640e+00 ]
      - [ 1.64956725e+00, 2.84665734e-01, 5.04740047e+00 ]
      - [ 2.67372799e+00, 6.07509494e-01, 2.62046075e+00 ]
      - [ 1.95026791e+00, 4.50924307e-01, 3.26004148e+00 ]
      - [ 2.28393912e+00, 3.59420270e-01, 3.87854409e+00 ]
      - [ 3.03329563e+00, 7.29062021e-01, 2.22422695e+00 ]
      - [ 1.75112236e+00, 3.54073405e-01, 4.03358603e+00 ]
      - [ 2.20535517e+00, 4.34934109e-01, 3.43463874e+00 ]
      - [ 2.15098834e+00, 4.22957242e-01, 3.37951779e+00 ]
      - [ 1.39749622e+00, 4.15729761e-01, 3.57672811e+00 ]
      - [ 2.25216508e+00, 4.57081854e-01, 3.21851397e+00 ]
      - [ 2.18752337e+00, 3.84600967e-01, 3.64483356e+00 ]
      - [ 1.55675185e+00, 4.49515373e-01, 3.25882053e+00 ]
      - [ 2.18983722e+00, 4.98535603e-01, 2.92831492e+00 ]
      - [ 2.33271027e+00, 3.42880368e-01, 4.02900553e+00 ]
      - [ 2.18160486e+00, 3.64782840e-01, 3.88930225e+00 ]
      - [ 2.17913008e+00, 4.44896013e-01, 3.22067213e+00 ]
      - [ 1.68309569e+00, 3.39884937e-01, 4.42010403e+00 ]
      - [ 2.21679235e+00, 6.78047419e-01, 2.37394285e+00 ]
      - [ 2.39233518e+00, 4.70371485e-01, 3.15914035e+00 ]
      - [ 1.98196399e+00, 3.44459832e-01, 3.97108889e+00 ]
      - [ 1.75446784e+00, 4.41602767e-01, 3.23889875e+00 ]
      - [ 2.01302075e+00, 5.46070516e-01, 2.95893240e+00 ]
      - [ 1.82850027e+00, 3.51611316e-01, 4.07512331e+00 ]
      - [ 1.60540533e+00, 4.09088224e-01, 3.44750142e+00 ]
      - [ 2.01580262e+00, 3.23248178e-01, 4.69400120e+00 ]
      - [ 1.40970302e+00, 8.15789998e-01, 1.98697305e+00 ]
      - [ 2.31162715e+00, 3.64215851e-01, 3.82918453e+00 ]
      - [ 1.56751728e+00, 3.51321608e-01, 3.85259056e+00 ]
      - [ 1.48137665e+00, 8.09987843e-01, 2.03684664e+00 ]
      - [ 2.03051090e+00, 4.53675508e-01, 2.94243574e+00 ]
      - [ 1.91234553e+00, 4.14850861e-01, 3.50777578e+00 ]
      - [ 2.25916338e+00, 4.37371314e-01, 3.22355843e+00 ]
      - [ 2.55152655e+00, 4.40101832e-01, 3.11593151e+00 ]
      - [ 1.69588375e+00, 3.45701009e-01, 3.88115168e+00 ]
      - [ 5.62505960e+00, 5.85572779e-01, 2.46369696e+00 ]
      - [ 2.01662326e+00, 3.46430838e-01, 3.91186857e+00 ]
      - [ 3.73372388e+00, 6.41535640e-01, 2.58717012e+00 ]
      - [ 2.00223184e+00, 4.89314854e-01, 3.00353456e+00 ]
      - [ 2.20251513e+00, 4.78602678e-01, 3.04634786e+00 ]
      - [ 2.18504119e+00, 5.35588145e-01, 3.01244688e+00 ]
      - [ 1.97137868e+00, 3.19417000e-01, 4.27958202e+00 ]
      - [ 1.81259358e+00, 4.71782148e-01, 3.15143251e+00 ]
      - [ 2.01132250e+00, 3.32296044e-01, 4.19190884e+00 ]
      - [ 1.74635303e+00, 3.21188211e-01, 4.90605116e+00 ]
      - [ 2.13044310e+00, 3.41158688e-01, 4.00929546e+00 ]
      - [ 2.13207984e+00, 3.50966841e-01, 3.94298363e+00 ]
      - [ 2.09240437e+00, 4.17473048e-01, 3.47626758e+00 ]
      - [ 2.56583095e+00, 5.88759005e-01, 2.68255663e+00 ]
      - [ 2.20282316e+00, 3.44588995e-01, 4.06662560e+00 ]
      - [ 1.48471963e+00, 5.08429408e-01, 3.05474997e+00 ]
      - [ 2.34470868e+00, 4.14331913e-01, 3.63706422e+00 ]
      - [ 2.79483557e+00, 4.76337522e-01, 3.15811110e+00 ]
      - [ 2.32028604e+00, 4.50523645e-01, 3.48329210e+00 ]
      - [ 1.77745473e+00, 3.93651068e-01, 3.72270989e+00 ]
      - [ 2.08794975e+00, 4.08298969e-01, 3.51752281e+00 ]
      - [ 2.97231054e+00, 3.52456897e-01, 3.81618667e+00 ]
      - [ 1.72104847e+00, 4.19202060e-01, 3.41445231e+00 ]
      - [ 2.44580722e+00, 3.29785883e-01, 4.14869976e+00 ]
      - [ 1.84457326e+00, 3.55787873e-01, 4.09827089e+00 ]
      - [ 1.63653231e+00, 3.77843678e-01, 3.72341394e+00 ]
      - [ 1.47868907e+00, 3.06775004e-01, 4.56293774e+00 ]
      - [ 1.62709534e+00, 3.44601482e-01, 4.04324961e+00 ]
      - [ 2.02221870e+00, 4.40119267e-01, 3.43960142e+00 ]
      - [ 1.71065903e+00, 5.19217253e-01, 3.05022883e+00 ]
      - [ 1.35626066e+00, 5.41781306e-01, 3.02249479e+00 ]
      - [ 2.34800768e+00, 3.53523523e-01, 3.82244587e+00 ]
      - [ 3.22699451e+00, 4.56617594e-01, 3.49992585e+00 ]
      - [ 3.57873344e+00, 6.33331478e-01, 2.50798893e+00 ]
      - [ 2.43993640e+00, 3.48322034e-01, 3.93451047e+00 ]
      - [ 2.24302983e+00, 4.39256579e-01, 3.18534589e+00 ]
      - [ 1.51993597e+00, 6.73796058e-01, 2.37526441e+00 ]
      - [ 3.98399210e+00, 1.89779744e-01, 7.54053497e+00 ]
      - [ 2.60941052e+00, 4.38592494e-01, 3.04617882e+00 ]
      - [ 1.34295702e+00, 4.04656351e-01, 3.49952483e+00 ]
      - [ 1.78342152e+00, 3.44907790e-01, 4.03391933e+00 ]
      - [ 2.19406295e+00, 4.41168666e-01, 3.66459394e+00 ]
      - [ 3.49195790e+00, 3.98620427e-01, 3.56672359e+00 ]
      - [ 1.96052432e+00, 6.05397105e-01, 2.53739476e+00 ]
      - [ 1.31036508e+00, 3.16173285e-01, 4.39632702e+00 ]
      - [ 2.24117637e+00, 3.78495544e-01, 3.65120864e+00 ]
      - [ 1.66538477e+00, 3.53436917e-01, 3.86852336e+00 ]
      - [ 1.58977723e+00, 4.18346137e-01, 3.40448427e+00 ]
      - [ 1.61357379e+00, 4.55694407e-01, 3.23441839e+00 ]
      - [ 1.54245389e+00, 3.85916978e-01, 3.67500234e+00 ]
      - [ 2.24927807e+00, 3.93186122e-01, 3.56026101e+00 ]
      - [ 2.25610304e+00, 4.42079127e-01, 3.26231980e+00 ]
      - [ 3.39146018e+00, 6.19285345e-01, 2.54638696e+00 ]
      - [ 1.50559294e+00, 3.86742622e-01, 3.58856368e+00 ]
      - [ 2.41414189e+00, 3.55698138e-01, 3.84148097e+00 ]
      - [ 1.64394045e+00, 8.94590855e-01, 1.74223733e+00 ]
      - [ 2.31090569e+00, 4.10031646e-01, 3.47603631e+00 ]
      - [ 1.79331136e+00, 4.47816998e-01, 3.12742162e+00 ]
      - [ 1.89441681e+00, 3.48804444e-01, 3.90589428e+00 ]
      - [ 2.36604834e+00, 3.98199618e-01, 3.49625254e+00 ]
      - [ 2.14891100e+00, 4.20988470e-01, 3.35258293e+00 ]
      - [ 1.84263492e+00, 4.45941359e-01, 3.12095785e+00 ]
      - [ 1.49392867e+00, 4.14244324e-01, 3.50422001e+00 ]
      - [ 2.27458310e+00, 4.00534540e-01, 3.45284295e+00 ]
      - [ 2.39523268e+00, 3.54228616e-01, 3.85517669e+00 ]
      - [ 2.20535970e+00, 4.68423575e-01, 3.12867904e+00 ]
      - [ 1.22915590e+00, 3.13171685e-01, 4.42118979e+00 ]
      - [ 1.78825796e+00, 3.63154233e-01, 3.90022349e+00 ]
      - [ 2.11582518e+00, 3.29712957e-01, 4.19744825e+00 ]
      - [ 2.46168756e+00, 3.37962151e-01, 4.03511000e+00 ]
      - [ 1.93648517e+00, 5.28561950e-01, 3.02049685e+00 ]
      - [ 1.99173450e+00, 8.38286698e-01, 1.97914755e+00 ]
      - [ 1.63223958e+00, 3.62491667e-01, 3.79758596e+00 ]
      - [ 1.88512492e+00, 3.23615938e-01, 4.27185678e+00 ]
      - [ 4.69983578e+00, 3.97238910e-01, 3.80940390e+00 ]
      - [ 4.06548834e+00, 7.90083826e-01, 2.01135802e+00 ]
      - [ 1.63885057e+00, 3.78037125e-01, 3.70866084e+00 ]
      - [ 1.49363947e+00, 3.91092241e-01, 3.55107141e+00 ]
      - [ 1.78513694e+00, 6.08362496e-01, 2.63827729e+00 ]
      - [ 1.73111093e+00, 4.09122854e-01, 3.55742908e+00 ]
      - [ 3.52231812e+00, 4.22613740e-01, 3.42442989e+00 ]
      - [ 1.93752480e+00, 3.89187306e-01, 3.78963709e+00 ]
      - [ 2.01475787e+00, 4.73360807e-01, 3.28526545e+00 ]
      - [ 2.38763237e+00, 4.49936062e-01, 3.15639734e+00 ]
      - [ 1.87069929e+00, 4.20495778e-01, 3.40323043e+00 ]
      - [ 1.89710760e+00, 3.19418758e-01, 4.22048521e+00 ]
      - [ 1.86904001e+00, 3.62795115e-01, 3.88961911e+00 ]
      - [ 1.72247696e+00, 3.32581729e-01, 4.22663021e+00 ]
      - [ 1.80476558e+00, 3.55038673e-01, 3.88694143e+00 ]
      - [ 9.27355480e+00, 4.79417950e-01, 3.09296060e+00 ]
      - [ 1.93487000e+00, 3.56313407e-01, 3.99977446e+00 ]
      - [ 2.51562357e+00, 3.37240368e-01, 4.00430155e+00 ]
      - [ 1.96194184e+00, 4.31999654e-01, 3.42042184e+00 ]
      - [ 1.78513467e+00, 3.48642975e-01, 3.89773297e+00 ]
      - [ 1.47576308e+00, 5.81567287e-01, 2.74059272e+00 ]
      - [ 1.87838173e+00, 3.82879317e-01, 3.76930499e+00 ]
      - [ 1.90831828e+00, 1.05183554e+00, 1.61826861e+00 ]
      - [ 2.17548418e+00, 3.60581309e-01, 3.88716650e+00 ]
      - [ 2.05125666e+00, 3.52468550e-01, 4.02089596e+00 ]
      - [ 2.22839499e+00, 4.62664008e-01, 3.20047212e+00 ]
      - [ 2.33794713e+00, 3.48531246e-01, 3.95691705e+00 ]
      - [ 2.98987079e+00, 4.07599181e-01, 3.44595265e+00 ]
      - [ 2.78156209e+00, 4.55869377e-01, 3.32099056e+00 ]
      - [ 1.73524570e+00, 3.57106477e-01, 3.92726398e+00 ]
      - [ 2.67269182e+00, 3.55338514e-01, 4.02556324e+00 ]
      - [ 1.68915844e+00, 3.50162983e-01, 3.90148330e+00 ]
      - [ 2.49441051e+00, 4.64805156e-01, 2.90354943e+00 ]
      - [ 1.99794614e+00, 3.53196114e-01, 3.88378143e+00 ]
      - [ 1.38163817e+00, 3.72055352e-01, 3.69021416e+00 ]
      - [ 2.24317384e+00, 3.88353407e-01, 3.57120609e+00 ]
      - [ 1.70391190e+00, 5.60221910e-01, 2.81301284e+00 ]
      - [ 1.27201915e+00, 3.59579951e-01, 3.77226830e+00 ]
      - [ 1.88469124e+00, 3.59996021e-01, 3.84341908e+00 ]
      - [ 2.37096477e+00, 3.54144126e-01, 3.86395073e+00 ]
      - [ 2.59929037e+00, 5.55369794e-01, 2.94179773e+00 ]
      - [ 1.84052169e+00, 4.53616589e-01, 3.01149845e+00 ]
      - [ 1.89510524e+00, 3.85514140e-01, 3.70901847e+00 ]
      - [ 2.13687420e+00, 3.42683613e-01, 4.01621819e+00 ]
      - [ 1.79566085e+00, 4.33935553e-01, 3.35259318e+00 ]
      - [ 4.45972729e+00, 3.77753615e-01, 3.70148301e+00 ]
      - [ 1.96790385e+00, 4.59869564e-01, 3.24470782e+00 ]
      - [ 1.56527126e+00, 3.37209940e-01, 4.08759165e+00 ]
      - [ 1.75665343e+00, 3.35647792e-01, 4.51513529e+00 ]
      - [ 2.20778894e+00, 3.68867815e-01, 3.81706810e+00 ]
      - [ 9.45849121e-01, 3.76632035e-01, 3.65514755e+00 ]
      - [ 5.43375826e+00, 3.95978093e-01, 3.53639555e+00 ]
      - [ 1.76623654e+00, 4.11913246e-01, 3.46736169e+00 ]
      - [ 2.10379505e+00, 3.28607738e-01, 4.05361843e+00 ]
      - [ 2.18207335e+00, 4.27671283e-01, 3.33154488e+00 ]
      - [ 1.47462165e+00, 4.68691438e-01, 3.20832276e+00 ]
      - [ 1.68963051e+00, 3.94572765e-01, 3.67046046e+00 ]
      - [ 2.37570906e+00, 3.83268744e-01, 3.67805696e+00 ]
      - [ 2.01228380e+00, 4.26444292e-01, 3.34660602e+00 ]
      - [ 1.87997961e+00, 3.24940771e-01, 4.29195881e+00 ]
      - [ 1.86726713e+00, 3.66731435e-01, 3.82746291e+00 ]
      - [ 2.30515075e+00, 3.88066351e-01, 3.53258252e+00 ]
      - [ 2.57186079e+00, 5.08722961e-01, 2.91279864e+00 ]
      - [ 1.43557954e+00, 3.47173154e-01, 3.83140159e+00 ]
      - [ 2.33150768e+00, 5.08739233e-01, 2.88115811e+00 ]
      - [ 5.56543303e+00, 4.03280944e-01, 3.35009217e+00 ]
      - [ 1.75969267e+00, 3.46435636e-01, 3.95185804e+00 ]
      - [ 2.26464176e+00, 3.44811052e-01, 3.99133134e+00 ]
      - [ 2.36982012e+00, 3.50594223e-01, 3.86800671e+00 ]
      - [ 2.23908210e+00, 4.75161105e-01, 3.00378942e+00 ]
      - [ 2.21853447e+00, 3.66873294e-01, 3.74989271e+00 ]
      - [ 2.51129961e+00, 3.42777491e-01, 3.91560268e+00 ]
      - [ 1.99417472e+00, 3.84032071e-01, 3.78270030e+00 ]
      - [ 1.88928723e+00, 3.50926310e-01, 4.02672434e+00 ]
      - [ 2.88417387e+00, 3.92442554e-01, 3.72396302e+00 ]
      - [ 1.76537204e+00, 3.73493642e-01, 3.77122784e+00 ]
      - [ 2.68997812e+00, 3.75257909e-01, 3.62813210e+00 ]
      - [ 1.59389639e+00, 2.10190415e-01, 6.59453678e+00 ]
      - [ 1.81070864e+00, 3.65219742e-01, 3.81696200e+00 ]
      - [ 3.10781002e+00, 4.02274936e-01, 3.93271685e+00 ]
      - [ 1.72873390e+00, 4.04544741e-01, 3.55985236e+00 ]
      - [ 2.27823305e+00, 3.51479471e-01, 3.87757730e+00 ]
      - [ 2.12689185e+00, 5.28106511e-01, 2.81759214e+00 ]
      - [ 2.04139757e+00, 3.60545099e-01, 3.87898445e+00 ]
      - [ 1.91419518e+00, 4.52845484e-01, 3.30811477e+00 ]
      - [ 2.46327186e+00, 4.00718182e-01, 3.38574266e+00 ]
      - [ 2.01696229e+00, 4.30239022e-01, 3.32019305e+00 ]
      - [ 2.31175232e+00, 4.39467072e-01, 3.37946701e+00 ]
      - [ 2.03874254e+00, 5.40208519e-01, 2.78139901e+00 ]
      - [ 4.86995173e+00, 1.63217098e-01, 9.57433224e+00 ]
      - [ 2.40656042e+00, 3.66592169e-01, 3.76975632e+00 ]
      - [ 2.42712903e+00, 7.28558600e-01, 2.18940639e+00 ]
      - [ 1.40769064e+00, 3.85502487e-01, 3.57779813e+00 ]
      - [ 1.61577499e+00, 3.57065946e-01, 3.82444859e+00 ]
      - [ 1.84407592e+00, 3.22955608e-01, 4.30996132e+00 ]
      - [ 1.98454738e+00, 6.53257251e-01, 2.44531131e+00 ]
      - [ 2.59884906e+00, 6.24145985e-01, 2.59241104e+00 ]
      - [ 5.41797972e+00, 8.75019610e-01, 1.83504415e+00 ]
      - [ 2.17467117e+00, 4.90163654e-01, 3.11302447e+00 ]
      - [ 1.63069940e+00, 3.79030645e-01, 3.81286693e+00 ]
      - [ 2.08186007e+00, 3.70813310e-01, 3.75505161e+00 ]
      - [ 1.83621740e+00, 5.02042115e-01, 3.01504850e+00 ]
      - [ 1.94299781e+00, 4.28673506e-01, 3.55293417e+00 ]
      - [ 2.01966333e+00, 4.08410847e-01, 3.55045724e+00 ]
      - [ 1.79928863e+00, 3.12584221e-01, 4.33301449e+00 ]
      - [ 2.32714319e+00, 4.22288060e-01, 3.26950955e+00 ]
      - [ 1.88141072e+00, 3.81119192e-01, 3.79590631e+00 ]
      - [ 2.07046080e+00, 4.48398381e-01, 3.19172883e+00 ]
      - [ 1.68964148e+00, 3.39257002e-01, 4.02703953e+00 ]
      - [ 2.41938782e+00, 4.28560883e-01, 3.27520394e+00 ]
      - [ 2.25648880e+00, 4.58028853e-01, 3.06848907e+00 ]
      - [ 2.10201573e+00, 3.34043741e-01, 4.21178865e+00 ]
      - [ 2.02834439e+00, 6.30116403e-01, 2.52265739e+00 ]
      - [ 1.87806463e+00, 4.49640721e-01, 3.18265271e+00 ]
      - [ 2.04522014e+00, 5.01141489e-01, 3.22296667e+00 ]
      - [ 2.59025002e+00, 4.65802431e-01, 3.08629036e+00 ]
      - [ 2.49443936e+00, 3.77226532e-01, 3.66097236e+00 ]
      - [ 1.60744679e+00, 4.03209746e-01, 3.55085135e+00 ]
      - [ 2.03855419e+00, 3.08235466e-01, 4.55334806e+00 ]
      - [ 1.75317681e+00, 3.64633411e-01, 3.80179000e+00 ]
      - [ 1.73273420e+00, 4.18157458e-01, 3.51080847e+00 ]
      - [ 2.04984903e+00, 3.73045504e-01, 3.79560137e+00 ]
      - [ 1.95186949e+00, 3.69121194e-01, 3.81878614e+00 ]
      - [ 2.05645657e+00, 4.43198144e-01, 3.24012089e+00 ]
      - [ 2.24480128e+00, 3.66755992e-01, 4.07589722e+00 ]
      - [ 1.50495529e+00, 3.75068456e-01, 3.73772073e+00 ]
      - [ 1.58708906e+00, 3.46680075e-01, 3.96289444e+00 ]
      - [ 1.59773052e+00, 4.18025076e-01, 3.41899848e+00 ]
      - [ 1.76705194e+00, 3.32793772e-01, 4.02723742e+00 ]
      - [ 1.64494729e+00, 4.40358281e-01, 3.19779849e+00 ]
      - [ 2.59700131e+00, 3.41858506e-01, 4.08776474e+00 ]
      - [ 1.48354757e+00, 3.99783254e-01, 3.59712291e+00 ]
      - [ 1.67347193e+00, 4.26321357e-01, 3.33514452e+00 ]
      - [ 2.19656634e+00, 4.31358278e-01, 3.30112720e+00 ]
      - [ 2.18146205e+00, 3.72360945e-01, 3.75545478e+00 ]
      - [ 2.22339439e+00, 3.60659331e-01, 3.77131414e+00 ]
      - [ 2.33464360e+00, 4.66837645e-01, 3.12327075e+00 ]
      - [ 2.13646531e+00, 4.57586974e-01, 2.88658142e+00 ]
      - [ 1.57269859e+00, 3.67954075e-01, 3.84886074e+00 ]
      - [ 2.12225413e+00, 4.33783978e-01, 3.43339443e+00 ]
      - [ 6.30057192e+00, 3.03407282e-01, 4.80458355e+00 ]
      - [ 1.90178573e+00, 4.52370852e-01, 3.12464261e+00 ]
      - [ 2.41006160e+00, 6.06859982e-01, 2.59958339e+00 ]
      - [ 1.60839331e+00, 3.92614633e-01, 3.58341312e+00 ]
      - [ 2.46296620e+00, 3.90381068e-01, 3.44525695e+00 ]
      - [ 1.45987022e+00, 2.39006102e-01, 6.18616104e+00 ]
      - [ 1.71688890e+00, 3.79366755e-01, 3.79761553e+00 ]
      - [ 2.64166999e+00, 3.87008667e-01, 3.97137213e+00 ]
      - [ 1.82265997e+00, 3.34665388e-01, 3.99916506e+00 ]
      - [ 1.69895768e+00, 3.31318229e-01, 4.19426250e+00 ]
      - [ 2.04123640e+00, 3.53679925e-01, 3.97953343e+00 ]
      - [ 3.36540723e+00, 4.95654702e-01, 2.88381457e+00 ]
      - [ 2.29878187e+00, 3.80276412e-01, 3.62400794e+00 ]
      - [ 2.18602157e+00, 3.30532521e-01, 4.23848438e+00 ]
      - [ 1.74699926e+00, 4.70622569e-01, 2.87422872e+00 ]
      - [ 2.39661789e+00, 4.08125758e-01, 3.34356523e+00 ]
      - [ 1.36603081e+00, 5.64867258e-01, 2.93891978e+00 ]
      - [ 1.75330746e+00, 4.05421734e-01, 3.54988241e+00 ]
      - [ 1.37066722e+00, 3.58674228e-01, 3.97354770e+00 ]
      - [ 2.83837318e+00, 3.72792006e-01, 4.13185453e+00 ]
      - [ 1.80981195e+00, 3.44686180e-01, 4.10377073e+00 ]
      - [ 2.42642069e+00, 3.68075818e-01, 3.79439878e+00 ]
      - [ 1.66212559e+00, 4.44409519e-01, 3.17069340e+00 ]
      - [ 2.27186847e+00, 4.34293360e-01, 3.27458382e+00 ]
      - [ 1.76496053e+00, 3.30126494e-01, 4.12997198e+00 ]
      - [ 2.01239014e+00, 3.61035317e-01, 3.84553576e+00 ]
      - [ 1.76903427e+00, 3.73802304e-01, 3.74796963e+00 ]
      - [ 1.82975769e+00, 3.69710296e-01, 3.85652781e+00 ]
      - [ 1.53189671e+00, 2.65094161e-01, 5.50299978e+00 ]
      - [ 2.14402962e+00, 4.39232439e-01, 3.35939312e+00 ]
      - [ 1.69397151e+00, 4.45643604e-01, 3.28053117e+00 ]
      - [ 2.09615993e+00, 3.56789708e-01, 3.84675479e+00 ]
      - [ 1.63347936e+00, 3.73304993e-01, 3.75613713e+00 ]
      - [ 1.96428084e+00, 3.11030567e-01, 4.34746075e+00 ]
      - [ 1.68866611e+00, 4.31707740e-01, 3.29456067e+00 ]
      - [ 1.77655554e+00, 3.72609884e-01, 3.78397465e+00 ]
      - [ 1.89236426e+00, 3.46749663e-01, 3.92234826e+00 ]
      - [ 2.39130497e+00, 4.78116632e-01, 3.03478956e+00 ]
      - [ 1.55533230e+00, 4.76003498e-01, 3.01671314e+00 ]
      - [ 1.71666694e+00, 3.05182546e-01, 4.61944294e+00 ]
      - [ 2.61926699e+00, 5.14987171e-01, 3.03489900e+00 ]
      - [ 4.34805584e+00, 7.61144102e-01, 2.10402775e+00 ]
      - [ 1.68716109e+00, 3.18545341e-01, 4.31804943e+00 ]
      - [ 1.52421260e+00, 3.83250117e-01, 3.76306510e+00 ]
      - [ 2.33785820e+00, 6.75664485e-01, 2.40252066e+00 ]
      - [ 2.06945014e+00, 4.35463399e-01, 3.37854934e+00 ]
      - [ 1.62814629e+00, 4.31677878e-01, 3.28422832e+00 ]
      - [ 2.24519062e+00, 3.77790838e-01, 3.64281821e+00 ]
      - [ 2.33669496e+00, 4.10669178e-01, 3.21028638e+00 ]
      - [ 2.07926154e+00, 4.87089157e-01, 3.09222317e+00 ]
      - [ 1.86109066e+00, 3.52564424e-01, 3.91462326e+00 ]
      - [ 2.40313411e+00, 3.86571735e-01, 3.57012010e+00 ]
      - [ 2.18994021e+00, 3.69394630e-01, 3.71669912e+00 ]
      - [ 1.69982028e+00, 3.40500206e-01, 4.03052187e+00 ]
      - [ 2.08875751e+00, 3.62295926e-01, 3.79630470e+00 ]
      - [ 1.54287446e+00, 4.13970739e-01, 3.40462899e+00 ]
      - [ 1.56350386e+00, 5.25267661e-01, 2.89971733e+00 ]
      - [ 1.81034279e+00, 3.97818297e-01, 3.59930491e+00 ]
      - [ 2.57679081e+00, 3.94384354e-01, 3.49560165e+00 ]
      - [ 1.53616989e+00, 3.73069435e-01, 3.72625685e+00 ]
      - [ 2.14713788e+00, 3.98159891e-01, 3.60076380e+00 ]
      - [ 2.04949808e+00, 4.02181864e-01, 3.60537100e+00 ]
      - [ 2.06431341e+00, 4.68480170e-01, 3.09895539e+00 ]
      - [ 1.64850307e+00, 3.39711070e-01, 3.95619869e+00 ]
      - [ 2.06108499e+00, 4.58247185e-01, 3.23918676e+00 ]
      - [ 1.87865508e+00, 3.81087869e-01, 3.72638321e+00 ]
      - [ 2.06119084e+00, 3.70696694e-01, 3.87251472e+00 ]
      - [ 1.68833292e+00, 4.10582542e-01, 3.52852368e+00 ]
      - [ 2.17133951e+00, 4.87222552e-01, 3.10037255e+00 ]
      - [ 1.65236819e+00, 4.24674392e-01, 3.50808787e+00 ]
      - [ 2.28345752e+00, 4.18040723e-01, 3.28826571e+00 ]
      - [ 2.32116079e+00, 4.14546818e-01, 3.26451325e+00 ]
      - [ 1.88100362e+00, 3.08341056e-01, 4.60966873e+00 ]
      - [ 2.60270119e+00, 7.64047503e-01, 2.08092618e+00 ]
      - [ 2.07018971e+00, 3.57585371e-01, 3.89902806e+00 ]
      - [ 2.50061750e+00, 6.38164937e-01, 2.59746122e+00 ]
      - [ 2.15689278e+00, 3.87217104e-01, 3.66112161e+00 ]
      - [ 2.84923029e+00, 3.62606823e-01, 3.83181190e+00 ]
      - [ 2.09911227e+00, 3.66934270e-01, 3.83368134e+00 ]
      - [ 1.94703960e+00, 3.83278549e-01, 3.77001119e+00 ]
      - [ 1.95345175e+00, 4.54699486e-01, 2.99269962e+00 ]
      - [ 1.33313119e+00, 6.68489099e-01, 2.23569345e+00 ]
      - [ 1.98066282e+00, 3.73367101e-01, 3.87998223e+00 ]
      - [ 3.81603527e+00, 7.14655221e-01, 2.20948935e+00 ]
      - [ 2.70181084e+00, 6.83471382e-01, 2.33734727e+00 ]
      - [ 2.29104900e+00, 3.56530517e-01, 3.86321330e+00 ]
      - [ 2.15008974e+00, 4.42163289e-01, 3.28224301e+00 ]
      - [ 2.14567113e+00, 4.32919204e-01, 3.18360853e+00 ]
      - [ 1.86978555e+00, 4.41250503e-01, 3.22669697e+00 ]
      - [ 2.52950692e+00, 4.03967470e-01, 3.57290459e+00 ]
      - [ 1.34785426e+00, 3.76370758e-01, 3.75595832e+00 ]
      - [ 2.36658812e+00, 4.04308021e-01, 3.43299747e+00 ]
      - [ 1.52198768e+00, 3.95367205e-01, 3.54632902e+00 ]
      - [ 2.44653916e+00, 3.73471767e-01, 3.64184976e+00 ]
      - [ 2.15107155e+00, 4.15249825e-01, 3.41476870e+00 ]
